tree
version=v3
num_class=1
num_tree_per_iteration=1
label_index=0
max_feature_idx=65
objective=regression
feature_names=area units floors value_imprv lidar_area lidar_buildings lidar_units yr_built elctm gasm s_lat s_lon pool common beds code_area code_units code_value_imprv code_area_unit code_area_lidar_area code_unit_lidar_area code_area_imprv code_unit_imprv code_unit_elct code_area_elct code_area_unitxunit areax_code_area_unit code_area_imprvximprv code_unit_imprvximprv code_area_lidar_areaxlidar_area code_unit_lidar_areaxlidar_area code_area_elctxelct code_unit_elctxelct county_n tract tract_yr_built tract_area tract_units tract_value_imprv tract_area_unit tract_area_lidar_area tract_unit_lidar_area tract_area_imprv tract_unit_imprv tract_unit_elct tract_area_elct tract_n tract_area_unitxunit areax_tract_area_unit tract_area_imprvximprv tract_unit_imprvximprv tract_area_lidar_areaxlidar_area tract_unit_lidar_areaxlidar_area tract_area_elctxelct tract_unit_elctxelct block_yr_built block_area block_units block_value_imprv block_area_unit block_area_lidar_area block_unit_lidar_area block_area_imprv block_unit_imprv block_unit_elct block_area_elct
feature_infos=[512:3876054] [1:5642] [1:42] [104:630645683] [1403.1276088908601:4146884.4900357099] [1:145] [2.13994962733483:1903.0866467184699] [1793:2020] [1:1101] [0:902] [34.408657563103105:41.258486933410602] [-124.225172925341:-117.64410531873699] [0:6] [0:349] [1:8874] [2348.3040698141999:32493.054054054101] [2.5909930242100896:52.480149812734098] [111543:16426852.8181818] [944.92465893357701:1276.6474362106001] [0.77558989720393912:4.3955870005762199] [0.00077136925448674401:0.0049602721325808898] [0.015684781835194499:1.0331885600291701] [1.6228074673282902e-05:0.0011369657856485501] [0.89818029893410201:28.155336340936998] [0.89818029893410201:28.155336340936998] [2184.7845191288602:25663.3332359536] [0.77810877233688991:121.72870455974599] [1760.1128004655102:18792.8641397356] [0.65761634989454099:271.391275590166] none none [1.2688365808179498:175.892922430402] [1.2688365808179498:175.892922430402] [51:32123] [5102:97154304] [1907.21387283237:2019] [1530.8571428571399:565042.59999999998] [1.1194029850746299:669.66666666666697] [51435.125:167917298.69230801] [453.71428571428595:9724.5208333333303] [0.34649020416975396:8.3418761468910301] [0.000108855126215858:0.0505277163115289] [0.0027583855310834601:75.678827314804494] [2.5727622012815302e-06:0.073140842117062496] [0.15151515151515196:133] [0.15151515151515196:133] [10:591] [695.77376324824604:5215872.6885975301] [0.50927601661034594:4192.7205615672701] [49.6811290612373:2012482328.59565] [0.066575716268272994:1944991.18818135] [989.4886925468719:3961326.9729608502] [0.86054764835223096:11494.489947853401] [0.67655665108405394:19536.447666791501] [0.67655665108405394:19536.447666791501] [1870:2020] [604:2000000] [1:1630] [104:630645683] [125.625:37626.6875] [0.067527888716064299:226.83945712951501] [5.7013267468902005e-05:0.273919690779451] [0.00057464042615346502:756.63972845633896] [4.3801307967703898e-07:0.69469053339548903] [0.12903225806451599:339] [0.12903225806451599:339]
tree_sizes=5424 5631 5613 5672 5650 5673 5696 5658 5684 5687 5689 5700 5690 5727 5718 5727 5749 5693 5695 5719 5713 5704 5750 5713 5779 5775 5677 5751 5733 5703 5735 5763 5794 5752 5723 5770 5774 5783 5825 5824 5770 5783 5734 5812 5782 5749 5822 5749 5789 5777 5777 5767 5811 5822 5813 5775 5782 5857 5830 5816 5737 5733 5815 5797 5805 5828 5827 5807 5777 5785 5800 5802 5770 5765 5805

Tree=0
num_leaves=64
num_cat=0
split_feature=14 5 5 48 14 19 2 2 2 0 5 14 2 2 1 2 5 14 5 2 6 19 1 2 5 5 2 14 48 0 2 14 1 14 11 14 5 20 5 13 33 13 9 13 14 0 1 2 9 19 9 14 19 2 11 58 7 1 1 11 47 33 55
split_gain=5878.81 864.951 676.811 571.162 349.959 186.839 170.905 161.685 148.868 105.901 85.4157 76.6939 64.2638 58.3919 108.556 54.3571 51.5676 43.1015 42.7437 42.5837 42.4547 36.9016 32.9878 28.7157 26.0032 23.2239 21.0462 20.524 17.5467 16.5474 14.9523 14.6932 14.6317 13.6342 13.5412 13.2897 12.2148 12.164 11.5497 10.9461 10.8552 10.2886 10.172 10.1302 9.89838 9.15738 9.06063 9.02025 9.01628 8.44383 8.44076 8.23677 7.84114 7.66935 6.82595 6.81985 6.76514 6.54614 6.44507 6.35983 6.24055 6.22312 6.22014
threshold=75.500000000000014 5.5000000000000009 2.5000000000000004 13.612780998580451 197.50000000000003 0.82881490209394415 2.5000000000000004 2.5000000000000004 3.5000000000000004 26461.000000000004 1.5000000000000002 409.50000000000006 1.5000000000000002 1.5000000000000002 4.5000000000000009 1.5000000000000002 2.5000000000000004 116.50000000000001 4.5000000000000009 2.5000000000000004 15.180644396454651 1.0376150494947303 74.500000000000014 1.5000000000000002 4.5000000000000009 6.5000000000000009 2.5000000000000004 15.500000000000002 59.596978092483205 15687.000000000002 1.5000000000000002 264.50000000000006 6.5000000000000009 35.500000000000007 -121.28743786222249 707.00000000000011 20.500000000000004 0.0012048893955877301 12.500000000000002 2.5000000000000004 6438.5000000000009 1.0000000180025095e-35 8.5000000000000018 2.5000000000000004 142.50000000000003 4772.5000000000009 4.5000000000000009 1.5000000000000002 3.5000000000000004 1.3381571573723654 4.5000000000000009 11.500000000000002 0.82881490209394415 1.5000000000000002 -122.04621099745498 3747743.8000000003 1948.5000000000002 73.500000000000014 2.5000000000000004 -121.38429156607198 4511.2829522676211 31682.000000000004 1950.3541666666654
decision_type=10 8 8 8 10 10 8 8 8 10 10 10 10 8 10 10 10 10 10 10 10 10 8 10 10 10 10 10 8 10 8 10 10 10 2 10 10 10 10 10 2 8 10 10 10 10 8 10 10 8 8 10 10 10 2 8 8 10 8 2 10 2 10
left_child=2 16 10 5 7 18 9 17 11 15 -1 19 28 14 45 29 20 23 30 31 -2 44 25 -3 33 34 35 -15 -11 51 46 53 56 52 -14 -13 47 -10 57 59 -12 -34 -21 -22 -9 58 -4 -19 -39 -8 -18 -5 -17 -6 -54 -36 -16 -25 -7 -23 -20 -42 -53
right_child=1 4 3 6 8 13 49 21 37 12 40 26 22 27 32 24 50 36 60 42 43 39 -24 38 -26 -27 -28 -29 -30 -31 -32 -33 41 -35 55 -37 -38 48 -40 -41 61 -43 -44 -45 -46 -47 -48 -49 -50 -51 -52 62 54 -55 -56 -57 -58 -59 -60 -61 -62 -63 -64
leaf_value=0.95214491579216654 1.1179052608179381 1.1271476111410341 0.98725807895569895 1.0021671299355557 1.1878707078563502 0.95368229286963913 0.96188128606787549 1.0356090564488083 1.0857226365794794 1.093336670949147 0.97931496602558077 1.2097079753819691 1.0219346756759056 0.95692111598941598 1.006296549718138 1.006885765423956 1.0068272220435073 1.1445613905488707 0.99693266464598118 1.062461288408457 0.96438481191560166 0.96521624057031608 1.138778575578125 1.0760854939124407 1.0470073386288383 1.0815080443331671 1.1642515979357921 0.97488375510344683 1.1801176584203592 1.0652470512955603 0.98698635565666748 1.173676908684181 1.0200259861230832 1.0134367907116082 1.0453448868404156 1.2694576697531628 1.168183910849818 0.96757192910220846 1.1300814449009626 1.045888063178636 0.96724936668128225 0.994656017411789 1.118526645719613 1.0177135443062759 1.0973557488466292 0.99874149466026207 1.0194437334657001 1.1096631707069893 1.0488297258713988 0.99235023764595853 1.0453852847030838 1.0941053338068059 0.96541822867583049 1.1417952140313647 0.99133139342967924 1.1059690546708634 0.97995081341074919 1.0470452445808534 0.96659399514291566 1.0171595572151075 1.0486542934942236 0.95611756758143973 1.0315123713567844
leaf_weight=18446 20 126 118 88 40 896 435 58 22 170 669 179 478 4568 136 226 88 83 26 42 411 110 34 528 127 109 87 739 27 212 588 371 415 439 257 47 43 36 36 27 3191 260 141 39 47 61 338 688 22 115 160 20 137 373 394 20 344 91 680 30 227 596 77
leaf_count=18446 20 126 118 88 40 896 435 58 22 170 669 179 478 4568 136 226 88 83 26 42 411 110 34 528 127 109 87 739 27 212 588 371 415 439 257 47 43 36 36 27 3191 260 141 39 47 61 338 688 22 115 160 20 137 373 394 20 344 91 680 30 227 596 77
internal_value=0.978243 1.09408 0.96543 0.983885 1.11616 0.971224 1.01924 1.08806 1.15475 1.0292 0.955147 1.16302 1.05351 0.965581 0.977288 1.01372 0.99481 1.10021 1.00646 1.14909 0.975343 1.0168 1.04216 1.08343 1.00398 1.03836 1.20605 0.959422 1.10523 1.04618 0.997525 1.15923 1.00076 0.999416 1.03213 1.22213 1.11631 1.02241 1.07502 0.98759 0.967572 1.01025 1.10566 0.969007 1.06325 0.960725 1.01111 1.11342 0.998394 0.968252 1.0317 1.02432 0.991285 1.14626 0.984646 1.04972 0.987415 1.07182 0.959253 0.976347 1.04334 0.965497 1.04442
internal_weight=0 3945 35663 12761 3227 9396 3365 1867 1360 2815 22902 1280 1095 8099 2792 1720 718 1595 1297 967 470 272 898 781 1323 864 313 5307 197 397 1044 784 1155 1196 755 226 814 80 655 167 4456 675 183 450 105 1637 456 771 58 550 248 185 757 413 531 277 480 619 1576 140 253 3787 97
internal_count=39608 3945 35663 12761 3227 9396 3365 1867 1360 2815 22902 1280 1095 8099 2792 1720 718 1595 1297 967 470 272 898 781 1323 864 313 5307 197 397 1044 784 1155 1196 755 226 814 80 655 167 4456 675 183 450 105 1637 456 771 58 550 248 185 757 413 531 277 480 619 1576 140 253 3787 97
shrinkage=1


Tree=1
num_leaves=64
num_cat=0
split_feature=14 5 5 48 14 19 2 2 2 0 5 14 5 2 2 1 2 2 5 6 14 19 5 2 5 0 48 14 48 0 1 14 2 14 7 2 9 7 5 5 1 33 5 13 14 13 2 2 14 1 0 19 2 19 5 5 59 11 5 1 1 1 8
split_gain=4761.84 702.636 548.217 462.641 275.982 151.339 138.433 132.009 119.566 85.78 69.1867 63.0206 62.4306 52.0537 47.2975 88.0541 44.0292 37.9224 34.6224 34.3883 33.6019 30.3584 26.7782 22.0255 21.6487 19.0724 16.7299 16.6244 14.5421 13.5599 12.6549 12.5062 12.1113 11.8188 11.2282 11.1723 10.3439 9.52173 9.41802 9.26786 9.08731 10.2371 9.04576 8.86632 8.38726 8.20543 7.8274 7.4848 7.3926 7.33911 7.02502 6.8395 6.73856 6.41281 6.12161 6.02912 5.87039 5.70773 5.65683 5.3672 5.35229 5.33341 5.25699
threshold=75.500000000000014 6.5000000000000009 2.5000000000000004 13.612780998580451 197.50000000000003 0.82881490209394415 2.5000000000000004 2.5000000000000004 3.5000000000000004 26461.000000000004 1.5000000000000002 492.50000000000006 2.5000000000000004 1.5000000000000002 1.5000000000000002 4.5000000000000009 1.5000000000000002 2.5000000000000004 4.5000000000000009 15.180644396454651 116.50000000000001 1.0376150494947303 11.500000000000002 1.5000000000000002 3.5000000000000004 160999.00000000003 75.368371559061217 15.500000000000002 56.431824851611253 16001.000000000002 8.5000000000000018 58.500000000000007 1.5000000000000002 35.500000000000007 2002.5000000000002 2.5000000000000004 8.5000000000000018 1949.5000000000002 20.500000000000004 4.5000000000000009 4.5000000000000009 18209.000000000004 10.500000000000002 2.5000000000000004 142.50000000000003 2.5000000000000004 1.5000000000000002 2.5000000000000004 8.5000000000000018 4.5000000000000009 5424.5000000000009 1.3381571573723654 1.5000000000000002 1.0376150494947303 12.500000000000002 4.5000000000000009 970.93166666666718 -121.05506803854549 81.500000000000014 2.5000000000000004 71.500000000000014 23.500000000000004 13.500000000000002
decision_type=10 8 8 8 10 10 8 8 10 10 10 10 10 10 8 8 10 8 10 10 10 10 10 10 10 10 10 10 8 10 10 8 8 10 10 8 8 8 10 8 10 2 10 10 10 10 10 8 10 8 10 8 10 10 8 10 10 2 8 10 10 10 8
left_child=2 12 10 5 7 18 9 20 11 16 -1 17 19 28 15 50 29 25 32 -2 23 44 26 -3 33 46 31 57 -11 48 37 55 49 -18 -10 58 -19 -17 52 -33 -12 -42 60 -23 -9 -21 -6 -14 -5 -4 59 -8 56 -32 -48 -15 -22 -16 -13 -7 -25 -41 -31
right_child=1 4 3 6 8 14 51 21 34 13 40 35 47 22 27 30 24 36 -20 45 38 43 -24 42 -26 -27 -28 -29 -30 62 53 39 -34 -35 -36 -37 -38 -39 -40 61 41 -43 -44 -45 -46 -47 54 -49 -50 -51 -52 -53 -54 -55 -56 -57 -58 -59 -60 -61 -62 -63 -64
leaf_value=-0.023488523979372102 0.12569578587077559 0.13401390555359069 0.0081133242380821112 0.018698245984239456 0.19360093766450881 -0.022114310344658304 -0.014725789530523892 0.051905270433053374 0.085715204341845083 0.10210100156283462 -0.015940477944746723 0.20590485114800303 0.067509228806901994 0.030863902207276375 -0.021217675283789671 0.030544722951743583 0.008942654534622476 0.077214777972116025 0.058586176406783555 -0.012472617586308733 0.11695055609399624 -0.0017066917621663639 0.14735913835465908 0.089014391939452653 0.04973399120281978 0.18640168281786282 0.14029544761235066 -0.0030235682544834074 0.17485674795779316 0.042554779467172926 0.055532462101567676 0.032211046494629192 0.0078687724536981706 0.030652222806648505 -0.0021196869830059453 0.18187516003238913 0.13169163575233975 0.0060014534851779112 0.17094657698342966 0.025917901271688089 0.00096730445116190189 -0.011097156710256677 0.12577944757609533 0.060880309150174818 0.11309605958522298 0.03552324313383836 0.11458066762425007 0.037485454293154793 0.058178987600340328 0.037080413314717765 0.026478255383278193 0.012696266005868498 0.11946700585487867 0.026775338419459085 0.15536647169486337 0.065817132784674576 0.17129189950227738 -0.013027865790772711 0.25207259343429045 -0.010339398121956337 0.064173363800221525 0.071097480011222611 0.086820973204561031
leaf_weight=18446 20 126 118 78 50 897 435 48 22 164 1501 38 183 278 3437 218 675 43 253 411 33 140 32 458 249 326 22 739 33 32 108 87 588 399 43 49 184 575 43 28 1154 1801 58 27 42 39 40 152 121 338 38 115 665 275 460 60 50 1131 88 681 107 391 166
leaf_count=18446 20 126 118 78 50 897 435 48 22 164 1501 38 183 278 3437 218 675 43 253 411 33 140 32 458 249 326 22 739 33 32 108 87 588 399 43 49 184 575 43 28 1154 1801 58 27 42 39 40 152 121 338 38 115 665 275 460 60 50 1131 88 681 107 391 166
internal_value=0 0.104251 -0.0115322 0.00507754 0.12562 -0.00631711 0.0368945 0.0999903 0.159913 0.0458599 -0.0207871 0.166642 0.0209007 0.0677381 -0.0113959 -0.000860023 0.0319317 0.157797 0.0253968 -0.00261048 0.111063 0.0336433 0.057526 0.0958826 0.0231673 0.167236 0.0542065 -0.0169388 0.114289 0.0611389 0.0199577 0.0519625 0.0173538 0.0170079 0.027609 0.222392 0.121372 0.0127485 0.125436 0.0619114 -0.00960421 -0.00638569 0.0881707 0.00841216 0.080461 -0.00831298 0.155876 0.0538865 0.0427041 0.0295845 -0.0160096 -0.00899209 0.12282 0.0348844 0.152104 0.0370686 0.149686 -0.0191899 0.238149 -0.0170327 0.08431 0.0680783 0.0796668
internal_weight=0 3945 35663 12761 3140 9396 3365 1797 1343 2815 22902 1278 805 1095 8099 2792 1720 1103 1297 470 1540 257 898 749 1323 876 866 5307 197 397 1176 844 1044 1074 65 175 227 793 791 506 4456 2955 623 167 90 450 550 335 199 456 1616 550 748 383 500 338 83 4568 126 1578 565 419 198
internal_count=39608 3945 35663 12761 3140 9396 3365 1797 1343 2815 22902 1278 805 1095 8099 2792 1720 1103 1297 470 1540 257 898 749 1323 876 866 5307 197 397 1176 844 1044 1074 65 175 227 793 791 506 4456 2955 623 167 90 450 550 335 199 456 1616 550 748 383 500 338 83 4568 126 1578 565 419 198
shrinkage=0.1


Tree=2
num_leaves=64
num_cat=0
split_feature=14 5 5 14 41 0 2 2 5 2 14 1 5 2 14 2 1 2 6 5 2 5 6 1 2 5 1 2 5 7 0 5 5 0 2 19 2 48 14 9 9 14 1 33 34 14 23 2 5 5 7 56 14 50 9 7 14 37 1 42 7 13 0
split_gain=3857.17 658.563 401.599 302.066 256.912 225.498 112.463 108.078 86.4409 84.6242 62.7884 55.0602 53.123 51.5054 35.0368 34.1835 26.9019 23.3894 22.3663 26.0761 21.7361 21.5567 21.405 20.219 18.5709 16.9059 16.6895 12.8194 12.5117 12.1233 11.0263 10.2214 9.74335 9.60986 9.53246 9.42962 8.93994 16.9327 8.24673 7.83323 7.72098 7.32651 7.26848 8.13012 7.26163 7.20196 7.09266 6.72991 6.22455 5.90386 5.64306 5.62439 5.56105 5.98761 5.551 5.53465 6.54445 5.46609 5.39982 5.33497 5.27891 6.55184 5.17072
threshold=63.500000000000007 4.5000000000000009 2.5000000000000004 175.50000000000003 0.00058660431380682559 15349.000000000002 2.5000000000000004 3.5000000000000004 4.5000000000000009 1.5000000000000002 328.50000000000006 6.5000000000000009 1.5000000000000002 1.5000000000000002 104.50000000000001 2.5000000000000004 63.500000000000007 1.5000000000000002 18.377451737280552 1.5000000000000002 2.5000000000000004 9.5000000000000018 38.173125239288858 28.500000000000004 2.5000000000000004 13.500000000000002 309.00000000000006 3.5000000000000004 6.5000000000000009 1960.5000000000002 25636.500000000004 15.500000000000002 3.5000000000000004 48242.000000000007 3.5000000000000004 1.0376150494947303 1.5000000000000002 2.8723307841353907 19.500000000000004 8.5000000000000018 4.5000000000000009 132.50000000000003 4.5000000000000009 18209.000000000004 671950.00000000012 247.50000000000003 1.17948507359493 1.5000000000000002 6.5000000000000009 23.500000000000004 1966.5000000000002 50366.916666666657 16.500000000000004 48.541566604493205 15.500000000000002 1953.5000000000002 14.500000000000002 14.303846153846154 300.50000000000006 0.015526120734996053 1970.5000000000002 2.5000000000000004 100395.00000000001
decision_type=10 8 10 10 10 8 8 10 10 8 10 8 10 8 10 8 8 10 10 10 8 10 10 10 8 8 10 8 10 10 8 10 10 10 10 10 8 8 8 8 10 10 10 2 2 10 8 10 10 10 8 10 10 10 8 8 10 10 10 10 10 10 10
left_child=2 18 4 6 5 11 14 10 32 23 15 29 -6 46 17 25 24 51 59 -20 26 27 34 -7 30 -5 -12 48 60 36 50 44 -4 -25 41 -9 37 -1 -15 -17 -21 -8 -14 -44 -16 -42 -13 -27 -10 62 -11 -3 53 57 -22 -48 -57 -32 -56 -2 61 -19 -49
right_child=1 3 8 7 12 9 22 35 21 16 20 13 42 38 31 39 -18 28 19 40 54 -23 -24 33 -26 47 -28 -29 -30 -31 52 -33 -34 -35 -36 -37 -38 -39 -40 -41 45 -43 43 -45 -46 -47 55 49 -50 -51 -52 -53 -54 -55 58 56 -58 -59 -60 -61 -62 -63 -64
leaf_value=-0.012795297766015644 0.11551164537668229 0.10226967920244268 0.012746727640231546 0.098113028405477185 -0.020887000806407475 0.06225323558366877 0.01016178900657707 0.074241507798433304 0.051294057437406053 0.0051111985899900134 0.17347169025568293 0.071858462467789652 -0.014470786606345995 -0.010731155959884889 0.11598149626852668 0.052461812903956434 0.12139750341219563 0.034222299873258352 -0.015830757729994979 0.0066245648093403338 0.10128226171022858 0.10712015478588317 0.067944699258929708 0.099844444137207181 -0.0073892961475956311 0.17461216170340776 0.22217006415445756 -0.011209968530705997 0.095243031612840631 -0.017530393854708132 0.014852967334445567 0.13789640219772564 0.029899672636464081 0.16876856939494611 -0.023371803293477246 0.00071634823140108363 -0.014415845468886629 0.015598768379511383 0.0034537505194451078 0.10162609238783277 0.027597736876390607 0.062797606158453756 0.0008346953618547804 -0.010048065247962744 0.094868474397913558 0.085170614704489722 0.040592971596665479 0.12051074336580679 0.076276886593148435 0.16319472947899177 0.026528369236129064 0.147657628191842 0.033995274568505672 0.095916489774689959 0.13446789410633919 0.01057883708105254 0.033198784217894871 0.073771601434676884 0.17894212277162644 0.042470781691372396 0.069419884039628385 0.074200175983401451 0.14247260810336981
leaf_weight=441 20 113 1063 92 20774 196 119 26 353 190 280 35 1478 846 235 44 28 111 391 189 29 92 82 106 178 64 94 28 157 2466 32 85 481 25 67 53 726 401 795 123 166 34 1117 1781 531 25 185 147 139 98 349 36 257 34 78 293 227 31 42 20 449 65 396
leaf_count=441 20 113 1063 92 20774 196 119 26 353 190 280 35 1478 846 235 44 28 111 391 189 29 92 82 106 178 64 94 28 157 2466 32 85 481 25 67 53 726 401 795 123 166 34 1117 1781 531 25 185 147 139 98 349 36 257 34 78 293 227 31 42 20 449 65 396
internal_value=0 0.0875933 -0.0111177 0.105704 -0.0138503 0.00195409 0.080767 0.138891 0.0306967 0.0379228 0.144946 -0.00604144 -0.0187776 0.00601749 0.0903303 0.12981 0.0246347 0.0769243 0.00608182 0.00229923 0.172844 0.0625008 0.0243375 0.0825821 0.0221049 0.13843 0.185711 0.0546066 0.0700056 -0.013159 0.027984 0.104996 0.0180904 0.112998 0.00808391 0.0249145 -0.00628414 0.000727292 -0.00385913 0.0886726 0.020954 0.0218586 -0.00876396 -0.00585343 0.101346 0.0351335 0.0279196 0.143691 0.0583522 0.140604 0.0189787 0.113236 0.0416954 0.0620967 0.140545 0.0257382 0.0204533 0.0438447 0.150034 0.0789912 0.0636659 0.0489869 0.136527
internal_weight=0 4461 35147 3650 32991 7841 2084 1566 2156 1426 1487 6415 25150 2381 1782 964 1099 931 811 771 523 612 302 327 1071 797 374 520 782 4034 893 851 1544 131 220 79 1568 842 1641 167 380 153 4376 2898 766 191 740 705 492 641 539 149 354 97 149 705 520 63 120 40 625 176 543
internal_count=39608 4461 35147 3650 32991 7841 2084 1566 2156 1426 1487 6415 25150 2381 1782 964 1099 931 811 771 523 612 302 327 1071 797 374 520 782 4034 893 851 1544 131 220 79 1568 842 1641 167 380 153 4376 2898 766 191 740 705 492 641 539 149 354 97 149 705 520 63 120 40 625 176 543
shrinkage=0.1


Tree=3
num_leaves=64
num_cat=0
split_feature=14 5 5 5 48 14 2 2 2 1 2 11 5 5 14 14 1 5 4 2 2 1 14 2 2 33 9 0 5 5 5 50 7 2 23 8 2 13 2 5 47 2 14 6 7 5 5 10 14 14 1 39 2 1 9 7 13 20 9 13 19 0 60
split_gain=3129.13 465.29 363.017 243.653 201.021 183.453 98.5705 82.7762 68.863 47.9662 73.0016 41.8688 40.3125 39.8163 34.8687 32.1041 28.1289 27.2099 23.992 19.3414 18.1211 24.8768 17.3884 16.8321 15.067 13.3884 12.8277 11.8155 11.2755 11.1136 10.7752 10.0647 9.58499 9.00367 8.93022 8.43775 8.38495 8.36123 8.26634 7.94899 7.66814 7.47528 7.32432 6.86247 6.76302 6.68647 6.49647 6.47796 6.4387 6.33477 6.04492 6.03542 5.9069 5.74742 5.71616 5.5286 5.4194 5.27253 5.25542 5.13612 5.06382 5.03364 4.93058
threshold=75.500000000000014 6.5000000000000009 3.5000000000000004 1.5000000000000002 17.352987232864205 223.50000000000003 2.5000000000000004 1.5000000000000002 3.5000000000000004 6.5000000000000009 1.5000000000000002 -121.82728296939649 2.5000000000000004 6.5000000000000009 467.50000000000006 136.50000000000003 24.500000000000004 7.5000000000000009 21177.650765381404 2.5000000000000004 1.5000000000000002 3.5000000000000004 47.500000000000007 1.5000000000000002 2.5000000000000004 3908.0000000000005 2.5000000000000004 74786.500000000015 13.500000000000002 21.500000000000004 12.500000000000002 103.11590399179552 2004.5000000000002 1.5000000000000002 1.17948507359493 7.5000000000000009 2.5000000000000004 1.5000000000000002 2.5000000000000004 13.500000000000002 25797.993423592055 2.5000000000000004 30.500000000000004 6.9750259923633111 1965.5000000000002 39.500000000000007 4.5000000000000009 37.267015877247957 104.50000000000001 132.50000000000003 13.500000000000002 1105.6114094442801 2.5000000000000004 67.500000000000014 4.5000000000000009 1949.5000000000002 1.0000000180025095e-35 0.0013099408655219602 8.5000000000000018 1.0000000180025095e-35 0.92553605192233857 23411.000000000004 2.0264661833800255
decision_type=10 8 10 8 8 10 8 8 10 8 8 2 10 10 10 10 10 10 10 8 8 10 8 10 8 2 8 10 10 8 10 8 10 10 8 8 10 10 8 8 10 8 10 8 8 10 10 2 10 10 10 10 10 10 8 10 8 10 8 10 8 10 10
left_child=2 12 3 62 9 6 15 16 14 20 34 25 18 38 19 23 35 26 -2 39 21 60 -13 -3 37 61 -8 36 -15 -16 48 44 -10 -17 -11 -6 50 42 46 -7 56 -31 47 -22 -18 -41 -4 -12 53 -28 -24 -52 -27 -25 -14 -23 -36 -57 -21 -49 -5 -9 -1
right_child=1 5 13 4 7 8 17 11 32 10 24 22 54 28 29 33 31 -19 -20 58 43 55 27 30 -26 52 49 -29 -30 41 -32 -33 -34 -35 40 -37 -38 -39 -40 45 -42 -43 -44 -45 -46 -47 -48 59 -50 -51 51 -53 -54 -55 -56 57 -58 -59 -60 -61 -62 -63 -64
leaf_value=-0.019196299387845957 0.081377852230798464 0.11052117829885846 0.029445207732295545 -0.019166609716597297 0.0055194172059947798 0.093630333969721924 -0.0089334706468977409 0.0027512611184073122 0.081756545510143053 0.068374182526455371 0.0032013779471593874 0.014707848021873471 0.023988719145714675 0.069352889104842816 0.10452561929821969 0.14276948447028798 0.036230999652158334 0.089611994967825959 -0.0083175322916954082 0.063522136708100641 -0.0059708287333714149 0.013400080288331916 0.0048023090632848958 0.070375572599734537 -0.016997351566642789 0.0037697984376341429 0.013569318661935987 0.10905230048423012 0.12660001277923585 0.19470381350515203 0.11331358496631896 0.14327229792252183 -0.0045857559165192975 0.10548541121531366 0.026388820170895985 0.051476615814058338 -0.0040221721099482641 0.010527790023910778 0.0030115437350775069 0.13839471829011782 0.07346182564007385 0.15136494793675162 0.016307536843750213 -0.016932614164038018 0.090861277092010417 0.17760622197009149 0.047178651553526796 -0.0020424456993140372 0.083459747654776428 0.059407852689037102 0.039924807918217523 0.073645838551844159 -0.01264618270491299 0.042300848626009718 0.052075620328267326 0.0079100344705314019 0.011288408438207082 -0.007884290910536244 0.10937155778706074 -0.012083384248910301 -0.008267096484217527 0.046779671967847325 0.0010565251358284438
leaf_weight=18325 32 167 457 852 55 37 114 38 20 43 648 462 106 246 20 72 27 62 438 30 655 463 43 367 904 558 57 24 40 144 70 32 36 645 599 146 45 432 76 582 28 55 162 4459 141 47 377 830 310 64 460 60 361 91 229 412 394 434 150 1319 853 82 121
leaf_count=18325 32 167 457 852 55 37 114 38 20 43 648 462 106 246 20 72 27 62 438 30 655 463 43 367 904 558 57 24 40 144 70 32 36 645 599 146 45 432 76 582 28 55 162 4459 141 47 377 830 310 64 460 60 361 91 229 412 394 434 150 1319 853 82 121
internal_value=0 0.0845096 -0.00934835 -0.0112278 -0.00220601 0.101898 0.0838877 0.0236362 0.134337 -0.00706137 0.000283086 0.0157997 0.0166822 0.0448131 0.140021 0.093064 0.0653206 0.0306838 -0.00221061 0.130814 -0.0119038 -0.00575328 0.0294533 0.0815311 -0.00552608 0.00142325 0.0151368 0.0402325 0.0773595 0.175584 0.0757538 0.091872 0.0262508 0.109229 0.0237327 0.0389013 0.0375159 -0.00246797 0.0345843 0.138675 0.0218526 0.182726 -0.00436529 -0.0155286 0.0820814 0.141325 0.0374614 -0.00556265 0.0723304 0.0378145 0.040836 0.0438157 -0.0026787 0.0647974 0.0431884 0.00461527 0.0203973 -0.000192492 0.10173 -0.00820531 -0.0137137 0.0328373 -0.0190634
internal_weight=0 3945 35663 34467 16021 3140 2019 2534 1121 13487 5359 2133 805 1196 1065 1722 401 297 470 846 8128 3014 1094 1005 4295 1039 235 632 286 219 838 200 56 717 1064 201 608 3391 910 666 1021 199 2959 5114 168 629 834 2797 768 121 563 520 919 458 335 1309 993 846 180 2149 1705 120 18446
internal_count=39608 3945 35663 34467 16021 3140 2019 2534 1121 13487 5359 2133 805 1196 1065 1722 401 297 470 846 8128 3014 1094 1005 4295 1039 235 632 286 219 838 200 56 717 1064 201 608 3391 910 666 1021 199 2959 5114 168 629 834 2797 768 121 563 520 919 458 335 1309 993 846 180 2149 1705 120 18446
shrinkage=0.1


Tree=4
num_leaves=64
num_cat=0
split_feature=14 5 5 41 0 14 2 5 2 2 1 1 2 5 5 2 6 13 2 5 0 57 2 2 5 5 5 2 14 14 13 7 0 0 9 7 48 14 14 23 9 49 2 7 19 14 33 55 34 1 2 7 14 33 60 9 33 14 34 13 11 53 2
split_gain=2534.6 376.885 297.779 205.372 193.535 149.251 69.4567 67.2024 64.4146 55.6059 41.287 38.1576 44.2227 34.0872 33.3741 22.2932 20.9322 18.4632 16.2986 15.4009 14.6141 13.1805 13.1706 13.078 12.4419 12.1857 11.5296 11.4195 12.4108 10.4708 8.98961 8.71884 8.11369 7.95513 7.84066 7.26826 7.25772 7.25235 6.93581 6.79356 6.47453 6.29529 6.26564 5.80778 5.77717 5.57551 5.54692 5.54047 5.50986 4.96695 4.81524 4.76294 4.38826 4.28103 4.45908 4.26998 4.26423 4.20667 4.10316 3.92915 3.88258 3.83764 3.8041
threshold=75.500000000000014 6.5000000000000009 2.5000000000000004 0.00058660431380682559 15349.000000000002 175.50000000000003 3.5000000000000004 5.5000000000000009 2.5000000000000004 1.5000000000000002 237.00000000000003 5.5000000000000009 1.5000000000000002 1.5000000000000002 3.5000000000000004 2.5000000000000004 18.377451737280552 4.5000000000000009 2.5000000000000004 14.500000000000002 26461.000000000004 24.047619047619055 3.5000000000000004 3.5000000000000004 3.5000000000000004 12.500000000000002 13.500000000000002 1.5000000000000002 104.50000000000001 707.00000000000011 5.5000000000000009 1953.5000000000002 124355.00000000001 60898.500000000007 5.5000000000000009 2002.5000000000002 8.0307111679220409 19.500000000000004 247.50000000000003 1.17948507359493 48.500000000000007 59764.26466125431 2.5000000000000004 2007.5000000000002 1.2454789381326952 361.00000000000006 6438.5000000000009 1982.1885964912301 10150101.500000002 71.500000000000014 2.5000000000000004 1960.5000000000002 252.50000000000003 6438.5000000000009 1.6300249983878652 91.500000000000014 6438.5000000000009 61.500000000000007 1450742.5000000002 22.500000000000004 -121.88396191255498 14.09048033469025 3.5000000000000004
decision_type=10 8 10 10 8 10 10 10 8 8 10 8 8 10 10 8 10 10 8 10 8 10 10 8 10 10 8 10 10 10 10 8 10 10 10 10 8 10 10 8 10 8 8 10 8 10 2 8 2 10 8 10 10 2 8 8 2 8 2 8 2 8 8
left_child=2 14 3 4 11 8 10 24 19 21 15 39 31 53 16 26 -2 18 20 27 47 61 30 25 56 -9 -7 40 49 42 44 -13 55 48 -18 -8 -33 -14 62 -1 -3 -23 45 -17 -10 -12 -15 -11 57 -29 60 -41 -45 54 -5 -28 -4 -22 -48 -34 -26 -6 -36
right_child=1 5 7 13 9 6 35 23 22 17 29 12 37 46 -16 43 34 -19 -20 -21 33 41 -24 -25 50 -27 32 28 -30 -31 -32 36 59 -35 38 -37 -38 -39 -40 51 -42 -43 -44 52 -46 -47 58 -49 -50 -51 -52 -53 -54 -55 -56 -57 -58 -59 -60 -61 -62 -63 -64
leaf_value=0.016342143593356014 0.082677816804498441 0.082273757549978441 0.022437787230858822 -0.013497807927670018 0.018306923309961958 0.080304691363126041 0.064584827001975931 0.059415192321821769 0.012531352335587144 0.011048243481371536 0.11107102277977715 0.03518894082964643 -0.0079256018619412918 0.0012562638028149721 0.045528589090099561 0.089223023314408206 -0.01150537909137913 0.088193775856390946 -0.0037325674878819939 0.11258936074893339 0.030346986597647802 0.079076611270415265 -0.020310748175814235 -0.017367522120475772 0.025405857231499268 0.11396582606046096 0.09916929008066655 0.063531540501057041 0.08066438663225603 0.18668508660048247 0.093070128754429202 0.0057725572382218635 0.12666051106759207 0.088371283548974222 0.018222434999421239 -0.0035579083145272973 0.026164798897034564 0.0065421291831321594 0.069961188808083538 -0.0081128328217470909 0.12045057338553589 0.12718754925898143 0.11669080316612167 0.01383237497881055 0.056363353341124779 0.15884443630133907 -0.0043601436505031448 0.036799112214323353 0.015280116396024824 0.035289820223241244 0.0021723140821312413 -0.016137671340742187 0.076676895231008541 -0.017352675712768086 0.0066679084199970061 0.12030767509968228 0.0078129284031916973 0.052122103105834199 -0.01123341386235735 0.16597683827082318 0.041596955547845649 0.056985443347728273 -0.01627096269041934
leaf_weight=80 30 105 262 1550 30 80 23 373 100 462 29 285 1734 653 248 167 360 43 212 121 168 122 58 20 476 46 200 393 617 64 23 408 434 31 100 49 305 433 20 1175 77 35 73 20 43 155 1366 102 100 74 66 1996 25 19213 118 183 834 188 2385 27 215 177 47
leaf_count=80 30 105 262 1550 30 80 23 373 100 462 29 285 1734 653 248 167 360 43 212 121 168 122 58 20 476 46 200 393 617 64 23 408 434 31 100 49 305 433 20 1175 77 35 73 20 43 155 1366 102 100 74 66 1996 25 19213 118 183 834 188 2385 27 215 177 47
internal_value=0 0.0760586 -0.00841352 -0.0108083 0.00306409 0.0917086 0.114087 0.0264535 0.0704689 0.0333881 0.118825 -0.00482886 0.00298707 -0.0152446 0.0150139 0.109877 0.00142752 0.0237547 0.0215608 0.0785047 0.0266628 0.067952 0.0207114 0.0616331 0.018119 0.065404 0.116587 0.075247 0.0713554 0.150493 0.0350444 0.0204051 0.120026 0.0393527 -0.00319773 0.0182099 0.0144957 -0.00503473 0.014711 -0.012438 0.0984255 0.089802 0.14148 0.0806312 0.0257116 0.151315 -0.00724962 0.0157053 0.0360203 0.0590564 0.0279787 -0.0131641 0.048746 -0.0169308 -0.0120712 0.109269 0.011309 0.0418462 -0.00873038 0.128963 0.0304436 0.0513799 0.00719393
internal_weight=0 3945 35663 33371 8086 3140 1529 2292 1611 1670 1457 6416 3165 25285 805 1136 557 1306 1263 1387 1051 364 224 439 1853 419 924 1266 1084 321 166 998 844 487 527 72 713 2167 167 3251 182 157 257 212 143 184 4404 564 456 467 757 3171 45 20881 1668 383 1096 356 3751 461 691 207 147
internal_count=39608 3945 35663 33371 8086 3140 1529 2292 1611 1670 1457 6416 3165 25285 805 1136 557 1306 1263 1387 1051 364 224 439 1853 419 924 1266 1084 321 166 998 844 487 527 72 713 2167 167 3251 182 157 257 212 143 184 4404 564 456 467 757 3171 45 20881 1668 383 1096 356 3751 461 691 207 147
shrinkage=0.1


Tree=5
num_leaves=64
num_cat=0
split_feature=14 5 5 14 41 48 2 2 5 14 2 1 2 5 2 5 1 61 5 14 5 49 2 14 2 13 5 2 8 2 7 2 11 8 14 52 3 11 13 9 5 35 57 20 2 48 1 6 13 5 2 20 35 7 1 55 9 5 14 6 47 3 14
split_gain=2054.81 353.305 218.563 162.067 140.098 121.103 71.0815 54.5557 45.2151 41.3319 40.4236 34.9206 32.4334 27.25 19.1435 15.869 14.4216 14.214 12.7167 12.4859 12.3542 11.7858 11.7221 10.606 9.55359 8.85014 8.72073 8.504 8.35741 7.84257 7.27383 7.26512 7.19048 6.65719 6.58932 6.48711 6.11631 6.07427 5.73313 5.4237 5.39486 5.36659 5.27304 5.16813 5.04159 8.62638 5.03768 5.54875 5.08105 4.74232 4.73038 4.72157 4.69499 4.52386 4.45544 4.59524 4.43764 4.84409 4.32533 4.32447 4.26005 4.21611 4.21101
threshold=63.500000000000007 4.5000000000000009 2.5000000000000004 156.50000000000003 0.00062520605500311058 17.352987232864205 3.5000000000000004 2.5000000000000004 4.5000000000000009 326.50000000000006 1.5000000000000002 6.5000000000000009 1.5000000000000002 1.5000000000000002 2.5000000000000004 12.500000000000002 63.500000000000007 0.004622380254049911 1.5000000000000002 707.00000000000011 9.5000000000000018 51039.812026750704 1.5000000000000002 98.500000000000014 2.5000000000000004 3.5000000000000004 12.500000000000002 2.5000000000000004 405.50000000000006 3.5000000000000004 1957.5000000000002 1.5000000000000002 -121.88396191255498 34.500000000000007 14.500000000000002 25.950442500967352 9582576.5000000019 -121.9401783967415 15.500000000000002 48.500000000000007 7.5000000000000009 1981.6100000000001 12.348484848484853 0.0013522102597974901 1.5000000000000002 3.4788624173849905 4.5000000000000009 7.6314088156334217 1.5000000000000002 6.5000000000000009 3.5000000000000004 0.0012048893955877301 1950.8413978494602 1951.5000000000002 77.500000000000014 1971.3484848484852 15.500000000000002 19.500000000000004 33.500000000000007 6.7478028270380808 185800.38404103954 2545867.0000000005 9.5000000000000018
decision_type=10 8 10 10 10 10 10 10 10 10 8 8 8 10 10 10 8 10 10 10 10 8 8 10 8 10 8 8 8 8 10 8 2 10 10 8 8 2 10 10 10 10 10 8 8 10 10 10 10 10 10 8 8 8 10 10 10 10 10 10 8 8 8
left_child=2 17 4 7 5 11 9 15 32 14 21 30 34 -6 26 22 27 18 35 24 29 42 39 49 60 50 -5 33 -8 -10 37 -28 -4 41 53 -2 43 -1 56 -3 -16 -12 -7 52 45 -39 59 -48 -49 54 -9 -36 -14 -13 55 -24 -33 -58 -35 -15 -11 -23 -32
right_child=1 3 8 6 13 10 28 25 20 19 16 12 36 46 40 -17 -18 -19 -20 -21 -22 61 23 -25 -26 -27 31 -29 -30 -31 62 38 -34 58 51 -37 -38 44 -40 -41 -42 -43 -44 -45 -46 -47 47 48 -50 -51 -52 -53 -54 -55 -56 -57 57 -59 -60 -61 -62 -63 -64
leaf_value=-0.01105383455465625 0.038040909830194258 0.070170861813681623 0.0093277074782768411 0.071932298984717244 -0.01531027233223229 0.030159937608386242 -0.0025545235697386997 0.013872412127736761 0.042688276685728901 0.10554177540086083 0.016471011143202256 0.028730846285664788 -0.0095401040445535629 -0.0061802630875414863 0.047548311856566092 0.095652057637842444 0.10077079558237033 0.081720231570627383 0.015131318337193271 0.16801657816395166 0.07951316056854052 0.075959040153594254 0.034253534648854 0.066219656799346549 0.098359764061534585 0.058420446908308402 0.1315722913344701 -0.0045299127809983455 0.070517048239707947 -0.011720558016427927 -0.015375511928517247 0.085724337801100725 0.024476849955018587 0.068377650983424659 0.060234765713620519 -0.013581409273152266 0.047034488856792456 -0.0023338304515238164 0.12742457197262691 0.10348055429364507 0.08268768560963792 0.057877600509108923 0.064452603232851374 -0.0063307248837593871 -0.0072779846423101134 0.025834813747033072 0.0029959372625609111 -0.0090446206409331067 0.0042323614548945773 0.067431653580927065 -0.020126426033675673 0.027739160450605246 0.010870698033895097 0.0080345797682692243 0.0068793231497208274 0.053520236995104144 0.097902006352424326 0.12644949387226787 0.030335879155821852 -0.017034874070080721 0.13513628236330805 0.1357017669412825 -0.0069410169927380076
leaf_weight=628 26 137 1107 110 20702 62 72 152 492 59 608 156 156 768 101 139 22 23 380 64 92 21 195 614 134 36 75 133 20 28 1804 252 437 45 54 382 25 270 65 76 77 33 162 1257 328 182 785 1752 345 106 56 260 406 327 30 339 394 70 89 703 277 27 881
leaf_count=628 26 137 1107 110 20702 62 72 152 492 59 608 156 156 768 101 139 22 23 380 64 92 21 195 614 134 36 75 133 20 28 1804 252 437 45 54 382 25 270 65 76 77 33 162 1257 328 182 785 1752 345 106 56 260 406 327 30 339 394 70 89 703 277 27 881
internal_value=0 0.0639327 -0.00811459 0.0771981 -0.0101305 0.00144833 0.0989148 0.0567521 0.0227328 0.103607 0.0306872 -0.00377073 0.00519408 -0.013798 0.0928844 0.0633309 0.0207696 0.00422988 0.0019681 0.126579 0.0457348 0.0645968 0.0603298 0.0567257 0.120936 0.0126421 0.0984373 0.0188312 0.0133306 0.0397586 -0.00955525 0.101843 0.0136154 0.0228403 0.0220504 -0.0102918 -0.00209144 -0.0037338 0.0989885 0.082056 0.0627491 0.0186027 0.0549609 -0.00276662 0.00215977 0.00900841 -0.00660606 -0.00417564 -0.00686028 0.0480253 0.00471888 0.0333276 0.00520507 0.0147191 0.044378 0.0464846 0.096407 0.102209 0.0431111 -0.0113677 0.12994 0.109564 -0.012608
internal_weight=0 4461 35147 3650 32991 7936 1770 1880 2156 1678 1202 6734 2641 25055 1144 1636 930 811 788 534 612 272 1497 1284 470 244 966 908 92 520 4093 856 1544 775 797 408 1844 1408 781 213 178 641 224 1819 780 452 4353 2882 2097 670 208 314 562 483 564 534 716 464 134 1471 336 48 2685
internal_count=39608 4461 35147 3650 32991 7936 1770 1880 2156 1678 1202 6734 2641 25055 1144 1636 930 811 788 534 612 272 1497 1284 470 244 966 908 92 520 4093 856 1544 775 797 408 1844 1408 781 213 178 641 224 1819 780 452 4353 2882 2097 670 208 314 562 483 564 534 716 464 134 1471 336 48 2685
shrinkage=0.1


Tree=6
num_leaves=64
num_cat=0
split_feature=14 5 5 48 14 2 2 20 7 0 2 5 5 1 33 14 5 5 4 2 0 2 14 14 2 2 9 1 5 13 7 5 37 47 14 47 7 53 20 13 5 55 33 2 5 2 1 5 20 36 11 14 0 55 14 13 2 9 5 61 4 6 13
split_gain=1666.39 241.489 202.281 178.474 96.7756 58.4933 53.0535 51.4529 39.7105 38.2295 24.25 23.5692 21.7725 19.3219 17.3288 17.017 14.9668 14.9627 14.8194 14.6426 31.0663 14.0564 13.0577 12.6759 11.1118 10.2213 8.27643 8.22647 7.57984 7.02732 6.94589 6.8964 6.88426 6.53974 6.3746 6.33265 6.08996 6.15554 5.87852 5.47834 5.02685 4.9526 4.92172 4.77656 4.70221 4.70011 4.62872 4.61154 4.50437 4.40159 4.37754 4.31259 4.31173 4.30158 4.69499 4.01497 4.20758 4.0357 4.00493 3.90386 4.69205 3.89858 4.62369
threshold=77.500000000000014 6.5000000000000009 2.5000000000000004 12.88943540879635 223.50000000000003 2.5000000000000004 2.5000000000000004 0.00083425577869397259 2005.5000000000002 33563.000000000007 1.5000000000000002 1.5000000000000002 3.5000000000000004 100.50000000000001 18209.000000000004 148.50000000000003 7.5000000000000009 15.500000000000002 23222.092503217154 1.5000000000000002 3535.5000000000005 1.5000000000000002 467.50000000000006 39.500000000000007 1.5000000000000002 1.5000000000000002 2.5000000000000004 4.5000000000000009 7.5000000000000009 7.5000000000000009 1951.5000000000002 11.500000000000002 6.5112096369416115 4951.6399080936708 15.500000000000002 18901.152578677604 1979.5000000000002 41.767690559938352 0.00092215265813107956 4.5000000000000009 4.5000000000000009 1979.0312500000002 31682.000000000004 1.5000000000000002 6.5000000000000009 2.5000000000000004 4.5000000000000009 10.500000000000002 0.0013522102597974901 3531.6749492900603 -122.06621008805298 343.00000000000006 70920.000000000015 1995.0555555555554 70.500000000000014 26.500000000000004 1.5000000000000002 14.500000000000002 3.5000000000000004 0.0021452646823494057 2419.8646428286752 7.6314088156334217 1.5000000000000002
decision_type=10 8 8 8 10 8 10 10 10 10 10 10 10 8 2 10 10 8 10 8 10 8 10 10 10 8 8 10 10 10 10 10 10 10 10 8 8 8 10 10 10 10 2 8 10 10 10 10 8 10 2 10 10 8 8 8 8 10 8 10 10 10 10
left_child=2 12 11 7 6 9 15 21 17 10 28 59 18 24 -10 25 26 -6 -2 20 -9 27 55 38 -11 52 -8 -4 32 47 -22 58 -5 -23 -21 49 37 -34 -12 51 -35 -25 46 48 -29 -24 -13 -27 -17 -32 -40 -20 -3 -7 -55 56 -19 -58 -26 -1 -61 -48 -63
right_child=1 4 3 5 8 53 16 19 14 13 23 42 -14 -15 -16 43 -18 22 39 34 30 33 45 41 31 29 -28 44 -30 -31 35 -33 36 40 -36 -37 -38 -39 50 -41 -42 -43 -44 -45 -46 -47 61 -49 -50 -51 -52 -53 -54 54 -56 -57 57 -59 -60 60 -62 62 -64
leaf_value=-0.014098674388872549 0.062346072420729585 0.076020182753584797 0.0049877464806086548 0.020471534163516481 0.073405712985643939 -0.0098964545632211076 -0.010787332001377211 -0.010780566471508934 0.071040593557455373 0.074879892957820146 0.019503706162224542 -0.0093898210285997107 0.037575513435816048 0.14579212039709091 -0.0055473111465107654 0.13685333872663563 0.067467797046357941 0.13255672259699733 -0.0085076782923063331 -0.012096585256597261 0.023721608514976816 -0.011431574428019151 0.14229409184949152 0.022690064936253182 0.0092114501561888548 0.051035890027208597 0.028018929644496038 0.025589013149075936 0.085674542364265249 0.082485339594514762 0.019017728041261298 0.090152356830927038 0.018871884646994824 0.0050423832198284524 -0.001436279778895171 0.057901773408419732 0.062499208346841056 0.054029059678490102 -0.0093285533885686753 0.042378726337105044 0.032705938632289565 0.043329521924966863 -0.014304368300425927 0.078765705947693943 0.062454847548459029 0.10920853170367782 0.0042046445878405198 0.073822838031124369 0.082833043395569836 0.00048903909350907345 0.0088696025685454528 0.026204464095047654 0.11782257437705995 -0.0025574643842198631 0.052426960257192456 0.14456022900083793 0.08645587337204752 0.10505749578587711 0.04017365895743881 0.035116625623777507 -0.0067446579475228382 -0.0067843217836622135 0.0064708114346875905
leaf_weight=18263 37 139 214 160 124 520 107 1499 113 110 416 1304 239 20 40 29 55 42 435 4349 323 227 145 556 46 736 113 533 35 95 165 26 110 529 644 23 131 91 172 25 75 147 596 530 37 61 714 101 33 575 571 39 30 44 24 23 163 410 455 32 164 1526 318
leaf_count=18263 37 139 214 160 124 520 107 1499 113 110 416 1304 239 20 40 29 55 42 435 4349 323 227 145 556 46 736 113 533 35 95 165 26 110 529 644 23 131 91 172 25 75 147 596 530 37 61 714 101 33 575 571 39 30 44 24 23 163 410 455 32 164 1526 318
internal_value=0 0.0623849 -0.00674394 0.0033113 0.0749069 0.0220725 0.0615482 -0.00410504 0.0983591 0.0276468 0.0217717 -0.012372 0.0124748 0.0490096 0.0510176 0.0681655 0.0208095 0.105842 0.00128248 -0.00755874 -0.00144957 0.0121007 0.110607 0.0164118 0.0459709 0.0608139 0.00914498 0.0217055 0.0407097 0.056711 0.01143 0.0399368 0.037511 0.00303899 -0.0107216 0.00622656 0.0457227 0.0347888 0.00998583 -0.00324529 0.00847743 0.0270059 -0.00584629 0.0818379 0.0279821 0.132497 -0.00454101 0.0537856 0.108101 0.00462044 0.00465684 -0.00565162 0.0834407 -0.00680347 0.0168488 0.103539 0.102005 0.0997659 0.0373308 -0.013948 8.98373e-05 -0.00206921 -0.00449846
internal_weight=0 3864 35744 12827 3089 3634 1968 9193 1121 3046 2389 22917 775 657 153 1693 275 968 536 7578 2585 1615 844 1862 637 1101 220 784 527 932 1086 527 492 831 4993 763 332 201 1159 499 604 703 4458 592 570 206 3862 837 62 740 743 474 169 588 68 638 615 573 501 18459 196 2558 1844
internal_count=39608 3864 35744 12827 3089 3634 1968 9193 1121 3046 2389 22917 775 657 153 1693 275 968 536 7578 2585 1615 844 1862 637 1101 220 784 527 932 1086 527 492 831 4993 763 332 201 1159 499 604 703 4458 592 570 206 3862 837 62 740 743 474 169 588 68 638 615 573 501 18459 196 2558 1844
shrinkage=0.1


Tree=7
num_leaves=64
num_cat=0
split_feature=14 5 5 5 48 14 2 11 2 1 2 5 10 14 14 2 56 60 2 5 7 2 4 2 0 2 5 13 1 13 14 5 13 5 39 55 5 3 7 47 2 7 11 14 35 2 20 2 9 9 4 14 9 13 2 55 33 2 1 6 61 2 60
split_gain=1350.22 197.063 166.707 108.211 95.7364 79.1455 42.3493 36.5534 32.6911 25.2569 46.0389 19.209 17.7935 16.6142 16.0667 12.879 12.5263 11.744 10.7196 10.6743 10.3055 9.78786 9.13 8.87748 8.38415 8.27326 8.16737 7.65291 7.34619 6.7101 6.68733 6.5145 6.35917 6.09778 5.99505 5.46273 5.28613 5.19563 5.16978 4.98116 4.93576 4.83403 4.7063 4.31358 4.25811 4.24342 4.28526 4.21646 4.06708 4.04229 4.02179 4.15108 3.92625 3.88672 4.52344 3.7836 3.76349 3.69932 5.46325 3.55837 3.48696 3.82267 5.94907
threshold=78.500000000000014 4.5000000000000009 3.5000000000000004 1.5000000000000002 18.285890553438655 223.50000000000003 2.5000000000000004 -121.25928412934148 3.5000000000000004 4.5000000000000009 1.5000000000000002 6.5000000000000009 38.255733021156253 500.50000000000006 148.50000000000003 3.5000000000000004 47642.166666666657 2.0264661833800255 2.5000000000000004 12.500000000000002 2005.5000000000002 1.5000000000000002 31535.240076652652 1.5000000000000002 10970.500000000002 1.5000000000000002 1.5000000000000002 3.5000000000000004 69.500000000000014 1.0000000180025095e-35 14.500000000000002 81.500000000000014 5.5000000000000009 9.5000000000000018 1100.198638333595 1974.4791666666654 13.500000000000002 803301.00000000012 1970.5000000000002 10317.709873083302 2.5000000000000004 2002.5000000000002 -121.9401783967415 59.500000000000007 1969.2309523809502 1.5000000000000002 0.0013522102597974901 2.5000000000000004 14.500000000000002 4.5000000000000009 35101.456739910609 50.500000000000007 30.500000000000004 18.500000000000004 1.5000000000000002 1975.5192307692303 4528.5000000000009 1.5000000000000002 2.5000000000000004 8.0559907636864931 0.0021452646823494057 1.5000000000000002 1.5512098772207252
decision_type=10 8 10 8 8 10 10 2 8 8 8 10 2 10 10 10 10 10 8 8 10 8 10 8 10 8 10 10 10 8 10 8 10 10 10 10 10 8 10 10 8 10 2 8 10 10 10 8 8 8 10 8 10 8 10 8 2 8 10 8 10 10 10
left_child=2 17 3 60 9 6 14 12 13 57 29 47 27 19 23 32 25 26 24 -7 53 -14 -19 -3 59 37 -2 40 44 30 -11 -15 49 -25 38 -33 50 -9 52 -31 55 -10 56 -23 -18 46 -16 -4 -22 -8 -13 -52 -27 54 -21 -6 -26 58 -5 -12 -1 62 -62
right_child=1 5 11 4 7 8 15 16 41 10 18 36 21 31 45 -17 28 22 -20 20 48 43 -24 33 42 34 -28 -29 -30 39 -32 35 -34 -35 -36 -37 -38 -39 -40 -41 -42 -43 -44 -45 -46 -47 -48 -49 -50 -51 51 -53 -54 -55 -56 -57 -58 -59 -60 -61 61 -63 -64
leaf_value=-0.012685884476657583 -0.012818825870698734 0.075286013504671984 0.025202911730617075 -0.011913729505173011 0.000649495648899027 0.051478440342824672 0.0059476088062694228 0.026010726539695092 0.059524109866470103 0.013490016546172948 0.0017374310697354193 0.058009344793960353 0.054765048627684144 0.096765901080586691 0.1170646988919803 -0.015373832089703924 0.03118648458181358 0.085304797916062949 -0.012788309558199443 0.12365658327755405 0.019288871362805368 0.0084954283380489579 0.013352270318816107 0.046602586370658866 0.017147781777843509 8.719512261450291e-05 0.011961802804166926 0.037068529456370958 0.12124509155750274 -0.001728115809870191 0.032569355020713474 0.18259695711589996 0.067817764546404161 0.067303422810293209 0.049700428234147179 0.12513696236106067 0.084759635322315757 0.057171370637127399 0.026989056060722633 0.01774993611730034 -0.010845128858024307 0.0047453158886685059 0.010589598440082906 0.028162832174870912 0.078317900084786951 0.070814674603538394 0.065407371893525121 0.00090086893297922912 0.069835515726262176 0.036034845689149657 -0.0031919996738433844 0.042983158881014047 0.042596254549920561 0.11500663402714306 0.089335711028660489 0.022962795571551065 -0.004617769449478803 -0.012575165030090816 -0.0020552729223923321 -0.0065537931580137189 -0.011019006300540198 -0.0066708744733364553 0.063392118161374883
leaf_weight=18266 278 164 843 1163 557 79 73 87 24 1001 611 143 81 66 42 76 41 29 1437 41 20 257 45 824 92 166 255 54 20 430 225 21 41 172 70 78 43 139 280 189 366 49 589 197 36 543 26 78 78 115 25 88 25 79 606 88 582 2843 1088 3387 21 154 22
leaf_count=18266 278 164 843 1163 557 79 73 87 24 1001 611 143 81 66 42 76 41 29 1437 41 20 257 45 824 92 166 255 54 20 430 225 21 41 172 70 78 43 139 280 189 366 49 589 197 36 543 26 78 78 115 25 88 25 79 606 88 582 2843 1088 3387 21 154 22
internal_value=0 0.0564802 -0.00603567 -0.007318 -0.00132631 0.066341 0.0547127 0.0168143 0.0874982 -0.00460404 -0.00128085 0.0302943 0.00786391 0.0919236 0.0606399 0.0202961 0.033389 0.00421963 -0.00513371 0.0865921 0.0899585 0.0227428 0.0415499 0.0537273 -0.00304292 0.029107 -0.000963178 0.000389557 0.0672473 0.0127064 0.0169915 0.121102 0.0321341 0.0501774 0.0223944 0.137325 0.0523168 0.0451759 0.0183361 0.00421914 -0.00156956 0.0227548 0.00405964 0.0170295 0.053222 0.0737638 0.0973134 0.0231448 0.0595199 0.024352 0.0468674 0.0327674 0.00565121 0.0940673 0.0915106 0.00369379 -0.0016468 -0.0101773 -0.00714874 -0.00528668 -0.0125432 0.000689913 0.0270518
internal_weight=0 3824 35784 34564 16101 3217 2076 2464 1141 13637 8543 1220 1600 1068 1771 305 864 607 6698 903 824 535 74 1160 5261 767 533 1065 97 1845 1226 165 229 996 541 99 299 226 471 619 1011 73 1263 454 77 611 68 921 98 188 256 113 191 726 647 645 674 5094 2251 3998 18463 197 43
internal_count=39608 3824 35784 34564 16101 3217 2076 2464 1141 13637 8543 1220 1600 1068 1771 305 864 607 6698 903 824 535 74 1160 5261 767 533 1065 97 1845 1226 165 229 996 541 99 299 226 471 619 1011 73 1263 454 77 611 68 921 98 188 256 113 191 726 647 645 674 5094 2251 3998 18463 197 43
shrinkage=0.1


Tree=8
num_leaves=64
num_cat=0
split_feature=14 5 5 14 41 0 2 2 2 5 14 1 2 5 2 0 2 5 50 14 59 14 2 4 9 2 7 14 63 34 2 5 7 5 37 9 14 19 47 7 23 9 2 2 13 48 33 55 44 33 2 10 7 2 34 2 48 4 8 7 14 0 43
split_gain=1095.17 189.098 120.418 85.0544 76.7377 67.0398 34.6756 32.9767 27.5621 25.7843 20.7792 18.3748 19.9278 14.5536 12.7106 12.6133 10.9978 10.2511 10.0748 8.95831 8.05944 7.80738 7.23599 6.76159 6.63856 6.6333 6.21499 6.19251 6.15929 5.78365 5.69883 5.6767 5.63516 5.40778 5.37346 5.05051 4.95941 4.81206 4.54148 4.42062 4.41077 4.39739 4.361 4.35943 5.10297 4.16295 4.13044 3.94972 4.24168 3.84093 3.68554 3.50379 3.48382 4.433 3.47849 3.44731 7.63506 6.04287 3.41332 3.36867 3.36286 3.32852 3.26772
threshold=63.500000000000007 5.5000000000000009 2.5000000000000004 168.50000000000003 0.00062520605500311058 15349.000000000002 2.5000000000000004 3.5000000000000004 1.5000000000000002 5.5000000000000009 326.50000000000006 5.5000000000000009 1.5000000000000002 1.5000000000000002 2.5000000000000004 94775.000000000015 2.5000000000000004 15.500000000000002 33.057344717401911 162.50000000000003 1341.5166666666653 707.00000000000011 3.5000000000000004 491710.68427442311 47.500000000000007 2.5000000000000004 1969.5000000000002 439.50000000000006 6.8540365403458359e-06 675001.50000000012 2.5000000000000004 12.500000000000002 1953.5000000000002 12.500000000000002 6.5112096369416115 4.5000000000000009 31.500000000000004 1.0376150494947303 4951.6399080936708 1972.5000000000002 1.17948507359493 8.5000000000000018 3.5000000000000004 1.5000000000000002 9.5000000000000018 6.9589374702628763 7488.5000000000009 1971.0384615384603 1.2201882331926852 18209.000000000004 2.5000000000000004 38.607801199293206 2007.5000000000002 1.5000000000000002 1450742.5000000002 1.5000000000000002 7.5722767754107112 3942.0783076558055 13.500000000000002 1948.5000000000002 126.50000000000001 48242.000000000007 1.0606707547572801e-05
decision_type=10 8 10 10 10 8 8 10 8 10 10 8 8 10 8 10 8 10 8 10 10 10 8 8 10 8 10 10 10 2 8 8 8 10 10 10 10 10 8 8 8 8 10 10 10 8 2 8 10 2 8 2 10 10 2 8 10 8 10 8 10 10 8
left_child=2 14 4 6 5 11 17 10 18 29 16 40 32 55 19 25 31 20 47 -2 24 30 33 -8 26 28 -3 35 -10 -4 -12 -5 -13 -11 -20 -16 -14 -9 -31 -30 -1 -18 -37 -26 60 -34 -40 48 -7 -15 -48 -25 53 -33 -51 56 -6 -58 -41 -42 -45 -36 -55
right_child=1 3 9 7 13 8 23 37 15 22 21 12 36 49 27 -17 41 -19 34 -21 -22 -23 -24 51 43 -27 -28 -29 39 38 -32 52 45 -35 61 42 -38 -39 46 58 59 -43 -44 44 -46 -47 50 -49 -50 54 -52 -53 -54 62 -56 -57 57 -59 -60 -61 -62 -63 -64
leaf_value=0.014755061308387669 0.016182732595168295 0.0229006887349953 0.027302460172399557 0.049715271297046976 -0.0088001279634131093 0.034875835032492385 0.040054871239944508 0.050249146492305136 0.059745532156278695 0.039927402355418799 0.095687663106443888 0.025588418271302971 -0.0040535253251426121 -0.0010990380868763988 -0.012201748247735384 0.08993564680928276 0.019743390879692867 0.078871906103873721 0.022407252612439071 0.070529743448338095 0.068947175453202086 0.12598642942029983 -0.017675574421882629 -0.0030866523864605125 0.074310565935447812 -0.0056779393000029477 0.043143830096354148 0.037349950630838673 0.0060278230103227122 -0.0029691882661365449 0.071231747644120144 0.10361917443092793 0.0009078276466351707 0.080327322434734658 0.068345601014379004 0.02128634377698994 0.02115845058952677 -0.004946862182779504 0.021490623562003593 0.0096440115981307403 -0.0019938645189934863 0.05558489998132693 -0.0098667940936791598 0.03931166269221447 0.086934010007164705 0.016195296158426863 0.010813947301504652 0.046651765330123808 -0.0067163813711575626 -0.0027185656052260174 -0.0098116141705152891 0.039969818932669508 0.047749070309218954 0.10624712439197484 -0.010089177596067816 -0.011700568947792558 0.068982882387936123 0.0071189155007402097 0.027051525999397405 -0.010513527946720107 0.057571555225190175 0.11344654619693757 0.073929798457915183
leaf_weight=80 281 194 216 89 2245 61 57 22 30 317 336 291 2122 1662 369 21 47 103 22 34 143 64 20 189 80 183 695 36 407 235 133 62 333 37 90 106 81 56 347 185 563 126 78 270 33 383 888 93 41 1050 96 21 40 33 1641 18362 20 75 288 2642 161 20 603
leaf_count=80 281 194 216 89 2245 61 57 22 30 317 336 291 2122 1662 369 21 47 103 22 34 143 64 20 189 80 183 695 36 407 235 133 62 333 37 90 106 81 56 347 185 563 126 78 270 33 383 888 93 41 1050 96 21 40 33 1641 18362 20 75 288 2642 161 20 603
internal_value=0 0.0466743 -0.00592409 0.0570537 -0.00742043 0.00114902 0.042984 0.074049 0.020662 0.0169728 0.0772762 -0.00318018 0.00220049 -0.0101347 0.00583435 0.013169 0.0687765 0.0483072 0.0461886 0.0220488 0.0463096 0.0932233 0.0408438 0.0095098 0.0440506 0.0116941 0.0387263 -0.00283719 0.0151876 0.0119628 0.0887524 0.073573 0.0138544 0.04415 0.0675227 -0.00545335 -0.00312653 0.0106212 0.00984697 0.0136685 -0.00843802 0.0458476 0.00808012 0.0527515 0.0490345 0.00908534 0.0121098 0.031747 0.0181574 -0.0048788 0.0088017 0.00121899 0.0764501 0.0780949 -0.00721324 -0.0112399 -0.00762509 0.0201429 0.0202431 -0.00901694 0.0461326 0.0765458 0.0756066
internal_weight=0 4461 35147 3557 32991 7936 1946 1611 1441 2156 1533 6495 3210 25055 904 1114 1000 1679 327 315 1576 533 374 267 1433 1093 889 589 910 1782 469 827 1007 354 132 553 2203 78 1566 880 3285 173 184 544 464 716 1331 195 102 4353 984 210 738 698 2691 20702 2340 95 473 3205 431 110 636
internal_count=39608 4461 35147 3557 32991 7936 1946 1611 1441 2156 1533 6495 3210 25055 904 1114 1000 1679 327 315 1576 533 374 267 1433 1093 889 589 910 1782 469 827 1007 354 132 553 2203 78 1566 880 3285 173 184 544 464 716 1331 195 102 4353 984 210 738 698 2691 20702 2340 95 473 3205 431 110 636
shrinkage=0.1


Tree=9
num_leaves=64
num_cat=0
split_feature=14 5 5 40 0 14 2 7 5 2 1 2 2 5 14 13 5 33 0 5 14 5 11 2 9 20 56 5 9 59 20 35 35 56 39 13 9 3 5 10 7 8 13 7 4 55 11 5 7 3 53 58 33 2 58 7 9 33 1 6 5 53 42
split_gain=888.933 130.957 112.162 73.0557 71.9911 50.0431 27.1143 22.7473 21.7116 20.9868 17.8858 20.3347 14.269 12.5036 11.2609 10.7445 10.5095 10.3064 9.38751 8.70669 7.88212 7.83049 7.64794 6.80331 6.61997 6.24254 6.08071 5.51785 5.44225 5.3332 5.27042 4.61952 4.61847 4.35874 4.25568 4.1676 3.96657 3.90075 4.36375 3.88876 3.82914 3.81724 4.76426 3.64191 3.5046 3.47066 3.46225 3.69809 3.11576 3.32421 3.09194 3.04384 3.03744 3.1354 3.15775 3.01039 2.98581 2.96799 2.95829 4.46011 2.95768 2.93965 3.15538
threshold=78.500000000000014 6.5000000000000009 3.5000000000000004 0.83011114219086568 18417.500000000004 223.50000000000003 2.5000000000000004 2005.5000000000002 1.5000000000000002 1.5000000000000002 4.5000000000000009 1.5000000000000002 3.5000000000000004 6.5000000000000009 279.50000000000006 5.5000000000000009 7.5000000000000009 18209.000000000004 70920.000000000015 15.500000000000002 397.00000000000006 2.5000000000000004 -121.15031080095649 1.5000000000000002 3.5000000000000004 0.0013099408655219602 50366.916666666657 15.500000000000002 3.5000000000000004 721.68333333333362 0.0013522102597974901 1950.8413978494602 1974.7887931034502 17741.883928571453 769.2765989559756 1.0000000180025095e-35 35.500000000000007 312167.50000000006 13.500000000000002 38.607801199293206 2011.5000000000002 18.500000000000004 1.0000000180025095e-35 1950.5000000000002 35101.456739910609 1962.0131578947351 -120.09567759744698 81.500000000000014 1984.5000000000002 1409595.5000000002 73.78370617311792 3276317.8602941204 7488.5000000000009 2.5000000000000004 219234.12500000003 1960.5000000000002 9.5000000000000018 31682.000000000004 7.5000000000000009 7.1287193195036416 9.5000000000000018 14.09048033469025 0.0149700546425711
decision_type=10 8 10 10 10 10 8 10 10 8 10 8 8 10 10 10 10 2 10 8 10 10 2 10 8 8 10 10 8 10 8 10 10 10 8 10 10 10 10 2 8 10 10 10 10 8 2 10 10 8 10 10 2 8 10 10 10 2 10 10 8 8 10
left_child=2 12 3 4 10 6 18 19 57 26 55 25 14 52 24 22 28 -9 27 -7 -21 58 39 -20 -2 41 35 29 -8 45 31 -13 36 -34 -25 61 -24 -15 44 -11 60 42 -12 -27 -39 -3 47 -22 -32 -50 51 -47 -4 54 -54 -1 -18 -5 59 -10 -36 -6 -63
right_child=1 5 13 8 9 7 16 17 21 15 11 30 -14 37 -16 -17 56 -19 23 20 46 -23 32 34 -26 43 -28 -29 -30 -31 48 -33 33 -35 40 -37 -38 38 -40 -41 -42 -43 -44 -45 -46 50 -48 -49 49 -51 -52 -53 53 -55 -56 -57 -58 -59 -60 -61 -62 62 -64
leaf_value=-0.0041886478633763836 4.8899562460576711e-05 0.056913136839866645 0.027691200400101857 -0.0094140528434537105 0.018143259659409522 0.052819905933293124 -0.0070911478735809401 0.051510573876609581 -0.0026261760317295743 0.0016884330959176241 0.025149540773279678 -0.0066294885667643154 -0.0081342840511537465 9.578689932823182e-06 0.078044744240375427 0.073741441196010962 0.026884497577945393 -0.0075542976474389434 0.085182867687852951 0.073965687516456144 0.085960001604671182 0.005779161220766868 0.013234163810754127 0.015480726240919188 0.025451183461241034 0.01552822429931946 0.090346874738181093 0.076028966925544103 0.023985421449357933 0.04439145564052098 -0.0063570120014732187 0.0093662704992454188 0.014498426193992298 0.052909853365705466 0.036182833625511689 0.028858271807257554 0.041988286209341724 0.051628788961167627 0.077223372214326735 0.017354344957704215 0.018387335624545812 0.06061208674927121 0.0025416684947463923 0.0023877030818787504 0.027379984715608537 0.0049255134890208371 0.11874906521600981 0.13075295418500901 0.0013063974226652474 0.03874518903724563 -0.022598105739979519 0.052592103112311599 0.052308777272701272 -0.0064729302003979682 0.015969917723873798 -0.010358770644963088 0.072419935009545758 -0.012042585659326352 -0.0013395816590544068 -0.01128675980526773 0.060484588999326142 0.029982770869025479 0.069224085987490774
leaf_weight=1313 167 20 286 14027 20 124 123 113 1206 442 336 266 301 20 31 31 24 40 85 541 235 877 303 26 266 321 27 49 104 752 2122 562 45 86 55 144 57 133 38 247 25 23 129 615 108 37 48 20 270 26 21 21 25 60 550 1988 36 6192 1604 1173 560 27 85
leaf_count=1313 167 20 286 14027 20 124 123 113 1206 442 336 266 301 20 31 31 24 40 85 541 235 877 303 26 266 321 27 49 104 752 2122 562 45 86 55 144 57 133 38 247 25 23 129 615 108 37 48 20 270 26 21 21 25 60 550 1988 36 6192 1604 1173 560 27 85
internal_value=0 0.0458278 -0.00489731 -0.00594914 0.00152655 0.0550821 0.0453545 0.0718994 -0.00877649 0.0215166 -0.00227033 0.00171223 0.00882242 0.0249023 0.0198223 0.0156274 0.0169847 0.0360688 0.0502861 0.0775627 0.0811979 -0.00277508 0.0141007 0.0585408 0.015654 0.011675 0.0450541 0.043398 0.00714658 0.0415191 -0.00265837 0.00422754 0.0236374 0.0397151 0.0551406 0.0406233 0.0177869 0.0426701 0.0457282 0.00730451 0.0567517 0.0208447 0.0188777 0.00689423 0.0407621 0.0197008 0.0941109 0.0894732 -0.00501633 0.00459494 0.01028 0.0221841 0.0191341 0.01528 0.0175499 -0.00790455 0.0542058 -0.010219 -0.00465861 -0.0068964 0.0583113 0.0534579 0.0597641
internal_weight=0 3824 35784 34564 9485 3059 1938 1121 25079 1514 7971 4670 765 1220 464 1211 287 153 1651 968 844 4860 1180 751 433 1424 303 900 227 851 3246 828 491 131 666 276 360 299 279 689 640 488 465 936 241 99 303 255 2418 296 79 58 921 635 575 3301 60 20219 3983 2379 615 132 112
internal_count=39608 3824 35784 34564 9485 3059 1938 1121 25079 1514 7971 4670 765 1220 464 1211 287 153 1651 968 844 4860 1180 751 433 1424 303 900 227 851 3246 828 491 131 666 276 360 299 279 689 640 488 465 936 241 99 303 255 2418 296 79 58 921 635 575 3301 60 20219 3983 2379 615 132 112
shrinkage=0.1


Tree=10
num_leaves=64
num_cat=0
split_feature=14 5 5 14 40 1 2 2 2 1 5 47 1 5 14 5 2 55 7 14 5 2 11 35 2 3 14 13 5 13 8 14 14 23 2 13 11 11 23 2 8 59 35 5 13 39 7 14 36 2 14 0 7 9 53 48 2 0 43 14 19 3 7
split_gain=721.898 128.833 78.4004 58.0313 49.4463 43.6483 28.2777 21.0843 20.7527 18.0267 17.7199 14.2228 10.9889 9.17233 8.31999 8.26364 7.99863 7.76631 7.22178 7.00463 6.49436 6.24704 6.20126 6.19521 5.89837 5.79122 5.48373 5.03967 4.98205 4.90296 4.7232 4.71328 4.50638 4.41671 4.37971 4.31515 4.19302 4.0035 3.93935 3.86847 3.77524 3.54295 3.44846 3.95078 3.42366 3.38866 3.30044 3.25343 3.57596 3.16976 3.01966 2.95646 2.95431 4.57325 2.94563 2.84519 5.5731 2.77283 2.71909 2.67715 2.76933 2.64465 2.6225
threshold=61.500000000000007 4.5000000000000009 2.5000000000000004 142.50000000000003 0.83011114219086568 8.5000000000000018 3.5000000000000004 2.5000000000000004 1.5000000000000002 219.00000000000003 4.5000000000000009 23734.808839161004 64.500000000000014 23.500000000000004 31.500000000000004 1.5000000000000002 2.5000000000000004 2011.7500000000002 1956.5000000000002 162.50000000000003 39.500000000000007 1.5000000000000002 -121.34993629623449 1981.6100000000001 3.5000000000000004 2753982.0000000005 381.50000000000006 7.5000000000000009 12.500000000000002 15.500000000000002 405.50000000000006 758.00000000000011 8.5000000000000018 1.17948507359493 1.5000000000000002 3.5000000000000004 -121.90492514080698 -122.06000148123748 1.17948507359493 3.5000000000000004 125.50000000000001 1341.5166666666653 1985.3149350649353 11.500000000000002 3.5000000000000004 769.2765989559756 1967.5000000000002 14.500000000000002 2913.6577632319804 2.5000000000000004 80.500000000000014 22180.500000000004 1971.5000000000002 4.5000000000000009 100.893763227392 2.6913710341106456 1.5000000000000002 4100.5000000000009 2.7389903519473504e-05 8.5000000000000018 1.3381571573723654 188765.50000000003 1970.5000000000002
decision_type=10 8 10 10 10 10 10 8 8 10 10 10 10 10 8 10 8 10 10 10 8 10 2 10 8 8 10 10 10 10 8 10 10 8 10 10 2 2 8 10 8 10 10 10 10 8 8 10 10 8 10 8 10 10 10 10 8 10 10 8 10 10 10
left_child=2 16 4 7 5 18 9 21 11 13 36 38 14 17 -10 -6 19 22 32 -2 -11 50 29 35 28 -13 -18 41 57 42 -8 49 55 -20 -24 37 -4 58 -7 44 -15 52 43 46 -9 -36 54 -40 -49 -22 -3 59 53 -23 -5 -1 -57 -12 -16 -35 -61 -39 -42
right_child=1 3 10 6 15 8 30 39 12 20 24 25 -14 40 23 -17 26 -19 33 -21 31 27 34 -25 -26 -27 -28 -29 -30 -31 -32 -33 -34 51 45 -37 -38 61 47 -41 62 -43 -44 -45 -46 -47 -48 48 -50 -51 -52 -53 -54 -55 -56 56 -58 -59 -60 60 -62 -63 -64
leaf_value=-0.0065640510102741544 0.011386369226011829 0.036559745779743906 0.0045205914506654702 -0.0036356532325347267 -0.0092450867572341673 0.057697443113378856 -0.0052702662558294835 0.0058485212558878176 -0.0023042847196490745 0.059553489200770859 0.0019721822322983492 0.04104946399142069 0.065363683290779601 0.1098568731546402 -0.0076390410688692879 -0.0042395127106156869 -0.0070230084445243816 0.010631264772179516 0.025363208239943515 0.065986384938542669 0.089350174817107844 0.0037823760259451107 0.084192703977227223 0.044474540255963806 -0.015027795781691869 0.088364734477363538 0.029326672916197116 0.055157193133790611 0.065949479893252658 0.077221962666282284 0.049062028743792327 0.11915577250282938 0.011907432928037517 -0.010252515622815313 0.023108458499280879 0.042127572604127833 0.015855219727976527 0.037905727524091215 0.0072083062644546425 -0.018992392100253195 0.09949792969226838 0.050567943628779366 0.0768427157407683 0.054995153883899785 0.043192233761836743 0.060214237462721136 0.041729044959525376 0.05783844999969006 0.0191256701050262 0.062594757337744042 0.060664733568656037 0.025336345285177232 0.034166618108953696 0.029685651473771824 0.04090181717787076 0.010165130928877936 -0.0044739486316808718 0.029994682196965383 0.026011755483018029 -0.0055715731404804309 0.019053359773564846 0.0094617197959554096 0.063392397050646324
leaf_weight=739 244 81 1068 33 20061 23 80 160 1003 115 38 135 30 30 217 3947 534 43 41 26 169 92 75 50 30 32 45 103 37 52 20 41 277 2092 26 37 470 34 260 53 25 95 33 207 29 461 362 26 290 60 145 27 702 263 27 439 638 499 27 1613 47 847 103
leaf_count=739 244 81 1068 33 20061 23 80 160 1003 115 38 135 30 30 217 3947 534 43 41 26 169 92 75 50 30 32 45 103 37 52 20 41 277 2092 26 37 470 34 260 53 25 95 33 207 29 461 362 26 290 60 145 27 702 263 27 439 638 499 27 1613 47 847 103
internal_value=0 0.037549 -0.00485394 0.0456401 -0.00605972 0.000295874 0.0574001 0.0322489 0.0100965 0.0601822 0.0136842 0.0243091 0.00524707 0.0551587 0.00443285 -0.00842215 0.00243031 0.0524312 -0.00469476 0.0166441 0.0794543 0.0367206 0.0538399 0.0100082 0.028198 0.0501159 -0.0041979 0.0339645 0.0304572 0.047655 0.00559619 0.0879306 2.65831e-05 -0.0072816 0.0616976 0.00852516 0.00798436 0.00742002 0.0171143 0.00488323 0.0779277 0.0320696 0.0453325 0.0436793 0.0115785 0.0582332 0.0381286 0.0154938 0.0223109 0.08234 0.0520253 -0.00763578 0.0304071 0.0229727 0.0164062 -0.00178564 0.00149314 0.0280117 -0.00391539 -0.00787305 -0.00487436 0.0105594 0.0704443
internal_weight=0 4534 35074 3685 32932 8924 1962 1723 3011 1862 2142 766 2245 1477 2215 24008 849 1319 5913 270 385 1481 1276 1212 604 167 579 1255 574 714 100 270 2093 3820 562 1162 1538 1125 599 242 158 1152 662 629 189 487 422 576 316 229 226 3779 1057 355 60 1816 1077 537 244 3752 1660 881 128
internal_count=39608 4534 35074 3685 32932 8924 1962 1723 3011 1862 2142 766 2245 1477 2215 24008 849 1319 5913 270 385 1481 1276 1212 604 167 579 1255 574 714 100 270 2093 3820 562 1162 1538 1125 599 242 158 1152 662 629 189 487 422 576 316 229 226 3779 1057 355 60 1816 1077 537 244 3752 1660 881 128
shrinkage=0.1


Tree=11
num_leaves=64
num_cat=0
split_feature=14 5 5 14 11 0 2 2 10 5 0 9 47 2 10 13 14 0 42 20 19 47 2 2 9 2 3 48 19 13 2 9 7 8 5 55 0 5 14 39 5 5 1 0 33 7 34 63 2 13 55 62 64 34 14 1 37 5 39 1 11 13 46
split_gain=584.737 104.355 63.5044 47.5878 41.1018 26.2909 19.5236 19.0171 17.3019 14.3532 12.792 12.0951 10.1699 9.39865 8.77402 7.53325 6.18347 6.14892 7.29875 6.12969 6.07996 5.9233 5.49799 5.01914 4.90041 4.77768 4.62507 4.57267 4.74118 4.4056 4.90452 4.19261 7.12985 4.16137 4.15462 4.10546 4.09292 5.66313 3.85296 3.81153 3.8098 3.69429 3.63832 3.61853 3.5923 3.57915 3.52438 4.01215 3.41572 3.36604 3.49484 3.35445 3.25522 3.25099 3.20699 3.11506 3.05836 3.04673 3.36728 3.30379 3.03783 3.00093 2.99983
threshold=61.500000000000007 4.5000000000000009 2.5000000000000004 168.50000000000003 -121.25928412934148 18417.500000000004 2.5000000000000004 2.5000000000000004 38.22817830096151 4.5000000000000009 178469.50000000003 8.5000000000000018 7737.8628450785609 1.5000000000000002 37.120414875338959 5.5000000000000009 99.500000000000014 58265.500000000007 0.022490711250141852 0.0013099408655219602 1.0274894883354202 38433.096492335906 1.5000000000000002 2.5000000000000004 2.5000000000000004 3.5000000000000004 4482228.0000000009 6.9589374702628763 1.0376150494947303 1.5000000000000002 2.5000000000000004 9.5000000000000018 2011.5000000000002 58.500000000000007 7.5000000000000009 2006.0294117647052 4100.5000000000009 12.500000000000002 343.00000000000006 1159.1536937995954 10.500000000000002 13.500000000000002 3.5000000000000004 31122.000000000004 6438.5000000000009 1962.5000000000002 675555.50000000012 2.0682456750290753e-05 1.5000000000000002 1.5000000000000002 1964.4045454545451 0.16648831408524253 0.99394693333497708 4510450.0000000009 146.50000000000003 2.5000000000000004 14.303846153846154 27.500000000000004 1076.5043911323303 269.00000000000006 -121.22255304755049 5.5000000000000009 150.50000000000003
decision_type=10 8 10 10 2 8 8 10 2 10 10 8 10 10 2 10 10 10 10 8 10 10 8 8 8 8 10 10 8 10 8 10 8 8 10 10 10 10 10 10 8 8 10 10 2 8 2 10 8 8 10 8 10 2 10 8 10 8 8 10 2 10 10
left_child=2 15 4 7 8 19 10 16 14 44 41 20 48 21 43 23 34 22 -19 42 -8 -14 33 54 -9 36 -12 52 -29 51 -31 32 49 -7 60 40 53 -38 -25 46 -13 -5 -6 -1 -4 -44 -33 -48 -10 50 -18 -16 -21 -11 -2 -46 -35 -28 59 -59 -3 -26 -24
right_child=1 3 9 6 5 17 11 24 12 25 26 35 13 -15 29 -17 31 18 -20 27 -22 -23 62 38 61 -27 57 28 -30 30 -32 39 -34 56 -36 -37 37 -39 -40 -41 -42 -43 45 -45 55 -47 47 -49 -50 -51 -52 -53 -54 -55 -56 -57 -58 58 -60 -61 -62 -63 -64
leaf_value=0.001076257644523296 0.0079384165206116391 0.020292670721238828 0.015849766780029067 0.035549733377810498 -0.0023139179405418171 0.024082266353866739 0.033726051304552515 -0.0082705094143748284 0.00138339313889645 0.025066900383681059 0.1190584139979404 0.020232454927698262 0.018907116392173198 0.0023501430565155256 -0.0084895794899349977 0.047614440001281247 0.0095070769041776665 0.020785244359918263 0.10338517621159554 -0.0085318903996864995 -0.009574529601054059 0.073093497583811937 0.016998186359511013 -0.0075063039315864449 0.012827566318259005 -0.013525015860795976 0.051155835874802019 0.023595855847960062 0.00074371452249362565 0.0042274925643343382 -0.0083750164850014391 0.052998468240382839 -0.018039125231681049 0.039341281204380928 0.045919667373721801 0.022281585328958253 0.026995213904963036 0.068606816998549869 0.023006444747249288 0.060934397280817065 0.057999729158337489 0.055850173466952174 0.019870444667648594 0.044105193428695205 -0.025798630646683952 0.0055248458379246442 0.04340114429198888 0.019735229079745845 -0.006786997407784357 0.022082951845108514 0.049816779486907575 0.021644818541165945 0.0016330990798838962 -0.031950515974313025 0.043816767581405923 0.0053667899386512057 0.087361154918159767 0.052343551069498062 0.08635435185009023 0.084834747337827504 0.033160314979290388 0.053705703892878126 -0.0083195909439517119
leaf_weight=857 226 423 365 102 314 117 59 125 732 20 23 31 243 1060 22774 35 25 23 20 1103 72 22 351 515 124 30 55 101 898 595 642 167 27 36 120 55 499 35 45 124 193 740 265 20 33 506 202 111 1700 112 154 37 441 20 28 1140 21 81 164 51 324 21 54
leaf_count=857 226 423 365 102 314 117 59 125 732 20 23 31 243 1060 22774 35 25 23 20 1103 72 22 351 515 124 30 55 101 898 595 642 167 27 36 120 55 499 35 45 124 193 740 265 20 33 506 202 111 1700 112 154 37 441 20 28 1140 21 81 164 51 324 21 54
internal_value=0 0.0337941 -0.00436855 0.0410761 -0.00545375 0.0037239 0.0538639 0.0309775 -0.00681366 0.0123158 0.0602267 0.034993 -0.00048752 0.00656124 -0.00776721 0.00218728 0.034711 0.0227192 0.0592038 0.000467262 0.00992726 0.0234056 0.0200097 0.000234023 0.00623935 0.0253782 0.0756161 -0.00221763 0.00305409 -0.00812551 -0.00231318 0.0404121 0.0311185 0.0348764 0.0286483 0.0467622 0.0274115 0.0297226 -0.00505439 0.0453051 0.052773 0.053391 0.00676006 0.00205753 0.00718592 0.0104556 0.0412675 0.0350084 -0.00432782 0.0356796 0.0441869 -0.0084407 -0.00562855 -0.00344181 0.0118935 0.00449001 0.0570328 0.0727695 0.0767855 0.064897 0.0258738 0.0187478 0.0136225
internal_weight=0 4534 35074 3685 32932 4250 1626 2059 28682 2142 1216 410 3757 1325 24925 849 1789 622 43 3628 131 265 579 814 270 604 374 2543 999 24048 1237 922 318 174 867 279 574 534 560 604 224 842 1085 877 1538 771 480 313 2432 291 179 22811 1544 40 254 1173 57 351 296 132 747 145 405
internal_count=39608 4534 35074 3685 32932 4250 1626 2059 28682 2142 1216 410 3757 1325 24925 849 1789 622 43 3628 131 265 579 814 270 604 374 2543 999 24048 1237 922 318 174 867 279 574 534 560 604 224 842 1085 877 1538 771 480 313 2432 291 179 22811 1544 40 254 1173 57 351 296 132 747 145 405
shrinkage=0.1


Tree=12
num_leaves=64
num_cat=0
split_feature=14 5 2 40 0 14 5 2 5 5 14 2 7 13 57 5 2 7 2 9 59 1 14 50 38 5 9 7 37 3 7 33 55 50 35 44 36 10 1 13 2 58 7 42 33 13 33 0 5 55 42 7 9 34 9 1 13 9 14 7 50 11 1
split_gain=474.35 70.5785 68.951 45.0233 47.2833 35.5587 18.4723 13.057 12.5386 9.41573 8.82291 9.56538 7.87894 7.35213 7.10582 6.3002 6.28806 6.23897 5.84961 5.67801 5.34018 4.94242 4.92257 4.46456 4.39357 4.37164 4.17453 4.10532 3.95192 3.88435 3.85951 3.84365 3.68988 3.64306 4.79775 3.5163 3.47953 3.40478 3.78627 3.33675 3.31378 3.11673 3.08056 3.04634 2.99392 2.94342 3.51432 2.885 3.35638 2.8029 2.96881 3.04264 2.8386 2.79682 2.78264 3.06409 2.6427 2.58287 2.52638 2.52113 2.48067 2.46307 2.43348
threshold=90.500000000000014 3.5000000000000004 3.5000000000000004 0.83011114219086568 13796.500000000002 264.50000000000006 9.5000000000000018 1.5000000000000002 1.5000000000000002 6.5000000000000009 8.5000000000000018 1.5000000000000002 2011.5000000000002 5.5000000000000009 70.200000000000017 20.500000000000004 2.5000000000000004 1968.5000000000002 2.5000000000000004 4.5000000000000009 802.6423344017096 292.50000000000006 8.5000000000000018 33.057344717401911 645862.05180180212 3.5000000000000004 2.5000000000000004 1955.5000000000002 6.5112096369416115 845440.00000000012 1959.5000000000002 18209.000000000004 1971.3484848484852 43.123920940177648 1980.9859068627454 1.8873730273370002 2303.8539597657259 36.72005282960081 69.500000000000014 4.5000000000000009 1.5000000000000002 467082.57692307705 2010.5000000000002 0.028121753805191451 7867.5000000000009 1.0000000180025095e-35 7867.5000000000009 7402.0000000000009 15.500000000000002 1963.6103448275851 0.017368047783348904 1971.5000000000002 2.5000000000000004 1450742.5000000002 14.500000000000002 200.50000000000003 2.5000000000000004 6.5000000000000009 7.5000000000000009 2004.5000000000002 78.356627535159859 -122.29454693988397 6.5000000000000009
decision_type=10 10 8 10 8 10 8 8 10 10 8 8 10 10 10 10 8 8 10 8 10 10 8 8 10 10 10 8 10 10 8 2 8 8 10 10 8 2 10 10 10 10 8 10 2 10 2 10 10 10 10 10 8 2 10 10 10 8 8 10 8 2 10
left_child=1 3 5 4 10 6 19 14 -5 39 27 24 15 16 23 20 17 56 21 -2 35 -7 -10 32 29 -4 -14 -1 -25 30 -12 -24 -6 34 -19 61 -13 42 -39 45 43 -31 -35 -22 -17 58 -47 -11 -49 52 -51 -52 -42 -33 -20 -56 -9 -23 -3 -53 -21 -8 -48
right_child=2 9 25 8 7 18 12 13 22 47 11 36 26 -15 -16 44 -18 33 54 60 40 57 31 28 -26 -27 -28 -29 -30 41 -32 53 -34 37 -36 -37 -38 38 -40 -41 49 -43 -44 -45 -46 46 62 48 -50 50 51 59 -54 -55 55 -57 -58 -59 -60 -61 -62 -63 -64
leaf_value=-0.001054158258548286 0.0028563851982292684 -0.0033758243506259106 -0.0068538363311397904 -0.0075314705241935681 0.0058464139448626655 0.059328410872362992 0.0640638346473376 -3.2700889029334391e-05 -0.0066269160288040183 0.0023515316790768078 0.016563827796367767 0.022058790878924942 -0.034009323251389327 0.052778718671761454 0.087562342090532194 0.090053706665833788 -0.0040214354133943919 0.0085159503291607017 0.026081133316570929 0.035974537606230081 0.049957020710377643 0.11492979466915131 0.0046275247094078589 0.0070363748592860769 -0.0034712263887864111 0.025905216849692492 0.024971805033939226 -0.0083399316411355978 0.045214185526435219 0.060619207027439892 0.0038422018402268117 0.002180046168694091 0.030047570501587226 0.045992002315185174 0.038525429746862183 -0.00024767066465645305 -0.0031442002799670285 0.021158423432162111 -0.021025968367314858 0.041406504359356194 -0.0061530168249231323 0.017933286152780056 0.0044230901128189132 0.091242642913545891 0.053364400354993728 0.017718007386429237 -0.033493437198922039 0.03247336930507537 0.066559726302511987 0.046151483827011078 0.013414598280858054 0.042682085521116901 0.032883200850052648 -0.0052564263478267594 0.032737711073631152 0.061850574086009358 0.025211532071799686 0.075461919975380626 0.021092509916931679 0.019282448110503281 0.017570211018053439 0.028417924811069424 0.00272530055540301
leaf_weight=1153 179 47 356 20306 126 489 21 421 1516 28 405 56 21 40 20 30 291 549 59 127 120 20 1252 33 273 46 28 2349 152 26 580 829 126 94 59 41 2513 284 23 43 23 50 22 21 86 192 20 297 32 572 57 259 98 1297 56 102 46 97 413 56 173 252 256
leaf_count=1153 179 47 356 20306 126 489 21 421 1516 28 405 56 21 40 20 30 291 549 59 127 120 20 1252 33 273 46 28 2349 152 26 580 829 126 94 59 41 2513 284 23 43 23 50 22 21 86 192 20 297 32 572 57 259 98 1297 56 102 46 97 413 56 173 252 256
internal_value=0 -0.00334754 0.0357759 -0.00420875 0.00158391 0.0410086 0.03428 0.0141556 -0.00643639 0.0192794 -0.00229711 0.00097255 0.0392061 0.0103778 0.0292749 0.0403895 0.00942981 0.0120428 0.0587009 0.0169514 0.0386752 0.0637459 -0.00189274 0.0266073 0.00784254 -0.00310529 -0.000305821 -0.00594116 0.0384041 0.0107536 0.00907292 0.000231893 0.017947 0.0163862 0.0114281 0.0270589 -0.00259482 0.0235129 0.017998 0.0141737 0.0416996 0.0325364 0.0381082 0.0561059 0.062853 0.0129119 0.00732835 0.0331662 0.0357888 0.0397923 0.041629 0.034675 0.0254631 -0.00235669 0.0446122 0.0515321 0.00245388 0.0822086 0.0185925 0.0385221 0.0253614 0.0311599 0.000100754
internal_weight=0 36219 3389 34891 9691 2987 2164 2286 25200 1328 7405 3903 1685 1829 457 1636 1789 1498 823 479 1520 606 4894 437 1334 402 49 3502 185 1061 985 3378 252 1031 608 314 2569 423 307 971 1206 76 116 141 116 928 468 357 329 1065 944 372 121 2126 217 158 467 117 460 315 300 273 276
internal_count=39608 36219 3389 34891 9691 2987 2164 2286 25200 1328 7405 3903 1685 1829 457 1636 1789 1498 823 479 1520 606 4894 437 1334 402 49 3502 185 1061 985 3378 252 1031 608 314 2569 423 307 971 1206 76 116 141 116 928 468 357 329 1065 944 372 121 2126 217 158 467 117 460 315 300 273 276
shrinkage=0.1


Tree=13
num_leaves=64
num_cat=0
split_feature=14 5 5 14 11 0 7 2 10 5 5 14 48 33 6 33 2 63 14 7 14 47 20 2 1 2 3 9 34 7 13 11 13 2 53 1 2 5 37 9 37 20 33 19 64 39 62 5 55 13 14 55 7 50 5 55 0 14 7 14 55 39 3
split_gain=384.624 69.627 42.873 34.3973 28.3267 17.6672 15.879 13.6349 12.7238 9.75793 9.47231 8.35747 7.42591 6.82329 5.77495 5.59142 5.46307 5.17765 4.87323 4.83347 4.87439 4.80653 7.0644 4.34601 4.3241 3.8295 3.79074 3.66234 3.60578 3.52074 3.60634 3.16479 3.13555 3.22807 3.09048 3.06337 3.03449 3.02447 2.97646 2.87417 2.76322 2.74564 2.74359 2.68993 2.64204 2.63537 2.62957 2.55533 2.55515 2.4713 2.43931 2.82854 2.40637 2.36634 2.35948 2.35433 2.49129 2.27702 2.73243 2.25992 2.20394 2.35745 2.35211
threshold=61.500000000000007 3.5000000000000004 2.5000000000000004 142.50000000000003 -121.25928412934148 18417.500000000004 2007.5000000000002 2.5000000000000004 38.580842828643561 12.500000000000002 5.5000000000000009 372.50000000000006 9.5169701656613359 7867.5000000000009 24.388207407179902 18209.000000000004 1.5000000000000002 7.6057201971821114e-06 156.50000000000003 1959.5000000000002 24.500000000000004 10172.568522907301 0.0012048893955877301 3.5000000000000004 91.500000000000014 1.5000000000000002 253808.00000000003 54.500000000000007 675001.50000000012 2010.5000000000002 7.5000000000000009 -119.343096152055 16.500000000000004 1.5000000000000002 20.162408176353004 2.5000000000000004 1.5000000000000002 1.5000000000000002 13.610479797979801 28.500000000000004 15.373774509803903 0.00083425577869397259 31682.000000000004 0.82881490209394415 1.2335952979450453 1028.5096191508453 0.032318149520955554 1.5000000000000002 1962.5857142857151 3.5000000000000004 6.5000000000000009 1938.3095238095204 1950.5000000000002 24.124055871215102 9.5000000000000018 2015.2500000000002 160999.00000000003 8.5000000000000018 1988.5000000000002 80.500000000000014 1955.3416666666651 815.6140788034096 2854096.0000000005
decision_type=10 8 10 10 2 8 10 10 2 8 10 10 10 2 10 2 8 10 10 8 10 10 8 10 8 8 10 10 2 10 10 2 10 10 10 8 8 10 8 8 10 8 2 8 10 8 8 10 8 10 10 10 10 10 10 10 10 8 10 10 10 8 10
left_child=2 14 4 7 8 19 9 25 13 -5 28 23 43 21 18 55 39 -7 -2 31 57 52 -23 32 37 44 -12 36 -4 30 45 41 33 40 -28 -30 53 -15 -13 -14 -11 -6 -37 -10 59 -27 -40 -16 -35 -9 -33 -52 -1 -19 -36 56 -8 -21 -59 -3 -38 -62 -63
right_child=1 3 10 6 5 17 15 49 12 11 26 38 16 24 47 -17 -18 27 -20 20 -22 22 -24 -25 -26 29 34 -29 35 -31 -32 50 -34 48 54 42 60 -39 46 -41 -42 -43 -44 -45 -46 -47 -48 -49 -50 -51 51 -53 -54 -55 -56 -57 -58 58 -60 -61 61 62 -64
leaf_value=-0.00071033213075200627 0.0094716353995496771 0.028324899139928902 0.019341889788787987 0.027558736427388847 0.016596439928933979 0.056697736351377585 0.021066552727217122 -0.0030539486356264086 0.032810176659206096 0.041637407261878256 -0.013658453865597645 0.037555109883876558 0.02495392460206693 -0.0073364277469823011 -0.0088077754409441461 -0.01277565924036834 0.0076085499378611178 0.01373907144261915 0.064879756116054274 -0.0067270051724558052 0.012589467911511266 0.050818734084286034 0.0022489303217542215 -0.0024451035563834013 0.032468621911747118 0.019527981822151128 0.037036399612038889 0.058619915153831248 -0.023360882037215765 -0.0080329422697876431 0.043090355274833597 0.006538387058909783 0.063293947180710644 0.019178650132855593 0.010371480912955339 0.0069803893749352365 -0.0095888735441376979 -0.0040475881253509835 0.061985309932055893 0.066950328685343272 0.076899970691651109 -2.8215240320808464e-05 -0.015571848876840835 -0.002527613041501911 0.0095176060284887041 0.029081331539205332 0.097078528611556358 0.0038712167650073004 0.042613726988638051 0.027174602689281586 -0.0072012838348746305 0.034029548869919823 -0.0060013390060048551 0.037237563111133624 0.035673319710032 0.00046143893290112223 0.053148031093784277 -0.0019299387668540204 0.011157288687438939 0.050436814726581652 0.034419918921258716 0.012923704852798472 -0.015749424067325889
leaf_weight=1310 57 73 213 278 125 34 70 212 22 40 24 47 88 19057 395 54 436 81 22 916 226 31 881 20 28 695 170 20 36 33 102 112 83 49 121 1469 49 3277 298 20 50 484 56 1032 28 494 23 266 921 31 20 99 2500 91 53 30 37 1467 179 126 45 270 32
leaf_count=1310 57 73 213 278 125 34 70 212 22 40 24 47 88 19057 395 54 436 81 22 916 226 31 881 20 28 695 170 20 36 33 102 112 83 49 121 1469 49 3277 298 20 50 484 56 1032 28 494 23 266 921 31 20 99 2500 91 53 30 37 1467 179 126 45 270 32
internal_value=0 0.0274081 -0.00354303 0.032881 -0.00443469 0.00318432 0.041899 0.0228275 -0.00556365 0.0447943 0.0101657 0.0479239 0.00310739 -0.00607526 -0.000651473 0.0144769 0.0125961 0.0187557 0.0249017 0.000514696 -0.0014888 -0.00262118 0.00389988 0.0437678 -0.00680463 0.0262782 0.0247664 0.0165618 0.00713698 0.0242207 0.0250452 0.0071644 0.0445765 0.0431108 0.0274472 0.00547161 0.0150809 -0.00685387 0.0610585 0.032731 0.0612277 0.00338407 0.00615224 -0.00179001 0.0382786 0.0234972 0.0644998 -0.00370549 0.0414299 0.000802369 0.0171307 0.0271 -0.00418212 0.0261714 0.0180784 0.0252188 0.0321601 -0.00273068 -0.000506723 0.0423254 0.0102638 0.0130672 0.00988549
internal_weight=0 4534 35074 3794 32932 4250 2000 1794 28682 1809 2142 1531 1598 27084 740 191 544 622 79 3628 2788 4722 912 1163 22362 1551 368 588 1774 1324 1291 840 1143 1060 344 1561 568 22334 368 108 90 609 1525 1054 227 1189 321 661 970 243 231 119 3810 172 174 137 107 2562 1646 199 396 347 302
internal_count=39608 4534 35074 3794 32932 4250 2000 1794 28682 1809 2142 1531 1598 27084 740 191 544 622 79 3628 2788 4722 912 1163 22362 1551 368 588 1774 1324 1291 840 1143 1060 344 1561 568 22334 368 108 90 609 1525 1054 227 1189 321 661 970 243 231 119 3810 172 174 137 107 2562 1646 199 396 347 302
shrinkage=0.1


Tree=14
num_leaves=64
num_cat=0
split_feature=14 5 2 11 0 14 5 10 14 2 1 5 5 2 7 1 5 23 2 59 41 9 48 1 64 63 2 0 8 39 48 14 5 7 35 13 34 6 14 7 44 37 44 13 2 2 20 33 59 39 60 62 56 10 43 38 13 49 7 2 4 9 5
split_gain=312.485 47.3987 46.7275 31.7927 31.8757 23.7381 12.2932 9.60779 8.15663 8.09 7.04655 6.40647 5.8121 5.51783 5.45647 5.06001 4.6072 4.39325 4.39212 4.17436 4.14256 4.07871 3.80533 3.78065 3.6595 3.64421 3.95415 3.26988 3.22747 3.18252 4.06548 3.06986 3.92377 3.05786 2.97884 2.93542 2.89236 2.86883 2.9441 2.85218 2.73056 2.65025 2.61726 2.60532 2.58811 2.578 2.54419 2.45179 2.37397 2.16325 2.14299 2.1386 2.12145 2.11679 2.38462 2.10939 2.10847 2.08908 2.08192 2.07471 2.57935 2.08791 2.07097
threshold=90.500000000000014 3.5000000000000004 3.5000000000000004 -121.79483318119048 18417.500000000004 264.50000000000006 9.5000000000000018 38.012094773001159 8.5000000000000018 1.5000000000000002 88.500000000000014 6.5000000000000009 1.5000000000000002 1.5000000000000002 2011.5000000000002 9.5000000000000018 20.500000000000004 1.17948507359493 2.5000000000000004 802.6423344017096 0.001301619756806915 4.5000000000000009 7.0199636410081263 416.50000000000006 1.0000112460638804 7.6057201971821114e-06 2.5000000000000004 10805.000000000002 55.500000000000007 1100.198638333595 19.366774672580657 142.50000000000003 4.5000000000000009 1961.5000000000002 1980.1333333333353 1.5000000000000002 6120904.5000000009 38.173125239288858 41.500000000000007 1951.5000000000002 1.8873730273370002 3.4739304812834253 2.8963804358577856 4.5000000000000009 1.5000000000000002 2.5000000000000004 0.0013522102597974901 7867.5000000000009 689.57957637600509 815.6140788034096 0.65219057674977055 0.026496980110466854 4177.155555555556 37.655968513979708 2.5297282080374153e-05 194146.15977859803 2.5000000000000004 3020.7302096641406 1959.5000000000002 2.5000000000000004 302978.49395734706 2.5000000000000004 23.500000000000004
decision_type=10 10 8 2 10 10 8 2 8 8 10 10 10 8 10 10 10 8 10 10 8 8 10 10 8 8 8 10 8 10 10 10 10 8 10 10 2 10 8 8 10 10 10 10 10 8 10 2 10 10 10 10 10 2 10 8 10 8 8 10 8 8 8
left_child=1 3 5 7 8 6 21 12 33 17 13 43 56 28 16 58 19 -10 23 40 -17 -2 39 44 -16 -15 29 -11 -6 37 -31 -4 -33 55 59 36 -14 38 -27 -19 -8 -24 -13 48 -7 52 -22 -18 -3 -40 -49 -32 -29 -30 -55 -5 -1 -43 -9 -21 -61 -62 -46
right_child=2 11 31 4 10 18 14 15 9 27 -12 42 35 25 24 20 47 22 -20 34 46 -23 41 -25 -26 26 -28 45 53 30 51 32 -34 -35 -36 -37 -38 -39 49 -41 -42 57 -44 -45 62 -47 -48 50 -50 -51 -52 -53 -54 54 -56 -57 -58 -59 -60 60 61 -63 -64
leaf_value=-0.0066117755946575587 0.0017648617947550868 0.028777887825995233 -0.015683035344578499 0.0055506644513129005 0.017219584613683166 0.075670870896932252 0.024728334953687786 0.002940027626198498 0.030797569103902436 -0.002888537971455149 0.074097346700727942 0.02942100596521327 0.00036882726481363132 0.040805423641577368 -0.032571462949826602 -0.00059026910448839389 0.076675503825147956 0.013158127772778775 0.035592533255917068 0.033603517518498903 0.030054149281625687 0.020838872345630081 0.049164918363094334 0.082288609445095071 0.022651589435658287 -0.0014758773314367448 -0.0055632229801927903 0.027114313199063357 0.048060359993524121 -0.0021654677895927114 0.027137735721846232 -0.001016345667101595 0.038499480060168678 -0.0074668919149309043 0.046905363241661419 0.0044734470413523471 -0.0055196087066048151 -0.02487512350730274 0.024862213125650554 -0.0014449395697224594 -0.0029485639252858921 0.034234834261811696 -0.0069686675532942728 0.035677796948787775 0.034939219549062393 -0.011973143576882608 0.01076476684715179 0.021342823595001267 0.0090996501638795513 0.010849933093713989 0.054733342785192166 0.05855499076346557 0.0049437471773009587 0.039539013401372364 -0.0038283198362305051 -0.0037321470062391159 0.0056183119022457954 0.01011263925754218 -0.0044094096982124327 0.049022888900204141 -0.015084379506499872 0.020521419006901603 0.051236628646930231
leaf_weight=19319 179 66 129 351 173 37 273 596 82 2324 20 336 1292 40 21 261 30 178 217 946 95 300 20 39 28 154 141 46 81 38 78 245 28 1858 157 539 2354 23 141 538 41 39 21 43 95 86 244 29 862 504 57 30 699 32 21 809 142 452 1091 22 23 58 435
leaf_count=19319 179 66 129 351 173 37 273 596 82 2324 20 336 1292 40 21 261 30 178 217 946 95 300 20 39 28 154 141 46 81 38 78 245 28 1858 157 539 2354 23 141 538 41 39 21 43 95 86 244 29 862 504 57 30 699 32 21 809 142 452 1091 22 23 58 435
internal_value=0 -0.00271701 0.0290373 -0.00342277 0.00171326 0.033345 0.0278473 -0.0051969 -0.000936205 0.00177863 0.0151437 0.0158257 -0.00579551 0.0143339 0.0318659 0.000992251 0.0328507 0.00838773 0.0478005 0.0313847 0.00887948 0.013711 0.00689009 0.052172 -0.00101543 0.0111518 0.0100823 -0.00096346 0.0262434 0.0123612 0.0259665 -0.00297047 0.00303656 -0.00495179 0.0340588 -0.00241468 -0.00343298 0.00994468 0.010947 0.00218543 0.0211145 0.0134821 0.0272804 0.0116142 0.0501005 0.00442027 0.0161703 0.0520604 0.0104992 0.0139131 0.0434737 0.0358648 0.00631267 0.0378936 0.0223557 -0.000923296 -0.00652254 0.0120287 -0.00181293 0.0321361 0.0186583 0.0104111 0.0483154
internal_weight=0 36219 3389 34891 8958 2987 2164 25933 7482 4464 1476 1328 23646 1456 1685 2287 1636 1309 823 1520 600 479 1227 606 49 1149 1109 3155 307 968 146 402 273 3018 1206 4185 3646 822 799 716 314 511 357 971 567 831 339 116 928 645 86 108 745 134 53 1160 19461 491 1687 1049 103 81 530
internal_count=39608 36219 3389 34891 8958 2987 2164 25933 7482 4464 1476 1328 23646 1456 1685 2287 1636 1309 823 1520 600 479 1227 606 49 1149 1109 3155 307 968 146 402 273 3018 1206 4185 3646 822 799 716 314 511 357 971 567 831 339 116 928 645 86 108 745 134 53 1160 19461 491 1687 1049 103 81 530
shrinkage=0.1


Tree=15
num_leaves=64
num_cat=0
split_feature=14 5 2 11 0 14 5 10 14 9 48 5 7 2 2 5 56 9 2 2 5 64 3 23 23 33 1 37 7 11 14 9 48 7 37 60 2 1 10 35 62 10 13 60 0 41 1 7 44 34 42 64 42 12 7 9 5 39 62 7 47 9 44
split_gain=253.113 38.3929 37.9205 25.7521 25.8194 18.9944 10.9953 7.78231 6.60878 6.20736 5.79399 5.18924 5.18529 5.18304 4.71581 4.7078 4.34128 4.31089 4.21798 4.04489 3.95761 3.87018 3.56401 3.54221 3.40479 3.36199 3.21599 2.80331 2.72975 3.12155 2.72912 2.72177 2.61187 3.13615 3.53366 2.59017 2.56741 4.31203 2.54709 2.5217 2.46369 2.39747 2.38266 2.37322 2.36432 2.35252 2.34962 2.30594 2.75363 2.69055 2.8787 2.72986 2.685 2.34366 2.28597 2.27772 2.78985 2.27396 2.54569 2.25744 2.23101 2.18868 2.1815
threshold=90.500000000000014 3.5000000000000004 3.5000000000000004 -121.79483318119048 18417.500000000004 264.50000000000006 3.5000000000000004 38.012094773001159 10.500000000000002 8.5000000000000018 99.950906689468511 6.5000000000000009 2011.5000000000002 1.5000000000000002 2.5000000000000004 1.5000000000000002 47642.166666666657 16.500000000000004 1.5000000000000002 2.5000000000000004 15.500000000000002 0.93503202450570866 178718.50000000003 0.94909014946705106 1.17948507359493 14804.000000000002 292.50000000000006 40.870535714285708 1961.5000000000002 -119.343096152055 481.50000000000006 14.500000000000002 3.9219909931829102 1943.5000000000002 3.6279874213836454 1.8171276499115552 1.5000000000000002 13.500000000000002 36.973861615941409 1963.8090909090902 0.016493578994564152 37.919538428174256 1.5000000000000002 1.1457016829692701 10805.000000000002 0.0011079278453482303 2.5000000000000004 1980.5000000000002 0.95479509250539352 193701.50000000003 0.020152445880858003 1.0103925010175052 0.022903469676110254 1.0000000180025095e-35 1989.5000000000002 54.500000000000007 6.5000000000000009 1061.6902737609853 0.0096971254000221968 1965.5000000000002 68306.836683015325 72.500000000000014 1.3103567638447002
decision_type=10 10 10 2 10 10 8 2 8 10 10 10 10 8 8 10 10 8 8 8 10 10 8 8 8 2 10 10 10 2 10 10 8 8 8 10 10 10 2 8 10 2 10 8 10 8 8 10 8 2 10 10 10 2 10 10 10 8 10 10 10 10 10
left_child=1 3 5 7 8 6 35 15 23 12 14 43 18 24 16 -1 22 36 -8 26 25 -20 -6 -5 -10 -11 57 -16 29 -25 -4 -21 -26 -34 41 -2 37 46 -17 55 -23 -35 -40 -3 -15 -19 -9 49 -49 51 -51 -24 53 62 -36 -27 -57 -7 -59 -48 -18 -33 -52
right_child=2 11 30 4 10 19 9 17 13 20 -12 -13 -14 44 27 38 60 45 21 31 -22 40 47 28 32 39 -28 -29 -30 -31 -32 61 33 34 54 -37 -38 -39 42 -41 -42 -43 -44 -45 -46 -47 59 48 -50 50 52 -53 -54 -55 -56 56 -58 58 -60 -61 -62 -63 -64
leaf_value=-0.0058702830988721401 -0.004053155423258431 0.0085177015163659213 -0.0076708058981845781 0.035144463149101843 0.053585299423762736 0.036035137661254706 0.047969858794701552 -0.0055242906574609219 0.029410952686927939 0.032268931719672843 0.065780924800561663 0.024552393468756865 -0.023010040739817279 -0.0021819646836075206 -0.0093239054218901482 0.0095663479133377555 0.025158894458142969 -0.000841125776844748 0.02632760768095431 0.013230387188998036 0.044507619411357356 0.0023088886957437159 0.007425715359807997 -0.0026832200546430254 -0.0043952010233293875 0.03298698416352272 0.061847816086095624 0.028528774821239972 -0.0066209910987248422 0.011321962175077825 0.016471319835294377 0.062383565008640285 0.028179495950229467 0.013884417333736502 0.0036124629197854968 0.031329229277859368 -0.0035017477007957308 0.036704991855903674 -0.0036142519071469211 0.025861500983126465 0.021479137418542193 0.058250658143134348 0.0037518365483961078 0.023083265095429364 0.0041892282509967491 0.018876897488109692 0.010521243557974741 0.039905758994613211 0.01497795204012021 0.0072177193017284348 0.069364713662518909 -0.02048319019050452 0.010323641255187492 0.016751477518193544 0.026398887406004237 -0.016963173847888476 0.023530859189728897 0.034421827269766433 0.056042996213661246 -0.005463606046371851 0.056950109921119832 0.032522492222574161 0.026578892344100907
leaf_weight=19461 150 842 315 23 21 226 53 257 68 817 21 357 28 1987 131 177 121 89 303 61 185 167 91 1318 187 25 117 23 2026 181 55 30 75 29 696 24 1252 38 3506 250 112 21 502 129 824 189 343 51 338 418 26 57 90 39 47 46 27 77 186 119 27 135 22
leaf_count=19461 150 842 315 23 21 226 53 257 68 817 21 357 28 1987 131 177 121 89 303 61 185 167 91 1318 187 25 117 23 2026 181 55 30 75 29 696 24 1252 38 3506 250 112 21 502 129 824 189 343 51 338 418 26 57 90 39 47 46 27 77 186 119 27 135 22
internal_value=0 -0.00244531 0.0261335 -0.00308049 0.00154194 0.0298367 0.0249443 -0.00467721 -0.000842584 0.027029 0.0136293 0.0142431 0.019105 0.00197987 0.0128766 -0.00521596 0.0148353 0.000893026 0.0209621 0.0426968 0.0309205 0.0185026 0.0127657 -0.0039721 0.00772256 0.0287629 0.0469548 -0.00367058 -0.00422733 -0.000992134 -0.00408211 0.0312792 0.00632464 0.0086341 0.00678554 0.000827174 -0.000722013 0.00387538 -0.00217321 0.0205318 0.0100045 0.0325182 -0.00269165 0.0104528 -0.000314351 0.0125643 0.0021403 0.0120085 0.0182461 0.00874274 0.011744 -0.00332298 0.0224331 0.0349601 0.00505387 0.00693573 -0.00198593 0.0433915 0.0497128 0.00640393 0.0309586 0.0379518 0.0497545
internal_weight=0 36219 3389 34891 8958 3019 2187 25933 7482 2013 1476 1328 663 3934 1455 23646 1301 2287 635 832 1350 582 1153 3548 1123 1165 606 154 3525 1499 370 226 1055 868 793 174 2009 757 4185 348 279 50 4008 971 2811 278 719 1132 389 743 595 148 177 87 743 98 73 489 263 462 148 165 48
internal_count=39608 36219 3389 34891 8958 3019 2187 25933 7482 2013 1476 1328 663 3934 1455 23646 1301 2287 635 832 1350 582 1153 3548 1123 1165 606 154 3525 1499 370 226 1055 868 793 174 2009 757 4185 348 279 50 4008 971 2811 278 719 1132 389 743 595 148 177 87 743 98 73 489 263 462 148 165 48
shrinkage=0.1


Tree=16
num_leaves=64
num_cat=0
split_feature=14 5 5 14 11 7 47 2 33 5 5 0 20 23 33 0 4 0 3 2 0 3 2 3 2 7 9 13 11 14 55 47 5 13 13 10 35 8 39 5 7 43 37 62 48 23 20 5 63 33 60 8 2 0 53 20 3 2 10 42 1 10 64
split_gain=205.054 37.4716 24.0036 19.4211 15.8834 10.217 9.77553 8.05907 7.60769 5.66181 5.07757 4.90809 4.8176 4.63528 4.36431 4.22498 4.14688 4.13235 4.01857 3.58767 6.84919 5.31317 3.5422 4.66363 3.41028 3.24453 3.12838 3.11297 3.59043 2.92834 2.91647 2.88206 3.28834 2.87333 2.75906 2.56875 2.46507 2.37591 2.35835 2.48831 2.35397 2.32023 2.85744 2.30817 2.3062 3.98931 2.40235 2.24582 2.21288 2.17034 2.16516 2.13851 2.11431 3.74857 2.76595 2.22772 2.09495 2.07354 2.07021 2.15317 2.05803 2.03654 2.00746
threshold=61.500000000000007 3.5000000000000004 2.5000000000000004 142.50000000000003 -121.25928412934148 2005.5000000000002 23734.808839161004 2.5000000000000004 6438.5000000000009 12.500000000000002 4.5000000000000009 178469.50000000003 0.0013099408655219602 0.94909014946705106 18209.000000000004 23411.000000000004 16541.745750059803 107383.50000000001 4482228.0000000009 1.5000000000000002 5945.5000000000009 143606.00000000003 2.5000000000000004 5581591.0000000009 3.5000000000000004 1947.5000000000002 41.500000000000007 1.5000000000000002 -122.08623269793848 7.5000000000000009 2009.0714285714303 4481.1007318599759 12.500000000000002 4.5000000000000009 7.5000000000000009 37.289514364379308 1977.0472222222199 2.5000000000000004 1333.1096057738703 9.5000000000000018 1951.5000000000002 3.1668987785229103e-05 13.610479797979801 0.0064527807186880509 6.9589374702628763 1.9426492377354152 0.0013522102597974901 19.500000000000004 5.9725806628644604e-05 31682.000000000004 1.0536900578105253 4.5000000000000009 1.5000000000000002 4450.5000000000009 4.9500659110063809 0.0013099408655219602 3371547.5000000005 1.0000000180025095e-35 37.963933309883963 0.017995435229790201 26.500000000000004 36.76399839536731 0.99394693333497708
decision_type=10 8 10 10 2 10 10 10 2 8 10 10 8 8 2 10 10 8 10 8 10 10 8 8 8 10 10 10 2 10 8 8 10 10 10 2 8 8 10 10 8 10 10 8 8 10 8 10 8 2 10 10 10 10 10 8 8 10 2 8 10 2 10
left_child=2 16 4 7 8 9 12 30 15 50 48 26 29 -10 -7 52 -2 19 -13 20 25 -22 23 41 31 -15 36 -21 -29 -6 34 -12 43 -18 35 -3 -11 -23 39 -37 51 60 -43 -33 62 46 -46 -28 49 -4 -5 -31 53 -1 55 -55 -32 -48 61 -60 -8 -9 -14
right_child=1 3 10 5 6 14 22 58 13 11 24 18 44 17 -16 -17 33 -19 -20 27 21 37 -24 -25 -26 -27 47 28 -30 40 56 32 -34 -35 -36 38 -38 -39 -40 -41 -42 42 -44 -45 45 -47 57 -49 -50 -51 -52 -53 -54 54 -56 -57 -58 -59 59 -61 -62 -63 -64
leaf_value=-0.0010004252516078633 0.038656535830635295 0.024928256624078035 0.0047283261643279902 0.012563669996696614 0.0017786608054518886 0.019541881711040512 0.028599114267465971 0.024576235990971328 0.032256753233206627 0.019612370601901082 -0.016763501862684885 0.081945246587403944 -0.0062298833563671852 0.0014771254194978747 -0.010927012416182972 0.015891304401541666 -0.0033750837000661306 0.038630629195408391 0.042202519451937474 -0.0055111483563228649 0.060669452945391333 0.038837665226310492 -0.0069000092992449512 0.062937927708029751 -0.017428067289292814 -0.0051737739053903846 0.033994881329364242 -0.0035472362370354976 0.0087375590238960247 0.014611748988104481 0.019505004470164962 -0.01241132184289969 0.048298239622797286 0.0272851197689306 0.035177559747627041 0.012061228029799122 0.035805414006917752 0.0060439731450014408 0.032506728075541461 0.027829621285440982 0.0086074933851905504 0.010392928877845407 0.0478036400890548 0.018165818880719716 0.016374876024936768 0.044138853929259564 -0.014160133345225423 0.050577967921842118 0.02753974223259564 -0.015691174325291758 0.030765171479784054 0.045164618868794706 -0.0018684088598495371 0.058479462643819195 0.0079159952868361281 0.019302892046076485 -0.017746536647124837 0.0011881850841509024 0.032198731771067662 -0.0074175243630357412 0.0069719706306403343 -0.0092017581761240988 0.0018078209250770546
leaf_weight=453 26 456 1443 155 646 205 60 20 34 264 24 27 1094 1046 61 174 682 22 441 20704 21 24 51 25 30 2455 490 911 322 63 26 26 35 32 111 729 146 278 77 116 427 35 49 489 95 22 97 98 41 54 113 36 1979 21 191 47 36 951 34 23 165 166 434
leaf_count=453 26 456 1443 155 646 205 60 20 34 264 24 27 1094 1046 61 174 682 22 441 20704 21 24 51 25 30 2455 490 911 322 63 26 26 35 32 111 729 146 278 77 116 427 35 49 489 95 22 97 98 41 54 113 36 1979 21 191 47 36 951 34 23 165 166 434
internal_value=0 0.0200122 -0.00258697 0.0240271 -0.00325415 0.0308033 0.00245108 0.0164729 -0.00409953 0.0336027 0.00767061 0.0360459 0.000937408 -0.00464207 0.0125547 0.00078938 -0.00057245 -0.00469073 0.0444954 -0.00472773 -0.00190119 0.0120322 0.0176468 0.0213949 0.0154398 -0.00318667 0.0320836 -0.00522044 -0.000339042 0.00628915 0.0191258 0.0171577 0.0186379 -0.00200096 0.0200107 0.018789 0.0253787 0.00865009 0.0157526 0.0142259 0.0118286 0.0180338 0.0322158 0.0166221 -0.00139168 0.00195974 0.0011479 0.0367587 0.00461949 0.00399175 0.0202382 0.0257219 -0.00018711 0.00448605 0.0140821 0.0314015 -0.00212492 -0.000232413 -0.000460137 0.0162132 0.0127392 -0.00556972 -0.00394692
internal_weight=0 4534 35074 3794 32932 2000 4250 1794 28682 1734 2142 1466 3865 25817 266 2865 740 25783 468 25761 3824 323 385 334 604 3501 998 21937 1233 1172 1551 574 550 714 1489 1378 410 302 922 845 526 309 84 515 2693 1165 1143 588 1538 1497 268 99 2691 712 259 68 62 1048 243 57 225 186 1528
internal_count=39608 4534 35074 3794 32932 2000 4250 1794 28682 1734 2142 1466 3865 25817 266 2865 740 25783 468 25761 3824 323 385 334 604 3501 998 21937 1233 1172 1551 574 550 714 1489 1378 410 302 922 845 526 309 84 515 2693 1165 1143 588 1538 1497 268 99 2691 712 259 68 62 1048 243 57 225 186 1528
shrinkage=0.1


Tree=17
num_leaves=64
num_cat=0
