tree
version=v3
num_class=1
num_tree_per_iteration=1
label_index=0
max_feature_idx=2
objective=regression
feature_names=units beds value_imprv
feature_infos=[1:5642] [1:8874] [104:630645683]
tree_sizes=832 862 854 855 858 860 856 857 861 860 864 866 858 861 868 865 870 857 867 874 870 860 871 877 873 861 869 878 871 872 849 873 874 879 859 869 869 859 874 865 875 873 865 879 860 865 865 869 866 860 879 870 872 858 861 875 856 878 879 875 867 855 867 854 860 842 863 859 862 852 868 859 872 869 858 865 882 860 856 879 862 873 861 858 850 853 866 857 846 854 864 857 863 851 864 842 853 843 852 869 857 848 886 878 865 852 836 864 870 857 846 868 849 864 876 831 859 851 859 866 872 850 865 858 864 848 863 876 854 853 843 854 840 871 860 860 864 837 872 862 859 858 841 842 875 854 851 851 862 852 849 866 853 855 833 856 863 852 855 848 847 848 853 840 854 827 856 865 853 852 861 860 870 847 850 848 847 852 863 848 875 853 833 845 839 842 849 839 862 843 873 872 859 845 847 841 843 872 878 865 844 860 839 850 863 872 841 861 866 855 826 847 866 863 842 858 858 875 885 851 863 847 850 876 862 857 822 840 868 854 851 888 888 874 875 886 888 859 860 853 891 854 893 854 885 874 855 857 868 880 871 865 890 869 834 857 864 864 874 858 842 840 849 862 873 875 883 857 867 887 865 860 865 869 887 886 875 882 838 873 852 863 854 864 862 852 871 875 867 876 856 855 851 872 855 850 860 872 873 841 859 869 852 855 859 844 858 853 855 850 842 853 869 856 872 861 847 861 859 856 885 865 866 859 846 858 854 857 869 881 851 846 855 869 883 859 885 873 891 861 858 860 846 858 873 878 862 888 881 863 861 859 861 861 874 868 875 865 866 868 862 861 858 851 869 864 867 880 863 860 849 881 859 862 869 861 863 859 851 835 864 855 869 858 859 865 854 863 829 856 838 843 867 847 872 855 859 874 865 848

Tree=0
num_leaves=8
num_cat=0
split_feature=0 0 0 2 0 0 0
split_gain=81072.5 15603.7 12524.1 2468.57 1879.82 1705.76 1473.57
threshold=9.5000000000000018 3.5000000000000004 37.500000000000007 332536.50000000006 5.5000000000000009 99.500000000000014 17.500000000000004
decision_type=10 10 10 8 10 10 10
left_child=1 3 6 -1 -3 -4 -2
right_child=2 4 5 -5 -6 -7 -8
leaf_value=8.0192516383763994 8.1815202803885647 8.0826963487837826 8.3418580667779416 8.0506880456382994 8.1274330957109662 8.4523802457359896 8.2509339345342187
leaf_weight=94057 7951 27370 3689 34012 14300 2247 4970
leaf_count=94057 7951 27370 3689 34012 14300 2247 4970
internal_value=8.06675 8.0449 8.26346 8.0276 8.09805 8.38369 8.20822
internal_weight=0 169739 18857 128069 41670 5936 12921
internal_count=188596 169739 18857 128069 41670 5936 12921
shrinkage=1


Tree=1
num_leaves=8
num_cat=0
split_feature=0 0 0 2 0 0 0
split_gain=65668.7 12639 10185.2 2074.13 1548.21 1522.65 1108.82
threshold=9.5000000000000018 3.5000000000000004 34.500000000000007 422478.50000000006 106.50000000000001 5.5000000000000009 2.5000000000000004
decision_type=10 10 10 8 10 10 10
left_child=1 3 -2 6 -4 -3 -1
right_child=2 5 4 -5 -6 -7 -8
leaf_value=-0.044792416877726726 0.12485152135758995 0.014353217935050192 0.24668225022634127 -0.0075702054505079807 0.35288424295403309 0.05461629013459024 -0.01277144596697884
leaf_weight=93470 12536 27370 4306 22370 2015 14300 12229
leaf_count=93470 12536 27370 4306 22370 2015 14300 12229
internal_value=0 -0.0196679 0.177038 -0.0352332 0.280537 0.0281704 -0.0410877
internal_weight=0 169739 18857 128069 6321 41670 105699
internal_count=188596 169739 18857 128069 6321 41670 105699
shrinkage=0.1


Tree=2
num_leaves=8
num_cat=0
split_feature=0 0 0 2 0 0 1
split_gain=53511.1 11673.5 6774.64 1787.04 1619.46 1097.38 820.249
threshold=11.500000000000002 3.5000000000000004 47.500000000000007 250562.00000000003 5.5000000000000009 19.500000000000004 242.50000000000003
decision_type=10 10 10 8 10 10 10
left_child=1 3 5 -1 -3 -2 -4
right_child=2 4 6 -5 -6 -7 -8
leaf_value=-0.041195744277256592 0.10338379161897902 0.012917896201736868 0.24964611259294067 -0.016999872562280523 0.052369871659400526 0.1654561897041231 0.34774283952471141
leaf_weight=77860 6386 27370 3740 50209 16786 5141 1104
leaf_count=77860 6386 27370 3740 50209 16786 5141 1104
internal_value=0 -0.0164227 0.172769 -0.0317098 0.0279157 0.131068 0.272003
internal_weight=0 172225 16371 128069 44156 11527 4844
internal_count=188596 172225 16371 128069 44156 11527 4844
shrinkage=0.1


Tree=3
num_leaves=8
num_cat=0
split_feature=0 0 0 0 0 2 0
split_gain=43385.2 8016.51 7436.09 1442.47 1335 1325.87 668.186
threshold=8.5000000000000018 2.5000000000000004 29.500000000000004 4.5000000000000009 72.500000000000014 581153.00000000012 14.500000000000002
decision_type=10 10 10 10 10 10 10
left_child=1 5 6 -3 -4 -1 -2
right_child=2 3 4 -5 -6 -7 -8
leaf_value=-0.035261474842393017 0.073752683003918892 0.0029777422704389818 0.18168421072855473 0.037071428008423238 0.26850866521550915 0.0065451781314274596 0.11949682736146135
leaf_weight=103325 7407 38603 3984 18289 3188 8187 5613
leaf_count=103325 7407 38603 3984 18289 3188 8187 5613
internal_value=0 -0.016608 0.138513 0.0139378 0.220278 -0.0321921 0.0934733
internal_weight=0 168404 20192 56892 7172 111512 13020
internal_count=188596 168404 20192 56892 7172 111512 13020
shrinkage=0.1


Tree=4
num_leaves=8
num_cat=0
split_feature=0 0 0 0 2 0 2
split_gain=35202.2 7750.3 4509.17 1723.05 1152.19 912.984 827.191
threshold=11.500000000000002 2.5000000000000004 53.500000000000007 4.5000000000000009 209705.50000000003 22.500000000000004 2481187.0000000005
decision_type=10 10 10 10 8 10 10
left_child=1 4 5 -3 -1 -2 -6
right_child=2 3 -4 -5 6 -7 -8
leaf_value=-0.038409369582333985 0.087723449677932955 0.0026799684673611277 0.22840965676878455 0.037689394646865722 -0.018892283014805968 0.14452247061445797 0.16642490118772779
leaf_weight=59894 7580 38603 4275 22110 51376 4516 242
leaf_count=59894 7580 38603 4275 22110 51376 4516 242
internal_value=0 -0.0133201 0.140129 0.0154294 -0.0289729 0.108929 -0.0180235
internal_weight=0 172225 16371 60713 111512 12096 51618
internal_count=188596 172225 16371 60713 111512 12096 51618
shrinkage=0.1


Tree=5
num_leaves=8
num_cat=0
split_feature=0 0 0 1 2 2 0
split_gain=28830.8 6055.73 4243.13 1088.57 1007.49 611.504 568.317
threshold=7.5000000000000009 27.500000000000004 2.5000000000000004 144.50000000000003 696271.00000000012 180410.00000000003 13.500000000000002
decision_type=10 8 10 10 10 8 10
left_child=2 6 4 -3 5 -1 -2
right_child=1 3 -4 -5 -6 -7 -8
leaf_value=-0.035860811317789024 0.054461396628034189 0.15215287157380661 0.0083254316882079137 0.23614661194167891 0.018605598525153734 -0.020714160378408342 0.092812718836265531
leaf_weight=52005 10678 5334 52846 2171 4828 54679 6055
leaf_count=52005 10678 5334 52846 2171 4828 54679 6055
internal_value=0 0.101814 -0.0150146 0.17645 -0.0260756 -0.0280977 0.0683392
internal_weight=0 24238 164358 7505 111512 106684 16733
internal_count=188596 24238 164358 7505 111512 106684 16733
shrinkage=0.1


Tree=6
num_leaves=8
num_cat=0
split_feature=0 0 0 2 0 0 2
split_gain=23353 4911.75 3436.93 848.966 823.422 600.855 538.972
threshold=7.5000000000000009 31.500000000000004 2.5000000000000004 480921.50000000006 140.50000000000003 15.500000000000002 2818362.5000000005
decision_type=10 10 10 8 10 10 10
left_child=2 5 3 -1 -3 -2 -5
right_child=1 4 -4 6 -6 -7 -8
leaf_value=-0.026706853294802442 0.051227375009802491 0.14566418283193314 0.0074928884710393114 -0.0023862715906164136 0.23079231236124831 0.091553085849937779 0.16465738462665824
leaf_weight=98008 12122 5359 52846 13308 1442 5315 196
leaf_count=98008 12122 5359 52846 13308 1442 5315 196
internal_value=0 0.091633 -0.0135132 -0.023468 0.163714 0.0635191 3.82365e-05
internal_weight=0 24238 164358 111512 6801 17437 13504
internal_count=188596 24238 164358 111512 6801 17437 13504
shrinkage=0.1


Tree=7
num_leaves=8
num_cat=0
split_feature=0 0 0 2 1 2 0
split_gain=18978 4404.25 2452.88 873.612 832.898 524.017 391.401
threshold=6.5000000000000009 25.500000000000004 3.5000000000000004 296519.00000000006 128.50000000000003 1361789.0000000002 13.500000000000002
decision_type=10 10 10 8 10 10 10
left_child=2 6 3 -1 -3 -5 -2
right_child=1 4 -4 5 -6 -7 -8
leaf_value=-0.024774138785917225 0.042379576503130977 0.11915207475950006 0.011045778620971395 -0.0087962861150084042 0.18928592919096776 0.064976743210435936 0.073802853264453294
leaf_weight=87762 12988 5385 33979 39320 2470 987 5705
leaf_count=87762 12988 5385 33979 39320 2470 987 5705
internal_value=0 0.0783728 -0.0128397 -0.0191769 0.141206 -0.0069898 0.0519698
internal_weight=0 26548 162048 128069 7855 40307 18693
internal_count=188596 26548 162048 128069 7855 40307 18693
shrinkage=0.1


Tree=8
num_leaves=8
num_cat=0
split_feature=0 0 0 2 0 0 2
split_gain=15396.2 2900.9 2698.85 740.243 490.168 407.495 393.729
threshold=8.5000000000000018 3.5000000000000004 45.500000000000007 528940.50000000012 18.500000000000004 175.50000000000003 152290.50000000003
decision_type=10 10 10 10 10 10 8
left_child=1 3 4 6 -2 -4 -1
right_child=2 -3 5 -5 -6 -7 -8
leaf_value=-0.026720089191218474 0.048637304003887216 0.013493204589260222 0.13199367950730909 0.0050909096792005294 0.08642399002340255 0.20304648970415415 -0.014855938821462642
leaf_weight=48273 9991 40335 3957 13282 5230 1014 66514
leaf_count=48273 9991 40335 3957 13282 5230 1014 66514
internal_value=0 -0.00989359 0.0825139 -0.0172592 0.061621 0.146487 -0.0198453
internal_weight=0 168404 20192 128069 15221 4971 114787
internal_count=188596 168404 20192 128069 15221 4971 114787
shrinkage=0.1


Tree=9
num_leaves=8
num_cat=0
split_feature=0 0 0 2 2 2 1
split_gain=12630.5 2868.14 1725.04 603.555 580.448 391.472 339.812
threshold=6.5000000000000009 25.500000000000004 2.5000000000000004 12303342.000000002 949356.50000000012 157443.50000000003 80.500000000000014
decision_type=10 10 10 10 10 8 10
left_child=2 -2 4 6 5 -1 -3
right_child=1 3 -4 -5 -6 -7 -8
leaf_value=-0.025585926021213498 0.042629819169712951 0.082737950799130627 0.0048517322004824398 0.17380280726835595 0.035013813229201843 -0.013426143088827364 0.12954446872530984
leaf_weight=44883 18693 3838 50536 1414 2072 64557 2603
leaf_count=44883 18693 3838 50536 1414 2072 64557 2603
internal_value=0 0.0639366 -0.0104746 0.114642 -0.0174203 -0.0184131 0.101654
internal_weight=0 26548 162048 7855 111512 109440 6441
internal_count=188596 26548 162048 7855 111512 109440 6441
shrinkage=0.1


Tree=10
num_leaves=8
num_cat=0
split_feature=0 0 0 2 0 2 1
split_gain=10284.9 2274.44 1457.05 544.233 388.937 331.56 329.709
threshold=10.500000000000002 3.5000000000000004 61.500000000000007 725056.50000000012 4.5000000000000009 197596.50000000003 32.500000000000007
decision_type=10 10 10 10 10 8 10
left_child=1 3 6 5 -3 -1 -2
right_child=2 4 -4 -5 -6 -7 -8
leaf_value=-0.020478496429125175 0.048807379238927862 0.003081963641573439 0.12890850244786228 0.016688639448570738 0.022010412000869745 -0.010069642543075607 0.08409425769475086
leaf_weight=63477 9687 22046 3764 5502 21386 59090 3644
leaf_count=63477 9687 22046 3764 5502 21386 59090 3644
internal_value=0 -0.00737283 0.073966 -0.0140792 0.0124024 -0.0154603 0.058453
internal_weight=0 171501 17095 128069 43432 122567 13331
internal_count=188596 171501 17095 128069 43432 122567 13331
shrinkage=0.1


Tree=11
num_leaves=8
num_cat=0
split_feature=0 0 0 1 2 2 2
split_gain=8353.45 1900.22 1172.66 464.511 454.617 314.21 259.264
threshold=6.5000000000000009 24.500000000000004 2.5000000000000004 195.50000000000003 2206747.0000000005 237025.50000000003 319896.50000000006
decision_type=10 10 10 10 10 8 8
left_child=2 -2 4 -3 5 -1 -4
right_child=1 3 6 -5 -6 -7 -8
leaf_value=-0.018934198344425057 0.034361429063999444 0.080919330295745731 -0.0025872365775479055 0.14210618042131304 0.1099417570686969 -0.0080948267914132989 0.011769152371062498
leaf_weight=66474 18507 6508 26933 1533 294 44744 23603
leaf_count=66474 18507 6508 26933 1533 294 44744 23603
internal_value=0 0.0519963 -0.00851846 0.0925845 -0.0142451 -0.0145734 0.00411796
internal_weight=0 26548 162048 8041 111512 111218 50536
internal_count=188596 26548 162048 8041 111512 111218 50536
shrinkage=0.1


Tree=12
num_leaves=8
num_cat=0
split_feature=0 0 2 2 0 0 2
split_gain=6872.62 1556.68 939.731 410.866 331.284 299.51 288.833
threshold=11.500000000000002 3.5000000000000004 3918971.5000000005 816017.50000000012 220.50000000000003 1.0000000180025095e-35 414605.50000000006
decision_type=10 10 8 10 10 10 8
left_child=1 3 -2 -1 -4 -5 -3
right_child=2 6 4 5 -6 -7 -8
leaf_value=-0.012476809184418416 0.047321065616114127 0.0034080839758223284 0.09055004215987747 0.07301595439170698 0.17114862643426199 0.0058958485511084735 0.019788987613626678
leaf_weight=124131 11940 25563 3843 847 588 3091 18593
leaf_count=124131 11940 25563 3843 847 588 3091 18593
internal_value=0 -0.00588551 0.0619164 -0.011468 0.101246 0.0203323 0.0103057
internal_weight=0 172225 16371 128069 4431 3938 44156
internal_count=188596 172225 16371 128069 4431 3938 44156
shrinkage=0.1


Tree=13
num_leaves=8
num_cat=0
split_feature=2 0 0 2 0 0 0
split_gain=5636.83 1606.37 949.786 412.955 349.365 226.775 204.684
threshold=1061228.0000000002 4.5000000000000009 54.500000000000007 199391.50000000003 2.5000000000000004 242.50000000000003 16.500000000000004
decision_type=8 10 8 10 8 10 10
left_child=1 3 6 -1 -5 -4 -2
right_child=2 -3 5 4 -6 -7 -8
leaf_value=-0.014754736070993382 0.029312877957772456 0.018183699514735127 0.08741980300746037 -0.011238965092789495 0.0022429780450922182 0.15911876260508456 0.056346081188001246
leaf_weight=70560 6320 25000 4122 36641 40429 494 5030
leaf_count=70560 6320 25000 4122 36641 40429 494 5030
internal_value=0 -0.00525764 0.0568475 -0.00922726 -0.00416667 0.095093 0.0412932
internal_weight=0 172630 15966 147630 77070 4616 11350
internal_count=188596 172630 15966 147630 77070 4616 11350
shrinkage=0.1


Tree=14
num_leaves=8
num_cat=0
split_feature=0 0 1 0 2 2 2
split_gain=4612.68 1190.92 540.214 360.415 302.826 245.835 177.867
threshold=12.500000000000002 2.5000000000000004 78.500000000000014 5.5000000000000009 3301731.0000000005 121745.00000000001 24248749.500000004
decision_type=10 10 10 10 10 8 10
left_child=1 4 6 -3 5 -1 -2
right_child=2 3 -4 -5 -6 -7 -8
leaf_value=-0.018151779436603163 0.041449655721706009 0.0015633701646218748 0.087129956700330247 0.018022882523404792 0.13086793316475775 -0.0078223539801208965 0.14837829942190195
leaf_weight=32561 10089 43927 3827 19083 151 78800 158
leaf_count=32561 10089 43927 3827 19083 151 78800 158
internal_value=0 -0.00444113 0.0550715 0.00654824 -0.0106507 -0.0108426 0.0430984
internal_weight=0 174522 14074 63010 111512 111361 10247
internal_count=188596 174522 14074 63010 111512 111361 10247
shrinkage=0.1


Tree=15
num_leaves=8
num_cat=0
split_feature=2 0 0 2 0 1 0
split_gain=3853.41 1120.16 585.384 326.926 263.314 168.071 258.428
threshold=1159183.5000000002 4.5000000000000009 66.500000000000014 282491.00000000006 2.5000000000000004 25.500000000000004 96.500000000000014
decision_type=8 10 8 10 8 10 10
left_child=1 3 -2 -1 -5 6 -3
right_child=2 5 -4 4 -6 -7 -8
leaf_value=-0.010993875739541289 0.03740045499037916 0.013676295850145207 0.082806334809591889 -0.0084733528711900229 0.005623882624884711 0.050981673037154479 -0.21858171870311105
leaf_weight=95059 10616 24704 3876 25664 27391 1238 48
leaf_count=95059 10616 24704 3876 25664 27391 1238 48
internal_value=0 -0.00412398 0.0495446 -0.00748399 -0.00119529 0.0150243 0.0132259
internal_weight=0 174104 14492 148114 53055 25990 24752
internal_count=188596 174104 14492 148114 53055 25990 24752
shrinkage=0.1


Tree=16
num_leaves=8
num_cat=0
split_feature=2 0 0 0 0 2 0
split_gain=3158.1 747.667 643.019 267.375 215.711 167.647 161.696
threshold=889858.50000000012 2.5000000000000004 20.500000000000004 164.50000000000003 5.5000000000000009 109890.50000000001 1.5000000000000002
decision_type=8 10 8 10 10 10 10
left_child=1 5 -2 -4 -3 6 -1
right_child=2 4 3 -5 -6 -7 -8
leaf_value=-0.023867168744400723 0.021121707078655943 0.00061147788081202751 0.051092830104503453 0.10408766116403666 0.013682508581153684 -0.007044342274096076 -0.0086673319047180369
leaf_weight=13554 10565 41894 8035 1080 18072 80925 14471
leaf_count=13554 10565 41894 8035 1080 18072 80925 14471
internal_value=0 -0.00441697 0.0379114 0.057372 0.0045507 -0.00935277 -0.0160186
internal_weight=0 168916 19680 9115 59966 108950 28025
internal_count=188596 168916 19680 9115 59966 108950 28025
shrinkage=0.1


Tree=17
num_leaves=8
num_cat=0
split_feature=2 0 0 2 0 0 0
split_gain=2577.37 631.559 534.631 249.813 142.038 141.642 140.293
threshold=776990.00000000012 18.500000000000004 2.5000000000000004 12303342.000000002 342.50000000000006 5.5000000000000009 398.00000000000006
decision_type=8 8 10 10 8 10 10
left_child=2 -2 -1 -3 -5 -4 -7
right_child=1 3 5 4 -6 6 -8
leaf_value=-0.0085450271825766831 0.016750313178305297 0.043472845890340214 0.00024959117257050467 0.074896381596734285 0.16130613761478002 0.011563549585691606 -0.24707053275335406
leaf_weight=107876 13287 8638 40868 1231 225 16450 21
leaf_count=107876 13287 8638 40868 1231 225 16450 21
internal_value=0 0.0310753 -0.00439773 0.0499316 0.0882495 0.00340488 0.0112338
internal_weight=0 23381 165215 10094 1456 57339 16471
internal_count=188596 23381 165215 10094 1456 57339 16471
shrinkage=0.1


Tree=18
num_leaves=8
num_cat=0
split_feature=0 2 1 0 2 0 2
split_gain=2130.83 504.045 340.935 321.214 182.326 174.167 124.397
threshold=10.500000000000002 371004.50000000006 58.500000000000007 3.5000000000000004 8087830.0000000009 2.5000000000000004 8087830.0000000009
decision_type=10 8 10 8 10 10 10
left_child=1 5 6 -3 -5 -1 -2
right_child=2 3 -4 4 -6 -7 -8
leaf_value=-0.0091439696582791864 0.022955719053047777 -0.0033744642646939683 0.056523866309679011 0.012404216330505648 0.18990246422813628 -0.00072264008522419855 0.075569749606785225
leaf_weight=88178 11905 23213 4723 26013 58 34039 467
leaf_count=88178 11905 23213 4723 26013 58 34039 467
internal_value=0 -0.00335591 0.0336672 0.00518127 0.0127991 -0.00679852 0.0249417
internal_weight=0 171501 17095 49284 26071 122217 12372
internal_count=188596 171501 17095 49284 26071 122217 12372
shrinkage=0.1


Tree=19
num_leaves=8
num_cat=0
split_feature=2 0 0 2 0 0 0
split_gain=1761.99 541.587 260.972 192.22 156.276 134.383 116.274
threshold=1285693.5000000002 4.5000000000000009 86.500000000000014 132656.00000000003 1.5000000000000002 2.5000000000000004 398.00000000000006
decision_type=8 10 8 10 10 8 10
left_child=1 3 -2 4 -1 -5 -3
right_child=2 6 -4 5 -6 -7 -8
leaf_value=-0.017693540401316637 0.027826761096696313 0.010578268008337421 0.061634828479252092 -0.0064976582689131165 -0.0056129997361701192 0.00070380280259497595 -0.22481889100301836
leaf_weight=17999 10067 26983 2953 48503 26436 55634 21
leaf_count=17999 10067 26983 2953 48503 26436 55634 21
internal_value=0 -0.00263213 0.0354946 -0.00499995 -0.0105064 -0.00265036 0.0103952
internal_weight=0 175576 13020 148572 44435 104137 27004
internal_count=188596 175576 13020 148572 44435 104137 27004
shrinkage=0.1


Tree=20
num_leaves=8
num_cat=0
split_feature=0 2 0 2 0 2 2
split_gain=1466.79 427.768 197.99 181.435 160.529 145.679 130.925
threshold=13.500000000000002 455036.00000000006 4.5000000000000009 6067400.5000000009 1.5000000000000002 69919.000000000015 8087830.0000000009
decision_type=10 10 8 8 8 8 10
left_child=1 4 -3 -2 -1 -6 -4
right_child=3 2 6 -5 5 -7 -8
leaf_value=-0.021090452089475326 0.025510227350968889 0.00082732598705594236 0.015040541957277626 0.053354456876524549 -0.012893124261932046 -0.0030131626399738727 0.16556268476139444
leaf_weight=5950 10553 21512 15644 3007 17156 114716 58
leaf_count=5950 10553 21512 15644 3007 17156 114716 58
internal_value=0 -0.00245462 0.00705902 0.0316848 -0.00502344 -0.0042985 0.0155965
internal_weight=0 175036 37214 13560 137822 131872 15702
internal_count=188596 175036 37214 13560 137822 131872 15702
shrinkage=0.1


Tree=21
num_leaves=8
num_cat=0
split_feature=2 2 0 0 0 0 0
split_gain=1214.47 333.536 233.041 171.329 109.214 107.567 89.9668
threshold=725056.50000000012 2818362.5000000005 2.5000000000000004 256.50000000000006 3.5000000000000004 1.5000000000000002 398.00000000000006
decision_type=8 10 10 8 8 8 10
left_child=2 4 5 -3 -2 -1 -4
right_child=1 3 6 -5 -6 -7 -8
leaf_value=-0.018116226397754037 0.00013193074542738423 0.035598020789131039 0.0021323667260347698 0.093653354206324646 0.01800494618999994 -0.0050883562812596419 -0.20488803046090262
leaf_weight=6765 4402 5323 55869 562 15308 100346 21
leaf_count=6765 4402 5323 55869 562 15308 100346 21
internal_value=0 0.0202509 -0.00317987 0.0411421 0.0140132 -0.00591118 0.00205458
internal_weight=0 25595 163001 5885 19710 107111 55890
internal_count=188596 25595 163001 5885 19710 107111 55890
shrinkage=0.1


Tree=22
num_leaves=8
num_cat=0
split_feature=0 1 2 0 2 0 1
split_gain=1004.53 252.913 218.795 171.788 106.205 101.664 97.5686
threshold=7.5000000000000009 44.500000000000007 271778.00000000006 2.5000000000000004 3301731.0000000005 1.5000000000000002 14.500000000000002
decision_type=10 10 10 8 10 10 8
left_child=2 6 5 -4 -5 -1 -2
right_child=1 -3 3 4 -6 -7 -8
leaf_value=-0.010004775394782565 -0.0037434688702817488 0.037590687046235811 -0.0044262524701313274 0.0055351138630426377 0.084747711286660948 -0.0033318210276465847 0.016449588816897457
leaf_weight=36379 2820 5623 27597 38904 170 61308 15795
leaf_count=36379 2820 5623 27597 38904 170 61308 15795
internal_value=0 0.0190047 -0.00280264 0.0016138 0.00587975 -0.00581685 0.0133905
internal_weight=0 24238 164358 66671 39074 97687 18615
internal_count=188596 24238 164358 66671 39074 97687 18615
shrinkage=0.1


Tree=23
num_leaves=8
num_cat=0
split_feature=2 0 2 2 0 0 0
split_gain=835.094 269.672 149.877 127.967 110.545 101.708 76.3097
threshold=657917.00000000012 16.500000000000004 106596.50000000001 24248749.500000004 4.5000000000000009 1.5000000000000002 1.5000000000000002
decision_type=8 8 10 10 10 10 8
left_child=2 -2 5 -3 6 -1 -4
right_child=1 3 4 -5 -6 -7 -8
leaf_value=-0.015699523895183188 0.0078083738025513773 0.024710338699831247 -0.014135529104085252 0.06794795321603847 0.0062172689082379811 -0.0044665578781916543 -0.0018269898520867451
leaf_weight=12953 17794 10761 5297 731 17125 21341 102594
leaf_count=12953 17794 10761 5297 731 17125 21341 102594
internal_value=0 0.01552 -0.00285305 0.0274607 -0.00124659 -0.0087093 -0.00243129
internal_weight=0 29286 159310 11492 125016 34294 107891
internal_count=188596 29286 159310 11492 125016 34294 107891
shrinkage=0.1


Tree=24
num_leaves=8
num_cat=0
split_feature=2 2 0 0 2 0 1
split_gain=679.855 236.287 147.152 143.707 88.0028 79.2526 77.3175
threshold=1361789.0000000002 371004.50000000006 3.5000000000000004 148.50000000000003 69919.000000000015 96.500000000000014 8.5000000000000018
decision_type=10 8 8 8 10 10 8
left_child=1 4 -3 -2 -1 -6 -4
right_child=3 2 6 -5 5 -7 -8
leaf_value=-0.010429792726145094 0.01886185066390713 -0.0020878994994985565 -0.0038505931085424843 0.050975252141658468 -0.0027970477211706527 -0.15119547065761355 0.01060127189623543
leaf_weight=17896 10160 22589 4311 1615 105786 36 26203
leaf_count=17896 10160 22589 4311 1615 105786 36 26203
internal_value=0 -0.00154937 0.00403031 0.0232664 -0.00394432 -0.00284753 0.00855952
internal_weight=0 176821 53103 11775 123718 105822 30514
internal_count=188596 176821 53103 11775 123718 105822 30514
shrinkage=0.1


Tree=25
num_leaves=8
num_cat=0
split_feature=0 1 2 0 2 1 1
split_gain=567.979 163.494 123.146 115.036 83.434 77.6749 72.9228
threshold=6.5000000000000009 42.500000000000007 234909.00000000003 2.5000000000000004 8087830.0000000009 13.500000000000002 439.50000000000006
decision_type=10 10 10 8 10 8 10
left_child=2 5 -1 -4 -5 -2 -3
right_child=1 6 3 4 -6 -7 -8
leaf_value=-0.0048210732876423183 -0.0048836757582582943 0.025661599941858411 -0.0038066000383566545 0.0038947677542119034 0.12943896101963409 0.012037386936949338 0.073668558372273332
leaf_weight=85765 3208 5428 32491 43739 53 17576 336
leaf_count=85765 3208 5428 32491 43739 53 17576 336
internal_value=0 0.0135583 -0.00222123 0.000701772 0.00404671 0.00942563 0.0284601
internal_weight=0 26548 162048 76283 43792 20784 5764
internal_count=188596 26548 162048 76283 43792 20784 5764
shrinkage=0.1


Tree=26
num_leaves=8
num_cat=0
split_feature=2 0 2 2 1 0 0
split_gain=476.432 167.546 91.2983 78.4054 75.0754 165.654 70.2505
threshold=625835.50000000012 18.500000000000004 82145.500000000015 24248749.500000004 8.5000000000000018 96.500000000000014 1.5000000000000002
decision_type=8 8 10 10 10 10 10
left_child=2 -2 6 -3 5 -4 -1
right_child=1 3 4 -5 -6 -7 -8
leaf_value=-0.015263310476018841 0.0058928494973409865 0.018939556940339844 -0.0016345258013569328 0.052838605562691293 0.01138964770115216 -0.21921755484172276 -0.003839058930891022
leaf_weight=8531 20548 10240 129386 731 4540 35 14585
leaf_count=8531 20548 10240 129386 731 4540 35 14585
internal_value=0 0.0112203 -0.00225146 0.0211983 -0.00124998 -0.00169337 -0.0080552
internal_weight=0 31519 157077 10971 133961 129421 23116
internal_count=188596 31519 157077 10971 133961 129421 23116
shrinkage=0.1


Tree=27
num_leaves=8
num_cat=0
split_feature=0 1 2 0 0 1 2
split_gain=389.237 111.892 88.6802 69.6724 69.6262 66.9697 52.1844
threshold=6.5000000000000009 67.500000000000014 410542.00000000006 6.5000000000000009 1.5000000000000002 12.500000000000002 59052.000000000007
decision_type=10 10 10 8 8 8 10
left_child=2 5 4 -4 -1 -2 -6
right_child=1 -3 3 -5 6 -7 -8
leaf_value=-0.013946504075469521 -0.0056845859140887828 0.026073589300104973 0.00093520836990922682 0.014627961468816654 -0.0085662049212765646 0.010521230144131073 -0.0018571494877411309
leaf_weight=5644 2937 4260 31899 4206 12998 19351 107301
leaf_count=5644 2937 4260 31899 4206 12998 19351 107301
internal_value=0 0.011224 -0.0018388 0.00253033 -0.00309133 0.00838571 -0.00258205
internal_weight=0 26548 162048 36105 125943 22288 120299
internal_count=188596 26548 162048 36105 125943 22288 120299
shrinkage=0.1


Tree=28
num_leaves=8
num_cat=0
split_feature=2 0 0 0 1 0 2
split_gain=327.287 134.854 68.7253 67.7877 59.5526 148.757 48.8686
threshold=564559.50000000012 16.500000000000004 1.5000000000000002 206.50000000000003 7.5000000000000009 96.500000000000014 69919.000000000015
decision_type=8 8 8 10 10 10 10
left_child=2 -2 -1 -3 5 6 -4
right_child=1 3 4 -5 -6 -7 -8
leaf_value=-0.012159049494050739 0.004166648550519513 0.015187049671173167 -0.007004124446836746 0.047294699904071959 0.0075537399526899654 -0.21119161002776204 -0.0012923107811574281
leaf_weight=6437 24381 11620 17084 697 6776 34 121567
leaf_count=6437 24381 11620 17084 697 6776 34 121567
internal_value=0 0.00847526 -0.00204759 0.017004 -0.00160013 -0.00204738 -0.0019961
internal_weight=0 36698 151898 12317 145461 138685 138651
internal_count=188596 36698 151898 12317 145461 138685 138651
shrinkage=0.1


Tree=29
num_leaves=8
num_cat=0
split_feature=0 1 1 1 2 0 2
split_gain=274.284 107.642 74.9035 70.3552 68.7009 49.9833 42.6286
threshold=5.5000000000000009 15.500000000000002 6.5000000000000009 382.50000000000006 8087830.0000000009 1.5000000000000002 171572.00000000003
decision_type=10 8 10 10 10 8 10
left_child=2 -2 4 -3 5 -1 -7
right_child=1 3 -4 -5 -6 6 -8
leaf_value=-0.010371267311577692 -0.0032069324944115334 0.010400386387901849 0.0099303482868327748 0.04951880017999942 0.10392963736638672 -0.0038804667956502149 -0.00036893898295517122
leaf_weight=7158 6568 26121 5293 468 61 58582 84345
leaf_count=7158 6568 26121 5293 468 61 58582 84345
internal_value=0 0.00825708 -0.00176134 0.0110889 -0.00217349 -0.00221662 -0.00180822
internal_weight=0 33157 155439 26589 150146 150085 142927
internal_count=188596 33157 155439 26589 150146 150085 142927
shrinkage=0.1


Tree=30
num_leaves=8
num_cat=0
split_feature=2 0 0 1 0 2 1
split_gain=235.694 95.6036 74.4252 61.8769 69.8503 70.2688 55.6015
threshold=1557501.5000000002 2.5000000000000004 288.50000000000006 23.500000000000004 96.500000000000014 725056.50000000012 6.5000000000000009
decision_type=10 10 8 10 10 8 8
left_child=1 -1 -2 4 6 -6 -3
right_child=2 3 -4 -5 5 -7 -8
leaf_value=-0.0026547255178031789 0.012581804670400917 -0.0076331449860203284 0.048705176030141198 0.018076330645110692 -0.18349878810346129 0.039004174552180554 0.002568839379852157
leaf_weight=110909 9696 5873 606 2346 40 22 59104
leaf_count=110909 9696 5873 606 2346 40 22 59104
internal_value=0 -0.000849768 0.0147067 0.00212101 0.00154549 -0.104546 0.00164672
internal_weight=0 178294 10302 67385 65039 62 64977
internal_count=188596 178294 10302 67385 65039 62 64977
shrinkage=0.1


Tree=31
num_leaves=8
num_cat=0
split_feature=2 0 0 0 2 1 1
split_gain=200.495 101.962 44.1177 42.4744 38.2199 33.7054 31.1455
threshold=509895.00000000006 64.500000000000014 2.5000000000000004 1.5000000000000002 51126.500000000007 10.500000000000002 605.00000000000011
decision_type=8 8 10 8 10 8 10
left_child=3 2 -2 -1 -5 -4 -3
right_child=1 6 5 4 -6 -7 -8
leaf_value=-0.0098585568441391519 -0.0019581961950041987 0.017008296675764516 -0.0016790376326888967 -0.0073429970981620102 -0.00094231441369321844 0.0076436624021564417 0.066490948866479674
leaf_weight=6204 9169 5907 4675 10052 129709 22750 130
leaf_count=6204 9169 5907 4675 10052 129709 22750 130
internal_value=0 0.00603319 0.00404681 -0.00176207 -0.00140267 0.00605447 0.0180738
internal_weight=0 42631 36594 145965 139761 27425 6037
internal_count=188596 42631 36594 145965 139761 27425 6037
shrinkage=0.1


Tree=32
num_leaves=8
num_cat=0
split_feature=2 2 0 0 1 0 2
split_gain=163.799 75.3508 69.8383 59.7701 46.6335 43.8475 48.2166
threshold=2005409.5000000002 313528.00000000006 3.5000000000000004 288.50000000000006 7.5000000000000009 1.5000000000000002 97109.500000000015
decision_type=10 8 8 8 8 10 10
left_child=1 5 -3 -2 -4 6 -1
right_child=3 2 4 -5 -6 -7 -8
leaf_value=-0.010489000774822869 0.011656846111183157 -0.0017451095243652135 -0.0073603251711484219 0.046579879868859142 0.0056420281482593114 -0.00076973917472593009 -0.0027191173103324421
leaf_weight=11154 7569 29357 2980 524 37090 71796 28126
leaf_count=11154 7569 29357 2980 524 37090 71796 28126
internal_value=0 -0.000624026 0.0019603 0.013918 0.00467505 -0.00223934 -0.00492546
internal_weight=0 180503 69427 8093 40070 111076 39280
internal_count=188596 180503 69427 8093 40070 111076 39280
shrinkage=0.1


Tree=33
num_leaves=8
num_cat=0
split_feature=2 0 1 0 0 0 2
split_gain=135.841 71.5409 34.0585 96.2212 30.2259 29.5204 26.4885
threshold=509895.00000000006 64.500000000000014 8.5000000000000018 96.500000000000014 1.5000000000000002 2.5000000000000004 51126.500000000007
decision_type=8 8 10 10 8 10 10
left_child=2 5 3 4 -1 -2 -6
right_child=1 -3 -4 -5 6 -7 -8
leaf_value=-0.0084765344765856138 -0.0016099367166879652 0.015051817741840782 0.0082951982900770545 -0.17242696451192552 -0.0062919850693095043 0.0049444460681972741 -0.00094678285403980227
leaf_weight=6204 9169 6037 3500 33 10006 27425 126222
leaf_count=6204 9169 6037 3500 33 10006 27425 126222
internal_value=0 0.00496605 -0.0014504 -0.00168983 -0.00165027 0.00330218 -0.00133939
internal_weight=0 42631 145965 142465 142432 36594 136228
internal_count=188596 42631 145965 142465 142432 36594 136228
shrinkage=0.1


Tree=34
num_leaves=8
num_cat=0
split_feature=2 1 0 0 2 2 0
split_gain=113.951 55.1478 47.286 46.4976 44.0911 41.8347 47.735
threshold=2005409.5000000002 19.500000000000004 96.500000000000014 288.50000000000006 725056.50000000012 182279.00000000003 2.5000000000000004
decision_type=10 10 10 8 8 10 8
left_child=1 2 5 -2 -4 -1 -7
right_child=3 -3 4 -5 -6 6 -8
leaf_value=-0.0026694535511943918 0.0096142578872750618 0.011327391356735864 -0.15152239929884673 0.040416709917778765 0.012091704271733762 -0.0022426411855008465 0.0021109996278630351
leaf_weight=68946 7569 3845 40 524 28 40189 67455
leaf_count=68946 7569 3845 40 524 28 40189 67455
internal_value=0 -0.000520483 -0.000778354 0.0116086 -0.0841519 -0.000746249 0.000485563
internal_weight=0 180503 176658 8093 68 176590 107644
internal_count=188596 180503 176658 8093 68 176590 107644
shrinkage=0.1


Tree=35
num_leaves=8
num_cat=0
split_feature=0 1 1 2 1 2 0
split_gain=94.8329 73.4547 50.8805 41.8042 31.6944 25.7293 21.1884
threshold=4.5000000000000009 10.500000000000002 5.5000000000000009 8087830.0000000009 324.50000000000006 71560.500000000015 1.5000000000000002
decision_type=10 8 10 10 10 8 8
left_child=2 -2 3 6 5 -3 -1
right_child=1 4 -4 -5 -6 -7 -8
leaf_value=-0.0068465866942703903 -0.0065328831722788437 -0.013780558493752962 0.0079603691119694512 0.081945459842681895 0.027966648437772003 0.0061374882553398187 -0.0012655740650080755
leaf_weight=7158 5275 662 5908 60 654 31890 136989
leaf_count=7158 5275 662 5908 60 654 31890 136989
internal_value=0 0.00442896 -0.00113534 -0.00150798 0.00617033 0.00573242 -0.00154271
internal_weight=0 38481 150115 144207 33206 32552 144147
internal_count=188596 38481 150115 144207 33206 32552 144147
shrinkage=0.1


Tree=36
num_leaves=8
num_cat=0
split_feature=2 0 1 0 0 2 1
split_gain=81.2938 49.5227 28.8267 62.8615 25.0009 46.4888 20.268
threshold=497709.00000000006 80.500000000000014 65.500000000000014 96.500000000000014 1.5000000000000002 100212.00000000001 4.5000000000000009
decision_type=8 8 10 10 10 10 8
left_child=2 -2 3 4 5 -1 -6
right_child=1 -3 -4 -5 6 -7 -8
leaf_value=-0.0085036253268011026 0.0025028286882585573 0.01270517379676161 0.063473259773699262 -0.1413202652707696 -0.0073891719077882672 -0.0012010894667963694 3.3305857603881011e-05
leaf_weight=11751 38684 5425 69 32 3827 33772 95036
leaf_count=11751 38684 5425 69 32 3827 33772 95036
internal_value=0 0.00375762 -0.00114713 -0.001178 -0.00114694 -0.00308612 -0.000254019
internal_weight=0 44109 144487 144418 144386 45523 98863
internal_count=188596 44109 144487 144418 144386 45523 98863
shrinkage=0.1


Tree=37
num_leaves=8
num_cat=0
split_feature=2 1 0 0 2 2 0
split_gain=69.2545 37.756 33.2421 32.9169 29.6768 27.3452 33.7483
threshold=2005409.5000000002 23.500000000000004 92.500000000000014 342.50000000000006 725056.50000000012 237025.50000000003 3.5000000000000004
decision_type=10 10 10 8 8 10 8
left_child=1 2 5 -2 -4 -1 -7
right_child=3 -3 4 -5 -6 6 -8
leaf_value=-0.0018054787434045089 0.0075766606042858608 0.010611248330454541 -0.12588259659707546 0.036657505128759801 0.0056905369833111768 -0.001444112440523231 0.0024778044893498832
leaf_weight=89016 7683 3058 40 410 30 40553 47806
leaf_count=89016 7683 3058 40 410 30 40553 47806
internal_value=0 -0.000405761 -0.000595623 0.00904993 -0.0694941 -0.000568432 0.000677812
internal_weight=0 180503 177445 8093 70 177375 88359
internal_count=188596 180503 177445 8093 70 177375 88359
shrinkage=0.1


Tree=38
num_leaves=8
num_cat=0
split_feature=0 1 1 2 1 2 2
split_gain=56.287 56.2627 38.3658 30.1028 24.7552 20.4889 16.3586
threshold=4.5000000000000009 10.500000000000002 5.5000000000000009 12303342.000000002 734.00000000000011 89031.500000000015 51126.500000000007
decision_type=10 8 10 10 10 8 10
left_child=2 -2 3 6 5 -3 -1
right_child=1 4 -4 -5 -6 -7 -8
leaf_value=-0.0050864342701187467 -0.0061815215392853132 -0.0089362449160680438 0.0070236075416582854 0.078818985954561133 0.060847851992407935 0.0052529931854634346 -0.00093053185668107814
leaf_weight=10192 5275 1051 5908 47 79 32076 133968
leaf_count=10192 5275 1051 5908 47 79 32076 133968
internal_value=0 0.00341214 -0.000874679 -0.00119826 0.00493616 0.00480282 -0.00122435
internal_weight=0 38481 150115 144207 33206 33127 144160
internal_count=188596 38481 150115 144207 33206 33127 144160
shrinkage=0.1


Tree=39
num_leaves=8
num_cat=0
split_feature=2 1 0 1 2 2 0
split_gain=48.5637 30.1317 30.2959 24.0392 21.1311 20.456 37.9186
threshold=2481187.0000000005 26.500000000000004 96.500000000000014 320.50000000000006 725056.50000000012 171572.00000000003 1.5000000000000002
decision_type=10 10 10 8 8 10 10
left_child=1 2 5 -2 -4 6 -1
right_child=3 -3 4 -5 -6 -7 -8
leaf_value=-0.0049506398251804237 0.0041302084012531676 0.0095105027835818944 -0.11378416445106268 0.016890862824020851 -0.0047600594931282107 0.00035444369975960125 3.7893474934853921e-05
leaf_weight=24698 4399 3074 40 2222 32 114353 39778
leaf_count=24698 4399 3074 40 2222 32 114353 39778
internal_value=0 -0.000306088 -0.000474763 0.00841267 -0.065329 -0.000448651 -0.001873
internal_weight=0 181975 178901 6621 72 178829 64476
internal_count=188596 181975 178901 6621 72 178829 64476
shrinkage=0.1


Tree=40
num_leaves=8
num_cat=0
split_feature=2 1 1 0 0 1 2
split_gain=41.4259 33.7708 27.9671 25.8054 19.7178 23.7049 20.3488
threshold=6067400.5000000009 619.00000000000011 26.500000000000004 332.50000000000006 1.5000000000000002 4.5000000000000009 234909.00000000003
decision_type=10 8 10 10 8 8 10
left_child=2 -2 3 4 -1 -6 -7
right_child=1 -3 -4 -5 5 6 -8
leaf_value=-0.0055282144505123523 0.0056068806558672041 0.030390501051379082 0.0069161437892870884 -0.10001654355571821 -0.007111343951264686 -0.0010917196413073071 0.0011077045310516308
leaf_weight=7156 2209 732 5383 26 4786 82793 85511
leaf_count=7156 2209 732 5383 26 4786 82793 85511
internal_value=0 0.0117754 -0.000186537 -0.000398626 -0.000384256 -0.000171591 2.57521e-05
internal_weight=0 2941 185655 180272 180246 173090 168304
internal_count=188596 2941 185655 180272 180246 173090 168304
shrinkage=0.1


Tree=41
num_leaves=8
num_cat=0
split_feature=2 0 1 0 2 1 0
split_gain=34.4345 31.7892 20.1241 14.4563 32.4523 15.4199 13.715
threshold=497709.00000000006 86.500000000000014 134.50000000000003 1.5000000000000002 109890.50000000001 3.5000000000000004 96.500000000000014
decision_type=10 8 10 10 10 8 10
left_child=2 -2 3 4 -1 -5 -7
right_child=1 -3 -4 5 -6 6 -8
leaf_value=-0.006329097906566588 0.0014777752001282904 0.0098560295512778694 0.059193991347482169 -0.012493023072983628 -0.00049792380219309932 6.4496621681795589e-05 -0.051305761904670649
leaf_weight=13606 38467 5133 56 992 31969 98321 52
leaf_count=13606 38467 5133 56 992 31969 98321 52
internal_value=0 0.00246414 -0.000740962 -0.000764119 -0.00223877 -8.77533e-05 3.73423e-05
internal_weight=0 43600 144996 144940 45575 99365 98373
internal_count=188596 43600 144996 144940 45575 99365 98373
shrinkage=0.1


Tree=42
num_leaves=8
num_cat=0
split_feature=0 1 1 2 1 2 0
split_gain=29.6687 42.0376 28.6083 20.8078 18.849 16.5873 11.5155
threshold=4.5000000000000009 12.500000000000002 5.5000000000000009 8087830.0000000009 1024.0000000000002 71560.500000000015 1.5000000000000002
decision_type=10 8 10 10 10 8 8
left_child=2 -2 3 6 5 -3 -1
right_child=1 4 -4 -5 -6 -7 -8
leaf_value=-0.0048490342001170673 -0.004392593439318946 -0.01184554373327437 0.0061853254139407187 0.057962720782185596 0.092654705792665493 0.0043346158517894532 -0.0007346491014551715
leaf_weight=7158 7233 647 5908 60 24 30577 136989
leaf_count=7158 7233 647 5908 60 24 30577 136989
internal_value=0 0.00247726 -0.00063503 -0.000914453 0.00406743 0.00399934 -0.00093896
internal_weight=0 38481 150115 144207 31248 31224 144147
internal_count=188596 38481 150115 144207 31248 31224 144147
shrinkage=0.1


Tree=43
num_leaves=8
num_cat=0
split_feature=2 1 1 0 2 1 0
split_gain=26.2008 25.3365 18.3752 19.8296 15.3489 13.2833 15.1579
threshold=8087830.0000000009 672.50000000000011 39.500000000000007 332.50000000000006 49154.000000000007 4.5000000000000009 1.5000000000000002
decision_type=10 8 10 10 10 8 8
left_child=2 -2 3 4 -1 -6 -7
right_child=1 -3 -4 -5 5 6 -8
leaf_value=-0.0040610617310679071 0.0046797503442917469 0.029499150669181781 0.0062499847115237437 -0.087607919782973262 -0.0052421460112164388 -0.0045547248920776752 0.00029589815217872714
leaf_weight=10089 1658 547 4410 26 4786 6712 160368
leaf_count=10089 1658 547 4410 26 4786 6712 160368
internal_value=0 0.0108368 -0.000128199 -0.000282763 -0.000270285 -4.7756e-05 0.000101037
internal_weight=0 2205 186391 181981 181955 171866 167080
internal_count=188596 2205 186391 181981 181955 171866 167080
shrinkage=0.1


Tree=44
num_leaves=8
num_cat=0
split_feature=2 0 1 0 2 2 0
split_gain=21.6981 24.8837 16.3232 13.0056 10.7972 10.706 9.33841
threshold=521998.50000000006 148.50000000000003 29.500000000000004 96.500000000000014 178711.00000000003 44636.500000000007 3.5000000000000004
decision_type=10 8 10 10 8 10 8
left_child=2 -2 3 5 -5 6 -1
right_child=1 -3 -4 4 -6 -7 -8
leaf_value=-0.001282139534066226 0.0012793664946956574 0.010027531516133024 0.02125942297684906 -0.10923703297972681 -0.0097513237347205475 -0.00038492202233370086 -0.0079935917073181654
leaf_weight=5073 37080 3564 342 20 24 138987 3506
leaf_count=5073 37080 3564 342 20 24 138987 3506
internal_value=0 0.00204648 -0.000562189 -0.000612748 -0.0549721 -0.00059654 -0.00402492
internal_weight=0 40644 147952 147610 44 147566 8579
internal_count=188596 40644 147952 147610 44 147566 8579
shrinkage=0.1


Tree=45
num_leaves=8
num_cat=0
split_feature=2 1 0 1 1 2 1
split_gain=19.545 21.536 15.9187 31.2004 23.7198 11.0693 9.89945
threshold=24248749.500000004 878.50000000000011 4.5000000000000009 10.500000000000002 8.5000000000000018 89031.500000000015 4.5000000000000009
decision_type=10 8 10 8 10 8 10
left_child=2 -2 4 -4 6 -5 -1
right_child=1 -3 3 5 -6 -7 -8
leaf_value=-0.0008008776909249135 0.005268527830356526 0.042895987186320997 -0.005362273255795664 -0.007166081284091891 0.01437353718350839 0.0032666221477412878 0.0032912168808041722
leaf_weight=142861 520 215 5275 1051 1061 31446 6167
leaf_count=142861 520 215 5275 1051 1061 31446 6167
internal_value=0 0.0162752 -6.36762e-05 0.00177128 -0.000525468 0.00292921 -0.000631541
internal_weight=0 735 187861 37772 150089 32497 149028
internal_count=188596 735 187861 37772 150089 32497 149028
shrinkage=0.1


Tree=46
num_leaves=8
num_cat=0
split_feature=1 2 2 0 1 0 0
split_gain=16.8995 24.4024 12.977 12.6512 10.6046 13.3697 13.1518
threshold=98.500000000000014 24248749.500000004 418820.00000000006 465.50000000000006 4.5000000000000009 1.5000000000000002 1.5000000000000002
decision_type=10 10 8 10 8 10 8
left_child=1 3 -2 4 5 -1 -6
right_child=2 -3 -4 -5 6 -7 -8
leaf_value=0.030384266574181758 0.064574078716433211 0.035601610743532651 0.0065313218861180362 -0.066204299244644313 -0.0042568797103979417 -0.0055215111107961914 0.00014687119777915395
leaf_weight=106 39 191 3125 29 7058 4787 173261
leaf_count=106 39 191 3125 29 7058 4787 173261
internal_value=0 -0.000123651 0.00724677 -0.000160486 -0.000150145 -0.00474366 -2.54993e-05
internal_weight=0 185432 3164 185241 185212 4893 180319
internal_count=188596 185432 3164 185241 185212 4893 180319
shrinkage=0.1


Tree=47
num_leaves=8
num_cat=0
split_feature=2 0 0 2 1 0 1
split_gain=14.4895 22.5971 11.4123 22.1369 9.1863 10.7371 8.80452
threshold=414605.50000000006 148.50000000000003 1.5000000000000002 90510.000000000015 8.5000000000000018 5.5000000000000009 1024.0000000000002
decision_type=10 8 10 10 10 10 10
left_child=2 -2 3 -1 -4 -6 -3
right_child=1 6 4 -5 5 -7 -8
leaf_value=-0.0060126860853152615 0.00069182082294926548 0.0072333685032569921 -9.8711586473462375e-05 -0.00066265605561762787 0.015638386320707284 0.0017235147821085624 0.069236869591733682
leaf_weight=10051 50792 5374 86160 33550 791 1855 23
leaf_count=10051 50792 5374 86160 33550 791 1855 23
internal_value=0 0.00134552 -0.000570993 -0.00189596 7.95227e-05 0.00588325 0.0074976
internal_weight=0 56189 132407 43601 88806 2646 5397
internal_count=188596 56189 132407 43601 88806 2646 5397
shrinkage=0.1


Tree=48
num_leaves=8
num_cat=0
split_feature=0 1 1 2 2 1 0
split_gain=12.7292 26.7861 16.9632 13.0976 10.8433 10.2067 9.52058
threshold=4.5000000000000009 15.500000000000002 5.5000000000000009 24248749.500000004 71560.500000000015 921.00000000000011 9.5000000000000018
decision_type=10 8 10 10 8 10 10
left_child=2 6 3 -1 -3 -6 -2
right_child=1 4 -4 -5 5 -7 -8
leaf_value=-0.00064391513737699401 -0.0017307766135093335 -0.0098653505240271621 0.0048359216401819161 0.070338224361722296 0.0032499461423707459 0.058895480158654125 -0.010344037982476156
leaf_weight=144181 6968 638 5908 26 29269 33 1573
leaf_count=144181 6968 638 5908 26 29269 33 1573
internal_value=0 0.00162264 -0.000415954 -0.000631117 0.0030318 0.00331261 -0.00331709
internal_weight=0 38481 150115 144207 29940 29302 8541
internal_count=188596 38481 150115 144207 29940 29302 8541
shrinkage=0.1


Tree=49
num_leaves=8
num_cat=0
split_feature=1 2 2 0 2 1 0
split_gain=10.881 17.6908 10.6001 10.4854 8.9369 8.76887 10.8623
threshold=93.500000000000014 24248749.500000004 418820.00000000006 465.50000000000006 29436.500000000004 4.5000000000000009 1.5000000000000002
decision_type=10 10 8 10 8 8 10
left_child=1 3 -2 4 -1 6 -6
right_child=2 -3 -4 -5 5 -7 -8
leaf_value=-0.0049726525369666354 0.0575053059328825 0.030477211781082647 0.0050616287371010159 -0.060258295631100391 0.027448001232894384 9.1616355273628413e-05 -0.0049183782522487281
leaf_weight=3724 39 189 3276 29 106 176476 4757
leaf_count=3724 39 189 3276 29 106 176476 4757
internal_value=0 -0.0001016 0.00567861 -0.000132825 -0.000123403 -2.38181e-05 -0.00421288
internal_weight=0 185281 3315 185092 185063 181339 4863
internal_count=188596 185281 3315 185092 185063 181339 4863
shrinkage=0.1


Tree=50
num_leaves=8
num_cat=0
split_feature=2 0 1 1 0 0 2
split_gain=9.66141 15.6931 10.674 7.50284 7.84457 7.49328 20.5629
threshold=455036.00000000006 148.50000000000003 134.50000000000003 8.5000000000000018 2.5000000000000004 1.5000000000000002 132656.00000000003
decision_type=10 8 10 8 10 10 10
left_child=2 3 5 -2 -5 6 -1
right_child=1 -3 -4 4 -6 -7 -8
leaf_value=-0.0041170162843864036 -0.0030498437507702676 0.0067967374555317111 0.043617855769328098 -0.0011675807493224219 0.0019555502134884161 6.105502569781698e-05 0.00025362477906686677
leaf_weight=18051 4925 4549 55 11144 28897 94308 26667
leaf_count=18051 4925 4549 55 11144 28897 94308 26667
internal_value=0 0.00119955 -0.00042706 0.000633313 0.00108634 -0.000444484 -0.00151064
internal_weight=0 49515 139081 44966 40041 139026 44718
internal_count=188596 49515 139081 44966 40041 139026 44718
shrinkage=0.1


Tree=51
num_leaves=8
num_cat=0
split_feature=1 2 0 1 0 0 1
split_gain=8.81606 7.68024 11.9057 8.05273 7.95619 7.29597 6.16339
threshold=1024.0000000000002 455036.00000000006 148.50000000000003 8.5000000000000018 5.5000000000000009 96.500000000000014 6.5000000000000009
decision_type=10 10 8 10 10 10 8
left_child=1 3 6 5 -5 -1 -3
right_child=-2 2 -4 4 -6 -7 -8
leaf_value=-0.00048988070048359099 0.060604376718401909 -0.0038508143317158051 0.0059502326588099057 0.012484031984004721 0.0013424960588848244 -0.043748387885399358 0.00088003359895477663
leaf_weight=135994 24 2947 4527 917 2129 39 42019
leaf_count=135994 24 2947 4527 917 2129 39 42019
internal_value=0 -7.71327e-06 0.0010621 -0.000388419 0.00469666 -0.000502283 0.000569981
internal_weight=0 188572 49493 139079 3046 136033 44966
internal_count=188596 188572 49493 139079 3046 136033 44966
shrinkage=0.1


Tree=52
num_leaves=8
num_cat=0
split_feature=1 0 1 1 2 0 1
split_gain=7.25012 7.05881 11.7888 8.87565 6.66338 5.12391 17.986
threshold=921.00000000000011 1.5000000000000002 3.5000000000000004 1.5000000000000002 29436.500000000004 2.5000000000000004 6.5000000000000009
decision_type=10 8 8 10 8 10 8
left_child=1 3 -3 -1 -4 -6 -7
right_child=-2 2 4 -5 5 6 -8
leaf_value=-0.0034514461806592206 0.046868145975256063 -0.009695699483320927 -0.0040770044023874822 0.030905076650608529 -0.00020191920847487303 -0.0045701618004681645 0.0013195349763369206
leaf_weight=7088 33 1217 3604 76 100545 5597 70436
leaf_count=7088 33 1217 3604 76 100545 5597 70436
internal_value=0 -8.20231e-06 0.000113388 -0.00308697 0.000179641 0.00026652 0.000885978
internal_weight=0 188563 181399 7164 180182 176578 76033
internal_count=188596 188563 181399 7164 180182 176578 76033
shrinkage=0.1


Tree=53
num_leaves=8
num_cat=0
split_feature=1 2 0 0 1 0 2
split_gain=6.37219 6.05853 12.6835 6.17295 5.60473 7.05576 6.33208
threshold=605.00000000000011 59052.000000000007 3.5000000000000004 1.5000000000000002 4.5000000000000009 1.5000000000000002 2818362.5000000005
decision_type=10 8 8 10 8 10 8
left_child=1 2 3 -1 5 -3 -7
right_child=-2 4 -4 -5 -6 6 -8
leaf_value=-0.010020321113083056 0.021880906638365477 0.022519554329539043 -0.0057083276478616558 0.001275527100319787 0.00023620395487503081 -0.0035743380194930823 -0.059963032636442232
leaf_weight=518 133 104 5578 7325 170278 4640 20
leaf_count=518 133 104 5578 7325 170278 4640 20
internal_value=0 -1.54415e-05 -0.00206306 0.00052948 0.000141556 -0.00324143 -0.00381635
internal_weight=0 188463 13421 7843 175042 4764 4660
internal_count=188596 188463 13421 7843 175042 4764 4660
shrinkage=0.1


Tree=54
num_leaves=8
num_cat=0
split_feature=1 2 2 0 0 1 1
split_gain=5.75561 13.0732 9.41157 8.14614 5.31467 8.59825 6.19922
threshold=102.50000000000001 24248749.500000004 918002.50000000012 465.50000000000006 1.5000000000000002 3.5000000000000004 1.5000000000000002
decision_type=10 10 8 10 8 8 10
left_child=1 3 -2 4 6 -6 -1
right_child=2 -3 -4 -5 5 -7 -8
leaf_value=-0.0030646866810468947 0.041960467028503236 0.02587485036995147 0.0034948841221787695 -0.053093817110719359 -0.0083588281098731024 7.5452511477546184e-05 0.02564824483308353
leaf_weight=7088 65 194 2972 29 1217 176955 76
leaf_count=7088 65 194 2972 29 1217 176955 76
internal_value=0 -7.06742e-05 0.00431815 -9.78283e-05 -8.95359e-05 1.78423e-05 -0.00276008
internal_weight=0 185559 3037 185365 185336 178172 7164
internal_count=188596 185559 3037 185365 185336 178172 7164
shrinkage=0.1


Tree=55
num_leaves=8
num_cat=0
split_feature=1 2 0 0 1 1 2
split_gain=5.33827 5.26558 5.15602 4.92723 17.5651 15.8634 8.17321
threshold=1024.0000000000002 42341.000000000007 3.5000000000000004 2.5000000000000004 6.5000000000000009 4.5000000000000009 8087830.0000000009
decision_type=10 8 8 10 8 10 10
left_child=1 2 -1 5 -5 6 -3
right_child=-2 3 -4 4 -6 -7 -8
leaf_value=-0.0005519445125959304 0.047159272835900386 -0.00048537247293565784 -0.0059718491692286177 -0.0045301828617697482 0.0011597957807705963 0.011779399447053671 0.037064018078019907
leaf_weight=4619 24 104367 2831 5883 69745 1069 58
leaf_count=4619 24 104367 2831 5883 69745 1069 58
internal_value=0 -6.00208e-06 -0.00261151 0.000101169 0.00071718 -0.000340446 -0.000464517
internal_weight=0 188572 7450 181122 75628 105494 104425
internal_count=188596 188572 7450 181122 75628 105494 104425
shrinkage=0.1


Tree=56
num_leaves=8
num_cat=0
split_feature=1 2 2 0 1 1 0
split_gain=4.81165 5.3029 4.48354 4.18039 6.81187 4.9872 4.09776
threshold=344.50000000000006 2206747.0000000005 29436.500000000004 1.5000000000000002 3.5000000000000004 1.5000000000000002 2.5000000000000004
decision_type=10 10 8 8 8 10 10
left_child=2 -2 6 5 -5 -4 -1
right_child=1 -3 3 4 -6 -7 -8
leaf_value=-0.0018756247965546887 0.059735371088609102 0.0073202468528116267 -0.0026237137693507161 -0.0073533557740151833 0.00018787007329921509 0.02313204507073878 -0.010393615247463584
leaf_weight=3033 20 553 6976 1206 176038 76 694
leaf_count=3033 20 553 6976 1206 176038 76 694
internal_value=0 0.00914975 -2.78839e-05 4.15589e-05 0.000136558 -0.00234614 -0.00346175
internal_weight=0 573 188023 184296 177244 7052 3727
internal_count=188596 573 188023 184296 177244 7052 3727
shrinkage=0.1


Tree=57
num_leaves=8
num_cat=0
split_feature=2 0 0 2 2 0 1
split_gain=4.48617 14.5661 6.6351 11.5397 5.45749 4.7567 8.86064
threshold=356858.00000000006 206.50000000000003 1.5000000000000002 129617.50000000001 129617.50000000001 2.5000000000000004 8.5000000000000018
decision_type=10 8 10 10 8 10 8
left_child=2 5 3 4 -1 -2 -7
right_child=1 -3 -4 -5 -6 6 -8
leaf_value=-0.0032511984944300406 -0.0011308871835136419 0.005164807828812362 0.00017004178385118658 3.0754962715190869e-05 -0.035695876338734077 -0.0028769248386463814 0.0013549185790070898
leaf_weight=17384 19130 6472 79765 24054 52 5736 36003
leaf_count=17384 19130 6472 79765 24054 52 5736 36003
internal_value=0 0.000654458 -0.000363464 -0.00138914 -0.00334796 0.000174887 0.000773356
internal_weight=0 67341 121255 41490 17436 60869 41739
internal_count=188596 67341 121255 41490 17436 60869 41739
shrinkage=0.1


Tree=58
num_leaves=8
num_cat=0
split_feature=1 2 0 1 1 2 0
split_gain=3.9915 3.84629 3.35279 5.43634 4.16629 2.85218 11.6067
threshold=1024.0000000000002 19569.500000000004 1.5000000000000002 3.5000000000000004 1.0000000180025095e-35 296519.00000000006 148.50000000000003
decision_type=10 8 8 8 10 10 8
left_child=1 -1 4 -4 -3 -5 -7
right_child=-2 2 3 5 -6 6 -8
leaf_value=-0.0050624071087348177 0.040778859332203869 -0.0023901610584144118 -0.0065553806544941754 -0.00018836501429570824 0.017584431213590334 0.00015839952010764363 0.0038482273017244658
leaf_weight=1492 24 7016 1212 100371 106 68641 9734
leaf_count=1492 24 7016 1212 100371 106 68641 9734
internal_value=0 -5.19002e-06 3.51423e-05 0.00011936 -0.00209287 0.000164619 0.000616668
internal_weight=0 188572 187080 179958 7122 178746 78375
internal_count=188596 188572 187080 179958 7122 178746 78375
shrinkage=0.1


Tree=59
num_leaves=8
num_cat=0
split_feature=1 2 0 1 1 2 2
split_gain=3.44824 3.10862 2.85404 13.059 12.1366 6.35679 6.78401
threshold=672.50000000000011 19569.500000000004 2.5000000000000004 4.5000000000000009 6.5000000000000009 8087830.0000000009 6067400.5000000009
decision_type=10 8 10 10 8 10 8
left_child=1 -1 3 5 -4 6 -3
right_child=-2 2 4 -5 -6 -7 -8
leaf_value=-0.004556166678795227 0.018849568461912887 -0.00040119726148031174 -0.0038476428737260998 0.010663416033123187 0.00085904620627355675 0.032689715890567107 -0.026590423047015768
leaf_weight=1492 97 109033 5938 1076 70803 58 99
leaf_count=1492 97 109033 5938 1076 70803 58 99
internal_value=0 -9.69984e-06 2.65733e-05 -0.000299334 0.000494856 -0.000407365 -0.000424955
internal_weight=0 188499 187007 110266 76741 109190 109132
internal_count=188596 188499 187007 110266 76741 109190 109132
shrinkage=0.1


Tree=60
num_leaves=8
num_cat=0
split_feature=1 2 1 0 2 1 0
split_gain=2.90954 2.85488 6.13305 7.18806 8.37147 5.87675 7.2955
threshold=1024.0000000000002 521998.50000000006 29.500000000000004 96.500000000000014 178711.00000000003 42.500000000000007 4.5000000000000009
decision_type=10 10 10 10 8 8 8
left_child=1 2 3 -1 -5 -3 -7
right_child=-2 5 -4 4 -6 6 -8
leaf_value=-0.00022716353553146919 0.034816016153005579 -0.0011872254108899435 0.013206950891899933 -0.088433716390281913 -0.00083322518815596904 -0.00027421973453348154 0.002905168071564085
leaf_weight=147566 24 11403 340 20 24 13010 16209
leaf_count=147566 24 11403 340 20 24 13010 16209
internal_value=0 -4.43111e-06 -0.000208313 -0.000239213 -0.0406516 0.000738131 0.00148952
internal_weight=0 188572 147950 147610 44 40622 29219
internal_count=188596 188572 147950 147610 44 40622 29219
shrinkage=0.1


Tree=61
num_leaves=8
num_cat=0
split_feature=2 0 2 1 2 1 0
split_gain=2.61642 3.84575 2.98626 2.44989 3.6857 2.15851 4.25626
threshold=42341.000000000007 3.5000000000000004 14896.500000000002 392.50000000000006 3918971.5000000005 3.5000000000000004 1.5000000000000002
decision_type=8 8 10 10 10 8 10
left_child=1 2 -1 5 -5 6 -2
right_child=3 -3 -4 4 -6 -7 -8
leaf_value=-0.0077781802649903422 0.015911394069817935 -0.0047387654145828843 0.00077951327496285187 0.048447491029011358 0.0055017650231282671 8.6852416755109184e-05 -0.0056657282334415622
leaf_weight=452 99 2831 4167 21 413 179419 1194
leaf_count=452 99 2831 4167 21 413 179419 1194
internal_value=0 -0.00183664 -5.79142e-05 7.55355e-05 0.00757978 5.75132e-05 -0.00401365
internal_weight=0 7450 4619 181146 434 180712 1293
internal_count=188596 7450 4619 181146 434 180712 1293
shrinkage=0.1


Tree=62
num_leaves=8
num_cat=0
split_feature=0 1 1 1 2 2 2
split_gain=2.5412 3.41371 3.01235 2.25502 2.18997 1.92783 1.79517
threshold=1.5000000000000002 3.5000000000000004 1.5000000000000002 878.50000000000011 14896.500000000002 59052.000000000007 371004.50000000006
decision_type=8 8 10 10 8 10 10
left_child=2 -2 5 4 -3 -1 -6
right_child=1 3 -4 -5 6 -7 -8
leaf_value=-0.007945298648199298 -0.0052055064233082317 -0.0053970445464891562 0.01795568804158584 0.023277210793163423 -0.00010488856791626911 -0.0015975003751820867 0.00055989671996098812
leaf_weight=516 1217 721 76 42 117319 6572 62133
leaf_count=516 1217 721 76 42 117319 6572 62133
internal_value=0 7.29415e-05 -0.00184728 0.000108587 0.000103186 -0.00205961 0.000125285
internal_weight=0 181432 7164 180215 180173 7088 179452
internal_count=188596 181432 7164 180215 180173 7088 179452
shrinkage=0.1


Tree=63
num_leaves=8
num_cat=0
split_feature=0 1 1 2 1 1 0
split_gain=2.05838 2.7651 2.44001 1.90914 8.48088 3.44221 6.29162
threshold=1.5000000000000002 3.5000000000000004 1.5000000000000002 24248749.500000004 64.500000000000014 605.00000000000011 465.50000000000006
decision_type=8 8 10 10 10 10 10
left_child=2 -2 -1 5 -5 6 -3
right_child=1 3 -4 4 -6 -7 -8
leaf_value=-0.00185365297718907 -0.0046849556902272644 7.925852503312679e-05 0.01616011905410376 0.024115479699994162 -0.00091103131542813118 0.037180700081400578 -0.046502640329558281
leaf_weight=7088 1217 179426 76 179 556 25 29
leaf_count=7088 1217 179426 76 179 556 25 29
internal_value=0 6.56473e-05 -0.00166255 9.77284e-05 0.00518386 7.68998e-05 7.17309e-05
internal_weight=0 181432 7164 180215 735 179480 179455
internal_count=188596 181432 7164 180215 735 179480 179455
shrinkage=0.1


Tree=64
num_leaves=8
num_cat=0
split_feature=2 0 0 2 1 1 0
split_gain=1.9441 8.29634 3.32734 3.26531 2.2615 1.83175 1.53888
threshold=59052.000000000007 3.5000000000000004 1.5000000000000002 14896.500000000002 22.500000000000004 1024.0000000000002 2.5000000000000004
decision_type=8 8 10 10 10 10 10
left_child=1 2 -1 -4 -3 6 -2
right_child=5 4 3 -5 -6 -7 -8
leaf_value=-0.0068086316278447041 -0.00016953837126279145 -0.0042318949010267141 -0.0069491988178385705 0.0020131124311227682 0.028646248809638477 0.027713592622118696 0.0004301456006481394
leaf_weight=518 100783 5557 432 6893 21 24 74368
leaf_count=518 100783 5557 432 6893 21 24 74368
internal_value=0 -0.00115994 0.000936817 0.00148455 -0.00410812 8.88689e-05 8.50836e-05
internal_weight=0 13421 7843 7325 5578 175175 175151
internal_count=188596 13421 7843 7325 5578 175175 175151
shrinkage=0.1


Tree=65
num_leaves=8
num_cat=0
split_feature=1 2 2 0 1 0 0
split_gain=1.77244 7.01674 6.90581 5.07269 3.92921 3.92842 3.79055
threshold=102.50000000000001 24248749.500000004 918002.50000000012 465.50000000000006 195.50000000000003 223.00000000000003 33.500000000000007
decision_type=10 10 8 10 10 8 10
left_child=1 3 4 6 -2 -3 -1
right_child=2 5 -4 -5 -6 -7 -8
leaf_value=7.5844585281235536e-06 0.01644626016329442 0.0042917016860186813 0.001691072955094579 -0.041879314389722103 0.067864923243937281 0.032765514306724072 -0.0034525800265275079
leaf_weight=182114 42 94 2972 29 23 100 3222
leaf_count=182114 42 94 2972 29 23 100 3222
internal_value=0 -3.92194e-05 0.00239628 -5.9113e-05 0.0346406 0.0189689 -5.25693e-05
internal_weight=0 185559 3037 185365 65 194 185336
internal_count=188596 185559 3037 185365 65 194 185336
shrinkage=0.1


Tree=66
num_leaves=8
num_cat=0
split_feature=2 1 0 2 1 0 1
split_gain=1.67854 5.39511 4.84966 6.74554 4.71195 7.16092 11.4946
threshold=521998.50000000006 29.500000000000004 96.500000000000014 178711.00000000003 42.500000000000007 10.500000000000002 11.500000000000002
decision_type=10 10 10 8 8 10 10
left_child=1 2 -1 -4 5 6 -2
right_child=4 -3 3 -5 -6 -7 -8
leaf_value=-0.0001755334944514779 -0.0015570558502156443 0.012389040926787241 -0.076271479693241426 0.0023632204082484048 0.0012415778165411509 -0.0043685886308287387 0.0076789267072663731
leaf_weight=147566 5282 342 20 24 29241 4312 1809
leaf_count=147566 5282 342 20 24 29241 4312 1809
internal_value=0 -0.000156364 -0.000185431 -0.0333798 0.000569197 -0.00115501 0.000799155
internal_weight=0 147952 147610 44 40644 11403 7091
internal_count=188596 147952 147610 44 40644 11403 7091
shrinkage=0.1


Tree=67
num_leaves=8
num_cat=0
split_feature=0 2 0 1 0 0 1
split_gain=1.75827 1.63375 3.56289 2.22626 1.84154 1.62805 10.4818
threshold=821.00000000000011 29436.500000000004 2.5000000000000004 5.5000000000000009 4.5000000000000009 2.5000000000000004 4.5000000000000009
decision_type=10 8 10 10 10 10 10
left_child=1 2 -1 4 -4 6 -3
right_child=-2 5 3 -5 -6 -7 -8
leaf_value=-0.00059705381957356803 0.029648669129237533 -0.000308561313575983 -0.0076670416575200092 0.015326885880298308 -0.022528245633620086 0.00039235113098731251 0.009628942913591244
leaf_weight=3033 20 107407 559 37 98 76370 1072
leaf_count=3033 20 107407 559 37 98 76370 1072
internal_value=0 -3.14449e-06 -0.00207604 -0.0085397 -0.00988378 3.86501e-05 -0.000210358
internal_weight=0 188576 3727 694 657 184849 108479
internal_count=188596 188576 3727 694 657 184849 108479
shrinkage=0.1


Tree=68
num_leaves=8
num_cat=0
split_feature=0 1 1 2 0 2 0
split_gain=1.45939 2.1842 2.00347 1.42077 1.41528 1.40594 1.51366
threshold=1.5000000000000002 3.5000000000000004 1.0000000180025095e-35 982705.00000000012 821.00000000000011 19569.500000000004 2.5000000000000004
decision_type=8 8 10 8 10 8 10
left_child=2 3 -1 -2 5 6 -3
right_child=1 4 -4 -5 -6 -7 -8
leaf_value=-0.001604846594409189 -0.0034596881850051196 -0.0015598603608508578 0.012245984186356853 -0.020673873945139351 0.026683801235631112 0.00010595132116755519 -0.010171208810345157
leaf_weight=7058 1167 1199 106 50 20 178750 246
leaf_count=7058 1167 1199 106 50 20 178750 246
internal_value=0 5.52765e-05 -0.00139991 -0.00416693 8.37893e-05 8.08369e-05 -0.00302588
internal_weight=0 181432 7164 1217 180215 180195 1445
internal_count=188596 181432 7164 1217 180215 180195 1445
shrinkage=0.1


Tree=69
num_leaves=8
num_cat=0
split_feature=1 2 0 2 0 2 0
split_gain=1.37468 2.39238 1.44218 4.22682 2.14765 1.21841 5.87085
threshold=392.50000000000006 3918971.5000000005 465.50000000000006 3918971.5000000005 303.00000000000006 59052.000000000007 3.5000000000000004
decision_type=10 10 10 8 10 10 8
left_child=2 -2 4 -4 5 6 -1
right_child=1 -3 3 -5 -6 -7 -8
leaf_value=0.00087795239677292418 0.038547300689277197 0.0039473593663249141 -0.047560910252935212 0.015297321025282147 0.022601660924209729 5.8130709790436889e-05 -0.0032674201600610855
leaf_weight=7903 21 413 23 20 42 174156 6018
leaf_count=7903 21 413 23 20 42 174156 6018
internal_value=0 0.00562155 -1.29662e-05 -0.0183245 -8.78059e-06 -1.38298e-05 -0.000914078
internal_weight=0 434 188162 43 188119 188077 13921
internal_count=188596 434 188162 43 188119 188077 13921
shrinkage=0.1


Tree=70
num_leaves=8
num_cat=0
split_feature=1 0 2 0 1 2 2
split_gain=1.22069 7.0096 4.9063 2.53664 6.35213 5.42865 6.28431
threshold=5.5000000000000009 2.5000000000000004 709995.00000000012 2.5000000000000004 5.5000000000000009 8087830.0000000009 6067400.5000000009
decision_type=8 10 10 10 10 10 8
left_child=1 2 -1 4 5 6 -2
right_child=3 -3 -4 -5 -6 -7 -8
leaf_value=0.0029265624257626172 -0.00030228550825673554 -0.0044571893969859678 -0.013076571936436071 0.00050215556212249764 0.011650681293766839 0.030544565663787354 -0.026592352089809847
leaf_weight=3146 107568 3478 204 73606 446 57 91
leaf_count=3146 107568 3478 204 73606 446 57 91
internal_value=0 -0.00131265 0.00195204 4.93088e-05 -0.000258861 -0.000308173 -0.000324507
internal_weight=0 6828 3350 181768 108162 107716 107659
internal_count=188596 6828 3350 181768 108162 107716 107659
shrinkage=0.1


Tree=71
num_leaves=8
num_cat=0
split_feature=0 0 1 1 2 2 2
split_gain=1.19925 1.14774 1.78577 1.64537 1.24336 1.10597 1.07771
threshold=821.00000000000011 1.5000000000000002 3.5000000000000004 1.5000000000000002 59052.000000000007 1285693.5000000002 19569.500000000004
decision_type=10 8 8 10 10 8 8
left_child=1 3 5 4 -1 -3 -4
right_child=-2 2 6 -5 -6 -7 -8
leaf_value=-0.0061277099493385577 0.024485970176756383 -0.0033258965186243774 -0.0026477844290616363 0.013391473638138883 -0.0010298664871964652 -0.024174398953954762 9.4201027653291591e-05
leaf_weight=516 20 1191 1445 76 6572 26 178750
leaf_count=516 20 1191 1445 76 6572 26 178750
internal_value=0 -2.59694e-06 4.64286e-05 -0.00124406 -0.00140098 -0.0037713 7.22128e-05
internal_weight=0 188576 181412 7164 7088 1217 180195
internal_count=188596 188576 181412 7164 7088 1217 180195
shrinkage=0.1


Tree=72
num_leaves=8
num_cat=0
split_feature=1 0 2 1 1 0 0
split_gain=1.11871 1.21556 1.03763 6.57997 6.01673 4.78816 3.8749
threshold=672.50000000000011 518.50000000000011 657917.00000000012 25.500000000000004 93.500000000000014 2.5000000000000004 27.500000000000004
decision_type=10 10 10 10 8 8 10
left_child=1 2 3 -1 6 -6 -4
right_child=-2 -3 4 -5 5 -7 -8
leaf_value=-0.00013985736842158362 0.010736462167589014 -0.019493911362951623 -0.00027866893745471464 0.010661396309173746 -0.0013394147587954583 0.0025719110323776931 -0.0047853486746617241
leaf_weight=159233 97 32 8383 566 4051 13764 2470
leaf_count=159233 97 32 8383 566 4051 13764 2470
internal_value=0 -5.52492e-06 -2.21597e-06 -0.0001016 0.000551762 0.0016825 -0.00130433
internal_weight=0 188499 188467 159799 28668 17815 10853
internal_count=188596 188499 188467 159799 28668 17815 10853
shrinkage=0.1


Tree=73
num_leaves=8
num_cat=0
split_feature=0 1 0 2 0 0 0
split_gain=1.02402 0.951818 2.84369 3.32094 1.41213 1.23951 1.16934
threshold=821.00000000000011 4.5000000000000009 2.5000000000000004 1557501.5000000002 3.5000000000000004 1.5000000000000002 9.5000000000000018
decision_type=10 8 10 10 10 8 8
left_child=1 2 3 -1 -4 -3 -7
right_child=-2 5 4 -5 -6 6 -8
leaf_value=0.0010985253153747256 0.022626396904233844 -0.001265230559184424 -0.0078014688627558535 -0.037061656590389173 -0.0023316974206505077 0.00027281616949473709 -0.00026855961644454843
leaf_weight=2697 20 7058 693 23 1480 115740 60885
leaf_count=2697 20 7058 693 23 1480 115740 60885
internal_value=0 -2.39973e-06 -0.00137891 0.000775847 -0.00407608 3.42682e-05 8.61967e-05
internal_weight=0 188576 4893 2720 2173 183683 176625
internal_count=188596 188576 4893 2720 2173 183683 176625
shrinkage=0.1


Tree=74
num_leaves=8
num_cat=0
split_feature=2 0 1 0 0 2 1
split_gain=0.957237 2.15195 2.18741 1.80118 1.17179 1.74063 0.943759
threshold=42341.000000000007 3.5000000000000004 4.5000000000000009 8.5000000000000018 1.5000000000000002 14896.500000000002 8.5000000000000018
decision_type=8 10 10 10 10 10 8
left_child=1 4 3 -3 -1 -6 -2
right_child=6 2 -4 -5 5 -7 -8
leaf_value=-0.0023516881085994413 -0.00072814211588838242 -0.0071641463079028774 0.010881918049276327 -0.034560163557529451 -0.0056223087322939177 0.0010639167936160568 0.00011301513190104135
leaf_weight=2384 14499 599 66 25 432 3944 166647
leaf_count=2384 14499 599 66 25 432 3944 166647
internal_value=0 -0.00111091 -0.00643061 -0.00826174 -0.000567925 0.000403851 4.56886e-05
internal_weight=0 7450 690 624 6760 4376 181146
internal_count=188596 7450 690 624 6760 4376 181146
shrinkage=0.1


Tree=75
num_leaves=8
num_cat=0
split_feature=1 2 2 0 2 1 0
split_gain=0.918197 7.99328 7.93123 8.77548 8.54508 5.62534 5.22916
threshold=47.500000000000007 1061228.0000000002 6067400.5000000009 26.500000000000004 137577.00000000003 26.500000000000004 332.50000000000006
decision_type=10 8 10 10 8 10 10
left_child=2 -2 3 5 -5 -1 -6
right_child=1 -3 -4 4 6 -7 -8
leaf_value=-5.5674022461835705e-05 0.015017282885840547 0.00020973386148444509 0.010407794179611594 -0.061615446063556845 -0.0054039315604508358 0.0064719428592869182 -0.054440513359044089
leaf_weight=179175 393 5036 724 28 1888 1330 22
leaf_count=179175 393 5036 724 28 1888 1330 22
internal_value=0 0.00128164 -3.79873e-05 -7.94399e-05 -0.00677273 -7.57713e-06 -0.00596875
internal_weight=0 5429 183167 182443 1938 180505 1910
internal_count=188596 5429 183167 182443 1938 180505 1910
shrinkage=0.1


Tree=76
num_leaves=8
num_cat=0
split_feature=0 2 0 0 1 1 0
split_gain=0.93996 0.781121 8.07798 7.89438 12.3977 10.3794 14.7466
threshold=821.00000000000011 237025.50000000003 3.5000000000000004 3.5000000000000004 5.5000000000000009 17.500000000000004 9.5000000000000018
decision_type=10 10 8 8 10 8 10
left_child=1 2 -1 4 -3 6 -5
right_child=-2 3 -4 5 -6 -7 -8
leaf_value=0.00072091253871595269 0.021677875188179315 -0.001179456813293861 -0.001181870714906599 -0.00018894468420141026 0.0092138260851244644 0.0016342592057519497 -0.0098520134057596357
leaf_weight=45265 20 39574 43998 10827 1182 45881 1849
leaf_count=45265 20 39574 43998 10827 1182 45881 1849
internal_value=0 -2.29909e-06 -0.000216975 0.000190653 -0.000878032 0.000934463 -0.00159846
internal_weight=0 188576 89263 99313 40756 58557 12676
internal_count=188596 188576 89263 99313 40756 58557 12676
shrinkage=0.1


Tree=77
num_leaves=8
num_cat=0
split_feature=1 2 0 1 0 0 1
split_gain=0.832416 0.758966 2.54217 1.62166 1.21248 0.857525 8.52485
threshold=878.50000000000011 29436.500000000004 2.5000000000000004 5.5000000000000009 4.5000000000000009 25.500000000000004 28.500000000000004
decision_type=10 8 10 10 10 10 10
left_child=1 2 -1 4 -4 6 -3
right_child=-2 5 3 -5 -6 -7 -8
leaf_value=-0.00016668780531777774 0.014076585639451793 1.204135689248609e-05 -0.0062242470534976738 0.013493776228278876 -0.018282971327485308 -0.0010003890210047203 0.0082963182664080194
leaf_weight=3033 42 175770 559 37 98 7806 1251
leaf_count=3033 42 175770 559 37 98 7806 1251
internal_value=0 -3.13551e-06 -0.00141599 -0.00687581 -0.00802296 2.53543e-05 7.0586e-05
internal_weight=0 188554 3727 694 657 184827 177021
internal_count=188596 188554 3727 694 657 184827 177021
shrinkage=0.1


Tree=78
num_leaves=8
num_cat=0
split_feature=1 2 0 1 1 2 2
split_gain=0.759677 1.79956 0.922417 6.6013 5.83995 5.11935 2.74427
threshold=392.50000000000006 3918971.5000000005 33.500000000000007 41.500000000000007 58.500000000000007 24248749.500000004 109890.50000000001
decision_type=10 10 10 10 8 10 8
left_child=2 -2 3 5 -4 -1 -6
right_child=1 -3 4 -5 6 -7 -8
leaf_value=-1.7922033906840818e-05 0.032735383528329075 0.0027269505796956067 -0.0095344330663158939 0.0086511005148731702 0.03601809523644902 0.043529033288359643 -0.00020367188272556004
leaf_weight=181233 21 413 742 884 21 27 5255
leaf_count=181233 21 413 742 884 21 27 5255
internal_value=0 0.00417897 -9.63889e-06 3.06065e-05 -0.00122773 -1.14354e-05 -5.94988e-05
internal_weight=0 434 188162 182144 6018 181260 5276
internal_count=188596 434 188162 182144 6018 181260 5276
shrinkage=0.1


Tree=79
num_leaves=8
num_cat=0
split_feature=0 1 1 2 2 2 0
split_gain=0.674052 1.33067 1.21567 0.988473 0.892248 1.20448 0.852523
threshold=1.5000000000000002 1.0000000180025095e-35 3.5000000000000004 59052.000000000007 191416.00000000003 199391.50000000003 9.5000000000000018
decision_type=8 10 8 10 10 10 8
left_child=1 3 -2 -1 -5 -6 -4
right_child=2 -3 6 4 5 -7 -8
leaf_value=-0.0053321950455726842 -0.0031123639742690564 0.010169651144829948 0.00021423622167291622 0.00071002915469753054 -0.010880165591674007 -0.0013750000045244563 -0.00024557930179009514
leaf_weight=516 1217 106 119310 2477 138 3927 60905
leaf_count=516 1217 106 119310 2477 138 3927 60905
internal_value=0 -0.000951392 3.75665e-05 -0.00111841 -0.000786051 -0.00169768 5.88381e-05
internal_weight=0 7164 181432 7058 6542 4065 180215
internal_count=188596 7164 181432 7058 6542 4065 180215
shrinkage=0.1


Tree=80
num_leaves=8
num_cat=0
split_feature=0 1 0 1 2 0 0
split_gain=0.674509 0.666256 10.2258 7.72642 3.34718 3.23185 3.09113
threshold=821.00000000000011 8.5000000000000018 3.5000000000000004 4.5000000000000009 1680839.0000000002 2.5000000000000004 4.5000000000000009
decision_type=10 8 10 10 10 10 10
left_child=1 2 3 4 5 -1 -4
right_child=-2 -3 6 -5 -6 -7 -8
leaf_value=0.0011238062382825417 0.018363517145626247 5.2538201456771686e-05 -0.0012757373683494181 0.0064799606620813931 -0.039565734328194102 -0.006552847627088256 -0.0051393368268276389
leaf_weight=2703 20 173959 4956 2691 22 688 3557
leaf_count=2703 20 173959 4956 2691 22 688 3557
internal_value=0 -1.94757e-06 -0.000650391 0.0024732 -0.000685953 -0.00043371 -0.00289007
internal_weight=0 188576 14617 6104 3413 3391 8513
internal_count=188596 188576 14617 6104 3413 3391 8513
shrinkage=0.1


Tree=81
num_leaves=8
num_cat=0
split_feature=2 1 1 0 1 1 0
split_gain=0.664608 4.95535 4.66409 4.17101 7.39806 6.23551 5.76159
threshold=657917.00000000012 25.500000000000004 93.500000000000014 11.500000000000002 12.500000000000002 22.500000000000004 22.500000000000004
decision_type=10 10 8 10 10 10 10
left_child=1 -1 3 4 -2 -5 -7
right_child=2 -3 -4 5 -6 6 -8
leaf_value=-0.0001129708401492684 -0.001170133616556818 0.0092276422410852103 0.0014330378637289671 -0.0084485949228778594 0.0080758299503194842 0.0044863001660313323 -0.0033721484424984421
leaf_weight=159249 3685 570 17924 1535 1131 1320 3182
leaf_count=159249 3685 570 17924 1535 1131 1320 3182
internal_value=0 -7.96572e-05 0.000442393 -0.00119368 0.00100121 -0.00294465 -0.00106803
internal_weight=0 159819 28777 10853 4816 6037 4502
internal_count=188596 159819 28777 10853 4816 6037 4502
shrinkage=0.1


Tree=82
num_leaves=8
num_cat=0
split_feature=2 0 1 0 0 2 0
split_gain=0.638148 1.47974 1.49566 1.34099 0.790013 1.39243 0.637099
threshold=42341.000000000007 3.5000000000000004 4.5000000000000009 8.5000000000000018 1.5000000000000002 14896.500000000002 4.5000000000000009
decision_type=8 10 10 10 10 10 10
left_child=1 4 3 -3 -1 -6 -2
right_child=6 2 -4 -5 5 -7 -8
leaf_value=-0.0019214214670749995 -5.9683003707686818e-05 -0.005885410684697584 0.0089973745467873279 -0.029524041607975962 -0.0050486936444132076 0.00093149741178957107 0.0003999338069782647
leaf_weight=2384 142921 599 66 25 432 3944 38225
leaf_count=2384 142921 599 66 25 432 3944 38225
internal_value=0 -0.000907049 -0.00531831 -0.00683247 -0.000456787 0.000341131 3.73042e-05
internal_weight=0 7450 690 624 6760 4376 181146
internal_count=188596 7450 690 624 6760 4376 181146
shrinkage=0.1


Tree=83
num_leaves=8
num_cat=0
split_feature=0 1 1 2 1 0 1
split_gain=0.637962 16.1229 14.9925 7.43747 6.70845 5.16927 5.48664
threshold=9.5000000000000018 18.500000000000004 10.500000000000002 139020.00000000003 39.500000000000007 5.5000000000000009 17.500000000000004
decision_type=10 8 10 8 10 10 10
left_child=2 -2 -1 4 -3 -4 -7
right_child=1 3 5 -5 -6 6 -8
leaf_value=-6.3579554444168998e-05 -0.0084010328872983729 -0.020545025795140785 0.017064442925977263 0.00082487276918047727 0.026046905027968543 0.0036861335967063517 0.018426694368859547
leaf_weight=166794 2298 264 445 16260 35 2215 285
leaf_count=166794 2298 264 445 16260 35 2215 285
internal_value=0 -0.000551805 6.13023e-05 0.000537483 -0.0150911 0.00713415 0.00536656
internal_weight=0 18857 169739 16559 299 2945 2500
internal_count=188596 18857 169739 16559 299 2945 2500
shrinkage=0.1


Tree=84
num_leaves=8
num_cat=0
split_feature=0 1 1 2 2 2 1
split_gain=0.640738 6.1468 5.75123 5.38355 3.70996 2.3148 9.87566
threshold=25.500000000000004 52.500000000000007 28.500000000000004 8087830.0000000009 982705.00000000012 173156.50000000003 63.500000000000007
decision_type=10 8 10 10 8 8 10
left_child=2 4 3 -1 -2 6 -3
right_child=1 5 -4 -5 -6 -7 -8
leaf_value=-2.142199585140844e-05 0.0048097167011053078 -0.063233248282361917 0.0067925466397895668 0.023543483615713675 -0.0096497879970177218 0.00052003127261186766 0.021529207052507056
leaf_weight=179392 213 27 1252 97 1063 6524 28
leaf_count=179392 213 27 1252 97 1063 6524 28
internal_value=0 -0.000884157 3.84254e-05 -8.68698e-06 -0.00723609 0.000347804 -0.0200815
internal_weight=0 7855 180741 179489 1276 6579 55
internal_count=188596 7855 180741 179489 1276 6579 55
shrinkage=0.1


Tree=85
num_leaves=8
num_cat=0
split_feature=0 0 1 1 2 2 2
split_gain=0.572782 0.590297 5.07333 4.11002 3.64548 1.74732 5.0093
threshold=821.00000000000011 33.500000000000007 41.500000000000007 64.500000000000014 24248749.500000004 103536.50000000001 173156.50000000003
decision_type=10 10 10 8 10 8 8
left_child=1 2 4 -3 -1 -5 -7
right_child=-2 3 -4 5 -6 6 -8
leaf_value=-1.0877704711411072e-05 0.016922193475766106 -0.0069563608543107853 0.00758870802690342 0.029623009493516296 0.036736604688620132 -0.044649051636457444 0.00021698103393058768
leaf_weight=181233 20 966 884 20 27 25 5421
leaf_count=181233 20 966 884 20 27 25 5421
internal_value=0 -1.79476e-06 3.14526e-05 -0.000943308 -5.4039e-06 0.000119372 1.10224e-05
internal_weight=0 188576 182144 6432 181260 5466 5446
internal_count=188596 188576 182144 6432 181260 5466 5446
shrinkage=0.1


Tree=86
num_leaves=8
num_cat=0
split_feature=1 0 2 0 0 1 1
split_gain=0.549819 1.00247 3.00968 1.07634 0.658364 4.47496 4.38995
threshold=561.00000000000011 465.50000000000006 8087830.0000000009 362.00000000000006 25.500000000000004 52.500000000000007 26.500000000000004
decision_type=10 10 10 10 10 8 10
left_child=1 3 -3 4 6 -6 -1
right_child=-2 2 -4 -5 5 -7 -8
leaf_value=-1.1392050190091377e-05 0.0056844654852894194 -0.038972500556459032 0.013552448097616436 0.017789235292002558 -0.0063186891550691395 0.00017273067993127833 0.0054390789623701974
leaf_weight=179251 170 24 20 34 1276 6331 1490
leaf_count=179251 170 24 20 34 1276 6331 1490
internal_value=0 -5.12857e-06 -0.0150975 -1.60347e-06 -4.81501e-06 -0.000916142 3.35408e-05
internal_weight=0 188426 44 188382 188348 7607 180741
internal_count=188596 188426 44 188382 188348 7607 180741
shrinkage=0.1


Tree=87
num_leaves=8
num_cat=0
split_feature=0 1 1 2 1 0 1
split_gain=0.571101 12.957 12.1334 5.71612 4.63327 4.19116 4.41434
threshold=9.5000000000000018 18.500000000000004 10.500000000000002 139020.00000000003 39.500000000000007 5.5000000000000009 17.500000000000004
decision_type=10 8 10 8 10 10 10
left_child=2 -2 -1 4 -3 -4 -7
right_child=1 3 5 -5 -6 6 -8
leaf_value=-5.4343526133030431e-05 -0.0075586112921468109 -0.017779297102915186 0.015362367980617748 0.00070636122681550103 0.020941412464848586 0.0033218894088767772 0.016543788082464681
leaf_weight=166794 2298 264 445 16260 35 2215 285
leaf_count=166794 2298 264 445 16260 35 2215 285
internal_value=0 -0.000522089 5.80011e-05 0.000454414 -0.0132468 0.00642079 0.00482919
internal_weight=0 18857 169739 16559 299 2945 2500
internal_count=188596 18857 169739 16559 299 2945 2500
shrinkage=0.1


Tree=88
num_leaves=8
num_cat=0
split_feature=0 1 1 2 2 2 2
split_gain=0.518579 1.09782 0.875512 0.851885 0.770464 0.765377 1.61669
threshold=1.5000000000000002 1.5000000000000002 3.5000000000000004 126583.50000000001 59052.000000000007 260001.50000000003 455036.00000000006
decision_type=8 10 8 10 10 8 10
left_child=1 4 3 -2 -1 -3 -7
right_child=2 5 -4 -5 -6 6 -8
leaf_value=-0.0046834883401307998 -0.0088890422362129431 -0.0020189979379730567 5.1002445325529596e-05 -0.0015200172141322944 -0.00067053255944870291 0.0404997220216319 0.0032743216575389466
leaf_weight=516 185 28 180215 1032 6572 20 28
leaf_count=516 185 28 180215 1032 6572 20 28
internal_value=0 -0.000834489 3.29505e-05 -0.00264021 -0.000962672 0.0111203 0.0187849
internal_weight=0 7164 181432 1217 7088 76 48
internal_count=188596 7164 181432 1217 7088 76 48
shrinkage=0.1


Tree=89
num_leaves=8
num_cat=0
split_feature=0 0 1 1 2 2 0
split_gain=0.507453 0.560905 4.60055 4.14978 3.53198 2.1883 1.22231
threshold=756.50000000000011 27.500000000000004 40.500000000000007 54.500000000000007 8087830.0000000009 889858.50000000012 19.500000000000004
decision_type=10 10 10 8 10 8 10
left_child=1 2 4 5 -1 -3 -6
right_child=-2 3 -4 -5 6 -7 -8
leaf_value=-3.8768328186861299e-06 0.013461283547076165 0.0047467169204824852 0.0096898132867346155 0.00014584985829030201 0.023883154804268517 -0.0081462426307812013 -0.0031227902287528629
leaf_weight=180495 28 152 492 6342 83 983 21
leaf_count=180495 28 152 492 6342 83 983 21
internal_value=0 -1.99882e-06 3.30462e-05 -0.000850779 6.73854e-06 -0.00641961 0.01843
internal_weight=0 188568 181091 7477 180599 1135 104
internal_count=188596 188568 181091 7477 180599 1135 104
shrinkage=0.1


Tree=90
num_leaves=8
num_cat=0
split_feature=2 0 1 0 0 1 1
split_gain=0.478594 2.00646 1.00212 0.732399 0.558437 10.0657 9.5241
threshold=29436.500000000004 2.5000000000000004 2.5000000000000004 4.5000000000000009 11.500000000000002 22.500000000000004 12.500000000000002
decision_type=8 10 10 10 10 8 10
left_child=1 -1 3 -3 6 -6 -2
right_child=4 2 -4 -5 5 -7 -8
leaf_value=-1.2052269952174698e-05 -6.6006262319836423e-06 -0.0057151600539786726 0.0064939190949297558 -0.01527824969813624 -0.0068865122826194322 0.00043370622569491611 0.006856288980446032
leaf_weight=3033 166466 541 59 94 2165 14191 2047
leaf_count=3033 166466 541 59 94 2165 14191 2047
internal_value=0 -0.00112194 -0.0059725 -0.0071308 2.26186e-05 -0.000535252 7.67659e-05
internal_weight=0 3727 694 635 184869 16356 168513
internal_count=188596 3727 694 635 184869 16356 168513
shrinkage=0.1


Tree=91
num_leaves=8
num_cat=0
split_feature=0 1 2 1 2 2 2
split_gain=0.47782 3.39059 2.67291 2.57511 1.55114 1.4822 4.91336
threshold=33.500000000000007 41.500000000000007 8087830.0000000009 67.500000000000014 889858.50000000012 117320.50000000001 173156.50000000003
decision_type=10 10 10 8 8 10 10
left_child=1 2 -1 4 -2 -5 -7
right_child=3 -3 -4 5 -6 6 -8
leaf_value=-1.0138798766000957e-05 0.0064439201082568624 0.006208055167325548 0.014796554065904903 0.010749963514177898 -0.0066549497853515723 -0.046343377580785237 -2.292430599099978e-05
leaf_weight=181138 100 884 122 126 942 23 5261
leaf_count=181138 100 884 122 126 942 23 5261
internal_value=0 2.99575e-05 -1.72913e-07 -0.000845719 -0.00539786 3.10523e-05 -0.000224546
internal_weight=0 182144 181260 6452 1042 5410 5284
internal_count=188596 182144 181260 6452 1042 5410 5284
shrinkage=0.1


Tree=92
num_leaves=8
num_cat=0
split_feature=1 0 1 2 0 0 1
split_gain=0.456038 8.46289 6.12866 2.74386 2.57954 2.55721 2.48799
threshold=8.5000000000000018 3.5000000000000004 4.5000000000000009 1680839.0000000002 2.5000000000000004 4.5000000000000009 6.5000000000000009
decision_type=8 10 10 10 10 10 10
left_child=1 2 3 4 -1 6 -3
right_child=-2 5 -4 -5 -6 -7 -8
leaf_value=0.0011113833757088333 4.5072860582039033e-05 -0.0035678158416543385 0.0058736362756081533 -0.03571029437536543 -0.0057469375426461378 -0.0046197857952265872 0.00093326797863706515
leaf_weight=2703 173979 2245 2691 22 688 3557 2711
leaf_count=2703 173979 2245 2691 22 688 3557 2711
internal_value=0 -0.00053648 0.00230513 -0.000508482 -0.000280101 -0.00257397 -0.00110566
internal_weight=0 14617 6104 3413 3391 8513 4956
internal_count=188596 14617 6104 3413 3391 8513 4956
shrinkage=0.1


Tree=93
num_leaves=8
num_cat=0
split_feature=0 1 2 1 0 2 2
split_gain=0.454786 3.01281 2.91668 2.69308 2.24957 2.12582 1.51505
threshold=24.500000000000004 49.500000000000007 4763879.5000000009 26.500000000000004 19.500000000000004 889858.50000000012 24248749.500000004
decision_type=10 8 10 10 8 8 10
left_child=2 5 3 -1 -4 -2 -6
right_child=1 -3 4 -5 6 -7 -8
leaf_value=-1.6908881258871708e-05 0.0045191704909745096 7.7237404463385316e-05 0.019706109406296024 0.0044499240171203651 -0.0022966914583230393 -0.00713114951392654 0.025546760784219143
leaf_weight=178910 185 6835 132 1360 130 1021 23
leaf_count=178910 185 6835 132 1360 130 1021 23
internal_value=0 -0.000735846 3.27708e-05 1.679e-05 0.0101411 -0.00534399 0.00188893
internal_weight=0 8041 180555 180270 285 1206 153
internal_count=188596 8041 180555 180270 285 1206 153
shrinkage=0.1


Tree=94
num_leaves=8
num_cat=0
split_feature=0 1 1 2 1 0 1
split_gain=0.444859 9.38822 8.71247 4.53111 3.59123 3.25882 4.75409
threshold=9.5000000000000018 18.500000000000004 11.500000000000002 139020.00000000003 41.500000000000007 19.500000000000004 39.500000000000007
decision_type=10 8 10 8 10 8 8
left_child=2 -2 -1 4 -3 -5 -7
right_child=1 3 -4 5 -6 6 -8
leaf_value=-3.7693844846349909e-05 -0.0064503786505585338 -0.01575374272679976 0.0058259513479576785 0.0023630775396019182 0.018768174743608521 -0.0056844263623995507 0.0003937260529111227
leaf_weight=167166 2298 265 2573 6351 34 1520 8389
leaf_count=167166 2298 265 2573 6351 34 1520 8389
internal_value=0 -0.000460786 5.11906e-05 0.000370428 -0.0118282 0.000594744 -0.000538638
internal_weight=0 18857 169739 16559 299 16260 9909
internal_count=188596 18857 169739 16559 299 16260 9909
shrinkage=0.1


Tree=95
num_leaves=8
num_cat=0
split_feature=0 0 1 1 2 1 2
split_gain=0.425608 0.463238 3.47267 2.31963 2.89756 11.1487 2.11765
threshold=821.00000000000011 46.500000000000007 66.500000000000014 93.500000000000014 725056.50000000012 100.50000000000001 332536.50000000006
decision_type=10 10 10 8 8 10 10
left_child=1 2 -1 -3 5 6 -5
right_child=-2 3 -4 4 -6 -7 -8
leaf_value=3.814427769120699e-07 0.014587029260583223 -0.0057617630490135333 0.0080388833465208417 -0.026080504748970269 0.00047351320544737879 0.019791651447303594 -0.063653957700977731
leaf_weight=183169 20 835 539 30 3925 48 30
leaf_count=183169 20 835 539 30 3925 48 30
internal_value=0 -1.54707e-06 2.39664e-05 -0.000964373 2.88879e-05 -0.01613 -0.0448672
internal_weight=0 188576 183708 4868 4033 108 60
internal_count=188596 188576 183708 4868 4033 108 60
shrinkage=0.1


Tree=96
num_leaves=8
num_cat=0
split_feature=0 1 2 1 2 2 2
split_gain=0.42373 0.893717 0.723128 0.653051 0.710267 0.639568 0.79733
threshold=1.5000000000000002 1.0000000180025095e-35 209705.50000000003 3.5000000000000004 126583.50000000001 982705.00000000012 616009.00000000012
decision_type=8 10 8 8 10 10 10
left_child=1 -1 -3 4 -2 6 -6
right_child=3 2 -4 -5 5 -7 -8
leaf_value=-0.00089120124415750497 -0.0079847487141504088 -0.0050989344041666084 0.013428536913805196 4.5375792259039086e-05 -0.0016254753450584605 -0.012652593483018906 0.0081517917179988447
leaf_weight=7058 185 29 77 180215 893 47 92
leaf_count=7058 185 29 77 180215 893 47 92
internal_value=0 -0.000754323 0.0083597 2.97851e-05 -0.00227891 -0.00125606 -0.000712269
internal_weight=0 7164 106 181432 1217 1032 985
internal_count=188596 7164 106 181432 1217 1032 985
shrinkage=0.1


Tree=97
num_leaves=8
num_cat=0
split_feature=2 0 0 2 0 0 1
split_gain=0.405467 1.5467 1.12835 1.28293 1.10039 0.706542 3.50652
threshold=44636.500000000007 134.50000000000003 3.5000000000000004 14896.500000000002 1.5000000000000002 12.500000000000002 13.500000000000002
decision_type=10 10 8 10 10 10 10
left_child=1 2 3 4 -1 -4 -7
right_child=-2 -3 5 -5 -6 6 -8
leaf_value=0.017349662640216677 3.2250724458809414e-05 0.022389093218050129 -0.0024063455781366608 0.00075003126530905344 -0.005511496876632529 0.023355906479610285 -0.006737994680506231
leaf_weight=22 179893 29 3434 4561 490 61 106
leaf_count=22 179893 29 3434 4561 490 61 106
internal_value=0 -0.000666629 -0.000743712 0.000217219 -0.00452918 -0.00209745 0.00425439
internal_weight=0 8703 8674 5073 512 3601 167
internal_count=188596 8703 8674 5073 512 3601 167
shrinkage=0.1


Tree=98
num_leaves=8
num_cat=0
split_feature=0 1 2 1 2 2 2
split_gain=0.391459 3.14628 1.92977 1.86733 1.13954 3.77147 1.11072
threshold=34.500000000000007 47.500000000000007 24248749.500000004 68.500000000000014 115751.50000000001 173156.50000000003 1061228.0000000002
decision_type=10 10 10 8 8 8 8
left_child=1 2 -1 6 -5 -6 -2
right_child=3 -3 -4 4 5 -7 -8
leaf_value=-2.2103040976078865e-06 0.0040551989503204823 0.0069134925119526004 0.026734192546939962 0.023216585602079121 -0.041442345106042923 4.7898064915867808e-05 -0.0060278911271470633
leaf_weight=181587 125 661 27 21 22 5286 867
leaf_count=181587 125 661 27 21 22 5286 867
internal_value=0 2.68291e-05 1.76452e-06 -0.000773655 -3.20875e-05 -0.000124066 -0.00475734
internal_weight=0 182275 181614 6321 5329 5308 992
internal_count=188596 182275 181614 6321 5329 5308 992
shrinkage=0.1


Tree=99
num_leaves=8
num_cat=0
split_feature=1 0 1 1 0 1 2
split_gain=0.38495 0.417797 7.56943 7.14928 6.15164 5.15447 3.63856
threshold=878.50000000000011 9.5000000000000018 19.500000000000004 9.5000000000000018 5.5000000000000009 12.500000000000002 139020.00000000003
decision_type=10 10 8 10 10 10 8
left_child=1 3 -3 -1 -5 -6 -4
right_child=-2 2 6 4 5 -7 -8
leaf_value=-5.2709287922779958e-05 0.0095725812350532843 -0.0056575729500940941 -0.010644477194070322 0.011160341641802372 -0.0019115059418180896 0.0064298791904403288 0.00052567345120528586
leaf_weight=165792 42 2430 297 972 1581 1394 16088
leaf_count=165792 42 2430 297 972 1581 1394 16088
internal_value=0 -2.13224e-06 -0.000449231 4.74271e-05 0.00425361 0.00199703 0.0003232
internal_weight=0 188554 18815 169739 3947 2975 16385
internal_count=188596 188554 18815 169739 3947 2975 16385
shrinkage=0.1


Tree=100
num_leaves=8
num_cat=0
split_feature=0 2 1 1 2 0 1
split_gain=0.409217 2.2353 2.0186 1.99211 1.92254 1.89451 1.55483
threshold=24.500000000000004 4763879.5000000009 26.500000000000004 52.500000000000007 982705.00000000012 17.500000000000004 28.500000000000004
decision_type=10 10 10 8 8 8 10
left_child=1 2 -1 4 -2 -3 -6
right_child=3 5 -4 -5 6 -7 -8
leaf_value=-1.207976069305632e-05 0.0040246824801131835 0.019240482627422714 0.003855148611968188 2.2175525913703073e-05 -0.017554774938955974 0.0024639727481619712 -0.004679891671200277
leaf_weight=178910 239 109 1360 6649 103 176 1050
leaf_count=178910 239 109 1360 6649 103 176 1050
internal_value=0 3.10857e-05 1.70955e-05 -0.000698008 -0.00413802 0.00888025 -0.00583003
internal_weight=0 180555 180270 8041 1392 285 1153
internal_count=188596 180555 180270 8041 1392 285 1153
shrinkage=0.1


Tree=101
num_leaves=8
num_cat=0
split_feature=0 1 1 2 1 1 1
split_gain=0.355086 2.69627 1.7275 1.91778 11.2695 2.74186 2.22873
threshold=46.500000000000007 66.500000000000014 93.500000000000014 1833441.5000000002 93.500000000000014 215.50000000000003 1449.5000000000002
decision_type=10 10 8 8 10 10 8
left_child=1 -1 -2 4 -4 -6 -5
right_child=2 -3 3 6 5 -7 -8
leaf_value=1.6002304355250977e-06 -0.0049829957214799561 0.0070847348840563807 -0.02892047489839171 -0.00052704021581524577 0.0040121881271394473 0.040200972978103287 0.0057104362542299298
leaf_weight=183169 835 539 139 3019 164 24 707
leaf_count=183169 835 539 139 3019 164 24 707
internal_value=0 2.23822e-05 -0.000841199 1.20948e-05 -0.00733065 0.00863203 0.000656507
internal_weight=0 183708 4888 4053 327 188 3726
internal_count=188596 183708 4888 4053 327 188 3726
shrinkage=0.1


Tree=102
num_leaves=8
num_cat=0
split_feature=0 0 0 0 1 2 0
split_gain=0.376719 0.61675 0.416601 0.468494 2.00388 1.61417 1.14298
threshold=616.00000000000011 543.00000000000011 367.50000000000006 33.500000000000007 34.500000000000007 8087830.0000000009 19.500000000000004
decision_type=10 10 10 10 10 10 10
left_child=1 2 3 4 5 6 -1
right_child=-2 -3 -4 -5 -6 -7 -8
leaf_value=1.6551819316870751e-05 0.0088579463927014029 -0.017561935447156431 0.0056585965210867407 -0.00085532217301828313 0.0037868972191928054 0.011589839320319394 -0.0022265261217878844
leaf_weight=178318 48 20 130 6254 1405 120 2301
leaf_count=178318 48 20 130 6254 1405 120 2301
internal_value=0 -2.25504e-06 -3.92224e-07 -4.29709e-06 2.49233e-05 -4.32097e-06 -1.20239e-05
internal_weight=0 188548 188528 188398 182144 180739 180619
internal_count=188596 188548 188528 188398 182144 180739 180619
shrinkage=0.1


Tree=103
num_leaves=8
num_cat=0
split_feature=0 1 1 0 1 2 2
split_gain=0.369336 9.10726 8.55075 5.84185 5.34144 3.62553 3.07313
threshold=4.5000000000000009 10.500000000000002 8.5000000000000018 9.5000000000000018 19.500000000000004 2481187.0000000005 89031.500000000015
decision_type=10 8 10 10 8 8 10
left_child=2 -2 -1 5 -5 6 -3
right_child=1 3 -4 4 -6 -7 -8
leaf_value=-0.00013452859362730044 -0.0035834292256884991 -0.0033755071035851529 0.0088746386007803029 -0.0049400589668624484 0.00033131487869960828 0.015246160484012864 0.0025772008585928535
leaf_weight=149054 5275 927 1061 2177 16427 216 13459
leaf_count=149054 5275 927 1061 2177 16427 216 13459
internal_value=0 0.000276397 -7.08526e-05 0.000889557 -0.00028553 0.0023867 0.00219362
internal_weight=0 38481 150115 33206 18604 14602 14386
internal_count=188596 38481 150115 33206 18604 14602 14386
shrinkage=0.1


Tree=104
num_leaves=8
num_cat=0
split_feature=0 1 2 2 2 2 2
split_gain=0.339328 0.725292 0.65508 0.721663 0.975096 0.678006 2.17178
threshold=1.5000000000000002 1.5000000000000002 59052.000000000007 191416.00000000003 199391.50000000003 414605.50000000006 390156.00000000006
decision_type=8 10 10 10 10 10 10
left_child=1 2 -1 -4 -5 6 -6
right_child=-2 -3 3 4 5 -7 -8
leaf_value=-0.0042101276205498868 2.6654092441589423e-05 0.0090420022508815711 0.00083402970331084838 -0.0095897133979251266 -0.0012201158496488995 0.00068103493103589179 -0.012681857465143909
leaf_weight=516 181432 76 2485 138 2320 1451 178
leaf_count=516 181432 76 2485 138 2320 1451 178
internal_value=0 -0.000675029 -0.000779218 -0.000509841 -0.00132695 -0.0010382 -0.00203685
internal_weight=0 7164 7088 6572 4087 3949 2498
internal_count=188596 7164 7088 6572 4087 3949 2498
shrinkage=0.1


Tree=105
num_leaves=8
num_cat=0
split_feature=0 1 2 2 0 1 0
split_gain=0.336744 3.37924 3.96997 3.09315 3.42463 3.04686 2.39061
threshold=19.500000000000004 33.500000000000007 839988.50000000012 1557501.5000000002 3.5000000000000004 20.500000000000004 11.500000000000002
decision_type=10 8 8 10 8 8 8
left_child=3 2 -2 -1 -5 -6 -7
right_child=1 -3 -4 4 5 6 -8
leaf_value=-2.319275940448157e-05 0.00472008858032694 9.0712134768457239e-05 -0.0091006626436954969 -0.0050660080232672626 -0.00014728805215584277 0.013135859026320328 0.0047439885896942277
leaf_weight=175568 275 8859 851 431 902 467 1243
leaf_count=175568 275 8859 851 431 902 467 1243
internal_value=0 -0.00056515 -0.00572526 3.15939e-05 0.00319255 0.00455527 0.0070358
internal_weight=0 9985 1126 178611 3043 2612 1710
internal_count=188596 9985 1126 178611 3043 2612 1710
shrinkage=0.1


Tree=106
num_leaves=8
num_cat=0
split_feature=2 0 1 0 0 2 0
split_gain=0.316748 1.48355 3.47638 1.199 0.861689 0.635005 0.835937
threshold=29436.500000000004 10.500000000000002 878.50000000000011 2.5000000000000004 64.500000000000014 14896.500000000002 1.5000000000000002
decision_type=10 10 8 8 10 10 10
left_child=1 3 -3 5 -4 6 -1
right_child=-2 2 4 -5 -6 -7 -8
leaf_value=0.015935892732390624 1.9644233809001589e-05 -0.0030999680254339742 0.016768032059605635 -0.0030628126994873234 0.039382701934031816 0.0012869728465097752 -0.0040806742776922957
leaf_weight=22 184360 130 63 1956 23 1638 404
leaf_count=22 184360 130 63 1956 23 1638 404
internal_value=0 -0.00085496 0.00721848 -0.00128876 0.0228161 0.00039247 -0.00304695
internal_weight=0 4236 216 4020 86 2064 426
internal_count=188596 4236 216 4020 86 2064 426
shrinkage=0.1


Tree=107
num_leaves=8
num_cat=0
split_feature=0 1 1 2 2 2 0
split_gain=0.322932 2.40174 1.7921 1.41913 1.00551 0.73742 3.98777
threshold=27.500000000000004 47.500000000000007 55.500000000000007 8087830.0000000009 1061228.0000000002 2005409.5000000002 3.5000000000000004
decision_type=10 10 8 10 8 10 8
left_child=1 3 4 5 -2 -1 -7
right_child=2 -3 -4 -5 -6 6 -8
leaf_value=-1.6882401876887229e-05 0.0023794442154369587 0.0093649228393015548 1.8615574998450248e-05 0.011579687605207821 -0.0055577945207851351 -0.011918988509147086 0.0031237453210095269
leaf_weight=178489 191 275 6343 106 971 193 2028
leaf_count=178489 191 275 6343 106 971 193 2028
internal_value=0 2.66389e-05 -0.00064278 1.24365e-05 -0.00425314 5.65142e-06 0.00181656
internal_weight=0 181091 7505 180816 1162 180710 2221
internal_count=188596 181091 7505 180816 1162 180710 2221
shrinkage=0.1


Tree=108
num_leaves=8
num_cat=0
split_feature=0 1 1 2 1 2 2
split_gain=0.312747 5.50227 5.17146 2.54632 2.51319 2.0655 2.02319
threshold=11.500000000000002 13.500000000000002 22.500000000000004 149178.00000000003 39.500000000000007 1107580.5000000002 2481187.0000000005
decision_type=10 10 8 8 10 10 10
left_child=1 6 -2 4 -4 -5 -1
right_child=2 -3 3 5 -6 -7 -8
leaf_value=-3.6189545705707139e-05 -0.0049668187092672652 0.0055288060395902935 -0.015402007775833863 0.0022594245040555069 0.013227358350932999 -0.00036992348055348928 0.0066928214794318465
leaf_weight=169970 2168 1807 179 4325 37 9662 448
leaf_count=169970 2168 1807 179 4325 37 9662 448
internal_value=0 3.97027e-05 -0.000417678 0.000276721 -0.0104979 0.000443112 -1.85001e-05
internal_weight=0 172225 16371 14203 216 13987 170418
internal_count=188596 172225 16371 14203 216 13987 170418
shrinkage=0.1


Tree=109
num_leaves=8
num_cat=0
split_feature=0 0 1 2 1 2 1
split_gain=0.305359 0.310012 1.44396 1.1012 0.878258 1.10191 4.9163
threshold=756.50000000000011 33.500000000000007 47.500000000000007 24248749.500000004 67.500000000000014 581153.00000000012 67.500000000000014
decision_type=10 10 10 10 8 8 10
left_child=1 2 3 -1 -3 6 -6
right_child=-2 4 -4 -5 5 -7 -8
leaf_value=3.2307406543823584e-06 0.010442244417832367 -0.0033416330651525362 0.0048877188413155789 0.020200036383337446 -0.02961379022943595 6.3164102260435952e-05 0.0081651306970008213
leaf_weight=181509 28 1042 608 27 63 5243 76
leaf_count=181509 28 1042 608 27 63 5243 76
internal_value=0 -1.55057e-06 2.25291e-05 6.23463e-06 -0.000684298 -0.000169816 -0.00895769
internal_weight=0 188568 182144 181536 6424 5382 139
internal_count=188596 188568 182144 181536 6424 5382 139
shrinkage=0.1


Tree=110
num_leaves=8
num_cat=0
split_feature=1 0 2 1 2 2 2
split_gain=0.299548 3.56507 3.32597 1.32389 1.07848 1.00788 0.858228
threshold=5.5000000000000009 2.5000000000000004 709995.00000000012 4.5000000000000009 64749.500000000007 1680839.0000000002 73456.500000000015
decision_type=8 10 10 10 8 10 10
left_child=1 2 3 -1 -3 -4 -6
right_child=-2 4 5 -5 6 -7 -8
leaf_value=0.0015009614827045841 2.4426199446825645e-05 0.0068510349040761045 -0.0083146600617614932 0.0067770202174421553 -0.016776566438214936 -0.031445176828475224 -0.0030232084991437427
leaf_weight=2562 181768 110 183 584 46 21 3322
leaf_count=2562 181768 110 183 584 46 21 3322
internal_value=0 -0.000650248 0.001678 0.00248037 -0.00289281 -0.0106957 -0.00321105
internal_weight=0 6828 3350 3146 3478 204 3368
internal_count=188596 6828 3350 3146 3478 204 3368
shrinkage=0.1


Tree=111
num_leaves=8
num_cat=0
split_feature=0 2 2 2 2 1 2
split_gain=0.27159 0.627573 0.530437 0.551878 0.90873 0.497416 0.592359
threshold=1.5000000000000002 2481187.0000000005 59052.000000000007 191416.00000000003 199391.50000000003 3.5000000000000004 126583.50000000001
decision_type=8 8 10 10 10 8 10
left_child=1 2 -1 -4 -5 6 -2
right_child=5 -3 3 4 -6 -7 -8
leaf_value=-0.0037399211166580259 -0.0072018140470105664 0.015539593063294888 0.00075549818312760635 -0.0090759249296870174 -0.00085052628242065326 3.7452457970517744e-05 -0.001056952542630331
leaf_weight=518 185 24 2499 139 3984 180215 1032
leaf_count=518 185 24 2499 139 3984 180215 1032
internal_value=0 -0.000603907 -0.000658171 -0.000417104 -0.00112783 2.38458e-05 -0.00199105
internal_weight=0 7164 7140 6622 4123 181432 1217
internal_count=188596 7164 7140 6622 4123 181432 1217
shrinkage=0.1


Tree=112
num_leaves=8
num_cat=0
split_feature=0 1 2 1 0 2 0
split_gain=0.265561 2.7274 2.63977 2.61146 2.16575 1.93357 7.25671
threshold=19.500000000000004 28.500000000000004 839988.50000000012 19.500000000000004 9.5000000000000018 3301731.0000000005 2.5000000000000004
decision_type=10 8 8 10 10 10 8
left_child=3 2 -2 5 -5 -1 -7
right_child=1 -3 -4 4 -6 6 -8
leaf_value=-2.5650966644445393e-05 0.0029965771326342168 -3.0884122643117e-05 -0.010086800675646108 0.018162774534896019 0.0030066166372452693 -0.036519492907183509 0.011164969541820653
leaf_weight=176465 217 9235 533 100 1649 35 362
leaf_count=176465 217 9235 533 100 1649 35 362
internal_value=0 -0.000501875 -0.00630134 2.80567e-05 0.00387318 -9.968e-06 0.00696105
internal_weight=0 9985 750 178611 1749 176862 397
internal_count=188596 9985 750 178611 1749 176862 397
shrinkage=0.1


Tree=113
num_leaves=8
num_cat=0
split_feature=0 0 1 0 0 1 2
split_gain=0.265199 0.467252 0.363303 0.337565 0.376789 2.63764 1.55549
threshold=616.00000000000011 543.00000000000011 806.50000000000011 367.50000000000006 50.500000000000007 64.500000000000014 725056.50000000012
decision_type=10 10 10 10 10 10 8
left_child=1 3 -2 4 5 -1 -6
right_child=2 -3 -4 -5 6 -7 -8
leaf_value=-7.3390462182369745e-06 -0.0016381993606362655 -0.015285907543511713 0.015776714362204076 0.0050937109562353448 -0.013724404925941139 0.005732903317019109 -0.00064809144299212264
leaf_weight=183334 23 20 25 130 93 804 4167
leaf_count=183334 23 20 25 130 93 804 4167
