tree
version=v3
num_class=1
num_tree_per_iteration=1
label_index=0
max_feature_idx=65
objective=regression
feature_names=area units buildings value_imprv lidar_area lidar_buildings lidar_units yr_built elctm gasm s_lat s_lon pool common beds code_area code_units code_value_imprv code_area_unit code_area_lidar_area code_unit_lidar_area code_area_imprv code_unit_imprv code_unit_elct code_area_elct code_area_unitxunit areax_code_area_unit code_area_imprvximprv code_unit_imprvximprv code_area_lidar_areaxlidar_area code_unit_lidar_areaxlidar_area code_area_elctxelct code_unit_elctxelct county_n tract tract_yr_built tract_area tract_units tract_value_imprv tract_area_unit tract_area_lidar_area tract_unit_lidar_area tract_area_imprv tract_unit_imprv tract_unit_elct tract_area_elct tract_n tract_area_unitxunit areax_tract_area_unit tract_area_imprvximprv tract_unit_imprvximprv tract_area_lidar_areaxlidar_area tract_unit_lidar_areaxlidar_area tract_area_elctxelct tract_unit_elctxelct block_yr_built block_area block_units block_value_imprv block_area_unit block_area_lidar_area block_unit_lidar_area block_area_imprv block_unit_imprv block_unit_elct block_area_elct
feature_infos=[648:3876054] [1:5642] [1:1630] [104:630645683] [1403.1276088908601:4146884.4900357099] [1:145] [2.13994962733483:1903.0866467184699] [1793:2020] [1:1101] [0:902] [34.408657563103105:41.258486933410602] [-124.225172925341:-117.64410531873699] [0:6] [0:349] [1:8874] [2348.3040698141999:32493.054054054101] [2.5909930242100896:51.441176470588211] [111543:16426852.8181818] [944.92465893357701:1338.8362086710999] [0.77558989720393912:4.3955870005762199] [0.00077136925448674401:0.0049602721325808898] [0.015684781835194499:1.0331885600291701] [1.6228074673282902e-05:0.0011369657856485501] [0.89818029893410201:28.155336340936998] [0.89818029893410201:28.155336340936998] [2184.7845191288602:17353.555884810001] [0.77810877233688991:121.72870455974599] [1760.1128004655102:28412.160898919399] [0.65761634989454099:6821.7947138913005] none none [1.40286406788127:197.86562723198898] [1.40286406788127:197.86562723198898] [51:32123] [5102:97154304] [1907.21387283237:2019] [1489.4000000000001:565042.59999999998] [1.19354838709677:669.66666666666697] [51435.125:167917298.69230801] [453.71428571428595:9724.5208333333303] [0.34649020416975396:8.3418761468910301] [0.000108855126215858:0.0505277163115289] [0.0027583855310834601:75.678827314804494] [2.5727622012815302e-06:0.073140842117062496] [0.15151515151515196:133] [0.15151515151515196:133] [10:591] [713.39862327135802:5215872.6885975301] [0.530636414833354:4192.7205615672701] [49.6811290612373:2012482328.59565] [0.066575716268272994:1944991.18818135] [989.4886925468719:3961326.9729608502] [0.86054764835223096:11494.489947853401] [0.67655665108405394:19536.447666791501] [0.67655665108405394:19536.447666791501] [1870:2020] [900:2000000] [1:1630] [104:630645683] [125.625:37626.6875] [0.023628070486473401:226.83945712951501] [5.7013267468902005e-05:0.273919690779451] [0.00029399309630711603:756.63972845633896] [4.3801307967703898e-07:0.69469053339548903] [0.12903225806451599:339] [0.12903225806451599:339]
tree_sizes=10715 11521 11489 11516 11538 11579 11547 11578 11577 11606 11620 11707 11707 11646 11687 11712 11690 11771 11698 11775 11752 11742 11710 11770 11729 11740 11780 11760 11762 11707 11773 11759 11790 11782 11754 11761 11795 11747 11807 11710 11761 11755 11745 11730 11715 11881 11676 11647 11705 11591 11773 11557 11670 11665 11702 11708 11575 11596 11588 11652 11732 11666 11654 11615 11645 11624 11620 11720 11624 11751 11736 11567 11657 11625 11635

Tree=0
num_leaves=128
num_cat=0
split_feature=33 0 48 0 35 48 2 11 6 40 7 6 0 6 5 1 3 34 35 2 1 34 3 11 10 35 11 2 2 6 33 48 48 53 48 48 14 35 6 0 13 2 2 10 5 61 50 48 6 2 8 7 7 9 10 37 2 34 9 3 3 0 0 3 35 9 8 34 14 6 5 61 0 7 3 3 2 7 6 0 1 2 48 2 0 48 35 53 7 4 11 5 14 41 48 2 0 11 0 11 10 7 34 48 13 33 40 38 2 2 47 0 6 5 7 11 7 2 1 14 7 38 7 7 5 38 47
split_gain=718.515 259.394 178.118 81.1487 68.0855 67.3288 59.7301 34.2871 27.8553 27.7619 26.866 26.1132 21.2721 16.0046 13.5323 10.5718 10.2512 9.7897 9.41037 8.94913 10.1697 8.90654 8.48143 8.22932 8.18251 7.92827 7.48024 7.11566 6.64682 6.17781 6.1115 6.07533 5.95866 5.64999 5.10133 5.03434 4.86411 4.79648 4.89915 4.69615 4.65804 4.53954 4.42202 4.40737 4.40001 4.10924 4.01589 3.82016 3.8076 3.6748 3.64392 3.50296 3.48184 3.35047 3.33487 3.24654 3.04199 2.9916 2.98106 2.89935 2.81334 2.78567 2.76263 2.56357 2.47992 2.46053 2.41429 2.34782 2.28152 2.20783 2.26614 2.16526 2.09618 2.06334 2.03465 2.0198 1.96547 1.94048 1.9083 1.78658 1.70698 1.70688 1.70632 1.69397 1.68014 1.65685 1.59536 1.57503 1.55675 1.53224 1.51859 1.50184 1.45394 1.41368 1.39282 1.3543 2.25472 1.34107 1.32609 1.32091 1.31968 1.31875 1.31094 1.25899 1.24433 1.24227 1.55292 1.20344 1.18518 1.16869 1.16801 1.16362 1.16245 1.15418 1.14251 1.48821 1.14191 1.13696 1.12349 1.11068 1.10717 1.10073 1.04971 1.01587 0.996629 0.989848 0.98488
threshold=31682.000000000004 3036.5000000000005 14.893103676663301 10120.500000000002 1941.4977881863153 4.0764544005711461 2.5000000000000004 -121.70497495074149 2.7455440360079053 0.83796798989507915 1999.5000000000002 29.121751031739404 26590.500000000004 3.0308140220633404 1.5000000000000002 241.50000000000003 16570491.000000002 7512951.0000000009 1952.7260403530902 1.5000000000000002 90.500000000000014 1437751.0000000002 4158736.0000000005 -122.20688638613798 38.137684283273153 1952.1298755683201 -122.19850521275998 4.5000000000000009 5.5000000000000009 2.5001132207134602 24857.500000000004 67.823968483112267 2.4713861552939105 17.527415355365005 3.7189888995111957 2.7426763854957206 56.500000000000007 1947.7273319437202 3.1860634510410306 2301.5000000000005 1.0000000180025095e-35 1.5000000000000002 1.5000000000000002 37.774601451804052 1.5000000000000002 0.00057345898011817358 80.741708949066364 6.6747113441892507 5.2225176911929756 3.5000000000000004 3.5000000000000004 1918.5000000000002 1939.5000000000002 3.5000000000000004 37.793687236467811 8.9208333333333361 1.5000000000000002 7513450.0000000009 2.5000000000000004 694966.00000000012 912447.00000000012 18788.500000000004 1777.5000000000002 941000.00000000012 1938.8054441771353 2.5000000000000004 4.5000000000000009 81603050.000000015 14.500000000000002 5.352137336937246 2.5000000000000004 0.00057345898011817358 84580.500000000015 2000.5000000000002 20162271.000000004 11964180.500000002 3.5000000000000004 1955.5000000000002 6.9773578269273102 78838.000000000015 303.00000000000006 12.500000000000002 3.5905289628985302 1.5000000000000002 16118.000000000002 6.1858030523763903 1950.9623134611054 4.7552652439428007 1988.5000000000002 2061.8480091246006 -122.06945023681648 2.5000000000000004 100.50000000000001 0.0017124462750172452 2.7963511218715804 4.5000000000000009 34838.500000000007 -122.49617272397848 4160.5000000000009 -122.44406089261949 37.782871215433509 1924.5000000000002 41112201.500000007 2.9642078458161456 1.0000000180025095e-35 9886.5000000000018 0.64708768030818542 1758431.4705456302 19.500000000000004 1.5000000000000002 3534.7225798261402 6521.5000000000009 98.389374519337863 1.5000000000000002 1962.5000000000002 -121.06510752589249 1915.5000000000002 3.5000000000000004 73.500000000000014 94.500000000000014 1920.5000000000002 799002.72533914761 1949.5000000000002 1962.5000000000002 3.5000000000000004 531830.89803370822 8785.7066643603121
decision_type=2 10 8 10 8 10 10 2 10 10 10 8 10 8 10 10 10 2 10 10 10 2 10 2 2 10 2 10 10 8 2 8 8 10 10 10 10 8 10 10 10 8 8 2 10 8 8 10 10 10 8 10 10 10 2 10 10 2 10 8 10 10 10 8 8 8 8 2 10 10 10 8 10 10 10 8 8 8 10 10 10 10 10 10 10 10 8 8 10 8 2 8 10 8 8 10 10 2 10 2 2 8 2 8 10 2 8 10 10 10 10 10 10 8 8 2 8 10 10 10 10 10 10 8 10 10 10
left_child=1 8 5 6 12 35 9 10 23 21 24 55 30 18 37 27 65 54 -11 20 75 41 28 29 26 44 53 31 63 -1 125 57 120 126 -20 100 -30 62 90 -16 56 86 72 -33 60 -31 -28 52 -46 80 94 98 -19 61 84 -4 66 -13 109 91 111 -6 -10 93 -34 -12 82 89 114 -41 78 -42 -24 -21 108 121 -56 -52 -71 -65 -18 -38 -27 -35 -7 -58 -3 -88 -60 -47 -39 -8 -83 -9 -23 118 -97 -63 -37 -53 -2 -66 116 -40 -103 -79 -107 -99 -44 119 -69 -15 -45 -59 -43 -116 -91 -61 -26 -48 -25 -14 -123 -89 -50 -5 -32
right_child=2 3 11 4 7 17 59 22 14 13 16 15 19 25 39 -17 49 47 34 73 -22 50 42 32 95 40 46 -29 36 45 33 43 64 83 -36 51 81 38 103 69 71 68 74 112 48 67 58 -49 124 -51 77 99 -54 -55 76 -57 85 113 88 117 -62 97 -64 79 101 -67 -68 110 -70 70 -72 -73 -74 -75 -76 -77 -78 105 -80 -81 -82 92 -84 -85 -86 -87 87 123 -90 102 -92 -93 -94 -95 -96 96 -98 107 -100 -101 -102 104 -104 -105 -106 106 -108 -109 -110 -111 -112 -113 -114 -115 115 -117 -118 -119 -120 -121 -122 122 -124 -125 -126 -127 -128
leaf_value=1.0602470789242717 1.0980236781935757 1.0881656215801112 1.1349263619856496 1.0967748571695459 1.1046856631630491 1.137585778331649 1.0747531866186135 1.0919574122054641 1.0735018297108367 1.0895082245429211 1.1234144838767322 1.1766108338060752 1.1285083551166348 1.0944608699190674 1.0620456405780008 1.2350913149497829 1.1460959845361458 1.1205540456348648 1.0572421163112593 1.108638039619193 1.1927269040926869 1.0642549653966911 1.1081853122467971 1.0694237396126509 1.0924106449938209 1.0744677643876575 1.0950120282417342 1.122052596547422 1.068775929959789 1.1026764706134518 1.100805355403123 1.1648116669746504 1.0836209486622934 1.1244219010860956 1.0817500021703665 1.109416221891149 1.087178929455431 1.074064605486432 1.0793755642687055 1.0589310480522118 1.1074283207849058 1.0660290239438297 1.0942666024197731 1.201833920494999 1.0637367202598744 1.062084954104112 1.1139845758900297 1.1255111156709701 1.0916846798203106 1.1252077936470533 1.082049538440055 1.1007325516467616 1.1095659502984736 1.1034353135252206 1.125955267699106 1.1521891569567797 1.0694867734445528 1.1662981579395399 1.0983628453981928 1.0808141446787181 1.1021395230990232 1.1042012465435072 1.0891128588346237 1.0917861181012143 1.0837185370033198 1.1034919662218665 1.0899799427257717 1.0671080960110275 1.0846711434907479 1.0746608777271809 1.062931173741356 1.0917356325664511 1.1457152662864174 1.1403859618714469 1.1042258101710514 1.1647002353945419 1.1373703782782556 1.0887880842725381 1.0889835933376788 1.1219667928701655 1.1770709484690514 1.0600985845586675 1.086209525245216 1.1044423199585811 1.1648981462361681 1.0867943244866074 1.0701309886146253 1.0747105319943837 1.1145272172087748 1.0897704191520314 1.0601102862938394 1.0624504726903174 1.0808351310602258 1.0827429932434731 1.0809923407630004 1.0726595283250631 1.0897780849766185 1.1202415181748455 1.1172820385917939 1.1084793351090838 1.105809878526234 1.0636985876925151 1.0908461419998559 1.088735846741461 1.0737203632570482 1.1193957287984357 1.093798411418218 1.138084475906453 1.0860822720521579 1.106772475975659 1.0786776054641016 1.0981447277215435 1.2289142600389587 1.147775173876501 1.0820974051070877 1.0707419102921396 1.074064605486432 1.0685618645218058 1.1150941251015194 1.1368541823895506 1.0575694986810635 1.1616995529569905 1.1377342434629738 1.08342468535369 1.0774112917447414 1.1062303123281727 1.1113983515614432
leaf_weight=358 966 338 223 248 160 366 113 222 129 322 96 236 120 3010 534 29 93 1054 235 113 39 62 46 83 431 193 1935 26 322 53 185 30 93 437 133 558 450 158 446 71 90 275 756 51 53 44 54 1030 1199 92 291 574 397 905 747 213 155 75 538 165 755 35 935 1016 42 175 1281 408 151 204 83 3815 22 25 169 26 189 864 171 20 22 45 345 47 24 86 134 165 67 61 154 814 136 666 251 101 323 126 348 357 281 670 112 212 152 25 456 54 231 89 111 1199 23 61 159 421 192 140 23 35 1553 22 108 707 51 200 167
leaf_count=358 966 338 223 248 160 366 113 222 129 322 96 236 120 3010 534 29 93 1054 235 113 39 62 46 83 431 193 1935 26 322 53 185 30 93 437 133 558 450 158 446 71 90 275 756 51 53 44 54 1030 1199 92 291 574 397 905 747 213 155 75 538 165 755 35 935 1016 42 175 1281 408 151 204 83 3815 22 25 169 26 189 864 171 20 22 45 345 47 24 86 134 165 67 61 154 814 136 666 251 101 323 126 348 357 281 670 112 212 152 25 456 54 231 89 111 1199 23 61 159 421 192 140 23 35 1553 22 108 707 51 200 167
internal_value=1.09386 1.08798 1.1213 1.09208 1.0988 1.11566 1.088 1.09545 1.07071 1.08953 1.10072 1.16149 1.11699 1.09184 1.0778 1.17639 1.12335 1.12456 1.07702 1.13562 1.14493 1.08256 1.08857 1.06512 1.09851 1.09268 1.10043 1.17299 1.08561 1.07149 1.11042 1.17578 1.06184 1.11547 1.0661 1.10468 1.07878 1.08258 1.0775 1.06866 1.09007 1.07842 1.09554 1.19714 1.09516 1.07559 1.09746 1.12085 1.08999 1.1401 1.08756 1.10801 1.11755 1.10673 1.1315 1.14336 1.08622 1.1698 1.1035 1.06673 1.09652 1.11468 1.08722 1.08899 1.0681 1.11055 1.08762 1.07405 1.07334 1.07534 1.07788 1.0921 1.12033 1.11439 1.09409 1.13817 1.12826 1.08945 1.08119 1.09237 1.15202 1.08388 1.082 1.12248 1.13927 1.07566 1.08222 1.08022 1.10015 1.07971 1.06718 1.06395 1.07568 1.08505 1.07768 1.08976 1.0857 1.12211 1.11244 1.1037 1.09978 1.06643 1.08184 1.08239 1.06555 1.09106 1.09513 1.12559 1.09235 1.11488 1.06958 1.09551 1.21025 1.15799 1.07134 1.07385 1.07785 1.07519 1.09356 1.12298 1.05817 1.13541 1.14179 1.08178 1.0911 1.101 1.10583
internal_weight=0 36674 7858 29645 11192 6891 18453 9455 7029 17221 5354 967 1737 12922 3097 531 478 3807 690 453 315 4299 4101 3932 4876 12232 3998 502 2877 1339 1284 476 2593 836 368 3084 953 2034 970 1063 5965 2350 1224 104 6267 981 2718 2481 1303 207 1949 1837 1451 1280 1326 436 2060 372 783 1232 4964 375 1064 1924 957 271 1819 928 1006 529 458 3905 68 138 1156 276 936 1636 375 1036 115 631 538 484 390 241 1344 1006 605 409 312 927 181 888 313 878 424 215 906 931 1247 864 365 658 822 1345 481 180 987 178 519 4209 74 136 855 580 253 305 454 89 1636 250 130 872 1250 448 352
internal_count=44532 36674 7858 29645 11192 6891 18453 9455 7029 17221 5354 967 1737 12922 3097 531 478 3807 690 453 315 4299 4101 3932 4876 12232 3998 502 2877 1339 1284 476 2593 836 368 3084 953 2034 970 1063 5965 2350 1224 104 6267 981 2718 2481 1303 207 1949 1837 1451 1280 1326 436 2060 372 783 1232 4964 375 1064 1924 957 271 1819 928 1006 529 458 3905 68 138 1156 276 936 1636 375 1036 115 631 538 484 390 241 1344 1006 605 409 312 927 181 888 313 878 424 215 906 931 1247 864 365 658 822 1345 481 180 987 178 519 4209 74 136 855 580 253 305 454 89 1636 250 130 872 1250 448 352
shrinkage=1


Tree=1
num_leaves=128
num_cat=0
split_feature=33 0 48 3 48 2 2 0 40 6 0 3 49 6 6 5 0 48 1 35 2 1 11 11 11 35 0 35 6 48 47 2 2 34 13 48 35 35 47 35 10 47 35 43 0 2 2 0 0 6 0 7 6 7 61 58 0 2 48 36 0 0 35 13 7 35 6 34 38 48 2 35 1 2 14 2 14 6 61 35 0 38 11 11 10 0 35 7 2 5 6 37 59 5 48 34 40 7 0 43 3 4 8 38 5 53 5 56 11 6 7 33 13 11 14 44 53 41 2 14 0 11 48 35 61 35 10
split_gain=581.997 210.129 144.962 68.8885 60.2443 49.1712 42.994 38.3022 26.0318 19.9764 18.0436 17.8979 13.7867 13.7305 13.5796 10.4616 9.58328 8.90475 8.44784 8.14527 7.495 7.38432 7.11546 6.92662 6.91143 6.63017 5.78093 5.71515 5.40748 5.34688 5.33841 5.31574 5.17869 4.91915 4.78089 4.64817 4.58436 4.39107 4.24231 4.14705 3.63384 3.62184 3.55292 3.43746 3.19816 4.33368 3.29902 3.09997 2.90254 2.83594 2.76256 2.73632 2.7302 2.70822 2.69253 2.68074 2.16935 2.14271 2.13034 2.11134 2.10391 2.09385 2.08823 2.8025 1.99717 1.96439 1.96169 1.95312 1.94554 1.94505 1.89078 1.78292 1.72645 1.71105 2.86014 1.68488 1.69493 1.63352 1.5995 1.56768 1.56723 1.5516 1.54919 1.49934 1.48369 1.47573 1.55563 1.46606 1.44882 1.41852 1.44405 1.37667 2.48086 1.36033 1.35954 1.35856 1.33319 1.30794 1.52272 1.30587 1.29189 1.26817 1.23881 1.22853 1.21885 1.20202 1.18365 1.17814 1.16955 1.16943 1.14604 1.14568 1.13583 1.12822 1.11818 1.11443 1.1112 1.07938 1.03841 1.43 1.03774 1.02004 1.0053 1.00356 0.989451 0.982089 0.980153
threshold=31682.000000000004 2960.5000000000005 17.856358134945804 1000206.0000000001 4.2255063791402412 2.5000000000000004 1.5000000000000002 66014.000000000015 0.82733907797854755 2.7455440360079053 5360.5000000000009 16570491.000000002 38198.242457115259 2.9852712673518553 29.121751031739404 1.5000000000000002 10775.000000000002 6.6747113441892507 272.50000000000006 1936.4002489331451 6.5000000000000009 148.50000000000003 -121.06510752589249 -122.24340198149149 -121.06510752589249 1945.9523627632852 12241.000000000002 1946.4140441176453 2.5001132207134602 3.2950126431762103 19393.467964697305 4.5000000000000009 1.5000000000000002 7515350.0000000009 1.0000000180025095e-35 67.823968483112267 1944.7031719989054 1952.4342828585702 13805.181878807552 1941.8774350649353 37.774601451804052 2781.3461980602601 1934.2900041692753 2.3390639310965754e-05 38049.000000000007 4.5000000000000009 7.5000000000000009 2301.5000000000005 1777.5000000000002 3.1860634510410306 6577.5000000000009 1918.5000000000002 23.686399008266452 1961.5000000000002 0.00057345898011817358 58706439.500000007 84580.500000000015 3.5000000000000004 3.7189888995111957 7161.71119085593 16118.000000000002 30681.000000000004 1951.9280169825904 1.0000000180025095e-35 1989.5000000000002 1950.1959483368701 3.2247950817858655 7515350.0000000009 1030093.7332597502 2.2436454838925557 1.0000000180025095e-35 1938.0808367015304 3.5000000000000004 8.5000000000000018 138.50000000000003 5.5000000000000009 47.500000000000007 5.2585577699320654 0.00057345898011817358 1951.7819653614449 36416.000000000007 574523.82496638305 -122.23445529574698 -122.20688638613798 38.294856420504608 7676.5000000000009 1938.8054441771353 1915.5000000000002 1.5000000000000002 2.5000000000000004 7.0227042888098117 3.9684011164274304 1123.7167388167402 1.5000000000000002 47.09864687471476 7513450.0000000009 0.880032302864039 1982.5000000000002 2550.5000000000005 2.4552838523304453e-05 274729.50000000006 2061.8480091246006 6.5000000000000009 708839.12533864554 3.5000000000000004 3.9243523069862047 2.5000000000000004 3379.1041666666656 -121.56754028649499 6.2304431431598957 1981.5000000000002 18209.000000000004 1.5000000000000002 -121.75147022019048 62.500000000000007 1.0051106483828451 128.29149696707603 0.0011676036491404653 10.500000000000002 84.500000000000014 8095.0000000000009 -122.13624642571999 2.9642078458161456 1977.3070588235303 0.00070086056138244756 1938.8054441771353 37.6401740212332
decision_type=2 10 8 8 10 10 8 10 10 10 10 10 10 8 8 10 10 10 10 10 10 10 2 2 2 10 10 10 8 10 10 10 10 2 10 8 10 8 10 8 2 10 10 10 10 8 10 10 10 10 10 10 10 8 8 10 10 10 10 10 10 10 10 10 10 10 8 2 10 10 10 8 10 10 10 10 8 10 8 8 10 10 2 2 2 10 8 8 8 10 10 10 10 10 10 2 10 8 10 10 10 8 10 8 10 10 10 10 2 10 8 2 10 2 10 10 10 10 10 8 10 2 8 10 8 10 2
left_child=1 9 4 5 29 8 7 12 22 23 13 24 36 27 68 37 57 42 31 26 55 39 34 28 44 30 102 -10 -1 69 -14 35 62 52 53 67 38 48 -5 117 -37 71 -6 -23 46 56 85 -17 -11 -39 88 -31 70 79 -30 112 -46 96 -29 -28 104 -27 93 72 -22 -34 -55 -16 -4 -2 -19 -25 -64 94 -75 108 -77 -49 -65 -3 111 -41 -62 -38 101 106 -87 -43 103 90 125 92 -80 -15 -26 -71 120 -73 -99 -72 -52 -56 -12 -24 121 -89 -8 -68 -18 -95 -90 -40 -13 -66 -48 -53 -42 -9 -47 -120 -7 -21 -51 -74 -93 -79 -103
right_child=2 3 14 6 17 16 11 21 10 15 19 20 25 32 18 47 75 33 -20 60 64 43 50 41 73 61 59 58 54 51 -32 -33 65 -35 -36 40 83 49 80 81 116 87 -44 -45 45 118 114 77 -50 122 100 115 -54 66 84 -57 -58 -59 -60 -61 82 -63 63 78 113 -67 107 -69 -70 95 99 97 123 74 -76 76 -78 89 91 -81 -82 -83 -84 -85 -86 86 -88 105 110 -91 -92 124 -94 109 -96 -97 -98 98 -100 -101 -102 126 -104 -105 -106 -107 -108 -109 -110 -111 -112 -113 -114 -115 -116 -117 -118 -119 119 -121 -122 -123 -124 -125 -126 -127 -128
leaf_value=-0.029890241020498656 0.0022513049373477957 -0.0099308108527432475 0.038082940566043062 0.0068924969556326396 0.025614576986965284 -0.027012723617707242 -0.0042492241103990703 0.049564350023865701 -0.0047002629535097002 -0.019204727303749787 0.0026140123752906533 0.03761573900756391 0.015052904840611683 0.00030046227730913311 0.074646677219026819 -0.028635553958431616 -0.0029060660058115324 0.04482794076713742 0.13753305843898231 0.0017500698686640122 0.0043853277626055244 0.058817543922101749 -0.012624534601066426 -0.018277368630629547 -0.0080914688866560707 0.0068719279135140039 0.014202198391795491 -0.031830567650168257 0.009087815423212622 0.020203786877234394 0.034888666823287999 0.029630924002439891 -0.0077995413809818009 0.028114564300381714 -0.0023126593572289859 0.066039045418010034 0.0069515299053412851 -0.025901901139000968 0.010635094851616542 0.013447223774467908 0.11845708778926306 -0.0037779446103070914 0.01382422846050993 0.10147704303264618 0.0080690541174805834 0.0027761713477574587 -0.022941466449336468 -0.034193298023413213 -0.0049628761291503906 -0.015248491648704777 -0.016214288591570116 0.0067568387605543082 0.063553820997476571 -0.036126760166624319 -0.030023922398686412 0.058294365039238565 0.025623571782692357 -0.030191154161477652 -0.013853125282745252 0.030398819420140152 0.016529982164050921 0.01917035935777113 -0.016629990287353551 0.013393726601960169 0.024975413170577301 -0.020133936853665445 -0.012375304232315807 0.058463756574524774 0.055296420501223936 0.015794813869029489 0.032788565296955056 -0.032695441721213706 -0.0059915061691378614 -0.020301155732522603 -0.0063066543363418217 -0.027887454324617172 -0.012162753127556722 -0.0063916108384728431 -0.0015855335892745476 -0.020998984946881571 0.045470103003084662 0.036607108296733977 0.0032474065805277365 0.00015520578401973621 -0.024271128179725283 0.009346627631521779 -0.0012511277869291342 -0.028118131623697886 -0.024626802750641393 -0.02766366020046376 -0.0040115718590462302 -0.01655084854093097 -0.028425727638399657 -0.016560472251364478 0.00151187940309309 0.0077542490274700605 -0.014254532944319524 -0.027856402494469468 -0.0031347329417864482 0.043645909689086722 -0.0071789869758377388 -0.017446467246521602 0.0091302677854908764 -0.025024807005519831 -0.013954239193680546 -0.019746102997896611 -0.017702576423222881 -0.0042330918340287224 -0.012546149835492236 -0.0033291262679603787 -0.014690416713440142 0.024085411216361922 0.016494464484810813 0.010734706833650631 -0.003869011842735662 0.015802199249651202 0.094197811767822368 0.079254365774492422 -0.024623353122608802 -0.0015684447047702923 -0.012815234702668292 -0.0011855322892336982 -0.004301029411347016 -0.024900851180327352 -0.0017020331384220478 -0.022162183656224185 -0.0078481623785203285
leaf_weight=327 573 221 120 584 1456 330 323 25 159 167 649 53 220 2286 241 534 226 234 21 2182 285 51 567 102 451 329 214 272 46 621 354 27 303 980 1341 34 515 239 98 39 35 38 310 30 388 798 102 51 1000 310 223 324 40 23 41 39 86 588 87 129 129 239 212 63 99 225 248 108 145 252 663 1714 872 256 340 106 194 55 87 304 25 112 275 878 161 154 1377 345 357 74 127 46 57 81 219 1265 173 147 30 133 545 176 530 93 62 341 82 627 284 381 172 179 49 127 44 235 41 24 28 687 61 2587 115 29 1836 140 269
leaf_count=327 573 221 120 584 1456 330 323 25 159 167 649 53 220 2286 241 534 226 234 21 2182 285 51 567 102 451 329 214 272 46 621 354 27 303 980 1341 34 515 239 98 39 35 38 310 30 388 798 102 51 1000 310 223 324 40 23 41 39 86 588 87 129 129 239 212 63 99 225 248 108 145 252 663 1714 872 256 340 106 194 55 87 304 25 112 275 878 161 154 1377 345 357 74 127 46 57 81 219 1265 173 147 30 133 545 176 530 93 62 341 82 627 284 381 172 179 49 127 44 235 41 24 28 687 61 2587 115 29 1836 140 269
internal_value=0 -0.00529177 0.0246972 -0.00176248 0.0202141 -0.00505518 0.00518246 0.0136538 -0.00345662 -0.0215263 -0.0012573 -5.56946e-05 0.0107386 -0.004817 0.0658465 -0.0151594 -0.020107 0.0287495 0.0754351 0.00242832 0.0155844 0.0491447 -0.00986361 -0.0263172 -0.0019671 0.0197065 0.00886745 -0.0204835 -0.0192906 0.0102534 0.0272861 0.0727519 -0.00356426 0.0332331 -0.00659689 0.0752884 0.00624476 -0.0106949 0.0118685 0.0388283 0.0932131 -0.0289551 0.0235449 0.0746174 4.0558e-05 0.00291033 -0.00269827 -0.0234924 -0.00700091 -0.0171871 -0.0144774 0.015635 0.0379211 -0.0106343 -0.0142891 0.0359953 0.0112541 -0.0259673 -0.0274739 0.0202936 0.000556241 0.0120468 -0.002722 -0.00445751 0.00995243 -0.0130557 -0.0072986 0.0696388 0.0475016 0.00721503 0.0369257 -0.0311557 -0.00851058 -0.00841983 -0.0123177 -0.0117722 -0.0177188 -0.0173483 -0.00229807 -0.0163398 0.021491 0.0306254 0.00748863 0.00266785 -0.0159511 -0.00160513 -0.000185122 -0.0228974 -0.017497 -0.0151789 -0.0123097 -0.00278602 -0.0122098 -0.000699759 -0.00495246 0.00908993 -0.0215638 -0.0318503 -0.0236663 0.0346027 -0.00980252 -0.0131949 0.00554329 -0.0143718 -2.34905e-05 -0.0239565 -0.00697311 -0.00654083 -0.00827427 -0.00564891 -0.0213961 0.0193268 0.0274692 0.0169729 -0.0171936 0.0105595 0.10537 0.0641064 0.000296371 -0.00247129 -0.0247978 0.000157618 -0.0122862 -0.00660013 -0.00206497 -0.0177141 -0.0116443
internal_weight=0 36674 7858 30125 7086 20436 9689 3702 18474 6549 13753 5987 3421 6996 772 2812 1962 3816 507 6757 652 281 4721 3737 5335 1142 1522 518 1020 3270 574 486 6478 2050 2764 459 2279 1831 886 200 110 2717 1766 81 4069 1987 2082 981 1167 664 1957 1180 1070 1423 693 141 474 1152 359 343 5235 568 5950 3202 511 528 898 349 265 2090 1030 1993 1113 1266 596 810 300 447 2089 525 302 151 404 1393 647 1936 1531 724 1189 396 322 2026 144 2748 670 1517 564 1891 177 796 768 486 1179 660 4831 686 405 875 510 462 529 277 102 226 146 559 76 49 1513 715 391 4769 425 901 1882 195 445
internal_count=44532 36674 7858 30125 7086 20436 9689 3702 18474 6549 13753 5987 3421 6996 772 2812 1962 3816 507 6757 652 281 4721 3737 5335 1142 1522 518 1020 3270 574 486 6478 2050 2764 459 2279 1831 886 200 110 2717 1766 81 4069 1987 2082 981 1167 664 1957 1180 1070 1423 693 141 474 1152 359 343 5235 568 5950 3202 511 528 898 349 265 2090 1030 1993 1113 1266 596 810 300 447 2089 525 302 151 404 1393 647 1936 1531 724 1189 396 322 2026 144 2748 670 1517 564 1891 177 796 768 486 1179 660 4831 686 405 875 510 462 529 277 102 226 146 559 76 49 1513 715 391 4769 425 901 1882 195 445
shrinkage=0.1


Tree=2
num_leaves=128
num_cat=0
split_feature=33 0 48 0 2 48 2 0 6 40 6 35 3 6 47 11 5 52 2 34 41 34 35 7 11 13 2 10 3 58 2 38 2 48 48 35 35 48 6 20 0 35 0 11 0 7 6 11 5 8 7 64 63 10 1 35 48 13 14 58 58 2 14 0 14 0 0 7 8 35 33 2 2 60 5 60 6 5 10 0 53 5 2 40 10 64 8 55 35 53 43 38 47 2 14 5 6 6 14 11 2 40 48 47 10 7 7 48 7 7 52 19 0 8 7 7 59 0 2 7 11 11 7 2 34 61 7
split_gain=471.418 170.615 117.846 54.7251 48.7152 42.562 41.14 28.8985 19.3818 19.01 18.2664 18.1821 16.3047 10.9376 9.35618 9.34062 8.88429 7.94273 7.71874 6.69433 6.38885 6.38266 6.34268 5.82764 5.78779 4.8722 4.25475 4.10204 3.92998 3.77936 3.53412 3.4848 3.34655 3.65474 3.34503 3.29433 3.25005 3.21646 3.20063 3.16367 3.1211 3.09604 2.91793 2.91087 2.90784 2.82111 2.80974 2.77517 2.70244 2.50672 2.47499 2.43747 2.42414 2.42165 2.39214 2.51812 2.29424 2.26298 2.07266 2.03865 2.0236 1.82483 2.40203 2.11298 1.81044 1.80482 1.739 1.69399 1.6614 1.64451 1.61442 1.58752 1.57786 1.56586 1.54772 1.50328 1.48741 1.65939 1.47674 1.46778 1.42025 1.394 1.38779 1.35708 1.34433 1.62961 1.33087 1.31937 1.30522 1.31329 1.26564 1.25329 1.23148 1.20281 1.56123 1.20134 1.98686 1.20008 1.18798 1.18208 1.16443 1.14292 1.13576 1.12285 1.61131 1.1204 1.32509 1.11095 1.11084 1.08645 1.07781 1.0655 1.06219 1.04642 1.02837 1.0429 1.01231 1.01057 1.00072 0.959957 0.930831 0.921284 0.911191 0.903356 0.893616 0.893297 0.8822
threshold=31682.000000000004 3036.5000000000005 13.894650532813602 10926.000000000002 1.5000000000000002 3.9895844062537003 2.5000000000000004 66014.000000000015 29.121751031739404 0.83796798989507915 2.7455440360079053 1945.4376312589804 8400394.5000000019 3.0308140220633404 17468.068127430804 -121.25050032065847 1.5000000000000002 152.44547097859251 6.5000000000000009 7512951.0000000009 0.0011676036491404653 5311303.0000000009 1952.7260403530902 1920.5000000000002 -122.22430907654798 1.0000000180025095e-35 4.5000000000000009 37.906642589798558 3068439.0000000005 58706439.500000007 1.5000000000000002 1045306.5157249451 3.5000000000000004 20.934366209141157 3.7189888995111957 1946.6906696021904 1956.027252906975 2.5932849164396852 3.1167590595979808 0.0012698357747907253 2457.5000000000005 1948.50527131783 4725.5000000000009 -122.06945023681648 28470.500000000004 1918.5000000000002 2.5001132207134602 -122.12170339359149 2.5000000000000004 3.5000000000000004 1925.5000000000002 3.3403155470067207 4.2991338585310209e-06 37.793687236467811 10.500000000000002 1966.5208333333353 5.107962003362676 1.0000000180025095e-35 160.50000000000003 23432616.250000004 1234636.3888888902 7.5000000000000009 102.50000000000001 26590.500000000004 14.500000000000002 1777.5000000000002 69975.000000000015 1974.5000000000002 5.5000000000000009 1938.8054441771353 24857.500000000004 1.5000000000000002 18.500000000000004 0.77126591515607357 2.5000000000000004 1.0707393278767354 5.352137336937246 2.5000000000000004 37.802387502469109 2398.5000000000005 10.4936685339484 2.5000000000000004 3.5000000000000004 0.64708768030818542 38.345702950845059 1.0902116402116402 7.5000000000000009 1984.4807692307702 1949.3941176470601 4.7010167114388057 1.0342129343095152e-05 640361.47349261364 13351.236383759553 9.5000000000000018 74.500000000000014 1.5000000000000002 5.3017409027538811 3.996632606256671 142.50000000000003 -122.06945023681648 5.5000000000000009 0.87423951696115865 2.7963511218715804 5013.1582024145655 37.658252676980958 1950.5000000000002 1926.5000000000002 2.8787887054812455 1929.5000000000002 1968.5000000000002 5.834430392706861 1.2454789381326952 4160.5000000000009 24.500000000000004 1962.5000000000002 1925.5000000000002 1483.5506290584403 18233.000000000004 9.5000000000000018 1955.5000000000002 -122.44524213040499 -122.03887939064899 1987.5000000000002 22.500000000000004 81610150.500000015 0.0015712552273025604 1962.5000000000002
decision_type=2 10 8 10 8 10 10 10 8 10 10 10 10 8 10 2 10 10 10 2 10 2 10 10 2 10 10 2 10 10 8 8 10 8 10 8 10 10 10 10 10 10 10 2 10 10 8 2 10 8 10 10 10 2 10 10 10 10 10 10 10 10 10 10 10 10 10 8 8 8 2 10 10 8 8 8 10 10 2 8 10 10 8 8 2 10 10 10 8 8 10 10 10 10 8 10 10 8 8 2 10 10 8 10 2 8 10 8 10 10 8 8 10 10 8 10 10 10 10 10 2 2 10 10 2 10 8
left_child=1 10 5 6 7 37 9 11 60 21 23 14 15 22 86 32 35 26 29 53 52 30 -11 101 27 43 31 54 47 67 88 80 66 118 -24 65 58 -2 99 -27 -18 56 48 46 70 112 -25 117 71 102 -33 125 -9 113 55 103 -21 74 -22 -20 -4 63 -63 100 126 -12 69 -14 -54 91 -16 90 -61 -48 110 -41 -42 -78 -46 -45 -10 83 -55 -51 -29 -86 -5 -81 -3 -90 97 -6 -43 -35 -95 -44 -97 -26 -69 -37 -17 -1 -23 -15 -105 106 -82 121 -80 124 -8 -106 -39 -7 115 -91 -87 -13 -34 -85 -47 -40 -30 -64 -75 -52 -32
right_child=2 3 8 4 12 19 57 20 17 13 16 28 18 24 44 61 40 -19 59 41 36 49 34 25 42 39 -28 84 122 -31 64 50 33 93 -36 38 -38 45 107 75 76 92 95 79 78 120 73 -49 -50 81 51 -53 68 82 -56 -57 -58 -59 -60 72 -62 62 123 -65 -66 -67 -68 98 -70 -71 -72 -73 -74 109 -76 -77 77 -79 108 87 105 -83 -84 119 85 116 -88 -89 89 114 -92 -93 -94 94 -96 96 -98 -99 -100 -101 -102 -103 -104 104 111 -107 -108 -109 -110 -111 -112 -113 -114 -115 -116 -117 -118 -119 -120 -121 -122 -123 -124 -125 -126 -127 -128
leaf_value=-0.01770823389136543 0.0040520717317623833 -0.0033388638841391617 0.03393244788208058 0.005672010348055226 0.0050041215727105737 0.035806748166680336 -0.022494037465794998 0.054748840894290191 0.073793369829654704 -0.0034818091296260692 -0.016250522594782525 0.0048686489849277962 0.0087151965773806968 -0.0004177420447623642 0.013950810960986991 -0.0089065937983378741 -0.024900837325142318 0.11285687174115862 0.0023094483020379259 0.018043071875082594 0.063272538681825002 -0.025277107525616883 -0.029877308882931448 -0.028832469329033345 -0.030412660344154574 -0.020230916478436126 0.023370537072420122 -0.0015203764104430027 0.011419322545490156 0.052464928458898497 -0.022909198323150679 0.062015971069848991 -0.010620388986282777 0.00073131020795323774 -0.010079052913655986 -0.015952542669493971 0.042012849662985123 0.012450490836781684 -0.0094156029950588568 0.020914911775401349 -0.028755359679203608 0.0051956600303967281 3.5747616067472016e-05 -0.030252331392396067 0.026810660038493795 0.0046759943378699084 -0.0058194151424147472 -0.00056250610662192781 -0.0235056872497999 0.015570220711112887 0.069659866398873449 0.10166159930982088 0.054097625267292775 0.025590607189700632 0.012146303465927188 0.014211287707234231 0.024735633454535135 -0.014809305345188904 0.10225905525684356 0.019225299175499651 0.046628550267881819 -0.020129638418894213 -0.0060868054515814014 -0.0015950981994999735 -0.0073489870118387673 -0.0035535802307287349 0.01929799882424367 0.013544221927030859 0.023861698297852719 0.0011657942635645378 0.02624145196448173 -0.013962578307696139 0.0038859912970413768 -0.019165346151453325 -0.025843194818260414 -0.0059886699676927595 -0.00843631832143657 -0.025919223463896551 0.062258751240248482 -0.025427736832218658 0.039769323777269439 -0.016616391602939175 0.03517293913780075 -0.0080087880724171914 -0.0029374003375613193 -0.028126862349004991 0.014465020626469606 -0.0056822276363770168 -0.01960480751378553 0.0031445024758577351 -0.0034410097325033419 0.022129202893250554 0.022627586966211147 -0.022528548939938092 -0.0033413158591817822 -0.028348643620847727 -0.0030526080899677434 -0.0079918348658929005 0.031716294942284902 -0.02899719302487724 -0.02206329870133255 -0.006676934022284791 -0.009907502917696008 0.00032657795648705974 0.01619939569916044 0.03629476194083691 0.069254406179700578 -0.0044668575569908183 0.038623787090182306 -0.012263370572548846 -0.003937878411520144 0.0049594298674719541 0.01951407370358986 0.058789245145661501 -0.0078666923091449056 -0.018730333706857089 -0.0090202345964186231 0.012828965642145876 -0.028240535619746272 -0.0016059198801570405 0.010874920135318506 -0.018673261197102144 0.023084777735272403 -0.01889623965729367 -0.026497661649876148 0.091187923369200341 -0.016249505274936678
leaf_weight=168 1044 311 284 278 118 350 68 43 25 322 128 464 98 1179 149 489 633 35 727 770 30 60 235 437 32 214 25 929 246 39 294 158 308 1133 134 142 35 640 312 27 58 154 3341 1260 101 592 81 1011 76 41 119 38 21 739 289 180 1530 342 25 152 225 294 332 460 177 893 63 55 135 1380 378 165 120 435 834 90 306 66 24 564 27 72 190 292 154 57 452 36 143 25 2805 67 55 46 543 32 1046 94 104 136 78 213 242 959 91 50 35 259 116 138 58 1152 319 21 842 170 54 243 36 1182 410 164 92 66 269 23 615
leaf_count=168 1044 311 284 278 118 350 68 43 25 322 128 464 98 1179 149 489 633 35 727 770 30 60 235 437 32 214 25 929 246 39 294 158 308 1133 134 142 35 640 312 27 58 154 3341 1260 101 592 81 1011 76 41 119 38 21 739 289 180 1530 342 25 152 225 294 332 460 177 893 63 55 135 1380 378 165 120 435 834 90 306 66 24 564 27 72 190 292 154 57 452 36 143 25 2805 67 55 46 543 32 1046 94 104 136 78 213 242 959 91 50 35 259 116 138 58 1152 319 21 842 170 54 243 36 1182 410 164 92 66 269 23 615
internal_value=0 -0.0047626 0.0222275 -0.00144136 0.00433853 0.017434 -0.00463522 0.0133159 0.0535137 -0.00337954 -0.01877 0.010843 -0.000804563 -0.00148725 0.0192226 -0.003216 -0.013026 0.0668038 0.00927504 0.0244538 0.0437255 -0.00902591 -0.0137379 -0.0232942 -0.00081727 -0.0245553 0.06358 0.00180834 0.00473772 0.0234583 -0.0122626 0.0656963 -0.000382268 -0.00305412 -0.0226877 -0.00915403 0.0658345 0.00853596 -0.0131944 -0.0130021 -0.0204348 0.0214362 -0.00256191 -0.0257429 0.0269276 0.0109231 -0.0222267 0.00279849 -0.00487602 -0.00461038 0.0711494 0.0791666 0.0337265 0.0302779 0.00339647 0.00268636 0.0224951 -0.0217942 0.0809937 0.00507261 0.0395447 -0.00930546 -0.0132747 -0.00663097 -0.0166018 -0.00514536 0.00300842 0.0190565 0.0279319 0.00235268 0.0227665 -0.0044187 0.012458 -0.0190991 -0.0242825 0.000219849 -0.0138604 -0.0115381 0.0360267 -0.0283138 0.0522427 -0.00302128 0.0275504 -0.00237517 -0.00331249 -0.00959503 0.0111164 -0.024243 -0.00910206 -0.010621 -0.00388143 0.0112062 0.00978301 -0.00117426 -0.00483981 -0.000900826 -0.00380351 -0.013686 0.0254304 -0.0223341 -0.0107165 -0.0115411 -0.0129611 0.00207278 0.00340627 0.0474323 0.0564141 -0.00973741 0.0426755 -0.0203767 -0.0139523 0.00578231 0.0148001 0.0371076 -0.00938216 -0.0159259 -0.0188317 0.00760466 -0.0124644 -0.00287433 0.00721248 -0.0126052 0.0145945 -0.00821098 -0.021967 0.0731468 -0.0184035
internal_weight=0 36674 7858 29645 10551 6814 19094 3843 1044 17792 7029 3554 6708 13326 1498 5413 3097 535 1295 3809 289 4466 691 3932 12635 3551 500 5044 2056 296 2577 475 3694 2066 369 2034 90 3005 1013 331 1063 2509 7591 3220 768 1961 1360 1718 3172 1889 338 180 199 1300 3850 3561 2300 1302 55 999 509 1719 692 1027 1086 1021 1628 257 156 1565 527 3096 272 923 960 117 430 372 241 1860 137 1587 929 1515 1194 265 730 600 1491 1180 2931 185 209 1722 589 4419 1078 126 159 278 567 381 302 3381 2202 112 62 735 140 842 126 1243 959 371 1037 195 111 707 344 1474 1002 476 338 398 704 142 909
internal_count=44532 36674 7858 29645 10551 6814 19094 3843 1044 17792 7029 3554 6708 13326 1498 5413 3097 535 1295 3809 289 4466 691 3932 12635 3551 500 5044 2056 296 2577 475 3694 2066 369 2034 90 3005 1013 331 1063 2509 7591 3220 768 1961 1360 1718 3172 1889 338 180 199 1300 3850 3561 2300 1302 55 999 509 1719 692 1027 1086 1021 1628 257 156 1565 527 3096 272 923 960 117 430 372 241 1860 137 1587 929 1515 1194 265 730 600 1491 1180 2931 185 209 1722 589 4419 1078 126 159 278 567 381 302 3381 2202 112 62 735 140 842 126 1243 959 371 1037 195 111 707 344 1474 1002 476 338 398 704 142 909
shrinkage=0.1


Tree=3
num_leaves=128
num_cat=0
split_feature=33 0 48 3 2 48 2 0 6 35 6 58 0 13 5 1 1 11 0 11 0 47 2 48 7 6 11 35 11 5 2 61 35 0 58 40 0 0 7 43 48 1 7 2 11 49 5 6 10 3 11 58 48 2 38 3 2 35 58 4 11 2 51 5 44 8 34 2 14 35 35 6 2 46 38 35 0 48 34 7 4 46 0 2 0 0 7 14 2 7 8 0 4 37 7 48 7 50 2 47 12 0 44 0 2 3 58 4 14 10 6 47 7 8 48 40 38 47 8 7 19 10 49 0 35 35 19
split_gain=381.848 138.528 95.9076 43.4283 35.5914 30.7418 28.6603 22.6732 20.7647 18.474 17.2153 11.083 11.0058 10.6944 8.07428 7.86737 7.37182 7.35802 6.40399 6.35118 5.70418 5.51925 5.35989 4.93473 4.9333 4.34181 4.31966 4.0505 4.01264 3.8948 3.79597 3.59286 3.35403 3.26779 2.82238 2.80845 2.78399 2.6953 2.9662 2.51196 2.49316 2.36988 2.36091 2.33319 2.27572 2.04524 2.04456 2.43717 2.04219 1.94934 1.90604 1.89236 1.85631 1.79359 1.77435 1.75174 2.09813 1.74403 1.73781 1.70373 1.68075 1.66338 1.6147 1.66767 1.59653 1.57376 1.54372 1.51529 1.89042 1.45037 1.4078 1.40536 1.39993 1.39833 1.39779 1.39484 1.39234 1.38141 1.36011 1.35868 1.33186 1.31664 1.28787 1.25523 1.25268 1.25132 1.22525 1.21977 1.21376 1.18632 1.17794 1.16916 1.15692 1.48485 1.15029 1.13248 1.12091 1.17434 1.09425 1.07887 1.06103 1.05009 1.03236 1.01861 1.013 1.00774 0.997771 0.996859 1.04709 0.981589 0.965758 0.954016 0.938119 0.935987 0.923866 0.920889 0.920252 0.901267 0.896951 0.881483 0.895171 0.870758 0.87014 0.862746 0.862699 0.861075 0.838307
threshold=31682.000000000004 3134.5000000000005 12.002982705532201 1225131.5000000002 2.5000000000000004 3.9895844062537003 1.5000000000000002 48033.000000000007 29.121751031739404 1950.6917266187054 2.7455440360079053 14601488.750000002 10417.500000000002 1.0000000180025095e-35 1.5000000000000002 193.50000000000003 148.50000000000003 -122.2374937428955 10775.000000000002 -120.86404157411899 4601.0000000000009 2956.8561445705504 8.5000000000000018 18.408369604818855 1939.5000000000002 3.0308140220633404 -120.98718013414698 1941.8774350649353 -122.24080939319948 2.5000000000000004 1.5000000000000002 0.00063972220625312765 1942.8619528619504 78838.000000000015 1768855.6750000003 0.82345550093704256 2301.5000000000005 2995.5000000000005 1917.5000000000002 2.3390639310965754e-05 2.4104558341856959 11.500000000000002 1957.5000000000002 1.0000000180025095e-35 -122.26955618826797 362263.6725990891 1.5000000000000002 5.2225176911929756 37.906642589798558 332058.50000000006 -122.23445529574698 507774.75480769255 12.269872235652802 3.5000000000000004 1758431.4705456302 7653210.0000000009 5.5000000000000009 1948.50527131783 58706439.500000007 2061.8480091246006 -122.2374937428955 7.5000000000000009 4802.7199327594362 2.5000000000000004 1.1794825444114603 4.5000000000000009 1427950.0000000002 7.5000000000000009 62.500000000000007 1946.6906696021904 1952.9711382113851 3.1167590595979808 12.500000000000002 318.50000000000006 756640.54333333357 1945.4376312589804 6632.5000000000009 24.214099737006404 13305501.500000002 1935.5000000000002 2636.7261650007904 82.500000000000014 34838.500000000007 1.5000000000000002 7433.0000000000009 23966.500000000004 1989.5000000000002 223.50000000000003 3.5000000000000004 1922.5000000000002 21.500000000000004 6404.5000000000009 3329.9252544362103 5.2625889636345908 1982.5000000000002 24.214099737006404 1963.5000000000002 7.9633822205320106 1.5000000000000002 38218.834484878105 1.0000000180025095e-35 2550.5000000000005 1.0051106483828451 21719.500000000004 1.5000000000000002 231423.00000000003 158161.50000000003 6249.1669301589909 15.500000000000002 36.77338705220135 2.4479602504748956 18170.030128361806 1974.5000000000002 6.5000000000000009 5.4602374539137566 0.87106092170141769 477870.11041874409 11214.370346352052 3.5000000000000004 1925.5000000000002 1.0376150494947303 37.802387502469109 6267.6573984082161 1952.5000000000002 1945.9523627632852 1950.4711873492352 0.99123380192064159
decision_type=2 10 8 8 10 10 8 10 10 8 10 10 10 8 10 10 10 2 10 2 10 10 10 10 8 8 2 8 2 10 10 8 8 10 10 10 10 10 10 10 10 10 8 10 2 8 10 10 2 8 2 10 8 10 10 10 8 10 10 8 2 10 8 10 10 8 2 10 10 10 10 10 10 10 10 10 10 10 2 8 8 10 10 10 10 10 10 10 10 10 10 10 8 10 8 10 8 10 8 10 2 10 10 10 10 10 10 10 10 2 8 10 8 10 10 10 10 10 8 8 8 2 10 10 10 10 8
left_child=1 10 5 4 9 37 7 17 34 12 21 26 35 20 40 29 27 23 53 73 25 32 58 44 43 -11 55 45 41 33 65 -23 59 64 77 105 -16 -2 113 -18 50 -14 51 74 -5 100 76 -48 121 98 123 -22 -19 75 -29 67 112 84 -13 -1 80 85 -38 -64 -10 -27 -43 95 -69 -42 115 -71 109 91 -7 -6 -37 116 106 -30 -34 111 -63 -44 -26 88 -24 -74 -20 -66 -91 92 93 -15 -62 125 -21 -98 119 -36 -9 -96 -40 -81 -94 -3 -67 108 -85 -28 -51 -45 -57 -39 -83 -54 -4 -46 -52 -33 -121 -25 -77 -12 -97 -8 -90
right_child=2 3 8 6 18 24 11 16 15 13 14 22 28 19 36 -17 39 52 61 96 42 31 86 48 57 30 72 54 79 -31 -32 49 60 -35 99 46 62 38 102 -41 69 66 83 81 117 -47 47 -49 -50 110 118 -53 70 -55 -56 56 -58 -59 -60 -61 94 82 63 -65 89 78 -68 68 -70 71 -72 -73 87 -75 -76 122 -78 -79 -80 103 -82 114 -84 107 -86 -87 -88 -89 126 90 -92 -93 104 -95 101 124 97 -99 -100 -101 -102 -103 -104 -105 -106 -107 -108 -109 -110 -111 -112 -113 -114 -115 -116 -117 -118 -119 -120 120 -122 -123 -124 -125 -126 -127 -128
leaf_value=-0.027478507087500981 0.0030209505097868435 -0.01111245158846335 0.021993886619096712 0.006281411200856523 -0.0077890665819451439 0.023970311613414775 0.0024011011727581208 0.045319993644952775 0.047462900415543588 -0.025678990332320267 -0.012672708611935377 0.021410930012613277 0.0091962403582620828 -0.031260667056325943 -0.023281915279363425 0.11354869907455785 0.047330564568535641 -0.00092108396339402217 -0.0051113477490392269 -0.019966541508920799 -0.017628727512203523 0.014911124509018967 0.0023254444883371306 0.022469987412994233 0.014332778299442959 -0.013195676035801327 -0.0012258250144154903 0.015724705760418387 0.016700190351217649 0.029527116694101477 -0.02280222913289958 -0.0045387811706874706 -0.024238417389878576 0.087596123977775942 0.041691125836801825 0.00043450162462355254 -0.021032583665733458 0.012010648009373145 0.003660567479653409 0.083667718941966701 -0.0013142468939682879 0.025380973154144577 -0.0030146422464707163 0.028068160168923342 0.0097853946597421214 0.070243870168924333 -0.024974489067586102 -0.0021969524924342317 0.0088709711097180854 -0.029577257794638476 -0.020192287523007973 -0.0035039920070081259 0.0030361196445913888 -0.024550395378952518 0.032200374064382677 0.0076026514740278051 0.0022675294981479087 0.0065443210053252199 0.043069327622652059 -0.011728237436325058 -0.02661090999377588 -0.025412384853001999 -0.0065458032642132964 -0.021927930948634943 0.053704303208288257 -0.023372882169981801 0.010239692331887582 -0.015711023247165622 -0.0020590683468862149 -0.01946704811066069 0.00374692656613271 -0.0061317012624942588 -0.017390153982863844 0.011195861649760915 0.035724046795057654 -0.024818347350761879 0.0042669615911023915 0.044964918182105629 -0.0023211736446352338 0.00092232942169127798 -0.014198556687475081 0.01911593233864109 -0.010071245127138743 -0.016964901419503253 0.021754845278337598 -0.0019336724609095792 0.012978835285030826 -0.0049530606619014907 -0.029197545950966221 0.08624495483677963 0.063956017087285336 0.00046145784723277626 -0.0017280101988936128 -0.0050286670635178894 -0.022677033266116836 0.011524621511262012 -0.014563313350231056 -0.0054607712032095079 -0.023474374283343938 0.058772533627537399 0.018098039907358945 -0.005476929532720688 0.0098663373045961983 0.013653944124234841 -0.0093966537385894618 -0.0034192200517132892 -0.0085550288412925436 -0.0021281957250523747 -0.0042520552680362011 -0.0085851981600426862 -0.0088522188812154203 0.05055158537626267 0.023424888158204978 0.019574357785320688 0.023601590356114338 0.015850244893335572 0.032429209108922552 0.020896936869001972 -0.010182937142535058 -0.013134878494345876 -0.023230351236027978 0.033898098119083918 -0.015807205254442236 -0.0048855016211512186 0.002283278266831897 -0.0033848638521579754 -0.012741654417794649
leaf_weight=86 878 240 105 467 134 176 403 45 93 229 230 143 321 31 534 28 52 483 239 121 261 39 245 117 527 572 451 182 77 41 235 61 279 44 161 3383 189 795 686 30 628 244 1721 77 110 25 49 1137 62 24 262 149 76 595 102 73 509 171 50 341 1792 107 325 90 91 51 93 119 687 93 504 526 184 91 238 179 1317 74 418 494 251 733 112 184 400 254 193 138 35 29 130 2221 2934 71 145 112 249 329 312 48 21 47 440 72 183 586 417 138 100 303 356 25 77 206 1229 214 433 217 136 201 156 155 267 373 1030 711 268
leaf_count=86 878 240 105 467 134 176 403 45 93 229 230 143 321 31 534 28 52 483 239 121 261 39 245 117 527 572 451 182 77 41 235 61 279 44 161 3383 189 795 686 30 628 244 1721 77 110 25 49 1137 62 24 262 149 76 595 102 73 509 171 50 341 1792 107 325 90 91 51 93 119 687 93 504 526 184 91 238 179 1317 74 418 494 251 733 112 184 400 254 193 138 35 29 130 2221 2934 71 145 112 249 329 312 48 21 47 440 72 183 586 417 138 100 303 356 25 77 206 1229 214 433 217 136 201 156 155 267 373 1030 711 268
internal_value=0 -0.00428634 0.0200047 -0.00117643 -0.00360489 0.0151382 0.00494833 0.0130458 0.0450843 -0.00219362 -0.0164323 0.00067882 0.00143754 -0.00491165 -0.0111583 0.0621946 0.0334641 0.00916587 -0.015667 -0.00223287 -0.008641 -0.0207985 0.0131377 0.0150511 0.0214035 -0.0127558 -0.000960025 0.027525 0.0098554 0.058835 -0.0110078 -0.0149213 -0.0230946 0.0619399 0.035581 -0.000194104 -0.0180216 0.00768237 0.00960654 0.0606246 -0.00768387 0.0153454 -0.00554322 0.0238759 0.0107613 0.0458852 0.000572175 -0.00313801 0.0252491 -0.0159695 -0.0114009 -0.0124956 0.00396732 -0.020693 0.021642 0.00065365 0.00533063 0.0158237 0.0270219 -0.0149004 -0.0244864 -0.00984881 -0.013371 -0.00988169 0.0586488 -0.00910675 0.0212025 -0.000352924 -0.00407468 -0.00470013 0.00694099 -0.00813523 -0.0065404 -0.00109781 0.0307273 -0.0167358 0.00150841 0.0321546 -0.00646695 0.00423737 -0.0194837 0.0225016 -0.0175667 -0.00421308 0.0175354 -0.00772543 0.00701975 -0.01206 -0.0104396 0.0628099 0.0680213 -0.00130345 -0.00252118 -0.0130011 -0.0258228 0.000976746 -0.0112143 -0.00938211 -0.018993 0.0456141 0.0366585 -0.0184666 0.00608556 0.0025419 -0.00217824 -0.00565454 -0.0101698 -0.00910056 -0.0124885 -0.00418324 -0.0101612 0.0335788 0.0157247 0.0135672 0.0219258 0.0124921 0.0303926 0.0171591 -0.016772 -0.0156481 -0.0175463 0.0289823 -0.0194238 -0.00785575 0.00318961 -0.00129174 -0.0146425
internal_weight=0 36674 7858 29198 20908 6581 8290 2862 1277 18718 7476 5428 8013 10705 3386 456 457 2405 2190 6230 4475 4090 631 1128 3576 1922 4797 375 1301 428 1693 1149 2941 387 821 6712 1138 3005 2127 82 2248 658 2553 2478 794 91 5886 1186 334 1110 1001 410 1277 1175 284 3721 659 1098 193 427 2514 1015 604 415 343 1458 337 3062 806 1247 794 619 1076 5531 414 580 4700 612 886 643 530 2064 219 2143 927 796 438 322 542 250 159 5440 3219 102 1984 2256 699 578 730 209 66 192 1126 566 3117 826 468 422 284 754 380 102 150 1001 1962 290 538 327 398 418 357 272 446 603 1142 1114 303
internal_count=44532 36674 7858 29198 20908 6581 8290 2862 1277 18718 7476 5428 8013 10705 3386 456 457 2405 2190 6230 4475 4090 631 1128 3576 1922 4797 375 1301 428 1693 1149 2941 387 821 6712 1138 3005 2127 82 2248 658 2553 2478 794 91 5886 1186 334 1110 1001 410 1277 1175 284 3721 659 1098 193 427 2514 1015 604 415 343 1458 337 3062 806 1247 794 619 1076 5531 414 580 4700 612 886 643 530 2064 219 2143 927 796 438 322 542 250 159 5440 3219 102 1984 2256 699 578 730 209 66 192 1126 566 3117 826 468 422 284 754 380 102 150 1001 1962 290 538 327 398 418 357 272 446 603 1142 1114 303
shrinkage=0.1


Tree=4
num_leaves=128
num_cat=0
split_feature=33 0 48 0 48 11 2 35 47 35 3 6 41 52 5 47 11 2 6 10 7 9 1 0 48 11 10 48 5 7 2 11 11 2 6 48 11 10 48 2 10 47 11 51 5 50 48 6 33 56 7 11 35 48 2 0 61 34 7 0 10 35 2 52 0 42 7 35 0 2 10 2 53 5 10 14 2 55 47 8 2 58 61 0 2 7 10 14 0 4 20 0 35 51 34 34 38 10 7 0 38 6 48 49 14 10 2 6 34 35 56 63 6 2 47 43 8 33 11 0 7 35 7 2 5 10 4
split_gain=309.297 112.302 77.8926 38.9161 32.5239 30.1966 25.5589 15.9817 13.7491 12.191 11.125 7.85664 8.65046 7.23275 6.77591 5.67806 5.57862 5.22788 5.15441 4.6397 4.639 4.45177 4.9354 4.25289 4.21398 4.09375 3.88098 3.87493 3.57828 3.41188 3.30014 3.24883 3.00558 2.94566 2.9827 2.92383 2.8283 2.7346 2.50341 2.41328 2.4125 2.35675 2.34019 2.21658 2.20333 1.99929 1.89597 1.85966 1.84851 1.82563 1.82239 1.81651 1.80574 3.07047 1.74279 1.74211 1.70231 1.66951 1.6649 1.64363 1.9113 1.61619 1.60091 1.58885 1.58016 1.55984 1.52032 1.42059 1.41963 1.40695 1.39263 1.36889 1.36688 1.35246 1.3478 1.29325 1.3936 1.24694 1.22548 1.21603 1.20054 1.17993 1.1547 1.14593 1.62776 1.14074 1.12345 1.09643 1.09788 1.06117 1.04996 1.04737 1.02955 1.02511 1.0014 0.979544 0.979313 0.969621 0.951151 0.950864 0.926915 1.28455 0.923329 0.906279 0.871435 0.865543 0.859832 0.846413 0.844276 0.834511 1.00252 1.0178 0.832734 0.830634 0.825866 0.974133 0.8224 0.820513 0.80095 0.78685 0.829358 0.853148 0.780866 0.776059 0.773884 0.763446 0.845254
threshold=31682.000000000004 2960.5000000000005 17.856358134945804 8000.5000000000009 4.5231397884197957 -121.84207798570299 1.5000000000000002 1945.4376312589804 20296.407456782803 1942.8619528619504 16570491.000000002 2.7455440360079053 0.00062520605500311058 152.44547097859251 2.5000000000000004 2781.3461980602601 -121.01163695280748 3.5000000000000004 29.121751031739404 37.782871215433509 2002.5000000000002 6.5000000000000009 90.500000000000014 1952.5000000000002 3.4038680919091902 -122.24340198149149 38.234762412520261 3.5577945748264859 2.5000000000000004 1988.5000000000002 1.5000000000000002 -122.19850521275998 -121.01163695280748 1.5000000000000002 2.6718270534303552 67.823968483112267 -122.22924359830698 35.380264825222262 9.5609177280268867 2.5000000000000004 37.90108685783121 9208.7417910629974 -122.42956015990198 4161.6125507801207 1.5000000000000002 69.848683316088611 3.8233909916902253 4.7638372543171057 24857.500000000004 198760.50000000003 1918.5000000000002 -121.45369374920547 1936.0264771460404 42.219866649729958 1.5000000000000002 6521.5000000000009 0.00070086056138244756 7513450.0000000009 1992.5000000000002 1777.5000000000002 38.109305413327512 1936.4002489331451 2.5000000000000004 2.9622378736888302 16118.000000000002 0.0098061508347011377 1915.5000000000002 1946.5819708846604 59411.000000000007 3.5000000000000004 37.778704413351299 4.5000000000000009 3.9243523069862047 1.5000000000000002 37.784686143380604 54.500000000000007 8.5000000000000018 1988.0600000000002 27182.829888311953 3.5000000000000004 1.0000000180025095e-35 158161.50000000003 0.0012596498951677852 19284.500000000004 3.5000000000000004 1939.5000000000002 37.927732357218105 4.5000000000000009 3160.5000000000005 7681.5244884541062 0.0011564530637259353 2150.5000000000005 1952.4342828585702 8451.3572229655274 13389650.000000002 7513450.0000000009 437241.07766207104 37.906642589798558 1920.5000000000002 123351.00000000001 1230223.9219755454 21.472569362625954 20.315670547567453 7630.2253370998615 8.5000000000000018 37.783867035029708 18.500000000000004 2.6129682307612305 296200.50000000006 1964.7227912932151 7313.034090909091 1.3131497201350151e-05 2.5001132207134602 1.5000000000000002 3260.1134129313905 1.4079463528383154e-05 8.5000000000000018 18209.000000000004 -122.07934956614649 2501.0000000000005 1982.5000000000002 1950.1959483368701 1911.5000000000002 4.5000000000000009 3.5000000000000004 37.860129285026709 13482.675434856152
decision_type=2 10 8 10 10 2 10 10 10 8 10 8 10 10 8 10 2 10 8 2 10 10 10 10 10 2 2 10 10 10 10 2 2 10 8 8 2 2 10 10 2 8 2 10 8 10 10 10 2 10 10 2 10 10 8 10 8 2 10 10 2 10 8 10 10 10 10 8 10 8 2 10 10 10 2 10 10 10 10 8 10 10 10 10 10 10 2 10 10 10 8 10 10 10 2 2 10 2 10 10 10 10 10 10 8 2 8 8 2 10 10 8 8 8 8 10 10 2 2 10 10 10 10 10 10 2 10
left_child=1 9 4 6 24 7 11 8 41 23 26 27 32 18 43 25 20 49 67 61 52 22 73 65 57 59 29 85 36 31 35 64 81 34 -17 95 40 -18 69 55 42 -5 63 47 94 62 56 -8 -23 -12 -26 72 53 -7 -47 -16 80 -2 -46 -11 -61 -6 -39 -14 -9 -1 -25 82 -22 -21 -32 -70 92 102 -24 -64 -77 -19 -31 117 -38 -13 -4 84 -33 -3 -29 108 -89 -30 -54 -59 -36 -63 125 -20 -50 -66 -45 -78 -40 -102 -10 -41 -74 -37 -56 -68 -34 -42 111 -111 -27 -109 115 -83 -44 -58 -86 -114 121 -121 -67 -105 -91 126 -43
right_child=2 3 13 5 19 16 14 10 21 15 17 12 28 -15 39 33 37 77 30 38 68 48 74 66 50 112 -28 86 89 78 70 83 87 -35 51 105 46 45 100 103 109 44 116 98 58 54 -48 -49 96 -51 -52 -53 90 -55 106 -57 79 91 -60 60 -62 93 75 -65 97 122 107 -69 71 -71 -72 -73 104 -75 -76 76 99 -79 -80 -81 -82 114 -84 -85 118 -87 -88 88 -90 124 -92 -93 -94 -95 -96 -97 -98 -99 -100 -101 101 -103 -104 123 -106 -107 -108 113 -110 110 -112 -113 119 -115 -116 -117 -118 -119 -120 120 -122 -123 -124 -125 -126 -127 -128
leaf_value=-0.0017993779718012051 0.011672547484716673 -0.0038470086211768481 0.030785029011917864 0.0036578715659801517 0.019596814594230873 0.0029372001662134584 -0.007384646974426385 0.0038685837735654791 0.02060308899692815 -0.020496893590103826 0.03117913996268596 -0.013689875160343945 0.016240227282256017 0.092584257375981138 -0.015815990297046428 -0.024169389613319277 -0.00088293731653108854 0.0062334344474193476 0.055206296998097606 0.02064528025321849 0.0023731488968787976 0.0063324992058150318 0.03900147036959728 -0.00042513024273582484 0.015772513301180513 -0.026897843896385727 -0.0040058153842532284 -0.0014045267631556909 -0.027207894420611081 0.0065763776895755161 0.016795107568888103 -0.00020586464386264868 -0.018758018294881499 -0.022998426937835017 -0.0053791124173555496 0.064686649419226736 -0.029398030436435796 -0.0060839101474806923 0.027309266959801515 -0.023537554696553584 -0.0009905137568914724 0.011073007004472011 0.00097232680972453994 0.0017646142468619786 0.004248987235341002 0.023782766192301137 -0.0010037137801000688 -0.023828690831996794 0.0077137513629471259 0.06028007762185459 0.0084110863482485393 -0.017201650545582283 -0.020336109624622623 0.043164287339895968 -0.0017961232785992536 -0.0049824859071450943 -0.021186398682184519 -0.0031393055354287341 0.019122123093256962 -0.0073896972174207643 -0.021028686122043984 0.0071498189313510029 -0.016652521104224202 0.0033728986484085587 0.013787882018602772 -0.010411431885837952 -0.017643820772631259 0.012699026069962061 0.033539714180967871 0.029431432252344882 0.049548076607641725 0.012889773718675966 -0.0028510086732555411 0.011653297619618985 0.069769446823213774 -0.0029124810180823821 -0.018544020234902921 0.022456249515589787 0.021563420061967476 -0.0031004729224177801 -0.0074137704567638811 -0.021823438926814841 0.04471412313702916 0.0031396710561175829 -0.024091573359399307 -0.025940634649311442 -0.017822179325490392 -0.025700356468166177 -0.0081945131647403538 -0.0051140302625505936 -0.0020980416255877861 0.0049619846380180195 -0.016653385950746585 0.017497711991349224 0.0081182649086085374 0.043885854486439189 0.023498339390206208 0.0045224417370735423 -0.0063791960834822803 8.8315744719961113e-07 0.032211281618505137 0.052699975863409548 0.032223982170932162 -0.014259526399238146 -0.011260618411592748 0.086175550520420086 -0.01123782014789382 -0.0041892564026489686 -0.0081314038174847766 -0.005631807708608297 0.001668630400672555 -0.020671009538798697 -0.022934833882036501 -0.011817394588845519 -0.0029085340794208245 -0.0050056964551628219 0.0060378664026211485 -0.007224138881367176 -0.0060179161587272031 -0.0060405547617048755 -0.0031016148471583924 -0.021746882381617216 -0.020144330160199436 -0.02445154184276618 -0.018207591094283593 0.02278402629603125 0.022313737622561291
leaf_weight=69 356 26 127 752 1383 370 150 750 99 307 84 132 203 35 632 172 636 135 217 878 79 137 24 440 745 436 855 163 44 93 34 1425 280 282 121 53 46 517 371 509 917 232 2047 183 520 23 4592 127 48 29 613 282 32 20 351 194 60 176 88 365 143 194 469 182 373 107 79 26 45 230 21 112 441 55 35 195 148 73 132 1474 54 52 112 1113 41 231 56 38 626 121 2326 1711 245 189 168 118 217 162 663 34 204 36 221 272 171 29 133 437 102 120 87 72 1583 212 1208 102 380 141 61 41 36 221 359 103 72 158 94
leaf_count=69 356 26 127 752 1383 370 150 750 99 307 84 132 203 35 632 172 636 135 217 878 79 137 24 440 745 436 855 163 44 93 34 1425 280 282 121 53 46 517 371 509 917 232 2047 183 520 23 4592 127 48 29 613 282 32 20 351 194 60 176 88 365 143 194 469 182 373 107 79 26 45 230 21 112 441 55 35 195 148 73 132 1474 54 52 112 1113 41 231 56 38 626 121 2326 1711 245 189 168 118 217 162 663 34 204 36 221 272 171 29 133 437 102 120 87 72 1583 212 1208 102 380 141 61 41 36 221 359 103 72 158 94
internal_value=0 -0.0038577 0.0180042 -0.00127759 0.014718 0.00266734 -0.00455222 0.00651999 0.0125668 -0.015726 0.00328656 -0.00275562 -0.00229884 0.0481679 -0.0131947 -0.0182837 -0.00306881 0.0213333 0.0460586 0.0216047 -0.000147564 0.0233458 0.0303689 -0.00844798 0.00805315 -0.020816 0.00212911 -0.0153767 -0.00104414 0.00339305 0.0523248 0.00270655 -0.00754094 -0.0136566 -0.0118169 0.0553616 -0.0007666 -0.00654727 0.025303 -0.0171579 0.0013144 0.00808803 0.00291443 -0.00715977 0.0107321 -0.00847374 -0.00207658 -0.014924 0.0157636 0.0386475 0.0124496 -0.0101307 -0.00130304 0.00500013 -0.00311256 -0.0132716 -0.00485213 0.00539138 0.00640168 -0.0147201 -0.011229 0.0180048 -0.010468 0.0101575 0.00683031 -0.0158318 -0.00506585 0.0348976 0.0133069 0.0224691 0.0293008 0.0188085 -0.00809183 0.026139 0.0572537 -0.0131471 -0.00878626 0.011927 0.0153688 -0.00409545 -0.0175265 -0.00466263 0.0373125 0.000699337 -0.00107937 -0.0237055 -0.00560265 -0.011652 -0.00919635 -0.0131936 -0.00234555 0.00420638 -0.0129261 0.0122562 0.0147702 0.0512188 0.0206392 0.0109823 -0.00461759 -0.0150796 0.030442 0.0352846 0.0286288 -0.0207893 -0.00520075 0.0722864 -0.00439064 -0.00787068 -0.0159205 -0.00244754 -0.00723641 -0.0112715 -0.0229602 -0.00668104 -0.00378775 -0.0106844 0.00176545 -0.011392 -0.0132828 -0.0220474 -0.0173335 -0.019289 -0.0179095 -0.0170589 -0.00999867 0.0170791 0.0143142
internal_weight=0 36674 7858 30125 7086 13664 16461 8174 2848 6549 5326 13628 13152 772 2833 4846 5490 321 737 3485 2984 836 434 1703 3601 3132 5005 476 10612 4150 472 3925 2540 1714 1432 417 10375 2506 1719 1710 4008 2012 2812 1123 1260 1870 6367 277 402 113 1358 1260 2748 390 507 826 1775 2243 608 815 508 1766 1363 385 1285 535 1168 265 236 1108 55 157 978 375 59 846 377 208 225 1675 100 1494 239 2640 1527 257 219 1046 664 237 2358 1887 366 383 652 335 265 535 846 182 611 240 320 884 612 82 484 728 382 1196 279 192 2317 649 1362 154 2427 201 102 1881 298 262 466 375 193 484 326
internal_count=44532 36674 7858 30125 7086 13664 16461 8174 2848 6549 5326 13628 13152 772 2833 4846 5490 321 737 3485 2984 836 434 1703 3601 3132 5005 476 10612 4150 472 3925 2540 1714 1432 417 10375 2506 1719 1710 4008 2012 2812 1123 1260 1870 6367 277 402 113 1358 1260 2748 390 507 826 1775 2243 608 815 508 1766 1363 385 1285 535 1168 265 236 1108 55 157 978 375 59 846 377 208 225 1675 100 1494 239 2640 1527 257 219 1046 664 237 2358 1887 366 383 652 335 265 535 846 182 611 240 320 884 612 82 484 728 382 1196 279 192 2317 649 1362 154 2427 201 102 1881 298 262 466 375 193 484 326
shrinkage=0.1


Tree=5
num_leaves=128
num_cat=0
split_feature=33 0 48 3 40 2 48 0 6 1 0 2 35 11 1 7 35 0 58 5 6 2 34 38 1 0 0 5 44 6 40 0 43 2 55 3 34 7 35 35 53 48 58 11 3 5 42 11 41 13 2 35 47 41 47 14 38 44 7 7 1 2 0 14 8 5 0 7 43 3 2 14 7 40 2 48 37 62 13 33 33 11 59 2 53 0 20 11 10 53 59 7 55 11 7 2 61 61 35 7 38 0 5 6 53 58 5 6 52 7 34 14 7 41 7 11 14 58 34 2 34 6 36 11 0 7 13
split_gain=250.531 91.2421 63.4133 29.2236 26.8615 22.0292 20.2166 15.3689 13.4813 11.993 10.1539 10.1115 7.18702 7.17674 5.73175 5.48846 5.33483 5.22511 4.95561 4.63406 4.93347 3.99193 3.63036 3.60732 3.4558 3.2266 3.08108 2.93874 2.73283 2.72572 2.9162 2.64807 2.63943 2.44025 2.42556 2.35905 2.30769 2.24954 2.22275 1.95567 1.95366 1.94367 1.90611 1.89101 1.68001 1.67359 1.63756 1.63064 1.59877 1.58849 1.58469 1.42976 1.3709 1.3473 1.34144 1.33985 1.32211 1.3183 1.29683 1.29022 1.28697 1.24212 2.20729 1.35159 1.20875 1.20736 1.20497 1.33255 1.17824 1.15293 1.13844 1.11731 1.10671 1.07735 1.07612 1.07044 1.06747 1.54005 1.06072 1.05623 1.05568 1.02948 1.02938 1.023 1.0166 1.01224 0.998778 0.986885 1.00712 0.969337 0.95882 0.919832 0.916879 0.901754 0.894073 0.878212 0.85388 0.834711 0.819419 0.8194 0.798855 0.78973 0.789118 1.33746 0.788307 0.851189 0.7819 0.98026 0.777803 1.32548 0.765162 0.84959 0.762651 0.755259 0.904553 0.752285 0.981591 0.750246 0.764028 0.746476 0.744899 0.740489 0.78069 0.730808 0.729632 0.728983 0.728972
threshold=31682.000000000004 3197.5000000000005 12.002982705532201 1856287.5000000002 0.87423951696115865 2.5000000000000004 3.9895844062537003 78838.000000000015 29.121751031739404 3.5000000000000004 6767.0000000000009 1.5000000000000002 1941.4977881863153 -122.21738567560749 193.50000000000003 1961.5000000000002 1945.9523627632852 18233.000000000004 14601488.750000002 2.5000000000000004 2.8506494843210857 1.5000000000000002 81604850.000000015 506034.03795654507 148.50000000000003 15411.000000000002 1952.5000000000002 3.5000000000000004 1.5513985741220251 2.7072829751519101 1.1352386541973354 84580.500000000015 1.5194605721150154e-05 3.5000000000000004 1997.0833333333351 422551.00000000006 1427950.0000000002 1919.5000000000002 1946.6906696021904 1952.4342828585702 12.453586168553853 2.2436454838925557 906849.88333333365 -120.60070906120298 4892940.0000000009 1.5000000000000002 0.016523413331573252 -122.45734714582998 0.0011676036491404653 1.0000000180025095e-35 3.5000000000000004 1946.6906696021904 39992.828491256056 0.00097747819495922817 47337.77411546831 9.5000000000000018 452562.91574749706 1.1181063276284902 1977.5000000000002 1958.5000000000002 14.500000000000002 6.5000000000000009 9437.0000000000018 51.500000000000007 3.5000000000000004 4.5000000000000009 2350.5000000000005 1984.5000000000002 2.3390639310965754e-05 526478.00000000012 1.5000000000000002 5.5000000000000009 1922.5000000000002 0.98607107029314423 2.5000000000000004 3.7189888995111957 4.2476415094339606 0.016854239208044752 1.0000000180025095e-35 18209.000000000004 9886.5000000000018 -122.41782794148098 897.94469696969725 1.0000000180025095e-35 59.189741392436858 56258.000000000007 0.0013522102597974901 -122.2374937428955 37.906642589798558 5.067610422085246 663.00262027491419 2004.5000000000002 1929.0839160839153 -122.13624642571999 1912.5000000000002 18.500000000000004 0.00057345898011817358 0.0015273064579105851 1936.0264771460404 1920.5000000000002 756640.54333333357 17283.000000000004 1.5000000000000002 5.4058957660220459 4.7010167114388057 426885.70000000001 9.5000000000000018 39.632513864712358 70.38559650215862 1949.5000000000002 13327500.000000002 24.500000000000004 1950.5000000000002 0.00091207883794967458 1920.5000000000002 -121.25050032065847 14.500000000000002 4425972.365384616 1424001.5000000002 2.5000000000000004 13310500.000000002 2.5263633654446358 3004.12854251012 -122.19328038599599 48033.000000000007 1911.5000000000002 1.0000000180025095e-35
decision_type=2 10 8 10 10 8 10 10 10 10 10 8 10 2 10 8 8 10 10 10 8 10 2 10 10 10 10 10 10 8 8 10 10 8 10 10 2 10 8 10 10 10 10 2 10 10 10 2 10 10 10 8 10 8 10 8 10 8 8 8 10 10 10 10 8 8 10 10 10 10 8 8 10 10 10 10 10 10 10 2 2 2 10 10 8 10 8 2 2 10 8 10 10 2 10 10 8 10 10 8 10 10 10 10 8 10 8 8 8 10 2 8 8 8 8 2 10 10 2 10 2 8 10 2 10 10 10
left_child=1 9 6 4 11 7 41 16 42 13 19 35 17 22 27 38 25 40 43 20 32 29 26 53 48 -5 46 31 -26 -11 55 57 75 60 -20 51 61 -15 119 99 -12 -2 -4 91 123 79 121 -43 -9 70 85 -3 81 -8 73 96 -27 112 94 -52 -25 62 74 -63 -53 -36 -39 -68 -30 110 -41 -49 -59 -19 115 -6 77 -51 92 -42 -34 -44 -54 -79 -45 93 -78 88 -37 -32 -66 106 -21 101 -24 -86 -31 -62 -23 -22 -35 -14 -101 -104 105 -72 -7 -108 109 -74 -40 -112 -10 -28 -115 -17 -117 118 -58 -13 -92 -1 -123 -18 -64 -83 -96
right_child=2 3 8 5 10 18 23 24 14 21 12 15 50 37 -16 36 44 54 34 78 39 98 58 33 28 56 113 -29 68 30 89 -33 80 100 65 87 -38 66 69 49 45 47 52 84 -46 -47 -48 71 -50 76 59 64 82 -55 -56 -57 117 72 -60 -61 97 63 124 -65 90 -67 67 -69 -70 -71 104 -73 108 -75 -76 -77 86 83 -80 -81 -82 125 -84 -85 95 -87 -88 -89 -90 -91 120 -93 -94 -95 126 -97 -98 -99 -100 102 -102 -103 103 -105 -106 -107 107 -109 -110 -111 111 -113 -114 114 -116 116 -118 -119 -120 -121 -122 122 -124 -125 -126 -127 -128
leaf_value=-0.018880953174084426 0.00096089254022879852 -0.0002830872448259984 0.022971870177023023 0.0083057916829462983 -0.024612046315584307 0.0025860274724103767 0.013048323089166022 0.020669475015560827 0.044929493537899268 -0.020250974536487245 0.002688025721696621 -0.0051618771373907451 0.0020508773682826136 -0.0093631642925141902 0.094216962883781119 -0.0051714594534443903 0.0082801786111667743 0.0088829474088371451 0.0039610026197081779 -0.0041183417435826332 0.0036506713575554864 -0.0063629446641331718 -0.0062871700393096102 0.016860026933156049 0.036872194106827544 0.010252350459442191 0.0029600262864154171 0.018847918406721544 0.052188287526369094 0.013350434945896267 -0.015848615479068347 0.075007399730384353 -0.018641071255378266 0.020358310857924021 0.036611459510666987 0.0085962745941314603 -0.0042158426686100727 -0.021373076792994324 -0.022111687952284992 -0.0030726203856096209 0.0037605004417655009 0.0036052260791997609 0.026651224642112031 -0.01509517039248378 0.013425993302549087 -0.00033367831624607367 -0.01856901983571781 0.0054750248492992188 0.04260505303740502 -0.0018610220739529249 -0.019276808752970359 -0.015849382447130564 0.064325162555490228 -0.00062553968657798418 0.043494272782382645 -0.0079822537381985369 0.027877174915476918 0.042316158736870696 -0.007196034697482168 -0.0029365508689384642 0.021819075357239204 -0.02287311900355336 -0.0059513524876110757 -0.0094586316602909646 -0.015477791873656794 0.014453581840579058 -0.018107578114039773 -0.0046394422976300123 0.086102656097639174 -0.013250382766298195 -0.019990936868231404 0.010989806689288823 0.057512463668118352 0.021832209995165119 -0.0190856346017436 -0.0062388459104113286 0.0068983747105149529 -0.033740569628549343 -0.0047888082881154641 0.014018126023971691 -0.0019698056145430061 0.025538291519677098 0.037862779941333802 -0.0072177751562916316 -0.001813375892349892 0.019658951164068034 -0.0013286893948195161 -0.0020058313799267225 -0.00092835626073124614 -0.0072725799577892762 -0.0069099294499169357 0.0080474675390877302 -0.020630764622081889 -0.00013092250721275883 -0.019496783043079557 -0.011311309888782935 -0.0015222706080875803 0.037316692676395181 -0.018923646814946554 0.00043083767818300638 0.02912978291142956 0.0081457701015038297 -0.019856169482970493 -0.0022028641049422113 -0.006285726860115891 -0.006576998287205954 -0.023370154057629405 -0.001088529228494745 0.072210706710815434 0.031675623200135304 -0.021831931515729854 -0.0065136844801406066 0.027235560485583156 0.00085404882168707758 -0.0077742338058027468 -0.014533671208009158 -0.0024500250327400865 0.039523899949648805 0.017679142343526907 -0.014666004968316746 -0.0013506985926275176 0.0051029323176904166 -0.0088503124859385402 0.0024739452260008122 0.0072753603506663994 0.040444271919108182 -0.0049080069241527885
leaf_weight=48 573 382 324 241 153 732 820 127 58 123 905 221 1489 222 28 187 325 92 354 41 646 62 62 1925 68 69 132 33 20 40 249 38 47 164 28 203 1075 1784 527 744 127 763 254 98 262 138 311 546 45 105 59 144 21 79 22 362 187 93 134 267 265 144 800 157 103 202 899 80 21 348 110 1123 115 213 190 40 158 33 89 479 198 44 49 26 417 30 2234 1398 245 280 909 147 187 2187 705 127 1105 40 320 2838 283 248 47 494 356 83 20 1546 25 24 70 75 42 168 439 421 80 34 121 132 328 55 148 651 44 129 36
leaf_count=48 573 382 324 241 153 732 820 127 58 123 905 221 1489 222 28 187 325 92 354 41 646 62 62 1925 68 69 132 33 20 40 249 38 47 164 28 203 1075 1784 527 744 127 763 254 98 262 138 311 546 45 105 59 144 21 79 22 362 187 93 134 267 265 144 800 157 103 202 899 80 21 348 110 1123 115 213 190 40 158 33 89 479 198 44 49 26 417 30 2234 1398 245 280 909 147 187 2187 705 127 1105 40 320 2838 283 248 47 494 356 83 20 1546 25 24 70 75 42 168 439 421 80 34 121 132 328 55 148 651 44 129 36
internal_value=0 -0.00347193 0.0162038 -0.000887071 -0.00248706 0.00543074 0.0122467 0.0134159 0.036597 -0.0130969 4.30597e-05 -0.0070894 0.00311049 -0.0158382 0.0503837 -0.0102924 0.0101716 0.00809881 0.000708412 -0.00218082 -0.00172825 -0.00746212 -0.0115572 0.0173275 0.0352366 0.0174925 -0.00813922 0.0475161 0.0491673 -0.00579489 -0.00492156 0.0499111 -0.0120579 0.019168 0.00915572 -0.00323151 -0.00795989 -0.0190479 -0.0155553 -0.00115366 0.0058089 0.00620043 0.0289396 -0.000889653 0.006316 0.00960513 -0.0137196 0.00743491 0.0264084 -0.00276526 0.000807467 -0.00573892 0.03283 0.0118467 0.0196464 -0.00267928 0.0228794 0.0472398 -0.0163031 -0.00589384 0.0178163 -0.00994944 -0.00891346 -0.0158762 -0.00714331 0.0171511 -0.0198261 -0.017007 0.0695591 -0.0179223 -0.00562153 0.00918569 0.0510304 0.0179262 -0.0124237 -0.0208041 -0.00132037 -0.00912505 -0.0140473 0.0118684 -0.00516797 0.0307035 0.0458015 -0.0220526 -0.00571969 0.00135998 -0.000785263 -0.000696942 0.00338749 -0.0113093 -0.00620774 0.000378601 -0.0176614 0.00122008 -0.0178228 -0.00403072 -0.0010027 0.0238515 -0.016885 0.000387477 0.0259116 0.00292108 -0.000236383 -0.00373652 -0.0090758 -0.0142222 -0.000111966 -0.0013731 0.055972 0.0530514 -0.0203417 -0.0139087 0.037498 -0.00389538 -0.00538618 -0.0105839 -0.0126041 0.025427 0.0238708 -0.00871583 -0.00543586 -0.00771104 -0.00506988 0.00440737 -0.00526181 0.0366532 -0.018788
internal_weight=0 36674 7858 28910 23068 5842 6581 2171 1277 7764 14885 8183 6256 5223 456 4471 1890 1976 3671 8629 8312 2541 2238 3576 281 652 1301 428 109 2159 2036 395 438 2677 584 3712 3098 2985 1373 7874 1649 3005 821 3087 1238 744 562 2432 172 3849 4280 1866 497 899 327 1507 411 357 937 326 2230 2023 1722 301 1484 230 2763 979 41 1020 1293 1669 257 305 878 193 2556 164 317 606 245 427 70 59 642 3954 2392 1846 448 529 1340 2445 228 3924 803 544 1145 305 382 4025 447 1737 3379 541 549 193 2298 1566 164 139 672 145 100 739 607 688 501 342 308 353 1237 251 203 976 844 173 741
internal_count=44532 36674 7858 28910 23068 5842 6581 2171 1277 7764 14885 8183 6256 5223 456 4471 1890 1976 3671 8629 8312 2541 2238 3576 281 652 1301 428 109 2159 2036 395 438 2677 584 3712 3098 2985 1373 7874 1649 3005 821 3087 1238 744 562 2432 172 3849 4280 1866 497 899 327 1507 411 357 937 326 2230 2023 1722 301 1484 230 2763 979 41 1020 1293 1669 257 305 878 193 2556 164 317 606 245 427 70 59 642 3954 2392 1846 448 529 1340 2445 228 3924 803 544 1145 305 382 4025 447 1737 3379 541 549 193 2298 1566 164 139 672 145 100 739 607 688 501 342 308 353 1237 251 203 976 844 173 741
shrinkage=0.1


Tree=6
num_leaves=128
num_cat=0
split_feature=33 0 0 0 35 2 6 48 47 34 7 35 6 11 33 50 5 38 6 7 35 10 11 0 38 0 3 10 33 11 5 2 2 47 0 14 35 8 61 0 34 41 2 0 4 5 2 2 0 34 2 2 47 13 2 11 10 7 42 48 41 40 34 48 11 4 7 50 40 14 48 8 2 59 35 9 58 40 38 40 0 11 0 63 49 14 64 4 47 7 4 44 35 34 46 1 11 7 61 64 10 41 2 37 44 57 9 7 46 59 7 0 39 5 35 7 0 7 40 7 2 61 39 2 2 14 7
split_gain=202.93 74.117 51.7967 28.0972 19.9022 17.0251 14.97 13.7556 13.1534 10.4733 8.17129 8.11102 7.155 5.84077 5.30663 4.87805 4.31264 3.99756 3.82733 3.8075 3.53234 3.08368 3.03077 2.97632 2.67957 2.65313 2.63973 2.59752 2.56232 2.53667 2.53381 2.53058 2.50155 2.43696 2.42594 2.28984 2.24904 2.75316 2.35932 2.11948 2.10771 2.06132 1.875 1.63601 1.50737 1.80094 1.49202 1.48342 1.82019 1.47429 1.42597 1.36773 1.33136 1.32679 1.28536 1.2667 1.25884 1.24964 1.24579 1.22496 1.21638 1.30145 1.18976 1.18571 1.14551 1.11904 1.09732 1.09463 1.05073 1.0372 1.02839 1.02272 1.01645 1.01575 0.983779 0.982619 0.973603 0.971437 0.970921 0.966378 1.45075 0.93685 0.909936 0.909498 0.881814 0.874834 0.869715 0.868888 0.866591 0.863003 0.858634 0.85214 0.848629 0.84556 0.835197 0.81482 0.80514 0.839 0.805031 0.797469 0.790642 0.7882 0.78581 0.810383 0.784144 0.775963 0.755931 0.752554 0.752138 0.744715 0.743775 0.73004 0.718421 0.71765 0.689515 0.678845 0.786484 0.675496 0.931353 0.972184 0.669518 0.669455 1.09633 0.875071 0.659286 0.867771 0.654168
threshold=31682.000000000004 2792.5000000000005 11849.000000000002 7021.5000000000009 1945.4376312589804 1.5000000000000002 29.121751031739404 3.7419013605267852 21961.387282802902 1404201.0000000002 2001.5000000000002 1942.8619528619504 2.9852712673518553 -121.06510752589249 14804.000000000002 644.23649642976454 2.5000000000000004 4851016.0641345857 59.6976346872056 1935.5000000000002 1946.5819708846604 37.99478687771191 -122.11337695501798 48033.000000000007 1230223.9219755454 1952.5000000000002 4631909.0000000009 37.781873536116905 18209.000000000004 -122.22924359830698 2.5000000000000004 3.5000000000000004 2.5000000000000004 12048.552996683702 69975.000000000015 45.500000000000007 1939.917625402665 4.5000000000000009 0.00059571730942171617 1700.5000000000002 81604850.000000015 0.0011676036491404653 1.5000000000000002 4122.5000000000009 4772.372681492855 1.5000000000000002 11.500000000000002 3.5000000000000004 84580.500000000015 7513450.0000000009 5.5000000000000009 1.5000000000000002 2781.3461980602601 1.0000000180025095e-35 3.5000000000000004 -122.45297696788849 37.799018679469206 1992.5000000000002 0.020050822489050452 63.438998185858658 0.0010371483750844053 1.38000919350919 1427950.0000000002 5.4602374539137566 -122.385546692734 2991.2358530696301 1955.5000000000002 77.114008449175216 0.92781800308313211 104.50000000000001 2.2436454838925557 3.5000000000000004 1.5000000000000002 738.9559612735751 1965.5815217391303 6.5000000000000009 360766.80769230757 0.70073392033156268 728709.9329166665 1.0526478675652451 39803.000000000007 -122.4061807696575 23192.000000000004 1.6172095631406552e-05 7286.7738838611303 4.5000000000000009 1.7112751831501802 15345.983116826652 38218.834484878105 1961.5000000000002 7681.5244884541062 0.75775299208223268 1952.4342828585702 85506353.000000015 287.50000000000006 173.50000000000003 -121.01163695280748 1998.5000000000002 0.0010478195727331352 1.0261787280701753 37.860129285026709 0.00090084677140419114 1.0000000180025095e-35 4.7950559976422058 4.2916231274936409 2.5751879699248099 30.500000000000004 1918.5000000000002 69.500000000000014 654.42335468736007 1978.5000000000002 7933.0000000000009 1282.9994244422653 3.5000000000000004 1950.5277777777803 1915.5000000000002 3715.5000000000005 1924.5000000000002 1.0592000312551102 1949.5000000000002 1.0000000180025095e-35 0.00070086056138244756 1181.8577200412203 1.0000000180025095e-35 20.500000000000004 212.50000000000003 1908.5000000000002
decision_type=2 10 10 10 10 10 10 10 10 2 10 8 8 2 2 10 8 10 8 8 10 2 2 10 10 10 8 2 2 2 10 10 8 8 10 10 8 10 8 10 2 10 10 10 10 10 8 8 10 2 10 10 10 10 8 2 2 8 10 10 10 10 2 10 2 8 8 10 10 10 10 8 8 10 10 10 10 10 10 10 10 2 10 8 10 10 10 8 10 10 10 10 10 2 10 10 2 10 8 10 2 8 10 10 10 10 10 8 10 8 8 10 10 10 8 8 10 10 10 10 10 8 10 10 10 10 8
left_child=1 11 7 5 8 12 24 49 28 26 21 25 20 30 54 27 44 78 56 63 -3 23 39 29 88 64 32 51 96 62 36 92 86 100 94 50 -14 60 81 -13 104 -20 87 -22 45 -7 -37 48 -28 -2 84 -8 -24 107 67 111 -16 -44 -43 -60 71 -62 -11 -9 -1 -42 101 -10 -58 -48 -51 76 -27 -23 -64 95 -38 85 -12 -26 -81 -39 -70 -54 -34 -15 -6 -35 120 91 -32 -73 -25 -45 117 -19 97 112 -78 -36 -30 -31 103 -65 -41 -67 -52 -18 -80 -40 -100 -21 -5 -92 -46 116 -72 -29 119 -119 -4 122 -111 -124 -49 -126 -74
right_child=2 3 6 4 9 16 15 19 14 10 17 22 13 77 18 -17 53 75 41 55 43 73 52 31 79 72 47 34 33 66 90 -33 35 42 99 46 37 38 109 40 65 58 57 93 114 -47 69 124 -50 70 106 -53 83 -55 -56 -57 68 -59 59 -61 61 -63 74 102 -66 105 -68 -69 82 -71 115 89 126 -75 -76 -77 98 -79 108 80 -82 -83 -84 -85 -86 -87 -88 -89 -90 -91 113 -93 -94 -95 -96 -97 -98 -99 110 -101 -102 -103 -104 -105 -106 -107 -108 -109 -110 121 -112 -113 -114 -115 -116 -117 -118 118 -120 -121 -122 -123 123 -125 125 -127 -128
leaf_value=-0.0054679176652964387 0.010362309529732465 -0.0019289199070695901 0.028544424085153477 0.0013292067715650762 -0.0017890511948501688 -0.0061153366546689847 0.036521960949797309 0.014208928780094507 0.0062686468321009594 0.022696666245495805 0.0035318687388748264 -0.018162396844461193 0.0013893468211799193 -0.013830435888555188 0.011332374686276578 0.091474716348404247 -0.0059147650520477834 0.033484971809845707 0.025199632702788223 0.002142398355116371 -0.020410500164143742 -0.010812056055987224 -0.019316089687655209 0.029083512743889563 0.0243965083398066 -0.0019254538054252872 0.0044849694278974346 0.041201590238647029 0.0031304866195483502 -0.020060813181852509 -0.024202501182646857 0.0039001136466957007 -0.016649296655668878 0.01167647346104466 0.054579245400699708 -0.0030368282239438982 -0.013938236051916401 0.014341334060789425 -0.0084067200086450668 -0.0075752964366297684 -0.021019940764804162 0.032986817267887734 0.00039622592123213918 -0.0022443532091664508 -0.0014200135688274625 -0.021140616048403362 -0.022346371638455563 0.00099190081452263401 0.038844593851605345 2.1396408264407656e-05 -0.021005640201864469 0.011181252582796983 -0.0094026755438897554 -0.010301889966307071 -0.0014918677618953628 0.012143021729089182 0.0032786431793983169 0.019017124403682022 0.040383791754191573 0.0721720006454874 -0.0017189737678637411 -0.023141422588378192 0.0035215733703107574 0.013052157608085667 -0.015748602133438303 -0.016278102430672462 0.00033727507122719347 0.023200557970752322 0.017638688114613801 -0.007723909583756159 0.0048995070911774033 -0.014601588216137842 0.00074539928986080766 -0.0022045425365780423 0.012509988660874244 0.0230006880729514 -0.0015359121612623656 -0.00070917636299362556 0.010173502134441167 0.032259296895089475 0.056426795771611596 -0.0083303810646092255 0.029213844487094322 -0.016940021523065851 -0.0071916639950155726 -0.0077497103175054698 -0.011356298887827524 0.019941387817544759 0.035339787654669545 -0.0024213156555062121 -0.003633912344174903 -0.0042063374012207572 0.013407647835205578 -0.018236517011388845 0.027859209308267702 0.059968968729178111 -0.0037982437218092207 0.0096572108376130929 -0.015875170803712018 0.080448242735404241 0.010784222030610947 -0.0041799475794892862 0.017563033468516315 0.026358774815973596 0.0053120223184426633 -0.0078299676291807251 -0.0069573368124188273 -0.01762433976774266 0.023399934431039535 0.0015202842048189094 0.00029725100701818102 0.011788444879597852 0.010021042739136092 -0.016762316005601401 -0.0078777688603995626 0.0038965405745759445 0.012733259207823061 0.052128115931495293 0.065575804254587963 0.026722084805369379 0.019379457104496841 -0.00063884893514324465 -0.028492902716353647 -0.0052844342950265858 -0.019866103239150515 -0.0025994385797898042 -0.011029316856720938
leaf_weight=151 439 229 90 1239 1226 195 89 977 105 38 112 488 2542 364 151 22 58 26 80 262 368 155 1830 41 132 676 58 132 893 36 46 548 128 318 22 795 275 138 133 636 191 34 181 94 408 135 70 527 21 499 207 28 254 408 111 758 26 45 22 27 1283 29 935 58 384 207 3121 60 118 158 307 138 58 1187 140 34 186 130 109 220 28 21 160 433 429 676 103 212 41 711 105 184 219 51 28 21 210 160 105 26 159 237 1077 217 51 229 47 1022 71 62 39 112 103 69 278 1262 220 61 34 20 697 4885 33 32 36 152 253
leaf_count=151 439 229 90 1239 1226 195 89 977 105 38 112 488 2542 364 151 22 58 26 80 262 368 155 1830 41 132 676 58 132 893 36 46 548 128 318 22 795 275 138 133 636 191 34 181 94 408 135 70 527 21 499 207 28 254 408 111 758 26 45 22 27 1283 29 935 58 384 207 3121 60 118 158 307 138 58 1187 140 34 186 130 109 220 28 21 160 433 429 676 103 212 41 711 105 184 219 51 28 21 210 160 105 26 159 237 1077 217 51 229 47 1022 71 62 39 112 103 69 278 1262 220 61 34 20 697 4885 33 32 36 152 253
internal_value=0 -0.00312474 0.0145834 -0.00116808 0.00185368 -0.00418377 0.0302117 0.0103657 0.0075252 -0.000424836 0.00189154 -0.0134534 -0.00272198 -0.00214147 0.0183571 0.0455214 -0.0117309 0.0162945 0.0235059 0.0145508 -0.0122558 0.00108452 -0.0156655 0.002166 0.0243566 -0.00717602 -0.0045401 0.0432237 0.00477414 0.00116404 -0.00142798 0.0077549 -0.00583417 0.00739956 0.047848 -0.00822813 -0.00121148 -0.00201247 -0.000650418 -0.0125348 -0.0104448 0.036654 0.0117304 -0.0168657 -0.00670852 -0.012262 -0.00508202 0.00061499 0.0136185 0.00505414 -0.0121967 0.0304575 -0.0179069 -0.0151601 0.00682842 0.00979331 0.0187956 0.00410393 0.0476944 0.0578997 -0.00446138 -0.00219249 0.00530687 0.0168632 -0.012847 -0.0146371 -0.00019452 0.0124257 0.0225027 -0.0122133 0.00403565 -0.00627872 -0.00410212 -0.0031987 0.00469216 0.0359504 -0.00954379 -0.00885921 0.010842 0.0313088 0.0349879 0.011347 0.0243006 -0.0141533 -0.00936505 -0.00987796 -0.00253053 0.0149824 0.021166 -0.00436645 -0.0120522 -0.00866144 0.0158796 -0.00786918 0.0442273 0.0453182 0.00200151 0.00281239 -0.00588176 0.0685916 0.00428728 -0.00627413 0.0187813 0.0235523 -0.0066186 -0.0118409 -0.0184062 -0.0169955 0.0153906 -0.00102118 -0.0114951 0.00503105 0.00199631 -0.00884 -0.004037 0.00515534 0.00816976 0.0460828 0.0516855 0.045855 0.0204275 -0.000825197 -0.00799299 -0.0170672 -0.000821766 -0.00590582 -0.00883339
internal_weight=0 36674 7858 30833 15401 15432 1670 6188 4414 10987 7030 5841 12928 12186 894 462 2504 373 618 3461 742 6657 4319 5315 1208 1522 3957 440 3520 4507 11016 808 3163 1808 323 1834 10796 8254 5304 1802 1314 163 756 513 1016 330 1023 794 79 2727 811 117 2517 1488 276 1132 455 226 83 49 2950 1312 1113 2329 535 627 3394 165 304 228 2288 1638 987 1342 1075 81 605 1170 292 380 248 159 278 687 557 1040 1329 530 828 1033 220 322 260 145 275 47 1712 1502 330 48 1052 273 1352 275 687 436 254 1080 180 5145 144 374 1342 174 686 1789 527 247 115 81 787 5012 127 65 715 188 311
internal_count=44532 36674 7858 30833 15401 15432 1670 6188 4414 10987 7030 5841 12928 12186 894 462 2504 373 618 3461 742 6657 4319 5315 1208 1522 3957 440 3520 4507 11016 808 3163 1808 323 1834 10796 8254 5304 1802 1314 163 756 513 1016 330 1023 794 79 2727 811 117 2517 1488 276 1132 455 226 83 49 2950 1312 1113 2329 535 627 3394 165 304 228 2288 1638 987 1342 1075 81 605 1170 292 380 248 159 278 687 557 1040 1329 530 828 1033 220 322 260 145 275 47 1712 1502 330 48 1052 273 1352 275 687 436 254 1080 180 5145 144 374 1342 174 686 1789 527 247 115 81 787 5012 127 65 715 188 311
shrinkage=0.1


Tree=7
num_leaves=128
num_cat=0
split_feature=33 0 0 35 47 0 1 3 40 2 6 7 7 2 48 2 1 50 11 4 11 34 6 6 13 64 58 2 2 5 7 40 34 34 7 11 34 0 35 55 6 61 38 2 0 2 49 63 5 3 1 34 61 5 6 0 7 0 4 64 7 5 13 55 42 7 0 11 2 14 7 61 53 10 11 56 14 0 0 10 7 0 53 2 49 48 2 61 7 11 47 7 51 7 64 2 20 11 7 63 55 7 62 2 48 7 5 7 7 60 61 49 7 2 35 34 4 11 11 4 10 11 2 0 46 4 2
split_gain=164.373 60.9207 42.1387 18.4041 17.5707 15.5642 12.9954 12.0821 10.7762 7.3165 7.09547 5.78418 5.66809 5.24225 5.47337 4.98607 4.44937 4.15639 3.86448 3.57424 3.45688 3.33657 3.02619 2.74394 2.45418 2.45336 2.22946 3.77491 2.01502 1.98943 1.97903 1.95116 1.89924 1.87691 1.85386 1.8745 1.76377 2.31245 1.72549 1.71231 1.65207 1.62446 1.58881 1.56748 1.71143 1.56 1.51934 1.46849 1.43473 1.37602 1.30928 1.29807 1.28741 1.28601 1.28409 1.27938 1.56274 1.23229 1.21251 1.18968 1.14713 1.11759 1.09946 1.09271 1.05931 1.05692 1.05202 1.04146 1.01541 1.11973 1.01033 0.999087 0.983127 0.969555 1.53703 0.949768 0.946176 0.932117 0.922008 0.921315 0.913983 1.16721 0.885198 0.877899 1.10817 0.873071 0.871486 0.85266 0.848336 0.81797 0.809282 0.800696 0.780367 0.778496 0.761638 0.75312 0.746945 0.742348 0.821094 0.729417 0.721591 0.717852 0.693548 0.68245 0.698047 0.679268 0.82425 0.676503 0.672456 0.670393 0.668496 0.652488 0.652392 0.647153 0.631446 0.62287 0.613041 0.60166 0.588973 0.585337 0.583161 0.576978 0.575783 0.568902 0.662393 0.565801 0.559807
threshold=31682.000000000004 3584.5000000000005 16118.000000000002 1945.4376312589804 15615.507188968251 5040.5000000000009 3.5000000000000004 3918106.0000000005 0.88502389966990258 3.5000000000000004 29.121751031739404 1916.5000000000002 1957.5000000000002 1.5000000000000002 59.37486587617181 1.5000000000000002 272.50000000000006 444.00032372972009 -122.03887939064899 3329.9252544362103 -121.01163695280748 7512601.5000000009 2.5001132207134602 2.7455440360079053 3.5000000000000004 3.6537317827219304 906849.88333333365 3.5000000000000004 2.5000000000000004 1.5000000000000002 2000.5000000000002 1.1352386541973354 7512850.5000000009 81604850.000000015 1956.5000000000002 -122.12998805793849 7520150.0000000009 69975.000000000015 1934.2900041692753 1936.5166666666653 3.4844520369411405 0.00059571730942171617 636440.40594125516 1.5000000000000002 12462.000000000002 3.5000000000000004 362263.6725990891 4.2991338585310209e-06 1.5000000000000002 16570491.000000002 173.50000000000003 1450743.5000000002 0.00099982996327034981 2.5000000000000004 20.274219175397853 3070.5000000000005 1915.5000000000002 2501.0000000000005 15345.983116826652 6.4365476190476212 1982.5000000000002 2.5000000000000004 1.0000000180025095e-35 1938.5358974358953 0.018340711032170855 1910.5000000000002 11098.500000000002 -122.24558802602598 6.5000000000000009 59.500000000000007 1936.5000000000002 0.00070086056138244756 10.937308693641102 38.234762412520261 -122.41268807464698 6915.1666666666706 8.5000000000000018 1854.5000000000002 4092.5000000000005 37.802387502469109 1982.5000000000002 2457.5000000000005 10.937308693641102 10.500000000000002 6692.6308918343957 24.214099737006404 24.500000000000004 0.00091282264845560571 1973.5000000000002 -122.19850521275998 2124.2576747499502 1988.5000000000002 5052.8993258249911 1980.5000000000002 2.4283041596085106 1.0000000180025095e-35 0.0013099408655219602 -121.06510752589249 1960.5000000000002 4.8716155449987754e-05 1926.7275132275151 1999.5000000000002 0.012093884849145002 2.5000000000000004 3.9347763350064402 1919.5000000000002 3.5000000000000004 1928.5000000000002 1998.5000000000002 1.0381861863514752 0.0008577946697336012 44050.083339074008 1973.5000000000002 2.5000000000000004 1945.1260913166602 13327500.000000002 2285.5922452283153 -122.12170339359149 -122.24340198149149 18831.265001250405 37.755281187153656 -122.10732185865 18.500000000000004 3825.5000000000005 48.500000000000007 5044.2120645986861 2.5000000000000004
decision_type=2 10 10 10 10 10 10 10 10 8 8 10 8 8 10 10 10 10 2 8 2 2 8 8 10 8 8 10 8 10 10 8 2 2 8 2 2 10 8 10 10 8 10 10 10 10 10 8 8 10 10 2 8 10 8 8 10 8 8 10 10 10 10 10 8 10 10 2 10 8 8 8 10 2 2 10 8 10 10 2 10 10 10 10 8 10 8 8 10 2 10 10 8 10 10 10 10 2 8 8 10 10 8 10 10 8 10 10 8 8 10 10 8 10 10 2 10 2 2 10 2 2 10 10 10 10 10
left_child=1 6 5 4 26 32 11 8 12 17 94 77 28 14 42 23 24 59 22 103 43 54 -13 100 36 46 27 48 39 33 89 41 -2 52 35 53 37 65 95 -5 93 67 70 96 45 78 -16 101 66 86 -19 60 -24 -21 75 -34 -57 -33 71 88 83 76 -37 -17 112 -12 -3 -25 -46 -70 -6 -36 108 74 -60 -7 -43 110 -45 -44 107 -82 -40 84 113 -81 -11 -41 117 -15 116 -51 -50 -35 -4 -23 -14 98 121 -89 -8 -28 -62 104 -10 -94 -107 -20 -49 -27 -1 -72 -39 123 -79 -30 -54 -9 -68 -110 -58 -59 -71 -22 -125 -31 -117
right_child=2 3 10 7 13 21 15 9 19 49 16 18 20 30 25 63 -18 50 80 34 51 38 29 31 -26 109 47 -29 115 125 -32 57 55 40 58 62 -38 64 82 87 -42 61 79 44 68 -47 -48 72 92 91 -52 -53 90 -55 -56 56 120 97 73 -61 102 -63 -64 -65 -66 -67 118 -69 69 122 111 -73 -74 -75 -76 -77 -78 114 -80 85 81 -83 -84 -85 -86 -87 -88 99 -90 -91 -92 -93 105 -95 -96 -97 -98 -99 -100 -101 -102 -103 -104 -105 -106 106 -108 -109 119 -111 -112 -113 -114 -115 -116 126 -118 -119 -120 -121 -122 -123 -124 124 -126 -127 -128
leaf_value=-0.018331971170846374 0.011520133718537788 0.0016390018873785096 0.021768585761152176 0.0058072507324028917 0.018024459568758696 0.015137675869175131 -0.0011078800316210147 0.011478410166261409 -0.013978466080041911 0.00062949204213584705 0.024320225138217213 -0.018305737945058988 -0.0025716305322198347 0.0063259963340976319 0.016364174296355085 -0.0071503181297045484 0.085028521574678884 0.02444942619612751 -0.0091768257218696504 0.00019396563546893506 -0.022777377124875785 0.019949714970939302 -0.0019320164712638976 0.015808864239650437 0.0081333516747690744 0.070499919354915619 0.0091610904499631086 -0.014562675948291144 -0.018994891790207476 -0.019535045142217381 0.025389432668303832 -0.015518461263395454 0.0012209045548524176 -0.014932649512351213 -0.0083787101322683449 -0.014818921234404696 0.026158027321008255 0.078962607422600625 0.0047827566841640232 -0.019525438800073146 -0.00061335488377759861 -0.00090853259891467565 0.012984191478450889 -0.022852466165116339 -0.00053641570408480429 -0.019544256434349691 0.04795865201512757 0.0012847818044932346 -0.0086915291287004964 0.0026804499450401782 0.049247908456759026 3.3648857026405281e-05 -0.016138864406845071 -0.015503943117494746 0.037023071465747702 0.0088662831293263109 0.007773253778993551 -0.0034571938042063269 0.010040710553429174 0.028235194589942694 -0.01488149244542001 -0.019280811833838622 -0.0036606281955708303 -0.016685746955828598 0.041375536441802981 0.040934543767470431 0.011283351190488886 -0.0087923309241887179 -0.019705607606641327 -0.0025980317378606842 0.0032356224508953476 -0.0002833106420765626 0.0088235191714968481 -0.0027059642284807468 0.0019607048672014111 0.021725801320072249 -0.0051414666949996567 0.00017327093931881687 -0.0055352682008201056 0.018194346164621539 -0.017506705534954866 -0.0029950071605446848 0.012459681346746429 -0.018774171489657779 -0.00715932170683636 0.029049506005658594 -0.0078808171491670832 -0.0073573169243910247 0.014218398959351834 -0.0032236661736554069 -0.0054144202752924361 0.012355972956400365 0.004017816069011102 -0.0015712720341980457 0.034175346551325807 0.013756220314848688 0.0013742398806548279 -0.010434934170322216 -0.0010553601071039477 -0.022667752986992987 -0.01886631482715408 0.028866713137055439 -0.003996783755967427 -0.026631106321861886 -0.0052903831098541918 -0.0010691250604291901 -0.014537187010802805 -0.017955841178563522 0.0039914706150988395 0.044918066975660621 -0.0050235147142539856 0.013712504983283162 0.056043725391780888 -0.021561472418985955 -0.0087580452042848173 0.00063013160252012312 -0.0051831619368052822 0.0024610710714990758 0.0033357301441162448 0.015114023657515647 0.0020392702525140536 -0.014396170763806863 -0.018981371078795443 -0.017628422050558507 -0.0080453714007331489 -0.012478960881457099 -0.015047924902107379
leaf_weight=64 432 2931 425 73 112 360 27 120 158 1263 44 504 1062 184 45 169 21 60 92 618 40 221 510 79 26 21 38 160 400 205 39 152 875 604 157 207 81 23 324 88 108 1705 194 33 733 118 23 773 130 199 33 210 182 57 42 908 224 94 280 35 64 39 154 416 25 295 185 22 60 202 179 5260 351 324 1479 558 765 395 450 236 120 103 280 99 1027 108 133 367 203 175 305 150 263 47 56 1759 875 235 379 34 150 36 686 23 223 1370 47 1912 146 20 92 89 27 73 99 32 71 193 188 70 852 99 24 94 310 255 79
leaf_count=64 432 2931 425 73 112 360 27 120 158 1263 44 504 1062 184 45 169 21 60 92 618 40 221 510 79 26 21 38 160 400 205 39 152 875 604 157 207 81 23 324 88 108 1705 194 33 733 118 23 773 130 199 33 210 182 57 42 908 224 94 280 35 64 39 154 416 25 295 185 22 60 202 179 5260 351 324 1479 558 765 395 450 236 120 103 280 99 1027 108 133 367 203 175 305 150 263 47 56 1759 875 235 379 34 150 36 686 23 223 1370 47 1912 146 20 92 89 27 73 99 32 71 193 188 70 852 99 24 94 310 255 79
internal_value=0 -0.00281226 0.0131251 -0.000316928 0.00365615 0.0102921 -0.00946924 -0.00205346 -0.00303402 0.00458469 0.0320536 -0.0126206 -0.00590378 0.0137381 0.0175139 -0.00534507 0.0398992 0.0136943 -0.0137703 -0.000712203 -0.00473545 0.0148905 -0.0112914 -0.00400422 0.0380801 0.0387 0.001508 0.000562621 -0.0126111 -0.00974562 0.00399505 -0.0034015 0.00534009 -0.00826569 -0.000277206 -0.00424238 0.0396531 0.0422935 0.0130203 -0.00847891 -0.0120677 -0.0019842 0.0149983 -0.00270895 -0.00500439 -0.00923665 0.0270505 0.00503412 0.00103584 0.00122275 0.0332489 -0.00750466 -0.00556367 -0.00113164 0.0199245 0.00440628 0.00581112 -0.00725881 0.000270517 0.0103938 -0.00816619 -0.00248474 -0.0100589 -0.0139311 0.0581828 0.0387781 0.00227556 0.0104502 -0.00250823 -0.00756186 0.0100482 -0.000517938 0.00427681 0.00232095 0.00324689 0.0191422 -0.00221954 -0.00374464 -0.00671843 0.0184947 -0.016877 -0.010804 0.0083416 -0.00964546 -0.00906013 0.0216024 -0.000181304 -0.0106116 0.00918359 0.00167087 -0.00888293 0.00683898 -0.00122716 -0.013968 0.023213 0.0144475 -0.000789165 -0.00570308 -0.00375905 -0.00865546 -0.0161574 0.0187476 -0.00492561 -0.00990314 -0.00889332 -0.000649562 -0.00151584 -0.0175528 0.00266317 0.058021 -0.0104834 0.00671489 0.0665864 -0.012836 -0.00161661 -0.0171557 -0.0130643 0.0059182 0.00727758 0.007596 0.00323296 -0.00906838 -0.00433786 -0.0114014 -0.0102751 -0.0156235 -0.0105281
internal_weight=0 36674 7858 26675 8113 6835 9999 18562 16173 2389 1023 5668 7233 1425 1027 4331 542 644 5018 8940 6160 3544 2791 3746 521 109 6688 5274 1073 2287 398 3569 3291 1827 8536 1036 495 414 2584 562 759 2610 918 3557 1620 601 68 1414 5114 1745 93 2603 1068 675 960 2859 1984 959 7500 551 2393 2509 361 585 75 339 3304 101 1019 286 380 5417 1340 2083 1759 918 2470 650 483 538 2227 223 604 1643 1544 344 1396 489 516 359 558 349 1810 651 481 1980 1937 807 572 401 177 74 750 404 381 1680 1417 2004 989 41 156 268 50 517 494 511 253 313 373 216 1076 193 226 444 404 460 111
internal_count=44532 36674 7858 26675 8113 6835 9999 18562 16173 2389 1023 5668 7233 1425 1027 4331 542 644 5018 8940 6160 3544 2791 3746 521 109 6688 5274 1073 2287 398 3569 3291 1827 8536 1036 495 414 2584 562 759 2610 918 3557 1620 601 68 1414 5114 1745 93 2603 1068 675 960 2859 1984 959 7500 551 2393 2509 361 585 75 339 3304 101 1019 286 380 5417 1340 2083 1759 918 2470 650 483 538 2227 223 604 1643 1544 344 1396 489 516 359 558 349 1810 651 481 1980 1937 807 572 401 177 74 750 404 381 1680 1417 2004 989 41 156 268 50 517 494 511 253 313 373 216 1076 193 226 444 404 460 111
shrinkage=0.1


Tree=8
num_leaves=128
num_cat=0
split_feature=33 0 0 0 11 0 6 48 2 2 6 50 2 35 10 3 3 35 35 40 7 7 34 38 7 51 38 11 5 55 5 6 23 34 6 40 3 41 63 10 55 0 1 58 5 48 2 60 10 4 7 2 4 8 7 3 0 2 7 48 2 35 10 7 10 2 2 14 3 44 11 40 11 48 3 7 11 7 7 53 6 50 4 6 10 11 35 14 3 7 8 5 37 2 14 40 48 0 7 10 50 55 46 44 61 62 64 50 0 5 7 53 40 9 11 34 7 34 42 2 0 2 58 2 7 34 14
split_gain=133.142 50.0447 34.6097 16.5878 15.7239 12.6219 9.77279 9.03539 8.50326 7.04454 6.97644 6.15985 5.56635 4.19627 3.78767 3.55596 3.48213 3.22326 3.17932 3.02503 3.00642 2.71024 2.42576 2.27515 2.26159 2.11887 1.85374 1.84041 1.81717 1.79376 1.77958 2.94412 1.75074 1.87254 1.6756 1.64876 1.57834 1.55814 1.55081 1.52336 1.6529 1.48758 1.38934 1.35959 1.31602 1.26638 1.98302 1.26112 1.19636 1.25611 1.18642 1.14539 1.14285 1.10163 1.08886 1.08042 1.06082 1.05689 1.00629 0.995607 0.982555 0.950621 0.931737 0.926126 0.898401 0.88335 0.877226 1.83397 0.930384 0.876461 0.875492 0.839584 0.833151 0.818191 0.817401 0.824151 0.816533 0.816081 0.986949 0.811496 0.799324 0.794539 0.778489 0.762403 0.733515 0.945701 0.914864 0.732787 0.720139 0.70611 0.794586 0.695839 0.695528 0.684079 1.14255 0.682124 1.02758 0.675312 0.652275 0.642463 0.639547 0.629515 0.967806 1.21384 0.759284 0.604411 0.602783 0.599598 0.59225 0.587404 0.587068 0.716488 0.581717 0.578926 0.564572 0.559132 0.555752 0.554781 0.545635 0.541946 0.536407 0.535954 0.535199 0.544767 0.531409 0.543422 0.524999
threshold=31682.000000000004 4725.5000000000009 11849.000000000002 2501.0000000000005 -121.84207798570299 15062.000000000002 29.121751031739404 3.7419013605267852 1.5000000000000002 1.5000000000000002 3.1167590595979808 444.00032372972009 2.5000000000000004 1942.8619528619504 37.947706008639109 36243659.500000007 36243659.500000007 1948.3083070937253 1951.4964509803901 1.3016653280944552 1961.5000000000002 1935.5000000000002 1428450.0000000002 615558.60239176813 2002.5000000000002 17996.386652932953 1230223.9219755454 -122.24340198149149 2.5000000000000004 1942.3765182186253 1.5000000000000002 6.2304431431598957 0.94909014946705106 672650.00000000012 2.5823585173593901 1.0000000180025095e-35 4158736.0000000005 0.001182087843811455 1.0040797391455301e-05 38.234762412520261 1989.0454545454552 84580.500000000015 138.50000000000003 162295.90000000002 2.5000000000000004 59.37486587617181 2.5000000000000004 0.63368190703086114 38.047655012380552 2061.8480091246006 1961.5000000000002 5.5000000000000009 3451.6521631017954 10.500000000000002 1940.5000000000002 1201706.5000000002 2239.5000000000005 3.5000000000000004 1918.5000000000002 149.19893270698904 4.5000000000000009 1939.1086975013302 37.788800831703057 1920.5000000000002 35.380264825222262 1.5000000000000002 2.5000000000000004 55.500000000000007 274729.50000000006 1.1181063276284902 -122.45297696788849 1.0687039986982403 -122.42834384295848 67.823968483112267 255964.50000000003 1972.5000000000002 -122.24080939319948 1930.5000000000002 1961.5000000000002 3.9902832199317602 7.4614430709557853 13.793686996591752 7974.1599242133007 17.771146671070152 38.234762412520261 -122.35229464617647 1965.5815217391303 3.5000000000000004 6511222.0000000009 1922.5000000000002 21.500000000000004 1.5000000000000002 8.3196594427244612 7.5000000000000009 142.50000000000003 1.0526478675652451 36.648415849619759 30681.000000000004 1941.5000000000002 37.743336605802604 12.371655277442052 1967.2792207792204 162.50000000000003 0.95841905413240858 0.00066590553246416711 0.019894161210050405 1.0261787280701753 20.799725756408403 1854.5000000000002 1.5000000000000002 1928.5000000000002 1.2754731762663052 0.93917026015084348 4.5000000000000009 -121.06510752589249 13349500.000000002 1950.5000000000002 1424001.5000000002 0.0094708098816243379 6.5000000000000009 7933.0000000000009 1.5000000000000002 3470559.0000000005 9.5000000000000018 1966.5000000000002 1730807.5000000002 90.500000000000014
decision_type=2 10 10 10 2 10 10 10 8 10 8 10 10 8 2 10 10 8 10 8 8 8 2 10 10 8 10 2 10 8 10 10 8 2 8 10 10 8 8 2 10 10 10 10 10 8 10 8 2 8 8 10 8 10 8 10 8 10 8 10 10 10 2 8 2 8 8 10 8 8 2 10 2 10 10 10 2 8 10 8 10 10 10 8 2 2 10 10 10 10 10 8 8 8 10 10 10 10 10 2 10 8 10 8 8 8 8 10 10 10 10 10 10 10 2 2 8 2 8 10 10 8 10 8 8 2 10
left_child=1 3 7 13 5 12 26 56 11 10 17 18 22 34 20 28 39 113 25 30 55 71 23 82 32 -7 88 48 41 57 47 61 -16 45 -1 38 -20 -13 -22 40 76 69 77 106 80 54 -47 83 49 -15 81 -18 112 -25 107 65 -2 -11 -14 -39 -60 -32 100 -49 -40 98 68 119 92 116 120 -9 -51 -26 -31 -76 91 97 -79 87 -33 -35 -3 -12 85 86 -24 -45 -4 -71 -91 -10 -66 -69 -95 -28 -97 -27 -6 -37 -58 -65 104 -104 -103 -30 -21 -34 115 -55 111 -29 -36 -5 -81 -54 -8 -80 -19 -68 -23 -110 123 -41 -89 -126 -125
