tree
version=v3
num_class=5
num_tree_per_iteration=5
label_index=0
max_feature_idx=66
objective=multiclass num_class:5
feature_names=area units floors buildings value_imprv lidar_area lidar_buildings lidar_units yr_built elctm gasm s_lat s_lon pool common beds code_area code_units code_value_imprv code_area_unit code_area_lidar_area code_unit_lidar_area code_area_imprv code_unit_imprv code_unit_elct code_area_elct code_area_unitxunit areax_code_area_unit code_area_imprvximprv code_unit_imprvximprv code_area_lidar_areaxlidar_area code_unit_lidar_areaxlidar_area code_area_elctxelct code_unit_elctxelct county_n tract tract_yr_built tract_area tract_units tract_value_imprv tract_area_unit tract_area_lidar_area tract_unit_lidar_area tract_area_imprv tract_unit_imprv tract_unit_elct tract_area_elct tract_n tract_area_unitxunit areax_tract_area_unit tract_area_imprvximprv tract_unit_imprvximprv tract_area_lidar_areaxlidar_area tract_unit_lidar_areaxlidar_area tract_area_elctxelct tract_unit_elctxelct block_yr_built block_area block_units block_value_imprv block_area_unit block_area_lidar_area block_unit_lidar_area block_area_imprv block_unit_imprv block_unit_elct block_area_elct
feature_infos=[518:3876054] [1:5642] [1:42] [1:1630] [104:630645683] [1403.1276088908601:4146884.4900357099] [1:145] [2.13994962733483:1903.0866467184699] [1793:2020] [1:1101] [0:902] [34.408657563103105:41.258486933410602] [-124.225172925341:-117.64410531873699] [0:6] [0:349] [1:8874] [2348.3040698141999:49536.583520599299] [2.5909930242100896:34.613477088948805] [111543:16426852.8181818] [944.92465893357701:1463.4873801885199] [0.77558989720393912:4.3955870005762199] [0.00077136925448674401:0.0049602721325808898] [0.0056282708757467602:1.0331885600291701] [5.79561686316854e-06:0.0011369657856485501] [0.89818029893410201:50.661904761904793] [0.89818029893410201:50.661904761904793] [3022.0186239702302:76925.619424496908] [0.77810877233688991:121.72870455974599] [1760.1128004655102:373600.29925267101] [1.4965966446722601:809.1704400672121] none [1.32899057416702:39.700427715899295] [1.40286406788127:729.18919518274993] [1.40286406788127:729.18919518274993] [51:32123] [5102:97154304] [1907.21387283237:2019] [1530.8571428571399:565042.59999999998] [1.19354838709677:669.66666666666697] [51435.125:167917298.69230801] [453.71428571428595:9724.5208333333303] [0.34649020416975396:8.3418761468910301] [0.000108855126215858:0.0505277163115289] [0.0027583855310834601:75.678827314804494] [2.5727622012815302e-06:0.073140842117062496] [0.15151515151515196:133] [0.15151515151515196:133] [10:591] [608.91501873883999:5215872.6885975301] [0.531583397691757:4192.7205615672701] [49.6811290612373:2012482328.59565] [0.066575716268272994:1944991.18818135] [989.4886925468719:3961326.9729608502] [0.86054764835223096:11494.489947853401] [0.67655665108405394:19536.447666791501] [0.67655665108405394:19536.447666791501] [1850:2020] [900:2000000] [1:1630] [104:630645683] [3.06666666666667:37626.6875] [0.033741705635276301:226.83945712951501] [3.9433236036552005e-05:0.273919690779451] [0.00014826977775590601:756.63972845633896] [1.7327983376225901e-07:0.69469053339548903] [0.043478260869565202:418] [0.043478260869565202:418]
tree_sizes=946 945 955 973 951 960 959 965 958 943 965 957 957 960 952 963 962 948 956 948 947 967 952 967 958 969 962 961 968 961 971 959 964 968 954 972 960 967 948 955 967 970 972 952 955 960 969 959 968 961 975 966 961 968 966 970 963 965 968 957 974 967 975 976 958 976 964 942 967 968 973 970 954 977 964 974 958 973 977 953 987 973 970 976 965 980 967 967 980 961 972 964 956 983 966 977 960 952 979 961 967 973 959 972 959 970 967 964 984 966 975 971 958 977 970 965 970 961 971 961 965 979 961 976 969 983 978 958 983 968 971 970 964 978 960 971 972 980 969 954 977 982 958 978 964 970 974 983 968 964 966 974 980 973 962 972 973 975 963 964 976 977 977 976 957 975 978 977 983 963 967 971 972 968 973 973 982 960 956 978 971 986 979 979 963 969 969 976 964 964 971 975 986 984 969 969 972 962 973 973 973 956 980 983 971 965 962 974 972 977 964 974 975 957 973 959 987 978 959 971 953 962 994 968 963 975 965 982 988 966 956 977 981 961 961 961 965 982 966 964 971 984 994 977 968 956 975 973 957 972 967 976 982 963 967 972 981 981 971 974 960 977 978 974 975 964 973 975 957 971 978 980 996 976 968 965 979 988 968 965 974 971 978 975 967 971 973 985 977 975 963 963 1000 993 978 957 967 988 968 976 974 962 984 963 971 964 980 963 965 980 958 979 992 970 977 964 977 979 967 972 964 976 984 966 980 962 972 972 978 967 975 948 995 965 971 962 963 973 954 964 962 965 989 966 965 966 958 972 974 967 967 973 998 985 976 968 950 968 961 967 956 968 982 964 984 969 950 991 967 968 967 977 987 950 966

Tree=0
num_leaves=8
num_cat=0
split_feature=3 2 35 20 48 51 20
split_gain=2623.39 2178.87 1824.15 1256.05 950.111 440.752 384.3
threshold=1.0000000180025095e-35 3.5000000000000004 7652.0000000000009 1.3293180122074053 18794.059441271605 49.952427553194106 1.3600378815333602
decision_type=10 10 2 10 10 10 10
left_child=1 -1 -2 -4 -5 -3 -6
right_child=2 5 3 4 6 -7 -8
leaf_value=-1.55197123729209 -1.7861771951614649 -3.3725992300142758 -3.3816539386779514 -3.161560216938947 -1.6215399552585659 -1.7313968185750688 -2.8837888870084023
leaf_weight=14.64622277766466 7.3018849790096274 15.792448908090593 1685.6316568404436 19.400938577950004 7.8537716343998891 1.825471244752406 3.4811312109231949
leaf_count=345 172 372 39706 457 185 43 82
internal_value=-3.34667 -2.45327 -3.36339 -3.3701 -2.73659 -3.20255 -2.0092
internal_weight=0 32.2641 1723.67 1716.37 30.7358 17.6179 11.3349
internal_count=41362 760 40602 40430 724 415 267
shrinkage=1


Tree=1
num_leaves=8
num_cat=0
split_feature=3 2 20 35 20 36 15
split_gain=28965.9 534.529 160.185 104.491 71.0587 63.9959 54.2447
threshold=3.5000000000000004 3.5000000000000004 1.3293180122074053 7652.0000000000009 1.3600378815333602 1973.1576704545453 100.50000000000001
decision_type=10 8 10 2 10 10 10
left_child=-1 2 3 5 6 -2 -4
right_child=1 -3 4 -5 -6 -7 -8
leaf_value=-2.0973340501283917 -1.9787966630587626 -2.0090638439627195 -1.9419817873844529 -1.4309789425199213 -1.5017644103547458 -1.4405922450758868 -1.577903096272969
leaf_weight=5183.2181605249643 5.6558436602354032 17.112552613019943 10.586579158902174 756.86789904534817 14.64718486368656 3.6255408078432083 6.6709950864315024
leaf_count=35741 39 118 73 5219 101 25 46
internal_value=-2.01019 -1.45607 -1.44421 -1.43507 -1.66376 -1.76856 -1.80125
internal_weight=0 815.167 798.054 766.149 31.9048 9.28138 17.2576
internal_count=41362 5621 5503 5283 220 64 119
shrinkage=1


Tree=2
num_leaves=8
num_cat=0
split_feature=2 2 39 39 7 15 20
split_gain=7389.55 1345.65 467.325 731.446 873.025 538.544 226.748
threshold=14.500000000000002 1.0000000180025095e-35 720452.12848645612 814992.23494022712 6.054393711550806 5.5000000000000009 0.99123380192064159
decision_type=10 10 10 10 10 8 10
left_child=1 2 6 4 5 -4 -1
right_child=-2 -3 3 -5 -6 -7 -8
leaf_value=-6.291438113675774 24.635387889240082 -6.2894600423584306 16.535504888476023 -4.0014740863898126 -4.0721519884665582 2.9271350218086187 -3.8860183134489872
leaf_weight=0.59078057855367605 0.077602533623575165 101.10859138891101 0.052569458261132129 0.39301928319036961 0.090119071304798126 0.065085995942354202 1.1640380043536422
leaf_count=236 31 40390 21 157 36 26 465
internal_value=-6.21128 -6.23441 -3.87169 -1.46449 3.33438 9.00747 -4.69583
internal_weight=0 103.464 2.35561 0.600794 0.207775 0.117655 1.75482
internal_count=41362 41331 941 240 83 47 701
shrinkage=1


Tree=3
num_leaves=8
num_cat=0
split_feature=3 2 2 35 20 1 44
split_gain=19339 7907.41 513.111 305.512 68.6238 122.572 38.2154
threshold=3.5000000000000004 3.5000000000000004 1.0000000180025095e-35 7652.0000000000009 1.3293180122074053 14.500000000000002 2.996189982992305e-05
decision_type=8 10 10 2 10 8 10
left_child=1 2 6 -4 -5 -6 -1
right_child=-2 -3 3 4 5 -7 -8
leaf_value=-0.36921178986716308 -0.60288165866981513 -0.60429167628720604 -0.53835237594563579 -0.16967956813054252 -0.19566089361436956 -0.47205045824104275 -0.27082258389137626
leaf_weight=131.01990969479084 1419.4194291383028 458.68090626597404 22.689356178045273 7017.6843990683556 74.296519249677658 20.464909493923187 56.500945776700974
leaf_count=589 6381 2062 102 31548 334 92 254
internal_value=-0.263431 -0.201511 -0.176281 -0.17199 -0.170821 -0.255351 -0.339567
internal_weight=0 7781.34 7322.66 7135.14 7112.45 94.7614 187.521
internal_count=41362 34981 32919 32076 31974 426 843
shrinkage=1


Tree=4
num_leaves=8
num_cat=0
split_feature=2 2 2 20 8 15 7
split_gain=27401 424.577 364.822 302.395 98.9714 302.964 97.0211
threshold=3.5000000000000004 1.0000000180025095e-35 14.500000000000002 1.3293180122074053 1974.5000000000002 2.5000000000000004 15.731525833032103
decision_type=10 10 10 10 10 10 10
left_child=1 -1 3 4 -2 6 -6
right_child=2 -3 -4 -5 5 -7 -8
leaf_value=-2.6355236076839743 -1.5377827412179459 -2.8907977269661491 -2.8916161545030974 -2.5713302872027319 -1.7580826937096306 -1.5595319806929118 -2.4270256656717981
leaf_weight=66.772736169397831 135.31945576518774 2688.0816063433886 2.1997394487261763 3.1222108304500571 3.2641295045614225 29.802921563386917 6.4572996720671654
leaf_count=941 1907 37882 31 44 46 420 91
internal_value=-2.80647 -2.88461 -1.61168 -1.59586 -1.57844 -1.71766 -2.20242
internal_weight=0 2754.85 180.166 177.966 174.844 39.5244 9.72143
internal_count=41362 38823 2539 2508 2464 557 137
shrinkage=1


Tree=5
num_leaves=8
num_cat=0
split_feature=3 20 35 24 34 8 6
split_gain=513.129 408.349 391.376 257.767 142.897 227.106 139.441
threshold=1.0000000180025095e-35 1.2454789381326952 19650.000000000004 4.685643040401426 31682.000000000004 1993.5000000000002 4.5000000000000009
decision_type=10 10 2 10 2 10 8
left_child=-1 2 6 4 -4 -6 -2
right_child=1 -3 3 -5 5 -7 -8
leaf_value=0.2177575281203335 0.4856716454068396 0.22263982382859218 -0.050271497030831072 1.0031285261395118 0.011460898152815504 0.55787247450861632 0.10161473955188945
leaf_weight=99.333690211176418 18.721833862364974 68.740991437582807 1270.4704269487709 2.3938909582793704 306.7897876809248 7.7999573778462823 19.096405275166035
leaf_count=760 126 753 31523 56 7728 185 231
internal_value=0 -0.0160931 -0.0261904 -0.0337645 -0.0353305 0.0250087 0.291741
internal_weight=0 1694.01 1625.27 1587.45 1585.06 314.59 37.8182
internal_count=41362 40602 39849 39492 39436 7913 357
shrinkage=0.1


Tree=6
num_leaves=8
num_cat=0
split_feature=3 2 17 12 54 24 15
split_gain=13715.6 157.283 58.9199 35.9605 37.6138 27.9355 20.9964
threshold=3.5000000000000004 3.5000000000000004 15.854869478982389 -119.31010564476598 5.5294724007530913 4.685643040401426 4.5000000000000009
decision_type=10 8 8 2 8 10 10
left_child=2 5 -1 -4 -5 6 -2
right_child=1 -3 3 4 -6 -7 -8
leaf_value=0.24817542527261974 0.24765862949278566 -0.010492822254090249 -0.086510787352316459 0.086647907271192079 -0.060062164165429935 0.13690214470853987 0.28556082616274275
leaf_weight=5.3063830435276031 167.01941843330815 18.982072219259408 4531.5891271075898 23.118233814836458 71.595523938536644 13.623636171221731 1170.0277590453625
leaf_count=40 690 118 34975 178 548 62 4751
internal_value=0 0.275357 -0.0848542 -0.0852362 -0.0242524 0.279375 0.280826
internal_weight=0 1369.65 4631.61 4626.3 94.7138 1350.67 1337.05
internal_count=41362 5621 35741 35701 726 5503 5441
shrinkage=0.1


Tree=7
num_leaves=8
num_cat=0
split_feature=2 50 47 11 7 2 2
split_gain=474.024 1127.52 36.6311 75.8289 148.975 77.5764 35.6765
threshold=11.500000000000002 205485.58880028201 393.50000000000006 37.799879189619752 5.8645070739919456 4.5000000000000009 1.0000000180025095e-35
decision_type=10 10 10 2 10 8 10
left_child=2 -2 6 -4 5 -5 -1
right_child=1 -3 3 4 -6 -7 -8
leaf_value=0.082709906788810905 -0.080161853664296123 -22.940035624837513 -0.08039136170485095 -0.080141728741309384 0.13783311401871601 -2.0560382789321001 -0.07784758016158233
leaf_weight=16.458347038110205 0.073044880873280482 0.030621344706803388 5.0339601514860979 0.26014090166427206 0.913551172306171 0.84132220942632341 86.975620512850583
leaf_count=838 35 37 1954 118 148 30 38202
internal_value=0 -6.8326 -0.0673315 -0.287901 -0.806308 -1.58938 -0.0522998
internal_weight=0 0.103666 110.483 7.04897 2.01501 1.10146 103.434
internal_count=41362 72 41290 2250 296 148 39040
shrinkage=0.1


Tree=8
num_leaves=8
num_cat=0
split_feature=3 2 2 35 20 0 27
split_gain=10474.2 4350.67 322.797 183.182 56.0288 73.182 35.1807
threshold=3.5000000000000004 3.5000000000000004 14.500000000000002 7652.0000000000009 1.3293180122074053 15319.000000000002 3.4978856797074456
decision_type=8 8 8 2 10 8 8
left_child=1 3 -3 -1 6 -6 -5
right_child=-2 2 -4 4 5 -7 -8
leaf_value=-0.16063718737459246 -0.20530514411199388 -0.19596468368195841 -0.046940359001975664 -0.19252499888564156 0.062906780847508323 -0.13808710429919288 0.089078034583667934
leaf_weight=29.829961895941778 1879.0034201815997 609.92578241229057 190.82534242632664 4.4394922256469727 71.045808091759682 24.314685761928558 6361.7923593521118
leaf_count=102 6381 2033 872 22 336 90 31526
internal_value=0 0.059472 -0.160451 0.0866006 0.087742 0.0116581 0.0888817
internal_weight=0 7292.17 800.751 6491.42 6461.59 95.3605 6366.23
internal_count=41362 34981 2905 32076 31974 426 31548
shrinkage=0.1


Tree=9
num_leaves=8
num_cat=0
split_feature=2 2 38 20 59 64 37
split_gain=7169.02 243.754 65.7992 44.4694 33.4244 39.9242 30.6473
threshold=3.5000000000000004 14.500000000000002 6.6659693165969349 0.99123380192064159 143516.00000000003 1.6081568845589154e-05 3165.0414500684005
decision_type=8 8 8 10 8 10 8
left_child=-1 -2 3 -3 -5 -6 -7
right_child=1 2 -4 4 5 6 -8
leaf_value=-0.083694403617493807 0.32078619546651527 0.12338150931813002 0.048719081160610224 0.13140203987310925 0.01789934357206208 0.86740235444367575 0.4306813020848993
leaf_weight=2423.6144999712706 543.1997980251906 18.085446808714465 42.880270347984556 5.0532089620828655 1.9152575194256289 1.9918250143527956 8.3145891656167805
leaf_count=37882 2508 236 533 60 23 23 97
internal_value=0 0.297017 0.131996 0.232983 0.347727 0.437169 0.515082
internal_weight=0 621.44 78.2406 35.3603 17.2749 12.2217 10.3064
internal_count=41362 3480 972 439 203 143 120
shrinkage=0.1


Tree=10
num_leaves=8
num_cat=0
split_feature=20 35 3 50 15 7 35
split_gain=321.634 286.407 247.272 142.141 815.379 321.444 236.281
threshold=1.2454789381326952 19650.000000000004 1.0000000180025095e-35 59422.551705383055 1.0000000180025095e-35 14.614331888374053 4511350.0000000009
decision_type=10 2 10 10 10 10 2
left_child=1 -1 -3 -4 5 -5 -7
right_child=-2 2 3 4 -6 6 -8
leaf_value=0.21320956575406527 0.17479576484101655 0.13255436407447438 -0.041447361919962289 0.11018651978861363 -0.022668768446021507 1.5335258032045571 0.63478741196741395
leaf_weight=54.395673370920122 97.199794470154984 99.399344468489289 1318.0523286188584 6.7283516600727546 150.56561000692008 4.6386182457208616 7.9195140888923223
leaf_count=385 808 677 35613 162 3470 107 140
internal_value=0 -0.0124185 -0.0201506 -0.030352 0.0557478 0.66793 0.966756
internal_weight=0 1641.7 1587.3 1487.9 169.852 19.2865 12.5581
internal_count=41362 40554 40169 39492 3879 409 247
shrinkage=0.1


Tree=11
num_leaves=8
num_cat=0
split_feature=3 2 17 12 54 20 35
split_gain=9251.59 94.3689 43.1094 36.8648 33.457 20.7979 21.7751
threshold=3.5000000000000004 3.5000000000000004 15.854869478982389 -119.31010564476598 5.5294724007530913 1.3293180122074053 13318500.000000002
decision_type=10 8 8 2 8 10 2
left_child=2 5 -1 -4 -5 -2 -7
right_child=1 -3 3 4 -6 6 -8
leaf_value=0.16868012723449602 0.20438116678323892 -0.016245923343009675 -0.084546783769995956 0.082433800524060519 -0.056291652879975784 0.17871123353968615 0.034376218471457734
leaf_weight=6.8094459772109985 1540.9274592250586 20.019102633003058 4033.25311190309 23.630414724350885 65.778414323925972 40.762620016932487 14.056918084621428
leaf_count=40 5283 118 34975 178 548 158 62
internal_value=0 0.199521 -0.0827236 -0.0831389 -0.019627 0.202228 0.141701
internal_weight=0 1615.77 4129.47 4122.66 89.4088 1595.75 54.8195
internal_count=41362 5621 35741 35701 726 5503 220
shrinkage=0.1


Tree=12
num_leaves=8
num_cat=0
split_feature=12 2 1 11 37 65 54
split_gain=27.5064 19.826 34.7856 32.9172 34.1857 60.3978 41.0108
threshold=-121.32085214231898 12.500000000000002 1.0000000180025095e-35 36.769788630718907 3721.7442729567106 0.95787403756511302 4.1035989880805754
decision_type=2 8 10 2 10 10 10
left_child=-1 2 -2 -3 -5 -6 -7
right_child=1 3 -4 4 5 6 -8
leaf_value=-0.092129524389861106 3.4215008766995334 -0.019802934136747365 -0.07242592864042259 -0.081956800371292202 0.16291361475169072 -0.081918620207959203 1.2502933776491898
leaf_weight=82.009800208715873 0.028558016056211666 8.3321840283460897 12.964829995180478 1.7065037959255267 2.556264208522308 0.29073712299577881 1.1260207276791332
leaf_count=34719 13 307 6100 65 96 11 51
internal_value=0 0.0242306 -0.0647467 0.106741 0.292389 0.453179 0.976906
internal_weight=0 27.0051 12.9934 14.0117 5.67953 3.97302 1.41676
internal_count=41362 6643 6113 530 223 158 62
shrinkage=0.1


Tree=13
num_leaves=8
num_cat=0
split_feature=3 2 2 35 20 0 29
split_gain=7355.46 3327.52 209.319 135.378 49.3292 62.0514 28.7349
threshold=3.5000000000000004 3.5000000000000004 14.500000000000002 7652.0000000000009 1.3293180122074053 7101.0000000000009 6.6170783300501563
decision_type=8 8 8 2 10 8 8
left_child=1 3 -3 -1 6 -6 -5
right_child=-2 2 -4 4 5 -7 -8
leaf_value=-0.12413025272663465 -0.16337966671510221 -0.15928614191739851 -0.042123831317951194 -0.17554700773952103 0.077020609452639013 -0.089835092599539257 0.084753922141949198
leaf_weight=31.606230378152759 1986.4151768386482 633.98309451341629 200.7789483247625 4.2440440058708191 56.567813351750374 36.779002159833908 5740.981358602643
leaf_count=102 6381 2033 872 18 283 143 31530
internal_value=0 0.0557071 -0.131106 0.0822727 0.08339 0.0112788 0.0845616
internal_weight=0 6704.94 834.762 5870.18 5838.57 93.3468 5745.23
internal_count=41362 34981 2905 32076 31974 426 31548
shrinkage=0.1


Tree=14
num_leaves=8
num_cat=0
split_feature=2 2 34 34 48 39 47
split_gain=4793.45 131.637 49.4056 51.4737 19.4846 18.6222 18.1828
threshold=3.5000000000000004 14.500000000000002 7867.5000000000009 8148.0000000000009 3181.8463538083356 850528.30162838066 73.500000000000014
decision_type=8 8 2 2 10 10 10
left_child=-1 -2 -3 6 -5 -6 -4
right_child=1 2 3 4 5 -7 -8
leaf_value=-0.083051759111402876 0.22327952474585602 -0.042914603547204624 0.42801682460458984 -0.062493757268134942 0.14208345903821881 -0.015000951178282904 0.21287961704002228
leaf_weight=2156.1805147230621 674.97311779856693 20.017287479249632 5.2224259758368232 8.0224925020183431 33.875273193785759 9.7100824117723601 15.856375731527804
leaf_count=37882 2508 202 49 88 369 127 137
internal_value=0 0.207933 0.0961971 0.134507 0.0807261 0.107088 0.266181
internal_weight=0 767.677 92.7039 72.6866 51.6078 43.5854 21.0788
internal_count=41362 3480 972 770 584 496 186
shrinkage=0.1


Tree=15
num_leaves=8
num_cat=0
split_feature=20 35 34 8 3 41 51
split_gain=221.696 200.476 170.899 116.434 111.968 102.236 86.2466
threshold=1.2454789381326952 19650.000000000004 31682.000000000004 1979.5000000000002 1.0000000180025095e-35 0.91397070231530264 2.1485451409706804
decision_type=10 2 2 10 10 8 8
left_child=1 5 4 6 -3 -1 -4
right_child=-2 2 3 -5 -6 -7 -8
leaf_value=0.67508905143183118 0.1364809790047877 0.11059796555372475 0.2889764487615884 0.20548008869614467 -0.042728047301480047 0.13382450112689895 0.012745849747788191
leaf_weight=3.7126867696642867 110.35666528030083 49.78155546076573 11.742821716662592 39.397447311319411 1100.8539327663345 58.099457915872335 301.86156274888793
leaf_count=29 808 198 311 453 31578 356 7629
internal_value=0 -0.0101656 -0.0174213 0.0434453 -0.0360945 0.166335 0.0230892
internal_weight=0 1565.45 1503.64 353.002 1150.64 61.8121 313.604
internal_count=41362 40554 40169 8393 31776 385 7940
shrinkage=0.1


Tree=16
num_leaves=8
num_cat=0
split_feature=3 2 12 20 17 64 8
split_gain=6849.86 67.6541 41.653 33.6981 26.2368 17.1039 18.0994
threshold=3.5000000000000004 3.5000000000000004 -119.31010564476598 1.0376150494947303 15.854869478982389 1.6913445757695453e-05 1973.5000000000002
decision_type=10 8 2 10 8 8 8
left_child=2 -2 4 5 -1 6 -4
right_child=1 -3 3 -5 -6 -7 -8
leaf_value=0.12097734914973085 0.16354876800392426 -0.019153232747885843 0.36349052938424109 -0.061042982261241024 -0.082715966367462146 0.0028901053597837449 0.090770285655760091
leaf_weight=6.3346997648477554 1694.6504640281198 20.513171197850397 3.0815113112353147 53.341889165341854 3578.3872650727058 18.157248564064503 11.571770824491978
leaf_count=32 5503 118 24 473 34975 145 92
internal_value=0 0.161364 -0.0807046 -0.0119927 -0.082356 0.0677511 0.148122
internal_weight=0 1715.16 3670.87 86.1524 3584.72 32.8105 14.6533
internal_count=41362 5621 35741 734 35007 261 116
shrinkage=0.1


Tree=17
num_leaves=8
num_cat=0
split_feature=12 2 11 48 51 47 36
split_gain=24.2163 13.5351 14.8437 12.4623 13.9882 15.8386 26.9374
threshold=-121.32085214231898 12.500000000000002 36.769788630718907 5303.8753072273767 33.449281839146956 157.50000000000003 1971.3630229419703
decision_type=2 8 2 10 10 8 10
left_child=-1 -2 -3 -4 5 6 -5
right_child=1 2 3 4 -6 -7 -8
leaf_value=-0.092745749645218228 -0.064366185455481714 -0.020782367493777591 0.010415666018657335 0.016455200250180452 -0.0776197629970376 0.71950022319337437 0.5914847537960477
leaf_weight=73.239319011531904 12.46852240397129 8.4575032871216553 3.1894495944782069 2.0772192485164855 0.99218935426324595 0.87176070408895601 1.3403133235406128
leaf_count=34719 6113 307 93 61 18 27 24
internal_value=0 0.014698 0.0729322 0.166498 0.260755 0.339027 0.241975
internal_weight=0 29.397 16.9284 8.47093 5.28148 4.28929 3.41753
internal_count=41362 6643 530 223 130 112 85
shrinkage=0.1


Tree=18
num_leaves=8
num_cat=0
split_feature=3 2 2 35 11 20 0
split_gain=5512.23 2620 158.178 107.593 78.8625 44.777 52.9087
threshold=3.5000000000000004 3.5000000000000004 3.5000000000000004 19650.000000000004 39.726141119490705 1.3293180122074053 7101.0000000000009
decision_type=8 8 10 2 2 10 8
left_child=1 3 -3 4 -1 -5 -7
right_child=-2 2 -4 5 -6 6 -8
leaf_value=0.080559533897661129 -0.14005045255064252 -0.036242107762976726 -0.13780893358769222 0.081028872681337794 -0.16130793794337506 0.073879817644570009 -0.081627335011698832
leaf_weight=23.153473526238486 1965.7187884356945 203.1385415718936 625.4259425029901 5143.9393879026175 32.269015565514565 53.293143749237061 37.116870760917664
leaf_count=123 6381 843 2062 31418 113 282 140
internal_value=0 0.0524364 -0.112908 0.0783352 -0.0602646 0.0798027 0.010038
internal_weight=0 6118.34 828.564 5289.77 55.4225 5234.35 90.41
internal_count=41362 34981 2905 32076 236 31840 422
shrinkage=0.1


Tree=19
num_leaves=8
num_cat=0
split_feature=2 2 34 34 21 48 47
split_gain=3543.5 93.9583 34.8897 28.9151 15.1985 14.2345 12.812
threshold=3.5000000000000004 14.500000000000002 7867.5000000000009 8148.0000000000009 0.0013861538726549201 3181.8463538083356 440.50000000000006
decision_type=8 8 2 2 10 10 8
left_child=-1 4 -3 -4 -2 -5 -7
right_child=1 2 3 5 -6 6 -8
leaf_value=-0.082430099116029554 0.17765329670186036 -0.043527116454169401 0.18900838124766284 -0.061936778115482677 0.062324491523924774 0.065140260926792551 0.23013425305347465
leaf_weight=1906.9015737660234 731.19751439988602 20.215606799350923 26.58774341177196 7.8864979108044215 11.608245238661764 44.120852362073883 5.268293928555237
leaf_count=37882 2450 202 186 88 58 444 52
internal_value=0 0.163383 0.074399 0.102826 0.175851 0.0628189 0.08274
internal_weight=0 846.885 104.079 83.8634 742.806 57.2756 49.3891
internal_count=41362 3480 972 770 2508 584 496
shrinkage=0.1


Tree=20
num_leaves=8
num_cat=0
split_feature=20 35 34 2 15 4 50
split_gain=159.302 140.592 147.813 96.1665 107.246 154.739 86.5678
threshold=1.2454789381326952 19650.000000000004 31682.000000000004 2.5000000000000004 inf 4526639.5000000009 45243.041522945656
decision_type=10 2 2 8 8 10 10
left_child=1 -1 3 -3 -5 -6 -4
right_child=-2 2 6 4 5 -7 -8
leaf_value=0.13379264445495118 0.11258268149251893 -0.045780186403806225 0.019216343889060739 -0.016338860379712664 0.05275496113417949 0.4453550262777915 0.14971524619252449
leaf_weight=67.347502810880314 119.63591290225986 894.07984178140759 291.46122608770554 117.34039190718558 37.930749377235784 13.652724068613763 61.570979842919428
leaf_count=385 808 27576 7547 3221 861 118 846
internal_value=0 -0.00737333 -0.0140873 -0.0327064 0.0364906 0.156665 0.0419762
internal_weight=0 1483.38 1416.04 1063 168.924 51.5835 353.032
internal_count=41362 40554 40169 31776 4200 979 8393
shrinkage=0.1


Tree=21
num_leaves=8
num_cat=0
split_feature=3 2 12 54 17 20 64
split_gain=5287.19 52.8273 42.2315 29.8855 24.2455 16.1296 15.2721
threshold=3.5000000000000004 3.5000000000000004 -119.31010564476598 5.9320839911910666 15.854869478982389 1.3293180122074053 2.2261455353091851e-05
decision_type=10 8 2 8 8 10 10
left_child=2 5 4 6 -1 -2 -4
right_child=1 -3 3 -5 -6 -7 -8
leaf_value=0.1110725741057763 0.14157134081140194 -0.020867672517203475 0.12909171838978342 -0.050269589096087947 -0.080985913203335244 0.089822202866373296 -0.032347879446504323
leaf_weight=6.586669534444809 1641.8871446102858 20.746418047700445 18.519794017076951 55.090665891766548 3170.0429399144487 62.524427339434624 8.5719799473881704
leaf_count=32 5283 118 134 532 34975 220 68
internal_value=0 0.137742 -0.0787567 -0.00798125 -0.0805877 0.139673 0.0780114
internal_weight=0 1725.16 3258.81 82.1824 3176.63 1704.41 27.0918
internal_count=41362 5621 35741 734 35007 5503 202
shrinkage=0.1


Tree=22
num_leaves=8
num_cat=0
split_feature=12 2 59 39 56 37 19
split_gain=22.9291 9.96989 10.7267 17.5714 14.152 13.6188 10.1722
threshold=-121.32085214231898 12.500000000000002 193104.09166666653 263619.95103092806 1955.8117647058805 4094.7770897832802 984.88120741075056
decision_type=2 8 10 8 10 10 8
left_child=-1 6 -3 4 -4 -6 -2
right_child=1 2 3 -5 5 -7 -8
leaf_value=-0.093660717602823892 0.96627684823440729 -0.049217404358460996 0.60186889894953688 0.026729441512531787 -0.082362888054190522 0.34488264713396144 -0.0713503246834883
leaf_weight=65.215510510636051 0.095287079690024257 6.3393020133473881 1.0228813427966059 8.2886272424510636 1.2484839113894852 1.8539959881454704 11.128836044576019
leaf_count=34719 3 204 34 216 41 35 6110
internal_value=0 0.0120023 0.0566178 0.110663 0.279302 0.172953 -0.0625414
internal_weight=0 29.9774 18.7533 12.414 4.12536 3.10248 11.2241
internal_count=41362 6643 530 326 110 76 6113
shrinkage=0.1


Tree=23
num_leaves=8
num_cat=0
split_feature=3 2 2 35 11 50 15
split_gain=4275.61 2101.41 129.197 88.9442 62.1786 47.2264 84.9762
threshold=3.5000000000000004 3.5000000000000004 3.5000000000000004 19650.000000000004 39.726141119490705 59422.551705383055 1.0000000180025095e-35
decision_type=8 8 10 2 2 10 10
left_child=1 3 -3 4 -1 -5 -7
right_child=-2 2 -4 5 -6 6 -8
leaf_value=0.078056956483030127 -0.12511912623421989 -0.032191959344075337 -0.12400777778635706 0.078132030093453819 -0.14019786584408736 -0.10169932062589203 0.062763875541343592
leaf_weight=21.809266120196298 1877.3213158715625 206.40629161408469 595.16049116111935 4522.6858809441328 32.511700019240379 40.43660081923008 140.84173066914082
leaf_count=123 6381 843 2062 30674 113 218 948
internal_value=0 0.0494238 -0.100365 0.0746568 -0.052571 0.076126 0.0260781
internal_weight=0 5559.85 801.567 4758.29 54.321 4703.96 181.278
internal_count=41362 34981 2905 32076 236 31840 1166
shrinkage=0.1


Tree=24
num_leaves=8
num_cat=0
split_feature=2 2 34 49 44 64 36
split_gain=2744.19 76.5369 26.1807 20.7313 19.0912 17.7763 13.4354
threshold=3.5000000000000004 14.500000000000002 7867.5000000000009 5.2002916032136257 3.7724593512039713e-05 1.6913445757695453e-05 1920.4690751341052
decision_type=8 8 2 10 10 8 8
left_child=-1 -2 -3 6 5 -5 -4
right_child=1 2 3 4 -6 -7 -8
leaf_value=-0.081836838140505491 0.14730362234118541 -0.043735074981923971 0.18305538643864863 0.038349652066863658 -0.025697589552745478 0.1806988700367583 0.0035459321750666373
leaf_weight=1680.9601883217692 768.38456219434738 20.259835121689434 4.7548960243495717 11.68293236662301 7.5913635445778658 35.216628161724657 33.861793723265571
leaf_count=37882 2508 202 49 121 63 240 297
internal_value=0 0.135987 0.0592849 0.0817016 0.121425 0.145239 0.025649
internal_weight=0 881.752 113.367 93.1076 54.4909 46.8996 38.6167
internal_count=41362 3480 972 770 424 361 346
shrinkage=0.1


Tree=25
num_leaves=8
num_cat=0
split_feature=8 15 1 35 35 12 12
split_gain=136.786 216.894 146.56 74.643 120.451 426.236 105.029
threshold=1969.5000000000002 1.0000000180025095e-35 17.500000000000004 13347500.000000002 13328500.000000002 -121.98337715575398 -122.00701416279249
decision_type=10 10 10 2 2 2 2
left_child=3 2 -2 4 -1 6 -6
right_child=1 -3 -4 -5 5 -7 -8
leaf_value=-0.00686892947844396 0.060771754553150585 0.0034151155107076427 0.25475478575512173 -0.061296432776723253 -0.032597724754060135 2.3428553664297405 0.5893415208593431
leaf_weight=681.94819627235267 93.407968787476506 389.20390975186882 66.803365608214875 288.74196986471657 9.6982925944030267 0.94104459881782432 3.7710656058043233
leaf_count=19122 1708 9486 569 10117 297 24 39
internal_value=0 0.0437269 0.141657 -0.0185484 -0.000823167 0.285282 0.141529
internal_weight=0 549.415 160.211 985.101 696.359 14.4104 13.4694
internal_count=41362 11763 2277 29599 19482 360 336
shrinkage=0.1


Tree=26
num_leaves=8
num_cat=0
split_feature=3 2 12 20 17 15 48
split_gain=4183.76 43.0303 42.8209 28.0954 22.4217 16.7362 33.2796
threshold=3.5000000000000004 3.5000000000000004 -119.31010564476598 1.0376150494947303 15.854869478982389 4.5000000000000009 78239.018880208721
decision_type=10 8 2 10 8 10 8
left_child=2 5 4 -4 -1 6 -2
right_child=1 -3 3 -5 -6 -7 -8
leaf_value=0.10214400927863912 0.11358159121304201 -0.021467262924245341 0.066391552998387532 -0.054868059638279676 -0.079321819487712497 0.12734573625334636 0.0012601109104529301
leaf_weight=6.8254758417606354 182.19254149496555 20.736885882918614 32.924357585609869 45.531196244060993 2807.1920455341578 1442.8309455066919 30.8444554656744
leaf_count=32 603 118 261 473 34975 4795 105
internal_value=0 0.12169 -0.0768501 -0.00398071 -0.0788817 0.123483 0.0973192
internal_weight=0 1676.6 2892.47 78.4556 2814.02 1655.87 213.037
internal_count=41362 5621 35741 734 35007 5503 708
shrinkage=0.1


Tree=27
num_leaves=8
num_cat=0
split_feature=12 54 2 48 39 43 39
split_gain=21.7951 9.0755 28.3791 57.2201 103.122 425.528 12.961
threshold=-121.32085214231898 5.4079479854744603 15.500000000000002 4352.4980242865358 873263.06367192755 0.014030402623471301 708839.12533864554
decision_type=2 8 8 10 10 10 10
left_child=1 2 -1 4 5 -4 -7
right_child=-2 -3 3 -5 -6 6 -8
leaf_value=-0.080080937149227815 0.0099774748709380769 -0.071400378521592076 -10.173167730275908 -0.21697529938216387 -0.081513144945368529 -0.080719543428936461 -1.5034659995207624
leaf_weight=10.938103033017452 30.44230483683473 43.341808098404819 0.059452934676344937 3.1563722876779821 0.36401140317320824 0.12981766468146816 0.12634948594495654
leaf_count=8781 6643 25803 20 58 16 37 4
internal_value=0 -0.0944724 -0.162157 -0.396192 -1.22851 -2.55138 -0.782462
internal_weight=0 58.1159 14.7741 3.836 0.679631 0.31562 0.256167
internal_count=41362 34719 8916 135 77 61 41
shrinkage=0.1


Tree=28
num_leaves=8
num_cat=0
split_feature=3 2 2 35 11 50 15
split_gain=3388.27 1696.32 110.529 73.7502 51.3284 44.9536 65.5262
threshold=3.5000000000000004 3.5000000000000004 3.5000000000000004 19650.000000000004 39.726141119490705 59422.551705383055 1.0000000180025095e-35
decision_type=8 8 10 2 2 10 10
left_child=1 3 -3 4 -1 -5 -7
right_child=-2 2 -4 5 -6 6 -8
leaf_value=0.075874360284141462 -0.11470825402285954 -0.028698413571363657 -0.11401035744495616 0.074732998742067222 -0.1266757403070865 -0.084028594562010533 0.058345121759587594
leaf_weight=20.66030177473931 1754.402762427937 209.13933584625306 554.52889966971611 4053.980482891202 31.718309000134468 43.219918012619019 128.25247023999691
leaf_count=123 6381 843 2062 30674 113 218 948
internal_value=0 0.0466415 -0.0906467 0.0711498 -0.0467816 0.0726117 0.0224596
internal_weight=0 5041.5 763.668 4277.83 52.3786 4225.45 171.472
internal_count=41362 34981 2905 32076 236 31840 1166
shrinkage=0.1


Tree=29
num_leaves=8
num_cat=0
split_feature=2 2 34 1 39 44 21
split_gain=2185.32 67.7312 20.3364 16.0743 15.2072 14.9153 12.6342
threshold=3.5000000000000004 14.500000000000002 7867.5000000000009 3.5000000000000004 850528.30162838066 3.1668987785229103e-05 0.0013861538726549201
decision_type=8 8 2 10 10 8 10
left_child=-1 6 -3 -4 5 -5 -2
right_child=1 2 3 4 -6 -7 -8
leaf_value=-0.08127011020419217 0.12992328057513966 -0.043726943037754346 -0.074978863851581604 0.1220241932941994 -0.025390055530609912 0.029436296004312131 0.030996509817126806
leaf_weight=1479.2538236249236 752.81813587248325 20.225041115658442 7.4766973274857227 55.876504481404979 12.477130545312191 25.266614676623163 13.135035440325735
leaf_count=37882 2450 202 77 375 131 187 58
internal_value=0 0.117231 0.0478089 0.0661212 0.0773897 0.0931939 0.128227
internal_weight=0 887.275 121.322 101.097 93.6202 81.1431 765.953
internal_count=41362 3480 972 770 693 562 2508
shrinkage=0.1


Tree=30
num_leaves=8
num_cat=0
split_feature=50 15 11 3 34 51 15
split_gain=113.455 235.961 99.5058 74.5804 73.9823 96.5499 137.15
threshold=52830.11304852576 25.500000000000004 39.726141119490705 18.500000000000004 31682.000000000004 3.9991525966516357 3.5000000000000004
decision_type=8 10 2 8 2 10 10
left_child=2 -2 3 4 -1 6 -6
right_child=1 -3 -4 -5 5 -7 -8
leaf_value=-0.039472455670304496 0.16590814127493458 -0.012226633704206173 0.11498067348400152 0.061280074368551145 -0.044320194913027647 0.00063077139641259309 0.39116898360426944
leaf_weight=754.84609582568169 124.68742403481599 184.23138212110814 61.810690611600876 113.75786909461021 13.164853284135402 205.92475907881976 16.046095932685663
leaf_count=27009 1426 4365 556 724 405 6402 475
internal_value=0 0.0596731 -0.00848899 -0.0154034 -0.0242151 0.0247651 0.194902
internal_weight=0 308.919 1165.55 1103.74 989.982 235.136 29.2109
internal_count=41362 5791 35571 35015 34291 7282 880
shrinkage=0.1


Tree=31
num_leaves=8
num_cat=0
split_feature=3 12 2 20 17 20 35
split_gain=3366.16 43.4081 36.3871 26.42 20.707 15.6394 13.9325
threshold=3.5000000000000004 -119.45346318146399 3.5000000000000004 1.0376150494947303 15.854869478982389 1.3293180122074053 7652.0000000000009
decision_type=10 2 8 10 8 10 2
left_child=1 4 5 -3 -1 6 -2
right_child=2 3 -4 -5 -6 -7 -8
leaf_value=0.093715552703073995 0.02816328451957997 0.064189806467366425 -0.021852092443492392 -0.051281893675393903 -0.077798502667800154 0.063402042507912704 0.11485317161356218
leaf_weight=7.0591301321983337 18.772632375359308 33.976278774441653 20.662334371362931 47.537687890231609 2480.4179298414761 64.255630075931549 1491.4373701512814
leaf_count=32 64 270 118 548 34891 220 5219
internal_value=0 -0.0749587 0.10999 -0.00315151 -0.0773118 0.11172 0.113776
internal_weight=0 2568.99 1595.13 81.514 2487.48 1574.47 1510.21
internal_count=41362 35741 5621 818 34923 5503 5283
shrinkage=0.1


Tree=32
num_leaves=8
num_cat=0
split_feature=35 34 61 2 39 44 15
split_gain=21.5179 20.2098 108.806 13.9616 13.2083 14.0124 10.2007
threshold=7510250.0000000009 31682.000000000004 0.90030425591749952 13.500000000000002 452562.91574749706 1.6323941786482855e-05 4.5000000000000009
decision_type=2 2 8 8 8 8 8
left_child=1 3 -3 -1 5 -5 -2
right_child=6 2 -4 4 -6 -7 -8
leaf_value=-0.071218633157164465 -0.27186917495844942 3.2756985662350768 -0.080920285994538765 0.47689148935784198 -0.084455221526936256 0.06746836402231067 -0.09328221608075532
leaf_weight=22.187579560675857 3.5091898276158426 0.11916144729767203 0.5094180483340246 0.88719117420259941 5.9427012293750172 14.466949485593069 36.11083224975858
leaf_count=16694 2839 30 157 26 176 441 20999
internal_value=0 -0.00756673 0.555403 -0.0157046 0.0421313 0.0911256 -0.1091
internal_weight=0 44.113 0.628579 43.4844 21.2968 15.3541 39.62
internal_count=41362 17524 187 17337 643 467 23838
shrinkage=0.1


Tree=33
num_leaves=8
num_cat=0
split_feature=3 2 2 35 11 50 15
split_gain=2716.31 1380.46 96.1425 66.8771 43.8976 43.2559 51.8975
threshold=3.5000000000000004 3.5000000000000004 3.5000000000000004 19650.000000000004 39.726141119490705 59422.551705383055 1.0000000180025095e-35
decision_type=8 8 10 2 2 10 10
left_child=1 3 -3 4 -1 -5 -7
right_child=-2 2 -4 5 -6 6 -8
leaf_value=0.07218521360746738 -0.10692362047952182 -0.026314221023535679 -0.1065599244558485 0.071486945004012356 -0.12023057325489957 -0.072750965471279752 0.053747970871775921
leaf_weight=19.161973610519453 1614.8022714480858 211.15180710931179 509.73341944820334 3639.1141531690955 31.099604725837708 44.89363007247448 116.83699840307236
leaf_count=123 6381 843 2062 30674 113 218 948
internal_value=0 0.0439488 -0.0830555 0.0677226 -0.046873 0.069238 0.0186341
internal_weight=0 4571.99 720.885 3851.11 50.2616 3800.84 161.731
internal_count=41362 34981 2905 32076 236 31840 1166
shrinkage=0.1


Tree=34
num_leaves=8
num_cat=0
split_feature=2 2 35 3 49 63 44
split_gain=1763.7 62.5305 16.5694 15.8742 15.911 14.3628 11.5037
threshold=3.5000000000000004 14.500000000000002 7546400.0000000009 1.5000000000000002 5.2002916032136257 0.011828202553001052 3.7724593512039713e-05
decision_type=8 8 2 8 8 8 10
left_child=-1 -2 3 4 -3 -6 -7
right_child=1 2 -4 -5 5 6 -8
leaf_value=-0.080724283271751227 0.11418890869974917 0.016751103845714523 -0.057128499159077972 -0.039071426617986509 -0.069427609608967947 0.1313721545196832 -0.012664385035614881
leaf_weight=1300.1882625417782 744.12952665984642 37.534568150945056 15.850344758919375 16.328842908146044 4.6017462890665248 47.676764260979901 6.2746431683190158
leaf_count=37882 2508 305 165 128 48 276 50
internal_value=0 0.103074 0.038589 0.0520849 0.0675757 0.100156 0.11462
internal_weight=0 872.396 128.267 112.417 96.0877 58.5532 53.9514
internal_count=41362 3480 972 807 679 374 326
shrinkage=0.1


Tree=35
num_leaves=8
num_cat=0
split_feature=8 12 15 1 34 11 50
split_gain=104.004 146.059 74.1097 71.1999 67.7587 68.3324 47.5867
threshold=1969.5000000000002 -121.82678728467597 1.0000000180025095e-35 17.500000000000004 31682.000000000004 39.726141119490705 1885.1383598177501
decision_type=10 2 10 8 2 2 8
left_child=4 2 3 -2 5 -1 -6
right_child=1 -3 -4 -5 6 -7 -8
leaf_value=-0.039468548043093819 0.072399889396662406 -0.020265867307040369 0.044525843818407178 0.21837735695616095 0.23919742992742715 0.11738009657336848 0.019661158666775303
leaf_weight=575.89538768835337 69.147075179964304 216.09574889873528 178.74982073271531 64.653468022128834 10.252209436579827 29.183212934061885 267.32542341306475
leaf_count=21642 1042 5988 4350 383 204 306 7447
internal_value=0 0.0429488 0.0866551 0.142937 -0.0131376 -0.0319037 0.0277696
internal_weight=0 528.646 312.55 133.801 882.656 605.079 277.578
internal_count=41362 11763 5775 1425 29599 21948 7651
shrinkage=0.1


Tree=36
num_leaves=8
num_cat=0
split_feature=3 12 2 54 17 15 48
split_gain=2729.55 43.731 31.7897 23.2844 19.2632 16.5945 28.9478
threshold=3.5000000000000004 -119.45346318146399 3.5000000000000004 5.9320839911910666 15.854869478982389 4.5000000000000009 57885.630776753802
decision_type=10 2 8 8 8 10 8
left_child=1 4 5 -3 -1 6 -2
right_child=2 3 -4 -5 -6 -7 -8
leaf_value=0.087162328346465826 0.094503515754923662 0.074460778402571814 -0.022489775650318837 -0.03976634420950835 -0.076179930859597789 0.10671840646921732 -0.0023489843749638193
leaf_weight=7.2437185347080231 156.32502236962318 27.535150676965714 20.609103862201209 50.710806462913752 2197.5087940892777 1277.8412058204412 38.450309410691261
leaf_count=32 571 209 118 609 34891 4795 137
internal_value=0 -0.073036 0.100848 0.000430762 -0.0756433 0.102574 0.075384
internal_weight=0 2283 1493.23 78.246 2204.75 1472.62 194.775
internal_count=41362 35741 5621 818 34923 5503 708
shrinkage=0.1


Tree=37
num_leaves=8
num_cat=0
split_feature=35 2 15 35 45 51 20
split_gain=20.2647 14.2166 13.8997 76.9214 26.5117 36.9667 20.197
threshold=7510250.0000000009 13.500000000000002 4.5000000000000009 7510450.0000000009 0.91762143747259006 4.1099093142215759 1.3600378815333602
decision_type=2 8 8 2 8 8 10
left_child=1 -1 3 -2 5 -5 -6
right_child=2 -3 -4 4 6 -7 -8
leaf_value=-0.070548187417885905 -2.0565946863434568 0.042735412462107068 -0.093043523401475925 -0.080063778735650293 -0.080184538018520934 -6.5768022367369374 -2.150509015813443
leaf_weight=20.560909350111775 0.2354289776096733 24.019323844638105 32.75811095685242 0.020428756834008133 2.3265646793297496 0.015331132221035659 0.048094558296725043
leaf_count=16859 39 665 20999 23 2700 18 59
internal_value=0 -0.00951227 -0.110851 -0.331323 -0.162813 -2.86537 -0.122115
internal_weight=0 44.5802 35.404 2.64585 2.41042 0.0357599 2.37466
internal_count=41362 17524 23838 2839 2800 41 2759
shrinkage=0.1


Tree=38
num_leaves=8
num_cat=0
split_feature=3 2 2 35 20 0 11
split_gain=2192.34 1121.68 87.7334 56.7344 42.4705 41.3237 35.2723
threshold=3.5000000000000004 3.5000000000000004 inf 19650.000000000004 1.3293180122074053 7101.0000000000009 39.726141119490705
decision_type=8 8 8 2 10 8 2
left_child=1 3 -3 6 -5 -6 -1
right_child=-2 2 -4 4 5 -7 -8
leaf_value=0.067807653629410075 -0.10079139050722337 -0.10075667440332639 -0.023256829170750143 0.067517030742553386 0.060110650678519 -0.088887946410204893 -0.11063426454659396
leaf_weight=17.634843803942204 1470.1759240701895 464.08411620562532 213.16431475172573 3344.1341856867075 40.351617649197578 34.552503123879433 29.790624141693115
leaf_count=123 6381 2062 843 31418 282 140 113
internal_value=0 0.0413453 -0.0763636 0.0643423 0.065849 -0.00862087 -0.0442818
internal_weight=0 4143.71 677.248 3466.46 3419.04 74.9041 47.4255
internal_count=41362 34981 2905 32076 31840 422 236
shrinkage=0.1


Tree=39
num_leaves=8
num_cat=0
split_feature=2 2 35 3 35 21 39
split_gain=1441.54 58.0473 13.71 12.7411 13.626 11.7043 11.3089
threshold=3.5000000000000004 14.500000000000002 7546400.0000000009 1.5000000000000002 77200.000000000015 0.0013861538726549201 850528.30162838066
decision_type=8 8 2 8 2 10 10
left_child=-1 5 3 4 -3 -2 -6
right_child=1 2 -4 -5 6 -7 -8
leaf_value=-0.080190023506182817 0.10522847399862581 -0.076763946164630323 -0.056500859266094577 -0.038961362961707297 0.078514016966481678 0.012328537458008836 -0.032286960022303461
leaf_weight=1142.1259049102664 697.90428909659374 7.148125037550968 15.598065586398944 16.256939930843487 84.376244308809063 13.830459892749785 10.340459736071834
leaf_count=37882 2450 58 165 128 522 58 99
internal_value=0 0.0920657 0.0316142 0.0432498 0.0563702 0.103423 0.0664176
internal_weight=0 845.455 133.72 118.122 101.865 711.735 94.7167
internal_count=41362 3480 972 807 679 2508 621
shrinkage=0.1


Tree=40
num_leaves=8
num_cat=0
split_feature=8 12 35 35 12 3 40
split_gain=86.0978 93.2577 66.3711 108.568 155.071 109.771 80.3908
threshold=1978.5000000000002 -121.85202902339998 13347500.000000002 13328500.000000002 -122.00701416279249 2.5000000000000004 1100.198638333595
decision_type=10 2 2 2 2 8 10
left_child=2 -2 3 6 -5 -6 -1
right_child=1 -3 -4 4 5 -7 -8
leaf_value=-0.025976500565364709 0.098269107654112689 -0.0081195666561500179 -0.046623366476016004 -0.0098460175759802725 0.85567626663955609 0.15904642060161722 0.041112197587024203
leaf_weight=393.07234465491132 196.42627899628133 141.92690164653277 274.32822567444305 11.280879048630597 5.0585453659296009 4.0914658904075631 327.36397113267554
leaf_count=13480 2970 3746 11832 395 60 19 8860
internal_value=0 0.0536429 -0.004604 0.0109549 0.238273 0.544175 0.00450839
internal_weight=0 338.353 1015.2 740.867 20.4309 9.15001 720.436
internal_count=41362 6716 34646 22814 474 79 22340
shrinkage=0.1


Tree=41
num_leaves=8
num_cat=0
split_feature=3 12 2 20 27 20 24
split_gain=2228.6 43.6883 28.1569 22.1266 18.3313 18.1855 14.1059
threshold=3.5000000000000004 -119.45346318146399 3.5000000000000004 1.0376150494947303 1.3044764712706651 1.3293180122074053 4.685643040401426
decision_type=10 2 8 10 10 10 10
left_child=1 4 5 -3 -1 6 -2
right_child=2 3 -4 -5 -6 -7 -8
leaf_value=-0.074528659430218178 0.098450584426881468 0.063357517078533002 -0.022914020536278178 -0.045431148320513717 0.092141673918829228 0.042896152409413441 -0.055575440476777371
leaf_weight=1950.9598048805033 1293.6775071173906 34.002066388726689 20.489177986984942 41.532528828829527 6.6213684380054465 63.403446927666664 5.9732939898967734
leaf_count=34890 5262 270 118 548 33 220 21
internal_value=0 -0.0710854 0.0934424 0.00354031 -0.0739649 0.0951914 0.0977427
internal_weight=0 2033.12 1383.54 75.5346 1957.58 1363.05 1299.65
internal_count=41362 35741 5621 818 34923 5503 5283
shrinkage=0.1


Tree=42
num_leaves=8
num_cat=0
split_feature=12 44 54 45 45 60 51
split_gain=16.9691 8.15505 7.55994 30.507 114.544 7.44986 12.5519
threshold=-121.32085214231898 9.3211946774088059e-06 1.2318032790115703 1.1607808226925702 1.1622672927278803 878.43588435374147 19.879050330196353
decision_type=2 8 8 10 10 10 8
left_child=2 -2 3 -1 -5 -3 -7
right_child=1 5 -4 4 -6 6 -8
leaf_value=-0.14045041847274717 -0.73379138072231798 -0.033534649851547409 -0.082518493114950298 -7.8597229129614483 -0.080054686464804681 0.12646280620543257 -0.081855521806983203
leaf_weight=0.58839497669419127 0.14731706539169565 16.480441517824296 45.679581750615625 0.025217498710844666 0.075853673506621533 9.9124910922949105 4.084051169164014
leaf_count=291 32 3067 34326 4 98 2083 1461
internal_value=0 0.0084408 -0.0874792 -0.416141 -2.0211 0.0120285 0.0656776
internal_weight=0 30.6243 46.369 0.689466 0.101071 30.477 13.9965
internal_count=41362 6643 34719 393 102 6611 3544
shrinkage=0.1


Tree=43
num_leaves=8
num_cat=0
split_feature=3 2 2 35 4 15 40
split_gain=1783.6 915.352 78.8814 48.6338 42.1978 52.0819 29.4202
threshold=3.5000000000000004 3.5000000000000004 inf 19650.000000000004 3597347.5000000005 12.500000000000002 1131.6421445141202
decision_type=8 8 8 2 10 10 10
left_child=1 3 -3 6 -5 -6 -1
right_child=-2 2 -4 4 5 -7 -8
leaf_value=0.025064336176109699 -0.095960054288633662 -0.096018463742879701 -0.021568803508558151 0.064862407165421757 -0.091746010084303456 0.049457465981482429 -0.13985385045714216
leaf_weight=26.390508204697653 1329.9129812158744 419.00791120534041 215.51245644662185 2961.3824572265148 38.346425801515579 81.935291364789009 18.330358572304249
leaf_count=164 6381 2062 843 30832 194 814 72
internal_value=0 0.0387762 -0.0707319 0.0610016 0.0625041 0.00444108 -0.042533
internal_weight=0 3760.91 634.52 3126.39 3081.66 120.282 44.7209
internal_count=41362 34981 2905 32076 31840 1008 236
shrinkage=0.1


Tree=44
num_leaves=8
num_cat=0
split_feature=2 2 35 4 15 35 1
split_gain=1187.06 55.5498 11.4243 11.3329 41.5057 12.6648 10.7371
threshold=3.5000000000000004 14.500000000000002 7546400.0000000009 4116762.0000000005 28.500000000000004 7512050.0000000009 3.5000000000000004
decision_type=8 8 2 10 10 2 10
left_child=-1 3 6 -2 5 -5 -3
right_child=1 2 -4 4 -6 -7 -8
leaf_value=-0.079665675227812802 0.10316825050746987 -0.076244506253974872 -0.055865624239631886 -0.073499164552403268 0.10108464069682072 0.033040252400256528 0.04333429792457015
leaf_weight=1003.7899354379628 478.56499917805195 8.0308726299553665 15.366354275424241 17.658912256360054 145.47308619320393 30.307698354125023 115.53956302137955
leaf_count=37882 1790 79 165 64 541 113 728
internal_value=0 0.0830113 0.0254509 0.0949119 0.074486 -0.00618224 0.0355628
internal_weight=0 810.941 138.937 672.005 193.44 47.9666 123.57
internal_count=41362 3480 972 2508 718 177 807
shrinkage=0.1


Tree=45
num_leaves=8
num_cat=0
split_feature=50 15 24 45 11 4 15
split_gain=72.6192 137.187 53.619 57.2446 46.8692 50.9599 48.8377
threshold=52830.11304852576 67.500000000000014 4.685643040401426 1.0087920188381752 37.911035889218503 160159.00000000003 36.500000000000007
decision_type=8 10 10 8 2 8 8
left_child=2 -2 3 4 5 6 -1
right_child=1 -3 -4 -5 -6 -7 -8
leaf_value=0.40822318769513688 0.11363334418092218 -0.022555726930474543 0.16135134815652583 -0.017069163308352002 0.11987499765432053 -0.0030077402036211903 -0.0052839508063772305
leaf_weight=6.1430609486996675 171.12996844948688 130.27044867386942 19.891044910997152 773.65039213121713 56.251172443851829 143.01760901302475 5.3381891325116166
leaf_count=130 2401 3390 96 29328 869 4979 169
internal_value=0 0.0547701 -0.00119849 -0.00448302 0.04172 0.0132647 0.215964
internal_weight=0 301.4 1004.29 984.4 210.75 154.499 11.4813
internal_count=41362 5791 35571 35475 6147 5278 299
shrinkage=0.1


Tree=46
num_leaves=8
num_cat=0
split_feature=3 12 2 20 20 27 35
split_gain=1826.94 43.4046 24.8737 19.2449 18.3639 17.0259 13.6588
threshold=3.5000000000000004 -119.45346318146399 3.5000000000000004 1.0376150494947303 1.3293180122074053 1.3044764712706651 7652.0000000000009
decision_type=10 2 8 10 10 10 2
left_child=1 5 4 -3 6 -1 -2
right_child=2 3 -4 -5 -6 -7 -8
leaf_value=-0.072867490836648535 0.0081814135146966588 0.060717725385748648 -0.022726297279514241 -0.042045314110369998 0.036206851155479711 0.085616503839705649 0.093127890258714693
leaf_weight=1735.1412453991754 19.239883691072464 34.471053324639342 20.257873468106709 38.665310904383659 62.651515915989876 6.8051660209894171 1170.3620306700468
leaf_count=34890 64 270 118 548 220 33 5219
internal_value=0 -0.0690797 0.0871967 0.00638955 0.0889749 -0.0722484 0.091754
internal_weight=0 1815.08 1272.51 73.1364 1252.25 1741.95 1189.6
internal_count=41362 35741 5621 818 5503 34923 5283
shrinkage=0.1


Tree=47
num_leaves=8
num_cat=0
split_feature=35 2 48 59 37 10 15
split_gain=14.3902 10.4323 9.33511 10.112 14.0571 10.614 7.60503
threshold=7510250.0000000009 13.500000000000002 5174.070982538271 193104.09166666653 4741.5841054882412 10.500000000000002 12.500000000000002
decision_type=2 8 10 10 8 8 10
left_child=1 -1 -3 -4 5 -5 -2
right_child=6 2 3 4 -6 -7 -8
leaf_value=-0.068144599000152045 -0.12799830832622255 -0.045199983987326851 -0.079514201812007496 0.38547482923940413 0.047418123535660141 0.050289697500867515 -0.020910954723647932
leaf_weight=16.529934917052866 21.895948818097082 9.4682177015152451 3.1997031874489066 2.7408539442112652 8.8368027632042772 1.4416470997966824 9.5128986782352616
leaf_count=16859 17767 316 84 51 184 30 6071
internal_value=0 -0.00617654 0.0337004 0.0797603 0.118905 0.269941 -0.0955644
internal_weight=0 42.2172 25.6872 16.219 13.0193 4.1825 31.4088
internal_count=41362 17524 665 349 265 81 23838
shrinkage=0.1


Tree=48
num_leaves=8
num_cat=0
split_feature=3 2 2 35 4 15 1
split_gain=1456.12 749.94 70.0643 42.927 40.1051 45.9062 32.869
threshold=3.5000000000000004 3.5000000000000004 3.5000000000000004 19650.000000000004 2818676.5000000005 12.500000000000002 3.5000000000000004
decision_type=8 8 10 2 10 10 10
left_child=1 3 6 -1 -5 -6 -3
right_child=-2 2 -4 4 5 -7 -8
leaf_value=-0.041262146276958019 -0.091908445946167996 -0.13486604361608923 -0.092093301094640756 0.062098488311678163 -0.066902574052795358 0.048189245647271325 -0.007463068014322065
leaf_weight=43.211586222053029 1196.7349116876817 22.605769634246798 376.35128520433921 2632.4582095220685 51.902988329529762 104.29615668952465 194.32893381117574
leaf_count=236 6381 93 2062 30383 308 1149 750
internal_value=0 0.0362272 -0.0660027 0.0576447 0.0591773 0.0099457 -0.0207391
internal_weight=0 3425.15 593.286 2831.87 2788.66 156.199 216.935
internal_count=41362 34981 2905 32076 31840 1457 843
shrinkage=0.1


Tree=49
num_leaves=8
num_cat=0
split_feature=2 2 15 51 11 10 38
split_gain=983.038 53.2601 10.6164 41.0779 12.3455 10.317 11.7773
threshold=3.5000000000000004 14.500000000000002 12.500000000000002 67.271760883393867 37.746477926509854 5.5000000000000009 5.905411877394636
decision_type=8 8 10 8 2 10 8
left_child=-1 2 3 4 -2 6 -3
right_child=1 5 -4 -5 -6 -7 -8
leaf_value=-0.079141254348608095 -0.018377779356190792 0.040154329018696783 0.099883570982199965 -0.010123107370965154 0.095441936375254208 0.048135765861544472 -0.040245601115336614
leaf_weight=882.98695584945381 9.9403192698955518 32.072710758305981 339.50817930698395 48.524482309818268 230.60850962996483 69.274004380043436 42.180947205639178
leaf_count=37882 40 208 1365 181 922 393 371
internal_value=0 0.0753416 0.0878917 0.0738077 0.0907385 0.0203781 -0.0055181
internal_weight=0 772.109 628.581 289.073 240.549 143.528 74.2537
internal_count=41362 3480 2508 1143 962 972 579
shrinkage=0.1


Tree=50
num_leaves=8
num_cat=0
split_feature=8 12 34 54 48 15 11
split_gain=65.6072 87.4999 60.082 44.8992 46.7798 67.4631 44.5056
threshold=1969.5000000000002 -121.82678728467597 31682.000000000004 7.9729036902953059 3853.9918353423905 4.5000000000000009 39.726141119490705
decision_type=10 2 2 10 10 8 2
left_child=2 -2 6 4 -4 -6 -1
right_child=1 -3 3 -5 5 -7 -8
leaf_value=-0.032292672182176997 0.074278592695673093 -0.012230172479822329 -0.018644443732545351 -0.0091553845847761016 0.33032267938446069 0.079663977660159396 0.096738570540489108
leaf_weight=477.26786508562503 309.68034982682332 187.83766655514216 38.312870223076828 123.1477189608888 12.343635062924632 82.517791185667036 28.317692561075091
leaf_count=21642 5775 5988 1322 3458 389 2482 306
internal_value=0 0.0416173 -0.00507089 0.0343681 0.0746147 0.11228 -0.0250657
internal_weight=0 497.518 761.908 256.322 133.174 94.8614 505.586
internal_count=41362 11763 29599 7651 4193 2871 21948
shrinkage=0.1


Tree=51
num_leaves=8
num_cat=0
split_feature=3 12 2 15 0 20 2
split_gain=1501.86 42.5317 22.1093 19.5069 27.3496 24.9016 17.9716
threshold=3.5000000000000004 -119.45346318146399 3.5000000000000004 4.5000000000000009 40004.000000000007 1.1843847698990702 1.5000000000000002
decision_type=10 2 8 10 10 8 10
left_child=1 6 3 4 -2 -6 -1
right_child=2 -3 -4 -5 5 -7 -8
leaf_value=-0.048477857290473464 0.07704392787821393 0.0085720029487559961 -0.02239210214879956 0.088881523758795072 0.082100775253201752 -0.072378256644750422 -0.075737187209632281
leaf_weight=299.64197295323265 114.69640477001667 71.17660783976271 20.014777928596459 984.35993018746376 16.57731719315052 28.161875948309898 1254.1033175401506
leaf_count=6352 527 818 118 4795 72 109 28571
internal_value=0 -0.0670175 0.0818025 0.0836258 0.0511766 -0.0151388 -0.0704802
internal_weight=0 1624.92 1163.81 1143.8 159.436 44.7392 1553.75
internal_count=41362 35741 5621 5503 708 181 34923
shrinkage=0.1


Tree=52
num_leaves=8
num_cat=0
split_feature=40 29 2 15 12 60 59
split_gain=13.6433 10.6404 10.9644 12.8182 11.3729 9.41972 9.32581
threshold=1119.2039013932651 3.4559141855622206 14.500000000000002 6.5000000000000009 -122.41025553696548 878.43588435374147 1539082.6250000002
decision_type=8 8 8 10 2 10 10
left_child=1 -1 -3 6 -5 -6 -4
right_child=-2 2 3 4 5 -7 -8
leaf_value=1.1165587430697215 -0.10997019121708365 -0.074862961677852086 -0.027658856974984089 0.367381611737083 -0.014681977364135214 0.14182217755585302 -0.35587554400411436
leaf_weight=0.0831880223602397 20.781949926417859 19.054044492582388 12.780791561288147 1.2763674437505432 8.4163882640714256 7.0817278074039978 0.92859267818932956
leaf_count=7 15378 25219 357 29 213 147 12
internal_value=0 -0.0134586 -0.0153563 0.0218386 0.0804609 0.0568312 -0.0498903
internal_weight=0 49.6211 49.5379 30.4839 16.7745 15.4981 13.7094
internal_count=41362 25984 25977 758 389 360 369
shrinkage=0.1


Tree=53
num_leaves=8
num_cat=0
split_feature=3 2 2 35 35 12 20
split_gain=1192.31 610.743 63.8649 36.9688 48.6889 127.779 43.3679
threshold=3.5000000000000004 3.5000000000000004 3.5000000000000004 13347500.000000002 13328500.000000002 -122.00701416279249 1.3293180122074053
decision_type=8 8 10 2 2 2 10
left_child=1 3 -3 4 -1 -6 -5
right_child=-2 2 -4 6 5 -7 -8
leaf_value=0.048290462322622379 -0.088416111918483378 -0.019270291600669981 -0.088736349986842558 0.074353112512077602 0.052125086634152509 -0.32562299026728897 -0.062673083000959168
leaf_weight=1636.7809389680624 1072.9745604619475 218.11466210503386 336.57581073795245 869.18516588956118 30.307329371571541 12.71018675714731 23.727839462459087
leaf_count=19927 6381 843 2062 11560 369 80 140
internal_value=0 0.0337506 -0.061421 0.0542702 0.0455304 -0.0594864 0.0707118
internal_weight=0 3127.4 554.69 2572.71 1679.8 43.0175 892.913
internal_count=41362 34981 2905 32076 20376 449 11700
shrinkage=0.1


Tree=54
num_leaves=8
num_cat=0
split_feature=2 2 21 49 0 44 15
split_gain=818.179 50.2018 10.3417 9.92525 10.7239 13.3782 8.80872
threshold=3.5000000000000004 14.500000000000002 0.0013861538726549201 5.2002916032136257 4985.5000000000009 3.5353624668769556e-05 12.500000000000002
decision_type=8 8 10 10 8 8 10
left_child=-1 2 6 -3 -5 -6 -2
right_child=1 3 -4 4 5 -7 -8
leaf_value=-0.078608354861005175 0.070634764541467984 -0.015606329719005919 -0.0037465780428403254 0.14160697491371532 0.043311021091758301 -0.070205544532715505 0.095565973953801814
leaf_weight=777.5895719546827 264.45279915630817 58.050387143140739 13.757548466324804 8.9103406369686091 67.954333217823162 12.254097778817949 305.35679593682289
leaf_count=37882 1114 432 58 47 400 93 1336
internal_value=0 0.0687641 0.0819267 0.0165706 0.0375301 0.0259682 0.0839952
internal_weight=0 730.736 583.567 147.169 89.1188 80.2084 569.81
internal_count=41362 3480 2508 972 540 493 2450
shrinkage=0.1


Tree=55
num_leaves=8
num_cat=0
split_feature=4 15 49 45 35 35 44
split_gain=59.546 138.069 36.9497 48.0906 41.212 49.2832 45.6615
threshold=1733852.0000000002 12.500000000000002 48.118754318916807 1.1540388858782251 13347500.000000002 13328500.000000002 1.5181662968994103e-05
decision_type=10 10 8 8 2 2 8
left_child=2 -2 3 4 5 -1 -7
right_child=1 -3 -4 -5 -6 6 -8
leaf_value=0.032811696414397906 0.12476651776226105 -0.0020736396848408199 0.081027685379412323 -0.024445485762331205 -0.049180274529560523 0.39204068088680388 -0.0027109900605233554
leaf_weight=250.46241421721936 144.18201249746366 212.00874820329162 53.692111446522176 487.9851458367059 60.421246415935457 7.4981009494513247 4.8099448233842859
leaf_count=7493 1512 6538 742 21454 3398 63 162
internal_value=0 0.0492698 0.0006875 -0.00463025 0.0252887 0.042412 0.237773
internal_weight=0 356.191 864.869 811.177 323.192 262.77 12.308
internal_count=41362 8050 33312 32570 11116 7718 225
shrinkage=0.1


Tree=56
num_leaves=8
num_cat=0
split_feature=3 12 20 2 11 48 11
split_gain=1236.56 41.4569 19.8633 18.823 29.0206 28.5685 27.5996
threshold=3.5000000000000004 -119.45346318146399 1.3293180122074053 1.5000000000000002 38.519956676538207 1962.3439613318103 38.639575809171156
decision_type=10 2 10 10 2 8 2
left_child=1 3 -2 4 -1 6 -6
right_child=2 -3 -4 -5 5 -7 -8
leaf_value=-0.056503495784301264 0.080394903177119517 0.010268829792957039 0.02221249122112498 -0.074423445942126465 0.76102493688684303 0.021657739154342229 0.020450346242345225
leaf_weight=246.87528172784414 999.49332595430951 69.957066573201928 62.336432226002216 1113.6683862544708 1.0656359493732481 27.645363047719002 0.95350442454218853
leaf_count=5754 5388 818 233 28571 25 554 19
internal_value=0 -0.0648452 0.0769792 -0.0686251 -0.0452742 0.0481792 0.411301
internal_weight=0 1460.17 1061.83 1390.21 276.54 29.6645 2.01914
internal_count=41362 35741 5621 34923 6352 598 44
shrinkage=0.1


Tree=57
num_leaves=8
num_cat=0
split_feature=35 2 49 47 15 8 49
split_gain=13.1816 7.38279 7.96218 6.91541 6.70046 9.28035 50.1516
threshold=7510250.0000000009 13.500000000000002 3.7719584581820551 74.500000000000014 12.500000000000002 1924.5000000000002 62.235502318555554
decision_type=2 8 10 10 10 8 10
left_child=1 -1 -3 -4 -2 6 -6
right_child=4 2 3 -5 5 -7 -8
leaf_value=-0.06510566178495332 -0.12674718252427403 -0.11629106929412887 -0.028258870549615969 0.085902445139257322 0.063631196096701648 -0.052397845897662179 2.948114817680124
leaf_weight=13.07476563195824 18.784259197454233 3.4159709109515672 8.0444551527740504 15.588223952242371 0.69301605940563138 7.5082166713308132 0.0660186986788176
leaf_count=16859 17767 159 167 339 701 5350 20
internal_value=0 -0.00340821 0.0264151 0.0470425 -0.09373 -0.0187107 0.314515
internal_weight=0 40.1234 27.0487 23.6327 27.0515 8.26725 0.759035
internal_count=41362 17524 665 506 23838 6071 721
shrinkage=0.1


Tree=58
num_leaves=8
num_cat=0
split_feature=3 2 2 35 35 12 24
split_gain=978.947 494.931 58.7659 37.3928 43.5114 91.0119 42.3593
threshold=3.5000000000000004 3.5000000000000004 3.5000000000000004 13347500.000000002 13328500.000000002 -122.00701416279249 3.2054659103550205
decision_type=8 8 10 2 2 2 10
left_child=1 3 -3 4 -1 -6 -5
right_child=-2 2 -4 6 5 -7 -8
leaf_value=0.044560922190541252 -0.085353701912651028 -0.017684023678650396 -0.085797209612077041 0.070631256048776236 0.048488419231605094 -0.25891831710599406 -0.1682964370222203
leaf_weight=1509.5370326116677 960.77944492922143 219.04462635726054 300.35046678785761 790.37504764646292 27.805121809244156 14.734752058982847 7.490520015358924
leaf_count=19927 6381 843 2062 11653 369 80 47
internal_value=0 0.031269 -0.0570718 0.0507945 0.0417502 -0.0579896 0.0683882
internal_weight=0 2869.34 519.395 2349.94 1552.08 42.5399 797.866
internal_count=41362 34981 2905 32076 20376 449 11700
shrinkage=0.1


Tree=59
num_leaves=8
num_cat=0
split_feature=2 2 4 15 62 35 34
split_gain=681.544 46.8613 10.7375 32.8019 10.0664 11.2276 9.46058
threshold=3.5000000000000004 14.500000000000002 4526639.5000000009 35.500000000000007 0.00089433439017887575 7512301.5000000009 7867.5000000000009
decision_type=8 8 10 10 8 2 2
left_child=-1 2 -2 4 -4 -6 -3
right_child=1 6 3 -5 5 -7 -8
leaf_value=-0.07806088824293092 0.085022008727057619 -0.048057514690172769 -0.10719371948321095 0.084166249951601921 -0.054988354329387527 0.05914207577098908 0.023487850277664951
leaf_weight=685.93019827268995 392.1942151337862 21.583660453561947 9.9014187306165677 104.42385092377663 15.843698948621748 18.90384067595005 128.62356564696677
leaf_count=37882 1844 202 38 488 62 76 770
internal_value=0 0.0626247 0.0763385 0.0534932 -0.018244 0.00710247 0.0132073
internal_weight=0 691.474 541.267 149.073 44.649 34.7475 150.207
internal_count=41362 3480 2508 664 176 138 972
shrinkage=0.1


Tree=60
num_leaves=8
num_cat=0
split_feature=12 8 35 12 2 36 51
split_gain=51.8451 76.4106 64.5493 46.1639 40.1343 37.9969 29.0649
threshold=-121.82678728467597 1969.5000000000002 13347500.000000002 -122.00701416279249 1.0000000180025095e-35 1973.1576704545453 2.1485451409706804
decision_type=2 10 2 2 10 10 8
left_child=1 2 3 6 -4 -3 -1
right_child=-2 5 4 -5 -6 -7 -8
leaf_value=0.12482126589565799 -0.020291881785956773 0.082095795236917526 0.33605391405842688 0.12802030717928209 -0.053971706317228668 -0.024395097233068746 0.0095827782603123864
leaf_weight=23.298640986425745 292.50136930331394 267.34817736877346 2.6837017780635497 41.14228968787944 156.05424571223557 38.30699392221868 361.064368361665
leaf_count=557 11207 4998 39 507 9918 777 13359
internal_value=0 0.0282372 0.00704256 0.0273445 -0.0473777 0.0687496 0.0165681
internal_weight=0 889.898 584.243 425.505 158.738 305.655 384.363
internal_count=41362 30155 24380 14423 9957 5775 13916
shrinkage=0.1


Tree=61
num_leaves=8
num_cat=0
split_feature=3 12 2 15 0 11 2
split_gain=1017.28 40.1314 21.0649 20.5602 24.0386 21.1028 19.4456
threshold=3.5000000000000004 -119.45346318146399 3.5000000000000004 4.5000000000000009 40004.000000000007 37.318632771937857 1.5000000000000002
decision_type=10 2 8 10 10 2 10
left_child=1 6 3 4 -2 -6 -1
right_child=2 -3 -4 -5 5 -7 -8
leaf_value=-0.04219006331804611 0.066102150485261787 0.011640564513427168 -0.027926915376333374 0.080563732923123743 0.076878015099398955 -0.07503155164219609 -0.073065946511387911
leaf_weight=256.81823657221639 96.837036594748611 68.980592727660678 20.515519641346941 811.5388393253088 13.641705423593519 27.740562692284584 991.37096836791534
leaf_count=6352 527 818 118 4795 65 116 28571
internal_value=0 -0.0626097 0.0723261 0.0744917 0.0388402 -0.0249544 -0.0667132
internal_weight=0 1317.17 970.274 949.758 138.219 41.3823 1248.19
internal_count=41362 35741 5621 5503 708 181 34923
shrinkage=0.1


Tree=62
num_leaves=8
num_cat=0
split_feature=40 56 15 54 2 49 2
split_gain=12.211 7.8528 22.0531 233.214 495.169 7.51211 8.49922
threshold=1119.2039013932651 1919.458041958045 5.5000000000000009 6.1886057160364416 1.0000000180025095e-35 3.7719584581820551 32.000000000000007
decision_type=8 8 8 10 10 10 8
left_child=5 2 3 -2 -5 -1 -7
right_child=1 -3 -4 4 -6 6 -8
leaf_value=-0.10072500776428626 -0.080240121612962401 -0.078718301581969408 -0.16455408345126685 -25.340162250186623 -0.080026900050209737 -0.057179193986615431 0.039754500547272933
leaf_weight=7.8752261696913939 0.27164353876242353 14.858277924157351 2.6713496377925323 0.011876614535211161 0.022391017213521991 13.847398248543774 26.084296938926165
leaf_count=6480 482 12613 2220 6 57 18928 576
internal_value=0 -0.108421 -0.256654 -1.06091 -8.83479 -0.0114638 0.00614011
internal_weight=0 17.8355 2.97726 0.305911 0.0342676 47.8069 39.9317
internal_count=41362 15378 2765 545 63 25984 19504
shrinkage=0.1


Tree=63
num_leaves=8
num_cat=0
split_feature=3 2 2 4 35 42 15
split_gain=802.72 398.75 54.3558 37.3456 36.9706 31.5839 30.2497
threshold=3.5000000000000004 3.5000000000000004 3.5000000000000004 2818676.5000000005 19650.000000000004 0.00097911766554732564 12.500000000000002
decision_type=8 8 10 10 2 10 10
left_child=1 3 -3 4 -1 -6 -5
right_child=-2 2 -4 6 5 -7 -8
leaf_value=-0.045878620220999124 -0.082510572709281943 -0.016059429697074457 -0.083134166860442393 -0.065079175459706082 0.04087530321772738 0.066207044275512633 0.033299641104846428
leaf_weight=38.917141981422901 859.13074391336113 220.22525466278603 267.65300119672338 50.459433890879154 1068.7814453132451 912.34632654860616 82.121189255267382
leaf_count=228 6381 843 2062 308 15671 14712 1157
internal_value=0 0.0287703 -0.052857 0.0472706 0.0506449 0.052541 -0.00414278
internal_weight=0 2640.5 487.878 2152.63 2020.04 1981.13 132.581
internal_count=41362 34981 2905 32076 30611 30383 1465
shrinkage=0.1


Tree=64
num_leaves=8
num_cat=0
split_feature=2 2 15 51 11 3 35
split_gain=572.588 43.7421 9.76849 29.2489 13.6906 8.67364 9.90569
threshold=3.5000000000000004 14.500000000000002 12.500000000000002 67.271760883393867 37.746477926509854 1.5000000000000002 7546400.0000000009
decision_type=8 8 10 8 2 8 2
left_child=-1 2 3 4 -2 6 -3
right_child=1 5 -4 -5 -6 -7 -8
leaf_value=-0.077495563676546836 -0.050270727022221642 0.028957914875575697 0.085021856420453748 -0.014314102792138197 0.080107892710723827 -0.043788304214298968 -0.076782776538584327
leaf_weight=606.54146825755015 8.4266159534454328 118.54816123732483 263.21881155669689 46.243852287530899 182.11979193985462 24.586763828995856 9.5748697463465771
leaf_count=37882 40 679 1365 181 922 180 113
internal_value=0 0.0574583 0.0717648 0.057028 0.0743421 0.0106156 0.0210557
internal_weight=0 652.719 500.009 236.79 190.546 152.71 128.123
internal_count=41362 3480 2508 1143 962 972 792
shrinkage=0.1


Tree=65
num_leaves=8
num_cat=0
split_feature=4 15 24 44 35 35 61
split_gain=45.6936 87.9351 29.0555 31.7446 58.268 66.9798 37.0338
threshold=1733852.0000000002 12.500000000000002 4.1848693715258714 2.2059847696193456e-05 13334102.000000002 13328500.000000002 3.8027387828816956
decision_type=10 10 10 10 2 2 10
left_child=2 -2 3 4 5 -1 -6
right_child=1 -3 -4 -5 6 -7 -8
leaf_value=0.029262682048792555 0.10632792780744271 0.0040308151112222997 0.10876525197753545 -0.026395528753634618 -0.040559874062682182 0.26224133654105047 0.7425544983950283
leaf_weight=342.15741629028025 146.84729301559346 196.43733625906495 25.729228300973773 277.26367279056183 145.7740600546822 12.801588512957094 0.6063881441950788
leaf_count=11823 1512 6538 177 12306 8870 110 26
internal_value=0 0.0477906 0.00421116 0.000756132 0.0157722 0.0376651 -0.0373158
internal_weight=0 343.285 804.332 778.603 501.339 354.959 146.38
internal_count=41362 8050 33312 33135 20829 11933 8896
shrinkage=0.1


Tree=66
num_leaves=8
num_cat=0
split_feature=3 12 2 11 58 59 20
split_gain=835.991 38.4325 20.0454 27.8126 20.9046 33.541 19.4595
threshold=3.5000000000000004 -119.45346318146399 1.5000000000000002 38.519956676538207 2.7211111111111106 148661.31250000003 1.3293180122074053
decision_type=10 2 10 2 10 10 10
left_child=1 2 3 -1 5 -5 -2
right_child=6 -3 -4 4 -6 -7 -8
leaf_value=-0.051553219333362515 0.072059667338005701 0.012570263500449892 -0.071646139562068431 0.67058665420463959 0.011338062012815064 0.091891284517171712 0.012811349675126671
leaf_weight=211.20559279852353 824.32389537990844 68.292668435722817 884.20865508076884 1.3063141480088258 22.890031211078167 4.2930942922830582 59.431085646152496
leaf_count=5754 5388 818 28571 17 523 58 233
internal_value=0 -0.0602669 -0.0646928 -0.0390425 0.0537049 0.226898 0.0680753
internal_weight=0 1192.2 1123.9 239.695 28.4894 5.59941 883.755
internal_count=41362 35741 34923 6352 598 75 5621
shrinkage=0.1


Tree=67
num_leaves=8
num_cat=0
split_feature=2 7 39 15 65 4 49
split_gain=9.15475 10.8272 17.8284 13.2055 9.17906 7.24608 7.12749
threshold=32.000000000000007 5.500555384688016 615558.60239176813 5.5000000000000009 1.2455808542125653 381788.00000000006 8.281518038224343
decision_type=8 10 8 8 8 10 10
left_child=-1 2 -2 -3 -4 -6 -5
right_child=1 3 4 6 5 -7 -8
leaf_value=-0.076766370878632528 0.03161699860608546 0.50800562753201184 -0.19438548251015758 -0.10090294796752211 0.12954143371845186 -0.1235078906854338 0.16898098181544749
leaf_weight=23.900814685169752 23.486236913338384 0.81323468379239328 6.8159427510397572 1.5682411010182526 2.031654874096831 2.5543081583455205 2.6023783524287865
leaf_count=40417 567 38 111 93 29 30 77
internal_value=0 0.00150457 -0.018191 0.139378 -0.120788 -0.011403 0.0674989
internal_weight=0 39.872 34.8881 4.98385 11.4019 4.58596 4.17062
internal_count=41362 945 737 208 170 59 170
shrinkage=0.1


Tree=68
num_leaves=8
num_cat=0
split_feature=3 2 15 35 20 35 12
split_gain=658.553 324.738 50.0568 37.2124 39.5032 34.6011 57.3861
threshold=3.5000000000000004 3.5000000000000004 16.500000000000004 13347500.000000002 1.3293180122074053 13328500.000000002 -122.00701416279249
decision_type=8 8 8 2 10 2 2
left_child=1 3 -3 5 -5 -1 -7
right_child=-2 2 -4 4 -6 6 -8
leaf_value=0.037184465360127296 -0.079924635722183709 -0.013865809104970463 -0.079936839007738958 0.068256142132131187 -0.067079823392463794 0.042151361492826972 -0.1989632090126299
leaf_weight=1292.6049536094072 768.069868046799 213.67914165015614 247.46673506316083 623.0819997638464 22.341108560562134 24.179225444793701 16.680732354521751
leaf_count=19927 6381 988 1917 11560 140 369 80
internal_value=0 0.0262501 -0.0493218 0.0438608 0.0635715 0.0343205 -0.0562816
internal_weight=0 2440.03 461.146 1978.89 645.423 1333.46 40.86
internal_count=41362 34981 2905 32076 11700 20376 449
shrinkage=0.1


Tree=69
num_leaves=8
num_cat=0
split_feature=2 2 21 15 51 11 62
split_gain=479.646 41.656 9.42422 8.60451 20.6317 11.7869 8.5874
threshold=3.5000000000000004 14.500000000000002 0.0013861538726549201 12.500000000000002 67.271760883393867 37.746477926509854 0.00089433439017887575
decision_type=8 8 10 10 8 2 8
left_child=-1 2 3 4 5 -2 -6
right_child=1 -3 -4 -5 6 -7 -8
leaf_value=-0.076900393584708404 -0.048308760855815203 0.0076212835392915866 -0.015204486824382458 0.083209880337683839 -0.087429740831371699 0.076421366712894567 0.018145087936300597
leaf_weight=537.05334793357179 7.9401971548795691 155.80527511676269 13.403230063617228 232.97118951380253 10.173898264765738 165.3212825357914 31.741333901882172
leaf_count=37882 38 972 58 1336 39 915 122
internal_value=0 0.0523297 0.0674219 0.0698931 0.0554751 0.0707053 -0.00748062
internal_weight=0 617.356 461.551 448.148 215.177 173.261 41.9152
internal_count=41362 3480 2508 2450 1114 953 161
shrinkage=0.1


Tree=70
num_leaves=8
num_cat=0
split_feature=12 8 35 12 12 2 8
split_gain=42.0718 54.2416 49.511 30.5333 29.185 27.2111 24.6355
threshold=-121.82678728467597 1969.5000000000002 13347500.000000002 -122.49003101758349 -122.00701416279249 1.0000000180025095e-35 2006.5000000000002
decision_type=2 10 2 2 2 10 10
left_child=1 2 4 -3 -1 -4 -2
right_child=6 3 5 -5 -6 -7 -8
leaf_value=0.018638967446452031 -0.023716389398042926 -0.032538343595765754 0.23900484236668268 0.073796261262249627 0.10732300580464534 -0.049377560582105684 0.10530295747060857
leaf_weight=368.91050466342205 255.09764843801378 29.999552848777682 3.3552292101085177 270.41423841565853 41.25826210714871 131.84028651472181 15.71114486363143
leaf_count=13916 10832 932 39 4843 507 9918 375
internal_value=0 0.0290566 0.0102611 0.0631776 0.0275596 -0.0422206 -0.0162312
internal_weight=0 845.778 545.364 300.414 410.169 135.196 270.809
internal_count=41362 30155 24380 5775 14423 9957 11207
shrinkage=0.1


Tree=71
num_leaves=8
num_cat=0
split_feature=3 12 2 11 2 15 48
split_gain=686.013 36.4824 20.2252 24.3957 20.068 21.4349 21.7856
threshold=3.5000000000000004 -119.45346318146399 1.5000000000000002 38.519956676538207 3.5000000000000004 4.5000000000000009 74299.062760373301
decision_type=10 2 10 2 8 10 8
left_child=1 2 3 -1 5 6 -2
right_child=4 -3 -4 -5 -6 -7 -8
leaf_value=-0.048895839617234205 0.049274915096088855 0.013098871305601629 -0.070161911491899598 0.049116308415262488 -0.033017048395264113 0.073387950691755688 -0.055655413531299262
leaf_weight=195.64092186919197 95.746418640017623 67.843205016106481 791.20873808861859 29.183498634025455 20.853354340427927 667.07655237615108 24.940523713827133
leaf_count=5754 598 818 28571 598 118 4795 110
internal_value=0 -0.0579002 -0.062641 -0.0361733 0.0638086 0.0663717 0.0275906
internal_weight=0 1083.88 1016.03 224.824 808.617 787.763 120.687
internal_count=41362 35741 34923 6352 5621 5503 708
shrinkage=0.1


Tree=72
num_leaves=8
num_cat=0
split_feature=2 7 41 48 54 35 43
split_gain=7.999 8.52463 8.95083 12.9986 9.37958 7.84434 8.16159
threshold=32.000000000000007 5.500555384688016 0.97859950954586672 9376.6627455997223 7.4771729619852811 192551.50000000003 0.014344706940546402
decision_type=8 8 10 8 10 2 10
left_child=-1 -2 5 4 -4 -3 -7
right_child=1 2 3 -5 -6 6 -8
leaf_value=-0.075308015288544458 -0.10019612567621348 -0.12317071868191753 0.089192206291270656 -0.021071558002483299 0.44167684706466298 -0.10486136944134319 0.047952407407045164
leaf_weight=21.637866383503422 7.0568205126773078 4.5431099278535276 1.4180448490080579 2.8326850729063153 1.6143603042655739 4.2663738496277714 19.330993480041265
leaf_count=40417 148 117 28 56 29 135 432
internal_value=0 -0.0001763 0.0205798 0.132959 0.276844 -0.00284246 0.0203239
internal_weight=0 41.0624 34.0056 5.86509 3.03241 28.1405 23.5974
internal_count=41362 945 797 113 57 684 567
shrinkage=0.1


Tree=73
num_leaves=8
num_cat=0
split_feature=3 2 2 35 20 44 35
split_gain=541.077 259.627 46.4393 35.4548 35.297 33.6143 30.2988
threshold=3.5000000000000004 3.5000000000000004 3.5000000000000004 13347500.000000002 1.3293180122074053 1.9240289235463754e-05 13328500.000000002
decision_type=8 8 10 2 10 8 2
left_child=1 3 -3 5 -5 6 -1
right_child=-2 2 -4 4 -6 -7 -8
leaf_value=0.017317079908976307 -0.077394804041920132 -0.013454389209866897 -0.078555312716264258 0.065910274486488618 -0.061841320559591989 0.045482795333839386 -0.10094722959339873
leaf_weight=526.42312980815791 687.53094813973576 224.54161763964549 214.01131806526604 555.35425202921033 22.503831401467323 701.93924549221992 22.592701155692339
leaf_count=8174 6381 843 2062 11560 140 11977 225
internal_value=0 0.0238782 -0.0452233 0.0404489 0.0609352 0.0309856 0.0124504
internal_weight=0 2267.37 438.553 1828.81 577.858 1250.96 549.016
internal_count=41362 34981 2905 32076 11700 20376 8399
shrinkage=0.1


Tree=74
num_leaves=8
num_cat=0
split_feature=2 2 4 15 7 62 47
split_gain=405.551 39.8952 8.71365 21.4342 10.7384 8.7723 8.27132
threshold=3.5000000000000004 14.500000000000002 4729510.0000000009 42.500000000000007 4.780488154916581 0.00089433439017887575 484.50000000000006
decision_type=8 8 10 10 8 8 10
left_child=-1 2 4 5 -2 -4 -6
right_child=1 -3 3 -5 6 -7 -8
leaf_value=-0.076275440191808097 -0.0047531911132273133 0.0051253505730998756 -0.10056238623525014 0.074072050725932759 0.079095296780972713 0.008878986643302644 -0.076068889549428781
leaf_weight=476.93455343274405 16.899762913584766 158.58870873832569 9.2039497345685941 73.712447255849838 287.56497325003147 35.858044944703579 3.4770535081624976
leaf_count=37882 100 972 40 445 1742 161 20
internal_value=0 0.0479509 0.0638669 0.0408576 0.0727417 -0.0134745 0.0772416
internal_weight=0 585.305 426.716 118.774 307.942 45.062 291.042
internal_count=41362 3480 2508 646 1862 201 1762
shrinkage=0.1


Tree=75
num_leaves=8
num_cat=0
split_feature=24 4 15 54 48 15 11
split_gain=37.2934 44.1833 48.7727 36.2675 47.1957 52.3993 31.0273
threshold=1.6468250310805803 1733852.0000000002 12.500000000000002 7.3374232008465308 4653.2728617342264 4.5000000000000009 39.726141119490705
decision_type=8 10 10 10 8 8 2
left_child=-1 3 -3 4 -2 -6 -5
right_child=1 2 -4 6 5 -7 -8
leaf_value=-0.03799225153557783 -0.0042704834612934004 0.099760031553468534 0.018794537808573868 -0.024121089199649823 0.26923592145544334 0.053679592816464908 0.078667542624459075
leaf_weight=104.5692468425259 179.00283910826499 140.64039236217019 157.96743030241879 288.54700145160314 12.057396944612263 174.29784267342916 32.694002818316221
leaf_count=5695 9051 1396 5229 13948 324 5442 277
internal_value=0 0.0248163 0.0569282 0.0108506 0.0324013 0.0676263 -0.0136599
internal_weight=0 985.207 298.608 686.599 365.358 186.355 321.241
internal_count=41362 35667 6625 29042 14817 5766 14225
shrinkage=0.1


Tree=76
num_leaves=8
num_cat=0
split_feature=3 21 11 54 12 49 15
split_gain=562.866 35.7817 32.8155 25.7844 23.6838 27.6422 18.98
threshold=3.5000000000000004 0.0013522102597974901 36.839852394583303 5.9320839911910666 -119.78423715206448 3.9293876344605554 6.5000000000000009
decision_type=10 8 2 8 2 10 10
left_child=1 2 3 4 5 -1 -2
right_child=6 -3 -4 -5 -6 -7 -8
leaf_value=0.71189566564157003 0.02404419922137159 -0.063983490928102071 -0.043189317399292132 -0.018573193764510627 0.092221316044224066 0.018413708596594011 0.06707559553607978
leaf_weight=1.383314998820427 122.9612900391221 823.11922190827192 114.19085307186469 25.836602730676532 24.072654591873174 0.9833877496421336 615.98925271444932
leaf_count=40 775 31018 4001 437 216 29 4846
internal_value=0 -0.0554321 -0.0131486 0.0524721 0.121898 0.423747 0.0599152
internal_weight=0 989.586 166.467 52.276 26.4394 2.3667 738.951
internal_count=41362 35741 4723 722 285 69 5621
shrinkage=0.1


Tree=77
num_leaves=8
num_cat=0
split_feature=35 7 44 36 4 56 45
split_gain=7.55065 6.86801 7.17578 9.81535 17.361 10.1703 7.28237
threshold=7512601.5000000009 5.500555384688016 1.6793594873824354e-05 1995.2729988052554 110399.50000000001 1912.2111111111101 1.993490597040245
decision_type=2 8 8 10 8 8 10
left_child=1 -1 3 4 -3 -6 -4
right_child=-2 2 6 -5 5 -7 -8
leaf_value=-0.089618264220748423 -0.088951849787156145 2.0099136929348953 -0.031917116309880166 -0.77904232738190338 1.2618253642815642 0.08757911566100092 0.094914772768220274
leaf_weight=8.0430119124875912 14.014574229624484 0.047821947942800758 25.909929665278749 0.12606756811146613 0.074467948870733269 7.7493265731189771 5.4855001284424594
leaf_count=3887 22123 28 11456 28 35 2632 1173
internal_value=0 -0.00540865 0.0117847 0.0963467 0.110366 0.0987558 -0.00975668
internal_weight=0 47.4361 39.3931 7.99768 7.87162 7.82379 31.3954
internal_count=41362 19239 15352 2723 2695 2667 12629
shrinkage=0.1


Tree=78
num_leaves=8
num_cat=0
split_feature=3 2 15 4 42 48 15
split_gain=444.659 207.037 43.1627 34.064 29.886 26.5757 24.792
threshold=3.5000000000000004 3.5000000000000004 18.500000000000004 2239945.5000000005 0.00097911766554732564 3504.3848360148709 12.500000000000002
decision_type=8 8 8 10 10 8 10
left_child=1 3 -3 4 -1 -2 -5
right_child=5 2 -4 6 -6 -7 -8
leaf_value=0.029079551622463645 0.067664145693387079 -0.010869983503659641 -0.075335061421479846 -0.057744887159999037 0.057038135096898424 -0.078008851958370928 0.02539486169949863
leaf_weight=865.45939855277584 12.789043599739541 217.61855003509226 198.69244552407673 60.865969315171242 684.88803858309984 603.19407729432862 87.326663970947266
leaf_count=15505 95 1058 1847 493 14491 6286 1587
internal_value=0 0.0215622 -0.0416372 0.0370523 0.0414307 -0.0749844 -0.00875246
internal_weight=0 2114.85 416.311 1698.54 1550.35 615.983 148.193
internal_count=41362 34981 2905 32076 29996 6381 2080
shrinkage=0.1


Tree=79
num_leaves=8
num_cat=0
split_feature=2 2 15 51 11 7 52
split_gain=342.94 36.3952 8.43511 17.804 12.4983 8.57298 9.01451
threshold=3.5000000000000004 14.500000000000002 12.500000000000002 67.271760883393867 37.746477926509854 4.780488154916581 4848.0018809502717
decision_type=8 8 10 8 2 8 10
left_child=-1 2 3 4 -2 6 -6
right_child=1 -3 -4 -5 5 -7 -8
leaf_value=-0.075613892752629114 -0.060203829453188376 0.0035680706414066947 0.074399793376788134 -0.010974669100999061 0.038114726620469858 0.076478844404995416 -0.1522258043979155
leaf_weight=424.65777025651175 7.9851635396480551 160.2932144200156 201.29945704340935 43.732964158058167 10.732356861233709 128.16272529959679 3.2391172796487799
leaf_count=37882 40 972 1365 181 68 834 20
internal_value=0 0.0437588 0.0600622 0.0451737 0.0615309 0.06837 -0.00601342
internal_weight=0 555.445 395.152 193.852 150.119 142.134 13.9715
internal_count=41362 3480 2508 1143 962 922 88
shrinkage=0.1


Tree=80
num_leaves=8
num_cat=0
split_feature=24 4 15 10 11 44 61
split_gain=31.9266 34.6006 40.3524 33.6558 31.0172 30.181 28.0584
threshold=1.6468250310805803 1907465.0000000002 80.500000000000014 1.0000000180025095e-35 37.70644772866676 1.8507167976644205e-05 2.4426093012794254
decision_type=8 10 10 10 2 10 10
left_child=-1 3 -3 -2 6 -6 -5
right_child=1 2 -4 4 5 -7 -8
leaf_value=-0.035051987552199126 0.086951832322938238 0.078418014177486062 -0.0057453673367558284 -0.034147400893327705 0.043757005970764901 -0.0079184138526828176 0.29980878067069666
leaf_weight=97.932805394753814 56.215628262609357 200.44197620828297 79.585719318017397 174.32219890553222 246.04821919333324 209.05005000624806 2.5526902461424461
leaf_count=5695 1225 3520 2555 10903 7822 9590 52
internal_value=0 0.024863 0.0544982 0.0128042 0.00620858 0.0200198 -0.0293277
internal_weight=0 968.216 280.028 688.189 631.973 455.098 176.875
internal_count=41362 35667 6075 29592 28367 17412 10955
shrinkage=0.1


Tree=81
num_leaves=8
num_cat=0
split_feature=3 21 12 64 20 61 27
split_gain=459.893 34.5869 27.7482 20.2351 19.2749 20.0002 19.0779
threshold=3.5000000000000004 0.0013522102597974901 -120.47508085741897 1.6913445757695453e-05 1.3293180122074053 1.0517387833554153 1.3044764712706651
decision_type=10 8 2 8 10 10 10
left_child=1 2 6 -4 5 -2 -1
right_child=4 -3 3 -5 -6 -7 -8
leaf_value=-0.048266985488559677 0.068538594651871218 -0.061996000870937332 0.12902608906363153 0.00028890398864651 -0.00060181099161600907 0.019237804205884869 0.15992312923581498
leaf_weight=104.39878600277007 526.38191269338131 748.10077158616309 19.752687191823156 31.971982492133975 55.6250094845891 97.532658755789384 4.5953487530350676
leaf_count=4013 4627 31018 208 477 233 761 25
internal_value=0 -0.0529539 -0.0108653 0.0494512 0.055803 0.0608317 -0.0394894
internal_weight=0 908.82 160.719 51.7247 679.54 623.915 108.994
internal_count=41362 35741 4723 685 5621 5388 4038
shrinkage=0.1


Tree=82
num_leaves=8
num_cat=0
split_feature=35 35 12 8 5 29 2
split_gain=6.78337 6.22782 6.2084 9.38229 5.8531 4.32224 4.95461
threshold=7512601.5000000009 7516050.0000000009 -124.080664131994 2018.5000000000002 3355.7973965862207 3.4559141855622206 19.500000000000004
decision_type=2 2 2 10 8 8 8
left_child=2 -2 3 -1 -4 -6 -7
right_child=1 -3 4 -5 5 6 -8
leaf_value=-0.080061699867907843 -0.28932362034181364 -0.063462793524087277 -0.15940867156860772 1.6224756447093143 0.50832174710326894 -0.069340829921397881 0.014775398676003932
leaf_weight=0.072314480086787536 1.36287462717397 11.713289593918617 2.4115537856796463 0.058595187962055206 0.16697352705523372 8.6696233862254086 36.413857165574129
leaf_count=162 1581 20542 1372 1 6 16990 708
internal_value=0 -0.0870033 -0.00572044 0.681994 -0.00760933 0.000480584 -0.00140028
internal_weight=0 13.0762 47.7929 0.13091 47.662 45.2505 45.0835
internal_count=41362 22123 19239 163 19076 17704 17698
shrinkage=0.1


Tree=83
num_leaves=8
num_cat=0
split_feature=3 2 35 24 4 42 49
split_gain=366.318 165.7 42.1442 33.4264 27.4691 25.6146 25.0194
threshold=3.5000000000000004 3.5000000000000004 13347500.000000002 3.2054659103550205 2946524.5000000005 0.00097911766554732564 4.9366941647364913
decision_type=8 10 2 10 10 10 8
left_child=1 2 4 -4 5 -1 -2
right_child=6 -3 3 -5 -6 -7 -8
leaf_value=0.012242599789366541 -0.0043788450972160418 -0.074368497244978973 0.056354238797786588 -0.16137484789704909 -0.039456582086133528 0.042537359886370869 -0.079239452177319203
leaf_weight=824.6906191913065 48.976042795926375 172.31720273945621 485.86303787305951 7.1549290269613257 75.930674670264125 421.86511535570025 504.8146208170885
leaf_count=12034 417 2062 11712 47 762 8364 5964
internal_value=0 0.0193459 0.0282408 0.0531944 0.0189381 0.0224951 -0.0726189
internal_weight=0 1987.82 1815.5 493.018 1322.49 1246.56 553.791
internal_count=41362 34981 32919 11759 21160 20398 6381
shrinkage=0.1


Tree=84
num_leaves=8
num_cat=0
split_feature=2 2 21 0 43 51 15
split_gain=291.799 34.4612 8.35484 8.52034 12.2864 7.88848 15.8045
threshold=3.5000000000000004 14.500000000000002 0.0013861538726549201 6069.5000000000009 0.017035033054831703 67.271760883393867 35.500000000000007
decision_type=8 8 10 10 8 10 10
left_child=-1 2 3 4 -2 -5 -7
right_child=1 -3 -4 5 -6 6 -8
leaf_value=-0.074915900077529823 -0.060146420351632292 0.0016231462305551067 -0.022550141628499103 0.075982677577207711 0.068422959614524367 -0.00322864433892797 0.073091972025622801
leaf_weight=379.51921573886648 13.880070619285108 162.47956324935012 12.763848349452017 210.45033732056618 16.001484833657742 44.481913581490517 69.567712746560574
leaf_count=37882 87 972 58 1535 109 209 510
internal_value=0 0.0399674 0.0569366 0.0597995 0.0087021 0.0645048 0.0433252
internal_weight=0 529.625 367.145 354.382 29.8816 324.5 114.05
internal_count=41362 3480 2508 2450 196 2254 719
shrinkage=0.1


Tree=85
num_leaves=8
num_cat=0
split_feature=8 11 44 20 50 15 15
split_gain=29.1015 28.7589 32.0465 28.3826 24.4121 21.338 23.7282
threshold=1978.5000000000002 37.662839017549054 2.1980003473734304e-05 1.1843847698990702 45243.041522945656 9.5000000000000018 240.50000000000003
decision_type=10 2 10 8 10 8 10
left_child=1 -1 -3 -2 -4 -5 -7
right_child=3 2 4 5 -6 6 -8
leaf_value=-0.024379057279042438 -0.0039027930545520364 0.037012560712601006 -0.033334313687532237 -0.04591401237988843 0.053647975066217803 0.085836765543192667 -0.037856245077876875
leaf_weight=190.93679130820465 80.840642409854468 382.38819839196856 143.03744713030756 15.792136467993258 41.664294514805079 176.59762372263299 17.001739146187901
leaf_count=12144 3384 13629 7879 596 994 2349 387
internal_value=0 0.00918893 0.0204911 0.0464262 -0.0137132 0.0658569 0.0749741
internal_weight=0 758.027 567.09 290.232 184.702 209.391 193.599
internal_count=41362 34646 22502 6716 8873 3332 2736
shrinkage=0.1


Tree=86
num_leaves=8
num_cat=0
split_feature=3 21 12 53 45 60 2
split_gain=374.531 32.9213 23.5122 20.9063 22.3776 28.2453 18.8156
threshold=3.5000000000000004 0.0013522102597974901 -120.95665101448198 1.9999679954803551 1.4681616884741904 1009.2021399460801 3.5000000000000004
decision_type=10 8 2 8 8 10 8
left_child=1 2 -1 4 -3 -6 -2
right_child=6 3 -4 -5 5 -7 -8
leaf_value=-0.04021718656121108 0.055056831608270053 0.0078722583499945074 0.039328978882498339 -0.061753432056365534 0.097117761848789008 0.90499988578426027 -0.040743076382841074
leaf_weight=94.635369726456702 603.78165071457624 5.5648786947132001 61.180325985187324 675.51686861571864 1.1109574474394319 0.70891442522406567 21.222158934931144
leaf_count=3761 5503 263 962 30685 41 29 118
internal_value=0 -0.0504604 -0.00898375 -0.059924 0.10742 0.411821 0.0518039
internal_weight=0 838.717 155.816 682.902 7.38475 1.81987 625.004
internal_count=41362 35741 4723 31018 333 70 5621
shrinkage=0.1


Tree=87
num_leaves=8
num_cat=0
split_feature=35 35 5 12 58 8 59
split_gain=6.08494 5.57487 5.44873 5.67651 30.6553 4.45051 6.62757
threshold=7512601.5000000009 7516050.0000000009 4197.4183259472657 -122.41496683068648 3.6035714285714304 1923.5000000000002 563384.24666666717
decision_type=2 2 8 2 8 10 8
left_child=2 -2 -1 4 -4 -6 -7
right_child=1 -3 3 -5 5 6 -8
leaf_value=-0.10277229043954945 -0.27961620732686809 -0.060537862766311151 1.8195288768517806 -0.0027298707713856616 -0.10236487501324548 0.99106686643021868 0.12528427565371089
leaf_weight=5.062034685955946 1.2989235123652161 10.982476562930495 0.10518021157012583 39.524467257220671 0.89840385586768445 0.093278335180002364 1.6966013772261406
leaf_count=2309 1581 20542 27 15711 791 89 312
internal_value=0 -0.0837083 -0.00472178 0.00700694 0.144772 0.0792467 0.170404
internal_weight=0 12.2814 47.38 42.3179 2.79346 2.68828 1.78988
internal_count=41362 22123 19239 16930 1219 1192 401
shrinkage=0.1


Tree=88
num_leaves=8
num_cat=0
split_feature=3 2 15 35 20 44 49
split_gain=301.362 138.832 34.9306 31.0695 29.4429 28.7825 24.5562
threshold=3.5000000000000004 3.5000000000000004 24.500000000000004 13347500.000000002 1.3293180122074053 1.5518924933410904e-05 4.9366941647364913
decision_type=8 8 8 2 10 8 8
left_child=1 3 -3 5 -5 -1 -2
right_child=6 2 -4 4 -6 -7 -8
leaf_value=-0.006800021214134303 -0.0020448649451842685 -0.012210638077615877 -0.074275012371407614 0.059232338734483483 -0.060400516793708538 0.031175809336790979 -0.077479898798379923
leaf_weight=266.50439381226852 47.722267381847011 228.01269299819248 150.56126553196739 415.70523146912456 21.643190942704678 794.7416269518435 450.73699969240295
leaf_count=4328 417 1229 1676 11560 140 16048 5964
internal_value=0 0.0172138 -0.036894 0.0308825 0.053312 0.0216392 -0.0702578
internal_weight=0 1877.17 378.574 1498.59 437.348 1061.25 498.459
internal_count=41362 34981 2905 32076 11700 20376 6381
shrinkage=0.1


Tree=89
num_leaves=8
num_cat=0
split_feature=2 2 7 4 15 62 35
split_gain=252.527 29.2071 7.978 8.98888 13.715 8.78374 10.8283
threshold=3.5000000000000004 14.500000000000002 4.691861376807446 4116762.0000000005 42.500000000000007 0.00089433439017887575 7512301.5000000009
decision_type=8 8 8 10 10 8 2
left_child=-1 2 -2 -4 5 -5 -7
right_child=1 -3 3 4 -6 6 -8
leaf_value=-0.074189962882681801 -0.019963377859307907 0.0022802382162144643 0.068856639919213633 -0.084391369072206179 0.065329162794526857 -0.041278497950670207 0.065889759361120445
leaf_weight=340.92045670980582 14.031247630715368 161.69653997535562 216.97987858951092 10.987461313605307 61.286388985812664 17.301795832812786 20.718047052621841
leaf_count=37882 92 972 1698 52 476 87 103
internal_value=0 0.0372893 0.0538752 0.0570408 0.0337957 -0.00563859 0.0171204
internal_weight=0 503.001 341.305 327.274 110.294 49.0073 38.0198
internal_count=41362 3480 2508 2416 718 242 190
shrinkage=0.1


Tree=90
num_leaves=8
num_cat=0
split_feature=64 12 12 61 54 20 40
split_gain=26.2333 23.056 31.6801 43.6904 31.3712 26.1571 25.085
threshold=4.855129668326831e-06 -121.82678728467597 -122.01462309944448 1.1174374871387451 1.2807485654535102 1.2454789381326952 883.97921787122857
decision_type=8 2 2 8 8 8 8
left_child=-1 2 5 4 -4 -2 -5
right_child=1 -3 3 6 -6 -7 -8
leaf_value=0.098247770047044949 -0.040498163545131652 -0.010779183277993397 0.81208410312810142 0.22487548946081415 0.0036162140603317062 0.022727104714954177 0.087975459662337163
leaf_weight=40.87329389341734 74.588884637691081 236.03002559371316 0.48332346696406503 17.237365718465298 68.991794803179801 533.16916292157191 59.883786377962679
leaf_count=815 4149 11116 31 233 3399 20560 1059
internal_value=0 0.0164977 0.0250323 0.0667585 0.00924055 0.0149676 0.118574
internal_weight=0 990.384 754.354 146.596 69.4751 607.758 77.1212
internal_count=41362 40547 29431 4722 3430 24709 1292
shrinkage=0.1


Tree=91
num_leaves=8
num_cat=0
split_feature=3 41 49 37 39 48 15
split_gain=304.828 32.3855 21.7124 22.2193 25.7209 19.3497 19.0769
threshold=3.5000000000000004 0.82345550093704256 4.9366941647364913 14093.764705882351 950836.6428476997 4352.4980242865358 4.5000000000000009
decision_type=10 10 8 8 8 10 10
left_child=1 2 3 -1 5 -5 -2
right_child=6 -3 -4 4 -6 -7 -8
leaf_value=0.0016610471498215479 0.0081914911883365204 -0.061590755854192436 -0.046471548627414705 0.80390478722975556 0.045953298973237508 0.23741808614745943 0.056316801488201035
leaf_weight=108.20533704317674 99.52866854891181 536.35413482621539 124.48208161397396 0.89570909366011209 5.3604338485747585 1.8449272436495383 477.73500621319795
leaf_count=3407 723 27564 4521 15 196 38 4898
internal_value=0 -0.0479129 -0.0174457 0.0136205 0.173361 0.42256 0.0480193
internal_weight=0 777.143 240.788 116.306 8.10107 2.74064 577.264
internal_count=41362 35741 8177 3656 249 53 5621
shrinkage=0.1


Tree=92
num_leaves=8
num_cat=0
split_feature=2 12 60 54 54 47 47
split_gain=5.49453 5.63062 55.0373 5.57803 9.09049 5.24614 7.5265
threshold=22.500000000000004 -119.09153587587099 1574.4645183360701 7.1047820095406218 7.55399319643917 40.500000000000007 13.500000000000002
decision_type=8 2 10 8 8 10 10
left_child=1 -1 -3 -2 -5 6 -6
right_child=3 2 -4 4 5 -7 -8
leaf_value=-0.084377351015327007 -0.055640041999633044 0.066460791456929333 5.8545895670682988 0.31956357495136628 0.13572494787386816 0.02684768726715242 -0.19367649183942909
leaf_weight=14.773299090394987 13.545985002124006 0.6552981325221453 0.016850268526468426 0.98966547981323572 0.95455103053245993 26.143835600145394 2.5378685357281938
leaf_count=39578 282 799 34 33 24 558 54
internal_value=0 -0.0714987 0.211565 -0.00220741 0.0214261 0.0114702 -0.103644
internal_weight=0 15.4454 0.672148 44.1719 30.6259 29.6363 3.49242
internal_count=41362 40411 833 951 669 636 78
shrinkage=0.1


Tree=93
num_leaves=8
num_cat=0
split_feature=3 2 35 20 58 43 2
split_gain=248.566 110.73 34.5112 29.3832 24.2822 21.0906 19.0176
threshold=3.5000000000000004 3.5000000000000004 13383500.000000002 1.3293180122074053 4.6043478260869559 0.017746021885814152 1.0000000180025095e-35
decision_type=8 10 2 10 8 8 10
left_child=1 2 5 -4 -2 -1 -7
right_child=4 -3 3 -5 -6 6 -8
leaf_value=5.1065763978374412e-05 -0.00078591610123511155 -0.070234289352156254 0.0551865963288867 -0.073548847491282307 -0.075977641671808968 -0.0088076961470276525 0.033860870712547848
leaf_weight=560.19625302602185 48.081442512571783 139.78551176939436 361.81168473698199 18.64336308836937 402.30030594208051 127.75298561831141 572.84465284086764
leaf_count=9136 495 2062 10760 109 5886 471 12443
internal_value=0 0.0152039 0.0224807 0.0488782 -0.0679504 0.014515 0.0260803
internal_weight=0 1781.03 1641.25 380.455 450.382 1260.79 700.598
internal_count=41362 34981 32919 10869 6381 22050 12914
shrinkage=0.1


Tree=94
num_leaves=8
num_cat=0
split_feature=2 2 0 43 51 15 62
split_gain=215.659 27.8446 7.50073 11.218 9.3345 13.8128 10.616
threshold=3.5000000000000004 14.500000000000002 6069.5000000000009 0.017069507704582054 67.271760883393867 42.500000000000007 0.00089433439017887575
decision_type=8 8 10 8 8 10 8
left_child=-1 2 3 -2 -4 6 -6
right_child=1 -3 4 -5 5 -7 -8
leaf_value=-0.073397609636024583 -0.058600725042257676 0.00033369915456658823 0.071169867182907909 0.068765290774198004 -0.087503910956286041 0.066237711111001504 0.020439142332377536
leaf_weight=306.27583711873751 14.691966064274313 163.92718129006971 167.40790029615164 13.064402408897875 11.30492030084133 66.283084012567997 46.951694019138813
leaf_count=37882 95 972 1451 101 53 552 256
internal_value=0 0.0338427 0.0510243 0.00134807 0.0557472 0.0350159 -0.000507623
internal_weight=0 483.631 319.704 27.7564 291.948 124.54 58.2566
internal_count=41362 3480 2508 196 2312 861 309
shrinkage=0.1


Tree=95
num_leaves=8
num_cat=0
split_feature=8 34 48 48 36 24 11
split_gain=26.1985 28.9473 28.1356 41.1342 26.4215 27.6768 21.4981
threshold=1969.5000000000002 31682.000000000004 6985.7060405381808 3974.0944523508001 1973.1576704545453 4.1848693715258714 39.726141119490705
decision_type=10 2 8 10 10 8 2
left_child=1 6 3 -3 5 -2 -1
right_child=4 2 -4 -5 -6 -7 -8
leaf_value=-0.018836685073029671 -0.033275664276352958 -0.016515113304873059 0.00081387200969919619 0.11137927452943236 -0.010769775889055267 0.061020659549370443 0.079653297187531891
leaf_weight=327.04210415552353 34.686167608946562 37.584386007860388 129.04322269187364 75.99850743985769 85.891317018773407 303.27393427303639 23.773347618058324
leaf_count=21642 1863 1393 4120 2138 2865 7035 306
internal_value=0 0.00620484 0.0327622 0.0690592 0.0387559 0.0513427 -0.0121624
internal_weight=0 593.442 242.626 113.583 423.851 337.96 350.815
internal_count=41362 29599 7651 3531 11763 8898 21948
shrinkage=0.1


Tree=96
num_leaves=8
num_cat=0
split_feature=3 1 35 37 9 22 53
split_gain=247.829 33.1683 46.3477 22.0046 20.0044 19.3041 17.4098
threshold=3.5000000000000004 4.5000000000000009 679502.50000000012 15605.391304347851 3.5000000000000004 0.010656526355470632 2.2070142415549103
decision_type=10 10 2 10 8 8 8
left_child=1 2 3 6 -5 -2 -1
right_child=5 -3 -4 4 -6 -7 -8
leaf_value=0.38094168433190062 -0.24516564221618009 -0.06183684031257785 -0.040173707733598185 0.58379894151249123 0.10267109453875095 0.045532404305787727 0.034790615545136787
leaf_weight=1.4911370892077105 2.2941503375768661 453.97756072367218 207.92850670684129 1.4608272723853581 2.1158633604645729 535.44573083148532 56.801127899438143
leaf_count=21 11 23121 11380 12 50 5610 1157
internal_value=0 -0.0453339 -0.0175651 0.0584178 0.299178 0.0442922 0.0436453
internal_weight=0 723.775 269.797 61.869 3.57669 537.74 58.2923
internal_count=41362 35741 12620 1240 62 5621 1178
shrinkage=0.1


Tree=97
num_leaves=8
num_cat=0
split_feature=2 54 11 64 40 15 47
split_gain=6.76608 4.80662 6.39355 6.00999 5.50523 5.07825 4.6036
threshold=22.500000000000004 5.3543306160602713 36.805133563078805 6.382904526765711e-05 802.6164109899396 3.5000000000000004 266.50000000000006
decision_type=8 8 2 8 8 10 10
left_child=-1 3 4 -2 6 -4 -3
right_child=1 2 5 -5 -6 -7 -8
leaf_value=-0.074266033778643228 -0.1071130629602815 -0.036597142409311174 -0.16742980550675293 0.17745223342570837 -0.092043560418171355 0.05035590578488134 0.19664407260715561
leaf_weight=18.589462358396279 6.674266119902259 2.1124524581246127 1.1202974779298553 0.83503823546925549 8.4122602749848738 24.168501060313481 1.4117687467951325
leaf_count=40411 174 51 53 16 211 425 21
internal_value=0 -0.00248699 0.0122354 -0.0754693 -0.0480869 0.040708 0.056837
internal_weight=0 44.7346 37.2253 7.5093 11.9365 25.2888 3.52422
internal_count=41362 951 761 190 283 478 72
shrinkage=0.1


Tree=98
num_leaves=8
num_cat=0
split_feature=3 2 15 35 24 49 44
split_gain=205.986 90.7965 29.5559 26.4149 25.174 24.6155 22.7081
threshold=3.5000000000000004 3.5000000000000004 34.500000000000007 13347500.000000002 3.2054659103550205 4.9366941647364913 1.9240289235463754e-05
decision_type=8 8 8 2 10 8 8
left_child=1 3 -3 6 -5 -2 -1
right_child=5 2 -4 4 -6 -7 -8
leaf_value=0.00061899095159123401 0.0045407727314047954 -0.011797075922700788 -0.073900437506751931 0.051776101156779136 -0.13544669245471602 -0.074160225600832408 0.031128493566313947
leaf_weight=463.11745972186327 44.61145222373321 237.71786261860274 113.08912488262246 362.37893093004823 7.3270354792475691 364.08608700522007 515.50804778933525
leaf_count=8399 417 1428 1477 11653 47 5964 11977
