tree
version=v3
num_class=1
num_tree_per_iteration=1
label_index=0
max_feature_idx=61
objective=regression
feature_names=area units floors buildings lidar_area lidar_buildings lidar_units yr_built elctm gasm s_lat s_lon pool common beds code_area code_units code_value_imprv code_area_unit code_area_lidar_area code_unit_lidar_area code_area_imprv code_unit_imprv code_unit_elct code_area_elct code_area_unitxunit areax_code_area_unit code_area_lidar_areaxlidar_area code_unit_lidar_areaxlidar_area code_area_elctxelct code_unit_elctxelct county_n tract tract_yr_built tract_area tract_units tract_value_imprv tract_area_unit tract_area_lidar_area tract_unit_lidar_area tract_area_imprv tract_unit_imprv tract_unit_elct tract_area_elct tract_n tract_area_unitxunit areax_tract_area_unit tract_area_lidar_areaxlidar_area tract_unit_lidar_areaxlidar_area tract_area_elctxelct tract_unit_elctxelct block_yr_built block_area block_units block_value_imprv block_area_unit block_area_lidar_area block_unit_lidar_area block_area_imprv block_unit_imprv block_unit_elct block_area_elct
feature_infos=[512:3876054] [1:5642] [1:42] [1:150] [1286.5803607031901:4146884.4900357099] [1:145] [1.74803665874701:1903.0866467184699] [1793:2020] [1:1101] [0:902] [34.408622626383099:41.998293063894401] [-124.269199674163:-117.637289763791] [0:4] [0:349] [1:8874] [2348.3040698141999:81806.642857142899] [2.5237795857988199:121.57142857142901] none [770.36439956440006:1338.8362086710999] [0.77558989720393912:4.3955870005762199] [0.00077136925448674401:0.0049602721325808898] [0.015684781835194499:1.0331885600291701] [1.6228074673282902e-05:0.0011369657856485501] [0.89818029893410201:28.155336340936998] [0.89818029893410201:28.155336340936998] [944.92465893357701:715999.99618185498] [0.55977388296552388:476.22844397759803] [1098.1282509733198:682048.80908826296] [1.0027129490581701:611.255617742705] [0.89818029893410201:2479.2432636213503] [0.89818029893410201:2479.2432636213503] [2:32123] [5101:97154304] [1896.0339805825199:2019] [1296.2857142857099:565042.59999999998] [1:669.66666666666697] [51435.125:167917298.69230801] [285.71428571428601:9724.5208333333303] [0.34649020416975396:8.3418761468910301] [0.000108855126215858:0.0505277163115289] [0.0027583855310834601:75.678827314804494] [2.0348289540375898e-06:0.073140842117062496] [0.15151515151515196:133] [0.15151515151515196:133] [10:591] [571.42857142857201:5215872.6885975301] [0.15548323931984698:4192.7205615672701] [513.30314618428304:3961326.9729608502] [0.249805300547397:11494.489947853401] [0.15151515151515196:19536.447666791501] [0.15151515151515196:19536.447666791501] [1860:2020] [604:1296570] [1:2156] [1:630645683] [1:131876] [0.023628070486473401:226.83945712951501] [9.0349085096757103e-06:1.2874911044558501] [6.3820663778930999e-05:756.63972845633896] [1.94812770997958e-08:0.69469053339548903] [0.0029940119760479:2156] [0.0029940119760479:2156]
tree_sizes=11223 11767 11756 11804 11796 11771 11837 11823 11817 11840 11798 11837 11841 11793 11861 11824 11812 11856 11834 11824 11804 11836 11877 11812 11825 11788 11790 11833 11836 11699 11731 11780 11816 11698 11817 11743 11698 11744 11668 11737 11785 11782 11659 11784 11715 11753 11562 11836 11738 11672 11620 11756 11617 11576 11797 11585 11582 11555 11525 11689 11507 11573 11567 11576 11425 11445 11568 11608 11530 11589 11465 11534 11657 11443 11442 11478 11563 11466 11448 11510 11480 11593 11383 11648 11451 11534 11516 11433 11327 11462 11496 11460 11457 11331 11506 11330 11447 11451 11178 11462 11412 11392 11520 11526 11338 11454 11448 11258 11415 11298 11573 11374 11406 11375 11333 11430 11298 11333 11337 11299 11412 11371 11348 11301 11408 11364 11283 11370 11391 11317 11407 11244 11332 11262 11372 11377 11483 11527 11307 11455 11185 11306 11189 11296 11326 11479 11270 11432 11338 11429 11391 11290 11293 11331 11368 11413 11251 11281 11376 11357 11276 11612 11327 11301 11519 11278 11320 11291 11404 11289 11319 11314 11345 11503 11371 11364 11298 11350 11370 11416 11316 11257 11234 11389 11391 11239 11262 11412 11375 11287 11486 11376 11382 11319 11316 11350 11331 11245 11365 11339

Tree=0
num_leaves=128
num_cat=0
split_feature=1 54 1 0 54 58 54 58 54 54 14 54 54 0 1 58 0 8 59 29 58 54 0 54 0 58 54 54 0 15 58 58 59 0 0 54 54 2 0 58 0 54 59 54 52 59 0 2 8 54 59 58 13 14 7 0 0 26 11 0 52 54 59 16 15 54 7 54 14 54 59 59 59 58 8 52 52 7 58 0 21 8 58 7 15 58 53 46 58 59 59 3 54 9 8 58 54 58 58 59 33 49 1 59 0 8 54 59 58 15 2 54 40 58 58 58 59 15 59 59 58 52 8 58 25 3 59
split_gain=78594 41893.6 11563.7 9377.68 8556.1 3719.58 2978.69 2578.12 2110.03 2013.08 1359.31 1332.09 1317 1090.81 855.882 752.235 731.476 681.08 679.641 576.669 566.746 555.107 526.64 525.87 519.004 491.744 441.883 405.116 398.471 376.35 361.448 359.923 347.291 343.451 338.058 333.027 326.441 317.91 305.397 294.73 279.723 264.008 253.867 212.191 184.64 175.121 174.941 170.997 168.853 159.591 153.29 148.914 147.103 144.94 144.69 143.557 138.582 133.519 133.141 132.056 129.054 128.224 127.457 126.426 125.153 121.897 120.283 119.403 116.774 112.77 111.127 108.972 107.925 102.807 102.348 100.566 97.9959 96.1231 95.4703 103.799 95.4163 93.5869 93.0018 92.195 90.4644 88.1523 85.4029 84.7463 83.8035 81.4152 75.675 74.2221 73.9789 73.349 72.264 72.1747 71.6616 70.732 70.496 69.2916 68.2046 67.7163 67.4643 67.2564 66.882 66.3783 66.3379 64.8593 64.7247 64.1973 63.76 63.0132 62.6363 62.386 61.6877 61.4032 59.7234 59.3946 60.2553 56.888 56.6504 56.2827 55.7545 55.5554 54.7617 53.9451 53.2394
threshold=11.500000000000002 209894.05555555553 50.500000000000007 3126.5000000000005 100059.50000000001 0.010511857278758053 10186887.250000002 0.010448366866649152 634375.71428571467 50225.833333333358 4.5000000000000009 148061.33333333302 344349.20833333355 2044.5000000000002 22.500000000000004 0.018945613939314706 5641.0000000000009 26.500000000000004 7.3302916444296655e-05 21.337903692542206 0.018038649944702403 301329.37500000006 1999.5000000000002 26994.750000000004 4992.5000000000009 0.0057850810989778555 20550259.000000004 414573.45238095254 1902.5000000000002 5165.9704750088613 0.019862492441028654 0.015240375375859301 1.6379407266065656e-05 1600.5000000000002 1812.5000000000002 72838.000000000015 6415587.9000000013 1.0000000180025095e-35 4992.5000000000009 0.0059268140545713707 17112.500000000004 2682468.2666666652 1.3357889208489451e-05 1960345.2380952353 1872.0909090909101 7.3302916444296655e-05 2032.5000000000002 1.5000000000000002 7.5000000000000009 367722.61494252854 1.9700211784303705e-05 0.027869158077942203 1.0000000180025095e-35 17.500000000000004 1985.5000000000002 3879.5000000000005 2532.5000000000005 1.7293811435762054 -121.97966921676299 1646.5000000000002 1848.1000000000001 1062001.6071428552 6.0929451186709959e-06 3.1290207142733153 11671.363356693519 356795.60000000003 1986.5000000000002 3767833.1250000005 11.500000000000002 502385.63333333359 3.8727192125209956e-06 1.6464584423076651e-05 3.563282214684036e-05 0.028670843059344652 9.5000000000000018 1290.5833333333351 1640.5833333333351 1985.5000000000002 0.034856252186630056 3046.5000000000005 0.021591731161986854 3.5000000000000004 0.014474947228927651 1985.5000000000002 4267.2113579966308 0.010448366866649152 32.083333333333357 9.9355695595314568 0.033801504119826457 1.8981013080896904e-05 1.5031292818398703e-05 15.500000000000002 119777.37500000001 6.5000000000000009 42.500000000000007 0.12716888875405705 4837416.7500000009 0.014176361030334402 0.013854762166026501 7.5100145109214511e-06 1961.9384408602152 123.74773804535501 193.50000000000003 8.584934630132942e-06 51925.500000000007 33.500000000000007 325347.90000000008 2.2379031832323649e-05 0.023079081880335604 19188.775914085902 1.0000000180025095e-35 283654.43283582106 0.17855544178160002 0.018567824779010655 0.0035701384716107054 0.0085156269174541058 1.8380355328659251e-05 5165.9704750088613 1.1408179415771101e-05 3.1720778082109263e-05 0.0035701384716107054 1103.7500000000002 13.500000000000002 0.0040293871623878113 2892.6917755461404 5.5000000000000009 5.16566415519373e-06
decision_type=10 2 10 10 2 10 2 10 2 2 10 2 2 8 10 10 10 10 10 10 10 2 10 2 10 10 2 2 10 8 10 10 10 10 10 2 2 10 10 10 10 2 10 2 10 10 10 10 10 2 10 10 10 10 10 10 8 8 2 10 10 2 10 10 8 2 10 2 10 2 10 8 8 10 10 10 10 10 10 10 8 10 10 10 8 10 10 8 10 10 10 8 2 10 10 10 2 10 10 10 10 10 10 8 10 8 2 10 10 10 10 2 10 10 10 10 10 8 10 10 10 10 8 10 8 8 10
left_child=1 4 8 5 9 12 18 16 21 23 15 34 33 30 42 24 39 25 41 20 29 45 31 95 65 43 -8 106 93 81 57 64 62 60 44 -11 61 52 66 114 77 50 99 46 92 119 84 56 100 -20 -4 55 73 89 74 82 -31 -7 72 76 -3 -18 -16 -45 75 -9 88 -19 122 -41 102 -59 110 80 -40 -13 -37 97 79 113 -22 90 -24 98 121 -66 -43 -38 125 -23 -15 -53 -6 103 -21 -1 -88 -26 -67 -10 -29 -51 -28 -27 -42 -34 -12 -55 -33 -58 -32 -35 120 -36 -5 -30 -77 118 -62 -2 -86 -14 -44 -48 -105 -17 -63
right_child=2 3 6 7 11 13 26 10 14 35 27 22 17 19 32 38 36 67 49 94 37 53 51 -25 40 28 70 48 115 47 58 108 105 111 78 59 87 -39 54 69 104 86 68 63 -46 -47 123 -49 -50 101 -52 91 -54 107 -56 -57 109 71 -60 -61 117 126 -64 -65 85 83 -68 -69 -70 -71 -72 -73 -74 -75 -76 116 -78 -79 -80 -81 -82 -83 -84 -85 112 -87 96 -89 -90 -91 -92 -93 -94 -95 -96 -97 -98 -99 -100 -101 -102 -103 -104 124 -106 -107 -108 -109 -110 -111 -112 -113 -114 -115 -116 -117 -118 -119 -120 -121 -122 -123 -124 -125 -126 -127 -128
leaf_value=12.115227193889782 12.464384486789612 12.376609909283287 12.691163964862014 12.566494089716283 12.290535211411711 12.327302824803452 12.792487525847065 12.398365504087096 12.620428661797243 12.236971172122573 12.416256467761169 12.337933369633914 12.432222974374438 12.350397305072624 12.738924053106505 12.405824098537481 12.505386221644732 12.566785217695776 12.352485237651379 12.53967546703073 12.31489093708776 12.509287490310408 12.362716253291985 12.194785415256996 12.453611520036818 12.399682323258938 12.909102811494323 12.469164310678865 12.431144001807743 12.37323488465907 12.331295890948576 12.309729622284536 12.557062689910738 12.386634274015172 12.326610043274648 12.268695143350007 12.588415484512554 12.404203885783193 12.398950126222015 12.442574898835051 12.555635372820037 12.794309208185673 12.471288507404791 12.472218917024884 12.274586523361169 12.326260448986703 12.500260745757544 12.420533492915043 12.499079856872465 12.514459823712315 12.622645514691108 12.364136989887012 12.377056632070586 12.550729091388328 12.484180273467954 12.385428106356942 12.390098011884806 12.361982401813993 12.28584382272501 12.285078712042782 12.346628587989398 12.600281674071891 12.636313858746382 12.684844736474922 12.354250191069688 12.425994698436934 12.432928169081102 12.784511217496721 12.545414729757642 12.468586223233267 12.880900565810071 12.34120275797741 12.29585601957333 12.324203639274796 12.441576957682056 12.311703850364582 12.241462795237197 12.484592042161788 12.287283369134013 12.345955064404833 12.352740682147008 12.385268287152668 12.342806026813475 12.449905659115618 12.460227607651957 12.332555843453864 12.682554326465132 12.828793499933209 12.343446003675131 12.470219810075674 12.310344537247509 12.31270112723476 12.309350475628946 12.465573121478126 12.711331857899932 12.028777082256065 12.726734747472126 12.429708298591203 12.406567110340088 12.564478138729626 12.439628329049336 12.693516109413029 13.013731187043236 12.329452912664024 12.744829984391439 12.596576280371387 12.442686888329568 12.506937533434805 12.285771443011864 12.434422496214522 12.397616475877179 12.403755115076331 12.302596890734799 12.306819773419685 12.501175468640636 12.412465374446965 12.267377079516471 12.363478899381306 12.299190578012627 12.412215335894322 12.428160468578325 12.37266134481445 12.516014602925177 12.458213194170259 12.378243236668077 12.374312166727773 12.53953031409498
leaf_weight=743 439 4264 619 171 3900 2450 588 4607 264 5081 1921 1460 260 1107 132 609 1386 48 58 88 751 1041 3935 2521 2131 1570 118 2622 4305 7950 2759 3590 722 4219 2974 4200 22 1061 3481 3342 124 126 406 54 4033 163 394 1278 1612 97 691 354 1387 750 250 1369 7333 6013 1102 3244 1045 211 1460 58 3015 3331 358 53 1187 3325 470 4349 943 2372 672 1623 1928 527 915 1413 5887 423 5810 846 843 4945 622 44 817 1094 822 1352 4502 111 34 111 896 2954 4252 1370 1114 27 129 254 22 1034 1878 616 1644 342 153 4383 34 3430 936 2977 374 1419 360 399 1590 407 889 1552 2439 5032 456
leaf_count=743 439 4264 619 171 3900 2450 588 4607 264 5081 1921 1460 260 1107 132 609 1386 48 58 88 751 1041 3935 2521 2131 1570 118 2622 4305 7950 2759 3590 722 4219 2974 4200 22 1061 3481 3342 124 126 406 54 4033 163 394 1278 1612 97 691 354 1387 750 250 1369 7333 6013 1102 3244 1045 211 1460 58 3015 3331 358 53 1187 3325 470 4349 943 2372 672 1623 1928 527 915 1413 5887 423 5810 846 843 4945 622 44 817 1094 822 1352 4502 111 34 111 896 2954 4252 1370 1114 27 129 254 22 1034 1878 616 1644 342 153 4383 34 3430 936 2977 374 1419 360 399 1590 407 889 1552 2439 5032 456
internal_value=12.3816 12.3643 12.592 12.3975 12.3009 12.3767 12.7298 12.4321 12.5408 12.2413 12.4205 12.3219 12.4028 12.3592 12.5735 12.4103 12.4777 12.4221 12.677 12.3705 12.3697 12.4868 12.3356 12.1718 12.4225 12.4206 12.8567 12.4543 12.4092 12.3801 12.3394 12.3239 12.611 12.3819 12.3028 12.2576 12.5298 12.3521 12.3898 12.4635 12.4475 12.6885 12.5429 12.4462 12.2922 12.4211 12.4432 12.3854 12.472 12.4894 12.655 12.3509 12.3467 12.5055 12.4103 12.3551 12.3825 12.3483 12.3165 12.2688 12.3656 12.5227 12.6448 12.5823 12.3339 12.4114 12.3765 12.681 12.5228 12.4555 12.9094 12.3533 12.3253 12.3421 12.4058 12.318 12.2601 12.4439 12.3178 12.3214 12.3485 12.3427 12.3508 12.4186 12.4286 12.3408 12.7152 12.7487 12.3734 12.4893 12.3333 12.3234 12.3006 12.3853 12.5875 12.104 12.7086 12.4397 12.4151 12.5735 12.4604 12.5534 12.9637 12.3832 12.5841 12.5803 12.4293 12.531 12.3022 12.3921 12.3348 12.3954 12.4374 12.316 12.5113 12.4235 12.3034 12.349 12.3345 12.4395 12.4393 12.3959 12.502 12.4667 12.3736 12.3777 12.5587
internal_weight=0 198762 16407 130296 68466 81243 4441 49053 11966 17828 39160 50638 32639 48604 7464 30013 9893 16949 3136 30835 30713 4502 29471 3375 18794 16848 1305 9147 11656 19255 17769 16651 3348 15690 21167 14453 2119 11458 11219 7774 5758 2954 4116 5192 12435 1001 5080 16903 5348 182 1310 12820 10397 3501 4403 11114 15625 12812 4957 9372 7088 2053 1592 112 11417 13036 6816 101 2482 6667 717 10362 3855 9010 4153 3457 6128 5612 8732 7817 6638 2352 9745 8429 3134 7960 1644 66 6458 2135 1929 1706 8402 4374 122 854 1518 5085 7583 1634 3736 124 247 4263 146 1756 3799 1366 5234 7675 2912 8602 2467 6404 1107 7282 1997 2824 1405 838 2433 667 1295 1946 2693 5641 667
internal_count=215169 198762 16407 130296 68466 81243 4441 49053 11966 17828 39160 50638 32639 48604 7464 30013 9893 16949 3136 30835 30713 4502 29471 3375 18794 16848 1305 9147 11656 19255 17769 16651 3348 15690 21167 14453 2119 11458 11219 7774 5758 2954 4116 5192 12435 1001 5080 16903 5348 182 1310 12820 10397 3501 4403 11114 15625 12812 4957 9372 7088 2053 1592 112 11417 13036 6816 101 2482 6667 717 10362 3855 9010 4153 3457 6128 5612 8732 7817 6638 2352 9745 8429 3134 7960 1644 66 6458 2135 1929 1706 8402 4374 122 854 1518 5085 7583 1634 3736 124 247 4263 146 1756 3799 1366 5234 7675 2912 8602 2467 6404 1107 7282 1997 2824 1405 838 2433 667 1295 1946 2693 5641 667
shrinkage=1


Tree=1
num_leaves=128
num_cat=0
split_feature=1 54 1 54 0 59 54 58 54 54 54 54 14 0 45 58 0 59 8 0 0 54 58 58 58 54 54 0 59 58 54 59 54 26 54 1 59 15 26 2 54 58 59 59 2 15 0 8 15 0 15 0 58 58 58 58 15 58 54 45 1 0 0 7 54 54 0 9 21 58 0 58 46 58 2 14 25 54 52 7 59 52 58 8 58 58 16 0 0 0 58 0 0 8 38 58 1 58 32 58 7 58 15 54 60 11 54 54 58 40 54 58 54 59 54 58 58 58 7 8 59 58 59 49 54 11 14
split_gain=63661.1 33961.8 9410.84 7656.1 7102.82 3000.4 2645.81 1948.34 1644.21 1595.15 1366.22 1082.95 943.499 803.74 670.866 650.484 643.17 585.873 542.758 472.065 462.665 455.72 404.378 375.653 375.631 366.899 361.971 348.549 314.356 311.786 309.461 302.258 291.667 259.639 255.269 255.07 249.953 246.973 238.865 236.259 223.865 201.151 190.952 188.733 163.584 163.968 163.186 148.472 138.409 165.024 138.16 137.926 136.795 133.488 132.999 131.371 124.806 119.942 114.929 113.009 111.096 110.767 110.361 106.955 106.839 106.343 106.028 113.509 105.702 104.88 104.593 136.427 104.466 101.482 100.515 99.2916 99.1684 96.8169 96.1074 93.7238 92.9488 91.8827 91.0733 90.0654 87.2057 85.4812 85.1009 84.0984 82.4189 80.0191 79.1683 78.9548 78.3666 75.7782 74.7008 73.0691 72.8719 72.102 71.1183 68.1948 67.7861 65.0451 64.793 64.0479 63.1357 61.5177 60.9044 60.5684 59.9377 61.6542 59.8555 58.4615 57.6218 57.4486 57.2459 57.1967 56.925 55.6831 55.5808 55.1896 53.0054 52.282 52.2157 52.0521 51.2154 50.9895 50.6296
threshold=11.500000000000002 223627.66666666654 46.500000000000007 100059.50000000001 3253.5000000000005 1.2192787606477903e-05 10186887.250000002 0.011900163600461401 44396.333333333358 507015.08333333355 156775.15000000002 364837.85714285704 4.5000000000000009 2220.5000000000005 20667.947256872907 0.0066861340629258111 6000.5000000000009 4.0980091268030857e-05 9.5000000000000018 2328.5000000000005 6590.5000000000009 2372512.1250000005 0.017950108010234504 0.020813237346030602 0.016026614355923504 72838.000000000015 20550259.000000004 1780.5000000000002 2.7968090269126799e-05 0.0065641002516736964 26994.750000000004 4.0064155438060258e-05 3767833.1250000005 2.1320825176416958 414573.45238095254 112.50000000000001 1.2719900605188e-05 3196.3543754412653 11.243353620521303 1.0000000180025095e-35 566529.65476190508 0.018140633198272155 1.5102576331032351e-05 1.4416797659006452e-05 1.0000000180025095e-35 11671.363356693519 2089.5000000000005 27.500000000000004 11671.363356693519 2044.5000000000002 5165.9704750088613 2220.5000000000005 0.0080729149001370504 0.019376142676263055 0.016693987960145953 0.017756154839216304 11671.363356693519 0.0096007432477339116 3139432.7500000005 5639.3876486765212 18.500000000000004 4642.5000000000009 1454.5000000000002 1985.5000000000002 712645.33928571467 182357.37500000003 1702.5000000000002 2.5000000000000004 0.021591731161986854 0.028287548996955205 3173.5000000000005 0.028287548996955205 12.262193098273702 0.011837153390224552 1.5000000000000002 11.500000000000002 3882.0442038435999 359225.66153846151 1464.6060606060603 1986.5000000000002 4.9222265661494311e-06 2119.9565217391305 0.019862492441028654 28.500000000000004 0.011208794529119452 0.016026614355923504 6.0562099964620861 1516.5000000000002 3842.5000000000005 1564.5000000000002 0.013975821869243401 4178.5000000000009 51925.500000000007 28.500000000000004 1.1372417216595851 0.012901795850858001 271.50000000000006 0.0043885565952081753 993904.50000000012 0.0040293871623878113 1980.5000000000002 0.015665930981257754 4267.2113579966308 1960345.2380952353 1.4089050640786349 -121.873106113124 427935.11904761905 2682468.2666666652 0.0043885565952081753 0.17855544178160002 163552.04482758601 0.12716888875405705 20550259.000000004 2.2521380441633153e-05 59280.750000000007 0.025977925052437754 0.012538127803569702 0.025185790367025254 1943.5000000000002 9.5000000000000018 7.8864309234239959e-06 0.014176361030334402 9.2699642296224065e-06 2.21487362428616 320922.25000000006 -121.63114353424149 8.5000000000000018
decision_type=10 2 10 2 10 10 2 10 2 2 2 2 10 10 8 10 10 10 10 10 10 2 10 10 10 2 2 10 10 10 2 10 2 8 2 10 10 10 10 10 2 10 10 10 10 10 10 10 10 10 8 10 10 10 10 8 8 10 2 10 10 10 10 10 2 2 10 8 8 10 10 10 8 10 10 10 8 2 10 10 10 10 10 8 10 10 8 8 10 8 10 10 10 10 8 10 10 10 2 10 10 10 8 2 8 2 2 2 10 10 2 10 2 10 2 10 10 10 10 10 10 10 10 8 2 2 10
left_child=1 3 9 8 5 11 17 16 30 31 27 46 20 18 43 21 29 35 28 24 23 51 74 63 56 114 -8 41 44 99 111 60 64 85 -14 42 58 -23 54 69 110 50 -4 122 45 66 52 -20 49 -35 55 102 68 91 -22 -5 81 -48 -16 -36 113 106 78 77 -18 -33 67 98 -3 123 71 101 -34 -58 90 -45 115 -9 -27 124 96 -12 -78 -38 -51 -17 -54 -26 -55 -84 -15 -21 -40 -50 -65 -68 -28 -53 -7 -6 119 -29 -13 -42 -47 -97 -31 -44 109 -104 -19 -1 -39 -2 -10 -30 -52 -72 -71 -56 -66 -79 -11 -24 -25 -125 -61
right_child=2 4 6 10 7 13 26 12 25 14 19 15 34 22 36 33 32 40 47 53 38 37 39 79 87 62 80 70 76 61 -32 65 72 48 59 -37 83 112 92 -41 103 -43 107 75 -46 104 57 -49 93 84 116 97 86 88 100 -57 73 -59 -60 126 -62 -63 -64 94 120 -67 95 -69 -70 118 117 -73 -74 -75 -76 -77 82 121 -80 -81 -82 -83 89 -85 -86 -87 -88 -89 -90 -91 -92 -93 -94 -95 -96 105 -98 -99 -100 -101 -102 -103 108 -105 -106 -107 -108 -109 -110 -111 -112 -113 -114 -115 -116 -117 -118 -119 -120 -121 -122 -123 -124 125 -126 -127 -128
leaf_value=-0.23975800704185929 0.096960826406769396 -0.016873863989588813 0.29429993243040686 -0.10193159429491475 0.16019245849437072 -0.068499180994240308 0.36927095484454964 0.011552069773263137 -0.14475213071071599 0.18806983205519226 -0.043741930977978377 0.016114560198944385 0.043809290441185644 0.016234077110191023 0.20863190801357023 -0.018747224239878062 0.0973741115514654 -0.092830137610435487 0.067547305087290052 -0.013136525509435762 0.071347760743946081 0.091107027425334386 -0.031844818478213285 -0.020262963742433381 -0.089258219425654511 -0.10026291775949298 0.47982841419137046 -0.039992506450901383 -0.16631300232317578 0.044357746321874537 -0.17594047470461757 -0.047057731058294194 0.1812861372415836 0.0063391433989062043 0.061387443876481575 0.32979789003181176 0.15360060559763761 0.27889268795649208 0.13914306137955537 0.024210883946254091 0.15811025338125942 -0.096787894316187673 0.22145059910987208 0.097323592036869189 0.0096832745336689532 -0.0053512312980269761 0.02662771927295739 0.2497757994044911 0.080523125612976851 0.039688106593131239 -0.049628657014813241 0.10758139297620993 -0.032085426567133382 -0.04430978797520399 0.024133256595602642 -0.06508781312741059 -0.022943963798720664 0.0020729673509727298 0.27399460656775371 0.075014951805557589 0.12905775833393737 0.08208505504558479 -0.089579692034879033 0.080620978610538116 0.16288642457211919 0.043452792705776282 -0.0077444988196079464 -0.018097793553010996 0.012492235720382701 -0.054545064071069654 -0.017759384918610462 -0.091806098993412022 0.35989152644619798 -0.041459711981905317 0.035556136080133117 0.13742274620580239 -0.026691539629798079 0.042431007267358947 -0.12814741761750312 0.053770257263037739 0.44028675002598833 -0.07946506248028315 -0.092405646730699523 0.1896784582049762 0.016408380056543156 -0.12006914088421541 -0.0070374948667882757 -0.060406298739910297 -0.013910018522223171 -0.055116159425429127 -0.0034791240192111267 0.024211665298921534 0.32009376739633494 0.27417287609793922 0.032566490412244332 -0.024474138101120049 0.57789565398629794 0.065270561081575015 -0.04201261559062737 0.10210749658684425 0.086117454794647386 -0.060454013738131557 0.069745722960910486 0.2551217407815986 0.075389275141572065 -0.047554216076686424 0.064133449505499249 0.26323262284287313 0.039126837024405864 -0.068678997411872403 0.071982845509177953 -0.31756310377035057 0.45691512028376269 0.060702339495136405 -0.1248776163802867 -0.055803310082087089 -0.069571789930422429 -0.050775493952923634 -0.01002416634986409 0.057204299020313848 0.12086171325668962 0.025419571638159468 0.14935174084564096 -0.0075502427236871705 0.00081394072779167759 -0.042772974005646051 0.103744630614276
leaf_weight=743 1047 1666 998 2159 238 1241 599 3744 2531 475 2761 695 3107 3641 933 877 1234 30 239 5145 1678 87 2220 1601 1291 3097 230 2100 134 2667 1680 181 65 3626 1764 679 1182 75 137 1037 184 4312 899 1260 1010 207 3568 55 248 5104 2476 497 2194 2418 2154 1754 5991 4496 378 934 689 2161 4218 609 530 459 1878 1720 4638 1600 993 1160 66 5851 1257 1211 812 2676 2057 284 379 974 764 1669 2350 92 3553 4646 1413 2332 4625 636 29 22 690 4582 113 2124 5536 1341 251 5971 1289 108 182 1544 3743 565 2107 33 83 111 24 750 3391 72 3392 1052 340 659 692 5561 1306 3050 4119 475 1787
leaf_count=743 1047 1666 998 2159 238 1241 599 3744 2531 475 2761 695 3107 3641 933 877 1234 30 239 5145 1678 87 2220 1601 1291 3097 230 2100 134 2667 1680 181 65 3626 1764 679 1182 75 137 1037 184 4312 899 1260 1010 207 3568 55 248 5104 2476 497 2194 2418 2154 1754 5991 4496 378 934 689 2161 4218 609 530 459 1878 1720 4638 1600 993 1160 66 5851 1257 1211 812 2676 2057 284 379 974 764 1669 2350 92 3553 4646 1413 2332 4625 636 29 22 690 4582 113 2124 5536 1341 251 5971 1289 108 182 1544 3743 565 2107 33 83 111 24 750 3391 72 3392 1052 340 659 692 5561 1306 3050 4119 475 1787
internal_value=0 -0.0156277 0.189321 -0.0691143 0.016318 -0.00151393 0.305941 0.0483273 -0.126248 0.140137 -0.0510846 0.0181524 0.0350846 -0.0206042 0.162798 0.0351073 0.0813734 0.260939 -0.0333359 -0.0370453 0.0254327 0.0596144 -0.00503717 0.018456 -0.045277 -0.113887 0.426741 -0.0683099 -0.0351385 0.0700287 -0.200856 0.0791404 0.125884 0.0213189 0.0658402 0.275535 0.191339 0.214028 0.0528449 -0.0205933 0.147741 -0.0787946 0.260569 0.134862 -0.0294096 -0.0317474 0.00192668 0.101638 0.0255608 0.023837 -0.0708621 0.0553563 -0.00544125 -0.018621 0.0487174 -0.0854164 -0.0371194 0.0129375 0.227478 0.0811021 0.0949178 0.0625061 -0.101575 0.0278406 0.118129 0.0178553 -0.0332602 -0.0410401 0.00473146 -0.0266391 -0.0552058 -0.059739 0.271271 -0.0320924 0.00921048 0.116976 -0.0600647 0.0248856 -0.111392 -0.0023014 0.47442 -0.0530577 -0.0565001 0.174721 0.0323488 -0.0283671 -0.0165999 -0.0666801 -0.0330973 -0.0643181 0.00520413 -0.00902764 0.170755 0.096302 0.0550955 -0.025001 0.512136 0.0732936 -0.0468628 0.110863 0.0363238 -0.0551301 0.0439563 0.193991 0.0324245 -0.0302913 0.0559054 0.237575 0.0495993 0.0662903 0.0282272 -0.249871 0.32205 0.0818279 -0.133372 -0.127688 -0.0611568 -0.0347437 -0.0467424 0.0318808 0.139088 0.0309462 0.159678 -0.0198505 -0.00508538 -0.0122966 0.093883
internal_weight=0 198762 16407 74323 124439 79918 4867 44521 17828 11540 56495 39365 31784 40553 8414 19250 12737 3546 22308 31126 24192 6931 18245 19284 21514 15294 1321 25369 22014 10150 2534 3126 2587 12319 7592 3141 4162 186 4908 8722 405 14093 2462 4252 17900 16890 20115 294 11350 11080 9781 6745 12051 9612 4742 3913 15577 8064 1311 4485 2486 8571 9372 13280 2456 640 16501 8497 6304 7685 11276 9231 131 11842 9523 2471 4114 11981 5154 6004 722 3735 3908 2851 7454 969 5747 5937 3831 3096 8266 5781 166 270 1299 8004 343 2621 6777 1579 3064 8071 4124 292 389 6126 6410 1464 3429 1322 113 854 99 1797 5922 206 5868 2045 1940 2813 1222 8237 1781 5745 5720 3525 2721
internal_count=215169 198762 16407 74323 124439 79918 4867 44521 17828 11540 56495 39365 31784 40553 8414 19250 12737 3546 22308 31126 24192 6931 18245 19284 21514 15294 1321 25369 22014 10150 2534 3126 2587 12319 7592 3141 4162 186 4908 8722 405 14093 2462 4252 17900 16890 20115 294 11350 11080 9781 6745 12051 9612 4742 3913 15577 8064 1311 4485 2486 8571 9372 13280 2456 640 16501 8497 6304 7685 11276 9231 131 11842 9523 2471 4114 11981 5154 6004 722 3735 3908 2851 7454 969 5747 5937 3831 3096 8266 5781 166 270 1299 8004 343 2621 6777 1579 3064 8071 4124 292 389 6126 6410 1464 3429 1322 113 854 99 1797 5922 206 5868 2045 1940 2813 1222 8237 1781 5745 5720 3525 2721
shrinkage=0.1


Tree=2
num_leaves=128
num_cat=0
split_feature=0 54 0 0 54 58 54 58 54 54 14 54 54 8 0 45 0 8 58 54 58 58 0 59 0 54 54 0 58 58 54 54 52 18 0 58 45 0 58 58 54 23 45 8 54 25 54 49 15 52 0 47 58 0 54 2 52 54 7 7 58 15 14 58 58 8 9 4 58 15 58 11 0 54 54 54 8 54 58 59 7 11 0 58 58 52 0 58 0 58 59 1 7 59 2 58 54 54 58 59 40 32 58 1 52 14 59 6 58 18 4 1 1 0 32 54 0 15 58 58 59 58 7 58 52 58 1
split_gain=51600.9 27235.2 8461.13 6095.04 4987.04 2643.77 2028.64 1920.33 1552.63 1077.31 1070.24 1042.93 985.702 887.299 651.297 550.819 543.665 494.223 457.497 393.009 378.167 363.994 350.152 315.086 306.429 303.066 286.666 261.378 257.665 243.72 238.791 227.479 209.758 206.787 204.088 201.02 192.863 185.029 178.785 178.419 163.121 186.508 159.713 152.119 142.233 140.322 134.886 128.57 127.585 123.183 119.058 115.948 115.816 119.184 107.111 105.055 104.537 102.48 101.244 100.578 102.941 97.1788 96.3282 92.2041 89.755 87.5948 87.5927 85.2079 84.9139 83.248 80.875 80.6641 80.3131 78.1603 77.0762 76.9315 75.4715 74.6684 73.7781 72.8064 72.2019 71.6027 71.0848 67.0951 66.7998 66.589 64.6952 64.4422 62.7629 62.6684 62.5984 71.1904 62.1016 61.7983 59.7632 59.3085 57.6355 57.5318 56.8444 56.2446 55.0381 54.9087 54.2014 53.5356 53.4583 51.4487 50.4777 50.2663 49.2516 48.7412 48.4839 48.1305 47.3644 47.0252 46.2933 46.2417 45.9892 45.5917 65.5072 44.8546 43.9318 43.8145 43.4717 43.2398 42.6317 41.5564 40.9575
threshold=9469.0000000000018 195432.81250000003 43567.000000000007 2944.5000000000005 88901.000000000015 0.010987977221436801 10186887.250000002 0.011837153390224552 712645.33928571467 37247.000000000007 4.5000000000000009 342012.26666666655 132998.28571428603 33.500000000000007 1942.5000000000002 20667.947256872907 4642.5000000000009 16.500000000000004 0.020813237346030602 290259.44318181806 0.0066861340629258111 0.020241662028610503 1780.5000000000002 2.1402903333359652e-05 3953.5000000000005 20550259.000000004 340011.25357142853 1614.5000000000002 0.0059268140545713707 0.023079081880335604 63295.000000000007 990034.02976190508 2109.2380952380959 986.63858418177961 1736.5000000000002 0.0067895396539563108 14890.251755051702 1920.5000000000002 0.0083268813274984116 0.013320665874524651 1192683.0144230754 1.4153492624748953 7738.9851708052111 7.5000000000000009 310167.31944444455 4199.4636017756811 26994.750000000004 2.6048955255648503 4267.2113579966308 1810.5833333333351 77743.000000000015 1741.1283580544102 0.024449106680673901 2990.5000000000005 6415587.9000000013 1.5000000000000002 1783.1111111111102 431204.56643356656 1986.5000000000002 1986.5000000000002 0.033147759157278606 19188.775914085902 11.500000000000002 0.036816837898131262 0.12716888875405705 8.5000000000000018 7.5000000000000009 27442.088623114454 0.023670391569312003 11671.363356693519 0.02906073988845775 -121.46341210325748 3450.5000000000005 3139432.7500000005 482264.33333333355 792142.66666666709 87.500000000000014 359225.66153846151 0.01346064326486405 3.8727192125209956e-06 1985.5000000000002 -121.96775790277249 1466.5000000000002 0.021558825739648804 0.0076640542597164714 1464.6060606060603 3046.5000000000005 0.017078123203702455 3779.5000000000005 0.014522090645932602 3.563282214684036e-05 25.500000000000004 1963.5000000000002 3.6321464483477857e-05 1.0000000180025095e-35 0.0029220805131424756 272101.25000000006 486528.6748768476 0.015586002741071801 2.4157995840400253e-05 0.17855544178160002 1074250.0000000002 0.12716888875405705 33.500000000000007 1103.7500000000002 1.0000000180025095e-35 1.1987278724076501e-05 6.6458667154581663 0.015240375375859301 1008.0044852454001 3537.7668173727807 193.50000000000003 156.50000000000003 2313.5000000000005 1401050.0000000002 114428.25000000001 2657.5000000000005 11671.363356693519 0.011055629756860202 0.0043885565952081753 4.7152114273626261e-06 0.0043885565952081753 1925.5000000000002 0.0064711882479522214 25482.500000000004 0.039247951158950155 2.5000000000000004
decision_type=10 2 10 10 2 10 2 10 2 2 10 2 2 10 8 8 10 10 10 2 10 10 10 10 10 2 2 10 10 10 2 2 10 10 10 10 8 10 10 10 2 10 10 10 2 8 2 8 8 10 10 10 10 10 2 10 10 2 10 10 10 10 10 10 10 10 10 10 10 10 10 2 10 2 2 2 10 2 10 8 10 2 10 10 10 10 10 10 10 10 8 10 8 8 10 10 2 2 10 8 10 2 10 10 10 10 8 10 10 10 10 8 10 10 2 2 10 8 8 10 10 10 10 10 10 10 8
left_child=1 4 8 5 9 11 21 16 19 46 18 27 34 20 29 39 28 23 24 63 40 50 32 33 77 -8 -12 56 -5 51 -11 64 89 44 49 95 83 66 121 123 48 120 71 59 -16 -25 102 87 104 115 106 98 53 78 -15 58 96 -30 61 60 88 68 -41 -2 -23 80 109 99 126 101 86 -28 -54 124 -50 -63 -19 -9 -24 111 108 93 85 -21 -29 -32 -36 -46 -20 117 91 -38 -35 -31 -53 -18 -3 -37 -7 103 119 -49 -1 -40 -13 -103 -4 -44 -26 -22 -94 -27 -52 -86 -61 -6 -72 118 -14 -76 -42 -17 -95 -10 -33 -70 -47
right_child=2 3 6 7 12 14 25 10 15 30 26 13 22 54 17 38 35 76 43 36 37 31 52 45 65 79 42 84 57 81 82 73 -34 92 70 97 90 -39 67 62 41 -43 107 -45 47 55 -48 69 74 -51 112 94 72 -55 -56 -57 -58 -59 -60 114 -62 75 -64 -65 -66 -67 -68 -69 125 -71 116 -73 -74 -75 100 -77 -78 -79 -80 -81 -82 -83 -84 -85 113 -87 -88 -89 -90 -91 -92 -93 110 122 -96 -97 -98 -99 -100 -101 -102 105 -104 -105 -106 -107 -108 -109 -110 -111 -112 -113 -114 -115 -116 -117 -118 -119 -120 -121 -122 -123 -124 -125 -126 -127 -128
leaf_value=-0.21578220544560922 0.048807736653726758 -0.013313765681936963 0.2718399543050341 0.098529834281080947 -0.080158957031018663 -0.03471525238792806 0.33277045129744476 0.0021335945388386967 0.20737764302528269 -0.13159094207280389 0.026291086929597335 0.044851285176612583 -0.072621179517358206 0.19565627656640933 -0.015316753399102358 0.30123102639583832 0.23915828421430768 0.12946172630786898 -0.015065756940304393 0.087580043032437438 0.0057863511721546624 0.13989419362531239 -0.021407341901448704 -0.085017170066841355 0.03849749544532563 0.42719605356200135 0.061756324123866273 0.022668119730592299 0.036712520817890636 -0.044439435517914329 -0.10099282161828962 0.26117865465036255 -0.074160880325227871 -0.039586318584801161 -0.058537067129074097 0.066481384476576366 0.11216320066130502 0.028000047806299107 0.16328707374435403 0.087131881134764513 0.11330282442011255 0.22695977590461769 0.075352197778293939 0.031237122642233019 0.0012271879193340432 -0.0071439775521128833 -0.16922406697216624 -0.019518092930835437 0.037796111542306068 -0.096744448895360879 0.27961013581245359 -0.02544956942414725 -0.064533062738563421 -0.0099388886344780152 0.37061158781466275 0.017569661530726709 -0.028027867949175139 0.057298092573308396 0.028055875507185024 0.0029593487100678631 -0.032696583389431606 0.010903313531289024 0.13290926450936241 -0.016051793070900804 -0.020301521315080368 0.059395181922527768 0.092821427895687536 0.20600489429642735 -0.039157290664251755 0.068177045689296584 -0.097863714429580709 0.017336624520606147 -0.028779400681307261 0.2519221893989837 0.078157563635358529 0.18908724735490978 0.32779638469219208 0.019288550971113594 -0.039584926091123157 0.40605965017769408 0.059293554530746577 -0.094787944875017183 -0.090308579264851946 0.051103782729878637 -0.002392471177416749 -0.12627914385765979 -0.027200238860074985 -0.022934818876875887 0.0046784993369305616 -0.061602673802232659 0.080001184665700442 0.15447288974416706 -0.020344056286217969 -0.092189250670997314 0.012560604571686446 0.13001308575381462 0.01027067248484325 0.091915098718542726 -0.053285934381610257 0.14024340523947812 -0.069960985891520985 0.011777088029531224 -0.29011983038049882 0.2007705746451828 -0.0097109883852559298 0.043240271639805254 0.22911348473257442 0.10981138925757861 0.022521487089598106 -0.01748560023327881 0.025835112494816778 0.51626683587119693 0.33524043729462605 0.014777529426034844 0.074339854436100652 -0.064054698074511293 -0.06377732082395457 -0.036515797032220777 -0.041333683834924917 0.051766159740509465 0.031863089797814804 0.22458365964097002 -0.043320366021622599 0.14711464972369404 0.18315847386295597 -0.063999633985291404 -0.03049838092006793
leaf_weight=743 691 3288 422 1123 4681 4347 605 4497 132 4221 2382 257 1036 71 5624 94 53 150 2875 1574 2720 238 3276 456 3413 117 3951 2417 4431 1470 2949 82 3964 1880 5267 1306 1593 5788 1324 1145 118 101 814 1175 3279 1104 842 478 3330 3487 686 4995 1741 2629 69 476 3833 5324 282 159 1547 126 768 321 41 1411 100 639 3226 286 755 456 983 411 1049 30 22 5822 7012 474 905 637 3107 742 4706 1610 753 1664 3659 2249 409 530 3757 624 451 821 1513 2788 2655 668 32 3687 113 535 596 605 802 882 4440 1345 242 126 197 2413 212 2880 832 4707 1890 1668 151 361 257 1215 480 851 2348
leaf_count=743 691 3288 422 1123 4681 4347 605 4497 132 4221 2382 257 1036 71 5624 94 53 150 2875 1574 2720 238 3276 456 3413 117 3951 2417 4431 1470 2949 82 3964 1880 5267 1306 1593 5788 1324 1145 118 101 814 1175 3279 1104 842 478 3330 3487 686 4995 1741 2629 69 476 3833 5324 282 159 1547 126 768 321 41 1411 100 639 3226 286 755 456 983 411 1049 30 22 5822 7012 474 905 637 3107 742 4706 1610 753 1664 3659 2249 409 530 3757 624 451 821 1513 2788 2655 668 32 3687 113 535 596 605 802 882 4440 1345 242 126 197 2413 212 2880 832 4707 1890 1668 151 361 257 1215 480 851 2348
internal_value=0 -0.0145356 0.164985 0.0104648 -0.0696258 -0.00682916 0.279958 0.0363755 0.122744 -0.123133 0.0243426 0.0136469 -0.0545266 0.0311486 -0.0226571 0.154959 0.0656871 -0.0142031 0.0155041 0.0849165 0.0291142 0.238659 -0.0431453 -0.0151594 0.0239529 0.384894 0.0557125 -0.00310836 0.0531694 -0.0394016 -0.11249 0.195955 -0.0547273 -0.00861001 -0.0725165 0.0930958 0.0967486 0.016434 0.181805 0.125141 0.0463981 0.111092 0.0671957 -0.00247666 -0.00259422 -0.0309842 -0.197642 0.00456164 0.042945 -0.0811956 0.264034 -0.0332453 -0.0328925 -0.0289409 0.281884 -0.028066 -0.0157131 0.0479475 -0.0307925 -0.00716356 -0.00950093 -0.032952 0.10551 0.0282347 0.116353 0.0362725 0.000360837 0.173381 -0.0345706 0.0157736 -0.0599114 0.0571601 -0.0516308 0.21878 0.0480269 0.0451695 0.15483 0.0118125 -0.0337967 0.428876 0.0325472 -0.0650486 -0.101973 0.0758938 0.00830412 -0.109923 -0.0546174 -0.00690665 -0.00400909 -0.0469318 0.115824 0.122726 -0.0245965 -0.0569908 -0.0223018 0.136632 -0.0058813 0.0838017 -0.0417568 0.165131 0.06042 0.0126316 -0.225595 0.174074 0.00672806 0.0162121 0.243844 0.0932726 0.0294648 -0.00191372 -0.0175495 0.473381 0.292021 0.00342734 0.0437482 -0.0740248 -0.0799936 -0.0426092 -0.0524116 0.0619556 0.0675876 0.240419 -0.0779335 0.15302 0.194542 -0.0443427 -0.0230293
internal_weight=0 197747 17422 136020 61727 81574 4681 54446 12741 13585 38600 35565 48142 17395 46009 6881 15846 30573 30115 5860 17255 3359 29487 30401 20488 1322 8485 18170 10878 15436 11887 1252 13846 21502 18655 4968 4848 9953 3621 3260 7302 370 6103 9627 15623 8899 1698 9999 6932 11048 2107 12448 15641 12917 140 8443 8634 9755 7967 8452 8081 7685 1913 1012 279 10169 4165 3166 7529 5056 7607 4407 2724 973 6079 156 172 10319 10288 717 8758 2988 7666 2316 9536 4559 6020 4943 6534 9882 2532 2123 5879 2351 5446 874 4801 4094 7002 2527 2749 4770 856 1859 853 4292 1224 1696 7853 4065 3999 243 883 7119 371 7561 1587 7633 2926 2717 269 455 881 1347 562 4077 3452
internal_count=215169 197747 17422 136020 61727 81574 4681 54446 12741 13585 38600 35565 48142 17395 46009 6881 15846 30573 30115 5860 17255 3359 29487 30401 20488 1322 8485 18170 10878 15436 11887 1252 13846 21502 18655 4968 4848 9953 3621 3260 7302 370 6103 9627 15623 8899 1698 9999 6932 11048 2107 12448 15641 12917 140 8443 8634 9755 7967 8452 8081 7685 1913 1012 279 10169 4165 3166 7529 5056 7607 4407 2724 973 6079 156 172 10319 10288 717 8758 2988 7666 2316 9536 4559 6020 4943 6534 9882 2532 2123 5879 2351 5446 874 4801 4094 7002 2527 2749 4770 856 1859 853 4292 1224 1696 7853 4065 3999 243 883 7119 371 7561 1587 7633 2926 2717 269 455 881 1347 562 4077 3452
shrinkage=0.1


Tree=3
num_leaves=128
num_cat=0
split_feature=1 54 1 54 0 58 54 54 58 54 54 54 0 14 45 54 59 58 2 59 0 54 0 58 54 0 0 59 54 2 0 0 54 54 58 59 54 59 15 29 15 58 8 54 59 14 0 59 15 58 0 54 7 25 7 52 52 58 32 1 0 8 8 11 59 49 31 7 7 59 58 7 14 1 9 59 54 7 58 45 59 59 58 0 58 54 54 49 58 58 35 58 0 59 59 52 58 0 59 59 25 58 54 1 54 15 8 25 53 59 59 27 9 4 0 58 58 2 55 7 45 7 14 54 54 54 0
split_gain=42028.4 22156.2 6545.29 4758.04 4681.18 2092.26 1450.48 1316.11 1239.5 1000.1 905.013 848.415 727.167 552.868 550.457 427.907 403.573 363.498 358.181 356.298 348.721 339.765 301.343 297.727 282.556 242.803 227.292 226.423 222.164 215.331 209.305 200.805 197.182 190.811 184.068 174.455 171.763 164.899 164.561 161.446 160.61 152.314 151.693 144.953 136.449 133.253 130.055 129.035 120.83 114.068 111.916 107.87 102.671 96.1788 95.2886 93.9158 93.4334 90.9526 87.4575 87.1514 86.8251 86.7211 82.6096 82.0512 77.3024 97.7594 77.2913 76.0608 75.2223 73.1432 71.5344 71.0978 70.9619 70.3418 69.0508 68.7501 67.2513 64.8629 64.2691 63.7106 63.0705 62.2354 59.7532 59.5631 58.6217 58.023 56.7463 55.2727 55.0603 54.6442 54.6424 54.4657 54.4517 53.8491 53.4407 53.2628 53.2448 52.4813 52.4505 51.397 51.3036 50.7234 49.7686 48.7603 48.4579 46.5578 45.6232 45.419 45.3088 44.3263 44.2597 43.5131 42.65 42.4828 42.33 42.1415 41.9513 41.5981 40.7258 40.1818 40.0864 39.392 38.7334 38.5094 38.5049 38.2017 38.084
threshold=10.500000000000002 215961.62500000003 60.500000000000007 95932.187500000015 3477.5000000000005 0.011701385910568452 745665.75000000012 10186887.250000002 0.010225258839027902 44396.333333333358 146267.25000000003 349130.87500000006 2220.5000000000005 5.5000000000000009 28407.049474164454 319030.47619047656 6.8741817697141009e-06 0.020813237346030602 1.5000000000000002 0.000117939632237151 1883.5000000000002 3139432.7500000005 2079.5000000000005 0.018038649944702403 774486.7666666666 8234.5000000000018 1726.5000000000002 1.7515906933389253e-05 20550259.000000004 1.0000000180025095e-35 13981.000000000002 2100.5000000000005 26994.750000000004 69425.500000000015 0.019147538480791204 1.15588677691917e-05 414573.45238095254 1.6751175168195202e-05 2647.0055273605954 21.337903692542206 5165.9704750088613 0.021117183222317353 20.500000000000004 541412.00000000012 1.9571761268686553e-05 24.500000000000004 17112.500000000004 5.5056199353421062e-05 5165.9704750088613 0.020585679749412653 2900.5000000000005 378661.67753623152 1986.5000000000002 2892.6917755461404 1986.5000000000002 1055.2500000000002 1742.5500000000002 0.0052712589914131009 832353.00000000012 16.500000000000004 3586.5000000000005 7.5000000000000009 5.5000000000000009 -121.96775790277249 3.3548885333575011e-05 2.5689583235189004 24857.500000000004 1964.5000000000002 1985.5000000000002 1.6020086239039356e-05 0.0048502024991205006 1977.5000000000002 20.500000000000004 128.50000000000003 5.5000000000000009 3.6321464483477857e-05 2137111.7142857155 1985.5000000000002 0.012283829129712202 2576.1255020879958 4.9222265661494311e-06 2.5103382823128002e-05 0.014176361030334402 4832.5000000000009 0.016760837958725804 10186887.250000002 201046.2045454545 2.2832622168486902 0.040466853579422056 0.0075520640510095315 203.71666666666653 0.040466853579422056 1693.5000000000002 5.7695110271536305e-06 1.7244154086536102e-05 1900.1250000000002 0.019754905905205702 2300.5000000000005 1.3912052982321552e-05 2.6592498394861252e-05 4199.4636017756811 0.0085156269174541058 72838.000000000015 271.50000000000006 178777.63888888902 5165.9704750088613 14.500000000000002 2694.0344246109657 42.366666666666653 1.1646333246541102e-05 8.3105654513338426e-06 4782.853451987201 3.5000000000000004 5613.7107027012607 6000.5000000000009 0.0080729149001370504 0.013177858204169602 4.5000000000000009 913.44857142857165 1953.5000000000002 209043.83602088102 1986.5000000000002 25.500000000000004 20550259.000000004 895540.62500000012 276500.75000000006 3400.5000000000005
decision_type=10 2 10 2 10 10 2 2 10 2 2 2 8 10 8 2 10 10 10 10 10 2 10 10 2 10 10 10 2 10 10 10 2 2 10 10 2 10 10 10 8 10 10 2 10 10 10 10 8 10 10 2 10 8 10 10 10 10 2 10 10 10 10 2 10 8 2 10 10 10 10 10 10 10 8 8 2 8 10 10 10 10 10 10 10 2 2 10 10 10 10 10 10 10 10 10 10 10 10 10 8 10 2 10 2 8 10 8 10 10 10 10 8 10 10 10 10 8 8 8 10 10 10 2 2 2 10
left_child=1 3 6 9 5 11 15 19 24 32 31 26 29 17 37 47 21 25 23 44 27 43 53 39 83 51 56 95 -9 34 57 41 -1 -11 66 93 113 59 -23 40 94 48 54 -13 73 69 117 122 55 50 78 121 61 98 58 -5 125 -26 112 110 -51 88 -38 71 65 -60 92 -35 82 -17 90 75 -39 -4 115 -36 -46 87 -22 -66 103 -37 -53 -6 -50 -32 -21 -42 118 -28 124 107 -7 -16 -14 104 -33 -91 -18 -47 -96 -24 -49 -30 -12 109 -71 -29 -78 -58 -8 -67 -25 -15 -59 -55 -109 -27 -19 -43 -88 -10 -2 -40 -45 -3 -98
right_child=2 4 7 10 8 12 14 28 13 33 20 16 18 36 35 45 22 52 -20 86 49 38 101 42 30 46 89 91 80 -31 85 96 -34 67 63 81 62 72 123 -41 77 119 -44 70 76 99 -48 102 84 60 -52 68 -54 74 -56 -57 105 114 64 -61 -62 -63 -64 -65 79 111 -68 -69 -70 106 -72 -73 -74 -75 -76 -77 108 -79 -80 -81 -82 -83 -84 -85 -86 -87 120 -89 -90 97 -92 -93 -94 -95 100 -97 126 -99 -100 -101 -102 -103 -104 -105 -106 -107 -108 116 -110 -111 -112 -113 -114 -115 -116 -117 -118 -119 -120 -121 -122 -123 -124 -125 -126 -127 -128
leaf_value=-0.20233932243577255 0.038693411499988423 -0.0078011260237591659 0.24237596963934355 -0.055873502522572706 0.056684784805364652 -0.043500280623796878 0.16129899945453552 0.30230777891217131 0.014503567439214535 -0.11009862445893892 -0.037835795561943858 0.033351515728939178 -0.016005226932334429 0.030055498873690346 0.27941916323069371 0.10447217805328923 -0.027279845303953078 -0.022000210096412051 0.029945232862437637 -0.08746295428276063 -0.0089634611363861791 0.060491143496798683 0.044975756187400233 -0.059826503884629095 0.1386752457595927 0.048353172661792843 0.025454773273694137 -0.087015420616793154 0.39074288595904105 0.012071758291571831 0.19491529581514566 -0.030076249837854431 -0.14331965010531109 -0.090343292949037021 -0.036350753620248213 0.17674863468204793 0.052059480979456701 0.087341999039892274 0.23401527424156665 0.15329420337642449 -0.006491937200864004 -0.09314153853344799 0.17853058662853744 0.068933910403083207 0.17452186951281334 0.13739975812069202 0.15438267330701916 -0.17949421107769015 -0.047270663971164487 -0.046052281596211914 -0.00032237066856473308 0.041905320890311459 0.059706383175216621 0.015015393001132095 0.026758431431204356 -0.087403307958500015 -0.023262701535918334 0.078907908184746675 -0.028610634668451984 0.1629060980968611 -0.017250659570565038 0.028902801099605857 0.079490752584966268 -0.068604290997506784 -0.020608466170566525 -0.007190623409835905 -0.015290096074019335 -0.066701698055526989 0.061898348122813973 0.062314025443700349 0.0456779180236302 0.046720263403635678 0.12785639094528709 0.30074900907628677 0.050787011191027513 -0.06569675401219692 0.31181308925151829 0.019665887396949595 -0.028298268796476313 -0.060169097952218913 0.3582201814587741 0.13858973033889274 0.025490485471463549 0.080718448701434867 -0.064501132659284158 0.35436334826729521 0.12873650930564981 0.0077907758637718247 -0.032907759740913846 -0.00077053226749282475 -0.049845296232139367 -0.10093286789695669 -0.025107835725447177 0.20942563095230673 -0.092112388083424035 -0.045494683785080293 -0.056522936028201534 0.01490140403937314 -0.11639418077822297 0.092940272479033997 -0.03077872358980846 0.026110789513279622 -0.016190503549755396 0.47143662883117132 -0.021872877224578653 -0.012868462892118477 0.091387451146480461 -0.032699362510476546 0.2176918332101935 -0.058097608358765096 0.11728306298979488 0.076517644542313759 -0.022259067351906359 0.056347160550699861 0.11168016298873949 -0.004889238517040928 -0.059070893822618424 0.083669543436253518 0.0049597934829920028 -0.072013280349062972 -0.029795941439541902 0.039690357158900319 0.090255079686176035 0.37954938883582751 0.10583152385477566 0.01167491652595345 -0.034427795372002072
leaf_weight=854 846 2519 1084 1596 3042 2624 282 563 4678 5087 4282 5885 1150 2135 132 1253 431 640 2654 25 2349 61 2070 896 497 986 2024 486 222 1121 74 1960 1679 6805 3809 1524 1839 1172 75 69 5420 1922 38 1106 422 838 163 20 5593 3023 2857 3893 342 1592 393 2315 1281 1145 3376 1087 1601 1125 2724 1360 841 4341 4476 1701 967 1312 1708 91 685 255 305 1010 56 2149 6412 789 374 594 5153 1560 3052 33 58 5418 508 4211 34 314 4164 657 214 3590 2776 4338 78 377 376 4576 279 113 3421 3035 917 719 590 511 1203 63 456 863 601 3205 3746 504 4500 1693 22 716 176 24 380 1678 1085
leaf_count=854 846 2519 1084 1596 3042 2624 282 563 4678 5087 4282 5885 1150 2135 132 1253 431 640 2654 25 2349 61 2070 896 497 986 2024 486 222 1121 74 1960 1679 6805 3809 1524 1839 1172 75 69 5420 1922 38 1106 422 838 163 20 5593 3023 2857 3893 342 1592 393 2315 1281 1145 3376 1087 1601 1125 2724 1360 841 4341 4476 1701 967 1312 1708 91 685 255 305 1010 56 2149 6412 789 374 594 5153 1560 3052 33 58 5418 508 4211 34 314 4164 657 214 3590 2776 4338 78 377 376 4576 279 113 3421 3035 917 719 590 511 1203 63 456 863 601 3205 3746 504 4500 1693 22 716 176 24 380 1678 1085
internal_value=0 -0.0130016 0.150234 -0.0577829 0.0119826 -0.000711002 0.117337 0.266329 0.0409949 -0.105528 -0.0437308 0.015785 -0.0150548 0.0326174 0.147187 0.0809495 0.0294879 0.0252359 -0.00504821 0.224363 -0.0332072 0.0452285 0.0175794 -0.00862174 0.0792383 0.0331548 0.000730435 -0.0434194 0.349207 -0.0304189 0.10745 -0.0594263 -0.163218 -0.094778 -0.0331354 0.180999 0.0562183 0.124995 0.189689 0.000687521 -2.74833e-05 -0.0651593 -0.0209276 0.0426922 0.232229 0.0950908 0.0695766 0.030668 -0.0599518 -0.0227964 -0.0175094 0.0292472 0.00624835 0.000514734 -0.0216071 -0.0745366 -0.0109268 0.100932 -0.0233733 0.141391 -0.0360801 0.00354901 0.0684353 -0.0468683 -0.0199563 -0.0158076 -0.0254911 -0.0856155 0.0353886 0.0851413 0.0597212 -0.0408477 0.102287 0.253493 0.00465005 -0.0425013 0.205569 0.00379503 -0.0231142 -0.0397578 0.386448 0.166047 0.0325547 0.0648318 -0.0533536 0.244091 0.0440441 0.000648101 -0.0015011 0.0106798 0.0755014 -0.0605456 -0.0322177 0.221136 -0.028558 -0.0354349 -0.0434996 0.00718184 -0.0409359 0.123605 -0.0530252 0.0319866 -0.0271138 0.417962 -0.0307465 -0.020415 0.0742747 -0.0579842 0.225851 -0.0331961 0.125642 -0.00599316 -0.0471558 0.0376238 0.0901886 0.00171659 -0.0548243 0.0602991 0.00160291 -0.0832466 0.0851401 0.0178469 0.0475729 0.269296 0.0783694 -1.44214e-05 -0.0503139
internal_weight=0 198031 17138 70918 127113 88425 13354 3784 38688 16126 54792 41127 47298 31736 7336 6018 21530 24175 28643 2512 32800 9273 12257 25989 6952 17060 19597 16558 1272 18655 2350 21992 2533 13593 17534 2907 7561 4429 160 14796 14727 16171 11193 9113 2407 4697 1653 1321 12556 16242 11618 15407 7115 5611 11155 3911 9024 2243 10762 2572 4624 6773 4563 6270 9410 7780 11264 8506 10013 3482 3228 4910 1857 1339 5102 4819 1068 12987 8761 1630 709 2118 9046 4602 8645 107 105 10838 5648 10573 1520 5265 6788 789 1740 11293 5821 8549 509 1215 590 6646 299 335 7703 4827 2229 4951 646 1792 1485 4404 1352 2998 1746 4797 4465 1490 5140 3615 80 5394 1022 99 1486 4197 3861
internal_count=215169 198031 17138 70918 127113 88425 13354 3784 38688 16126 54792 41127 47298 31736 7336 6018 21530 24175 28643 2512 32800 9273 12257 25989 6952 17060 19597 16558 1272 18655 2350 21992 2533 13593 17534 2907 7561 4429 160 14796 14727 16171 11193 9113 2407 4697 1653 1321 12556 16242 11618 15407 7115 5611 11155 3911 9024 2243 10762 2572 4624 6773 4563 6270 9410 7780 11264 8506 10013 3482 3228 4910 1857 1339 5102 4819 1068 12987 8761 1630 709 2118 9046 4602 8645 107 105 10838 5648 10573 1520 5265 6788 789 1740 11293 5821 8549 509 1215 590 6646 299 335 7703 4827 2229 4951 646 1792 1485 4404 1352 2998 1746 4797 4465 1490 5140 3615 80 5394 1022 99 1486 4197 3861
shrinkage=0.1


Tree=4
num_leaves=128
num_cat=0
split_feature=1 54 1 54 0 59 54 58 54 54 54 14 1 54 58 54 8 59 2 16 0 58 59 0 54 54 0 7 52 0 59 59 59 16 0 54 54 0 58 1 54 52 0 58 54 0 54 8 54 16 14 58 32 0 54 59 0 53 58 58 0 59 0 8 54 58 0 58 0 32 59 58 1 52 58 1 52 45 54 54 13 0 7 0 52 14 9 58 7 27 11 4 58 8 59 33 11 7 51 58 15 7 51 45 59 14 28 0 1 51 9 59 58 42 0 58 58 1 7 15 8 58 58 58 58 7 11
split_gain=34124.3 17567.7 6033.86 4357.21 3237.65 1574.38 1571.47 1138.06 1034.76 1001.79 644.451 584.85 455.678 437.14 404.785 355.715 355.47 324.814 303.935 294.858 286.575 279.304 256.868 255.842 223.192 214.888 212.119 203.626 196.017 195.447 192.291 183.816 180.999 168.447 168.246 159.012 157.559 148.981 141.996 141.772 130.788 129.686 125.938 120.556 108.87 106.14 104.793 99.3724 97.5491 95.6549 89.4972 86.9512 84.9044 84.1833 82.5741 77.1892 75.452 73.361 72.1976 72.0086 68.7322 68.0502 68.0391 67.3957 66.753 103.734 73.2502 66.2862 71.4675 65.0992 60.0101 59.3028 59.2313 58.4083 57.8539 56.7432 56.4725 55.2314 54.9484 54.8984 54.5437 52.7034 52.2421 51.54 53.6661 50.5176 50.2721 50.0599 49.8685 48.6851 48.4525 48.3933 48.0303 47.7671 50.1805 47.5576 44.0589 43.4851 43.469 43.3386 47.3138 43.2171 47.2864 43.11 42.5593 41.9875 41.3438 41.2195 40.9916 40.8811 39.6464 39.6166 38.9899 38.2426 37.8781 37.874 37.8628 37.6936 37.6329 37.0582 36.9485 36.7054 36.5508 36.2161 36.1455 35.771 35.8761
threshold=9.5000000000000018 234218.83333333352 40.500000000000007 108782.30000000002 2944.5000000000005 1.2192787606477903e-05 6415587.9000000013 0.0097567478379807834 50225.833333333358 431204.56643356656 163552.04482758601 1.0000000180025095e-35 18.500000000000004 398915.79166666657 0.016367100318319203 20550259.000000004 14.500000000000002 3.7554459975349205e-05 1.0000000180025095e-35 12.717900382014317 6000.5000000000009 0.0066861340629258111 2.6592498394861252e-05 1862.5000000000002 78454.000000000015 26994.750000000004 4832.5000000000009 1980.5000000000002 2119.9565217391305 1736.5000000000002 1.6929804538301201e-05 3.6321464483477857e-05 1.7622729452221105e-05 6.0562099964620861 2044.5000000000002 414573.45238095254 10186887.250000002 4992.5000000000009 0.0057850810989778555 72.500000000000014 367722.61494252854 1848.1000000000001 17112.500000000004 0.017371582941234653 1577089.3571428552 1702.5000000000002 6415587.9000000013 3.5000000000000004 292573.45833333355 2.5573863050044552 11.500000000000002 0.01346064326486405 1401450.0000000002 2900.5000000000005 112512.8333333335 1.465190454796185e-05 1792.5000000000002 4.1715686274509807 0.028287548996955205 0.033801504119826457 3842.5000000000005 7.8864309234239959e-06 2706.5000000000005 5.5000000000000009 2372512.1250000005 0.0029220805131424756 1576.5000000000002 0.032511629475431313 2566.5000000000005 775454.00000000012 1.0386572933841151e-05 0.017078123203702455 156.50000000000003 1925.2500000000002 0.016911025644153553 303.00000000000006 1836.3961038961052 3041.8943994275155 353945.09523809556 1960345.2380952353 1.0000000180025095e-35 5877.0000000000009 1924.5000000000002 1431.5000000000002 1488.0714285714303 25.500000000000004 9.5000000000000018 0.0063480306551508504 1997.5000000000002 1766.2038226481752 -121.74668971426998 19375.575351361451 0.0099882669524301009 3.5000000000000004 2.3808446760876754e-05 1933.70103881206 -121.43013152199198 1986.5000000000002 1981.0416666666654 0.0089181865528648232 4267.2113579966308 1921.5000000000002 1926.4833333333352 7322.1041458299505 1.8380355328659251e-05 11.500000000000002 1.6778071941723702 1600.5000000000002 3.5000000000000004 1956.3405797101452 1.5000000000000002 1.5102576331032351e-05 0.016846683700894902 1.2201882331926852 1530.5000000000002 0.12716888875405705 0.0035701384716107054 27.500000000000004 1895.5000000000002 11671.363356693519 13.500000000000002 0.012346153963201902 0.0090048730943504355 0.02906073988845775 0.0046463777772545707 1984.5000000000002 -121.77165580906599
decision_type=10 2 10 2 10 10 2 10 2 2 2 10 10 2 10 2 10 10 10 10 10 10 10 10 2 2 10 10 10 10 10 10 10 8 10 2 2 10 10 10 2 10 10 10 2 10 2 10 2 8 10 10 2 10 2 10 10 10 10 8 10 10 10 10 2 10 10 10 10 2 10 10 10 10 10 10 10 8 2 2 10 10 10 10 10 10 10 10 10 8 2 10 10 10 10 10 2 10 10 10 8 10 8 8 10 10 10 10 10 8 8 10 10 8 8 10 10 10 8 8 10 10 8 10 10 10 2
left_child=1 3 9 8 5 13 17 20 25 31 29 14 30 48 26 -8 21 39 19 22 38 64 34 28 83 115 97 37 92 41 70 85 61 71 47 96 87 59 -6 55 -19 112 88 62 86 49 -18 69 -3 -24 -32 -36 81 -45 -33 -4 73 99 108 78 -40 -14 121 109 66 -66 76 68 74 -7 -11 -23 111 -26 -31 124 -15 107 -16 -42 125 -29 -69 84 -10 -2 -21 -22 -28 -71 -52 -34 119 94 -30 -20 -13 -9 -99 100 -50 102 -60 -39 -91 -72 -51 -35 -47 -37 -43 -41 -5 -46 -94 -1 -68 -63 -80 122 -56 -25 -12 -58 -17 126 -53
right_child=2 4 6 10 7 18 15 11 24 12 23 35 32 16 27 75 46 40 95 44 36 33 45 43 56 -27 42 52 93 67 50 54 91 77 51 63 -38 103 60 72 79 110 -44 53 113 58 -48 -49 57 106 90 80 -54 -55 120 -57 123 -59 101 -61 -62 117 -64 -65 65 -67 116 82 -70 89 105 -73 -74 -75 -76 -77 -78 -79 118 -81 -82 -83 -84 -85 -86 -87 -88 -89 -90 104 -92 -93 114 -95 -96 -97 -98 98 -100 -101 -102 -103 -104 -105 -106 -107 -108 -109 -110 -111 -112 -113 -114 -115 -116 -117 -118 -119 -120 -121 -122 -123 -124 -125 -126 -127 -128
leaf_value=-0.17393096178127429 0.053033069820047976 -0.004717891316053633 0.20125201192645986 -0.044840345048341348 0.087387353613101432 -0.043546336035281429 0.25677026016900589 0.019563309907223325 -0.092479204590431657 0.12538810932542052 -0.047597291084273685 0.035247974349750952 0.201571881372965 0.044218779194065125 -0.012096248930695948 0.35749895009871718 0.12481014482364372 -0.013745927909039894 0.032845807270533871 0.025683879813802758 0.14041832740070256 -0.012470765117847603 0.014633772401276099 -0.0074025485663494102 -0.070512340697387391 -0.1239980296065608 0.042748303006746848 -0.0025774908253532332 -0.046140082704467032 -0.031915765390779657 0.055404901536475017 -0.08378849050721171 0.10172961111509374 -0.0030575320678674703 0.0084102095257380695 0.056755306566597788 0.30370576605200772 0.010270713135868057 0.04186138701191678 0.23514201641082766 0.10261540244023004 -0.079336411981962743 0.15680598758447628 -0.039354601074338996 0.082660405896604061 -0.01101249729554106 0.30791252911090855 0.0034563970044865495 -0.0046476902129749453 -0.067914730857062344 0.10741693445504839 -0.014609212337337564 0.066485523244779479 -0.016686134179022937 0.0014788507237403711 0.1573328444313466 -0.04966075527379063 -0.031028409078458531 -0.04298516907511675 -0.032420675791553763 0.062551010380530472 0.13471968028005829 0.0028155225745702347 0.067219181030460443 0.22044046734863856 0.026091426886258678 0.07881973138157064 -0.085805518679556117 -0.022942209389403279 -0.064030493199667443 0.085723016420207007 -0.09272543909310392 0.26867492508367113 -0.092219181049571997 -0.049095582359345621 0.39041241361099543 0.0068058448742871888 0.037736604731349203 0.053162164378034719 0.18194531072688297 0.0073711203968179918 0.063367051692746049 -0.043698681262040719 -0.081507641293375274 -0.11795231812240814 0.095642868327567993 0.11978329924671954 0.090830165673843472 0.091690546257463715 -0.017435663485291946 0.058946521879205932 0.13545578363823663 -0.046882053093003778 -0.018932008242700249 -0.067893314449454137 0.0049516505115380109 0.0086824761662699611 0.058446096094920623 0.02242312283991138 0.0028161867590792869 0.019107519622712399 -0.021412143351024683 -0.086042934222478273 0.030353820783456192 -0.031350831199474821 0.11238514334383216 -0.017044235517670002 0.019230449492095316 -0.051293798603622591 0.033536361633021199 -0.060605812964095819 0.19384346946621139 -0.063642150188908647 0.25790307544962027 -0.027491758941723184 -0.23656086851884656 0.045489901338533784 0.16352306835372049 0.002888286133781125 -0.012376237745231498 0.046769045057874596 -0.021474423085566668 -0.01995966438346683 -0.072022833114597604 0.30431499121045902 0.016865087160731831 -0.035935941382569989
leaf_weight=742 2008 8530 605 6978 1240 2081 1169 10010 3034 1080 744 3228 262 728 3224 233 143 80 926 372 262 1316 170 3337 6127 2515 3878 435 3176 3944 1617 92 1401 1001 2506 1592 40 2982 3843 342 300 2000 104 3132 20 1759 40 1137 975 1835 714 6383 731 3435 558 1182 2250 432 1172 832 2758 1055 2900 2790 53 57 382 471 3316 295 1392 99 183 1554 3897 206 905 1368 153 123 1172 168 787 2611 1137 323 67 913 220 5737 290 611 1492 439 1592 1798 774 610 743 4096 5986 646 326 1666 3563 1026 175 4851 295 1448 2598 724 1310 33 3102 111 3163 798 5551 2927 266 4170 1341 1068 283 321 900
leaf_count=742 2008 8530 605 6978 1240 2081 1169 10010 3034 1080 744 3228 262 728 3224 233 143 80 926 372 262 1316 170 3337 6127 2515 3878 435 3176 3944 1617 92 1401 1001 2506 1592 40 2982 3843 342 300 2000 104 3132 20 1759 40 1137 975 1835 714 6383 731 3435 558 1182 2250 432 1172 832 2758 1055 2900 2790 53 57 382 471 3316 295 1392 99 183 1554 3897 206 905 1368 153 123 1172 168 787 2611 1137 323 67 913 220 5737 290 611 1492 439 1592 1798 774 610 743 4096 5986 646 326 1666 3563 1026 175 4851 295 1448 2598 724 1310 33 3102 111 3163 798 5551 2927 266 4170 1341 1068 283 321 900
internal_value=0 -0.0123662 0.128247 -0.0491121 0.0119954 -0.00225504 0.217261 0.0312479 -0.0878848 0.0924251 -0.0347482 0.0241832 0.107764 0.0128841 0.0175014 0.290856 0.0263673 0.177937 -0.0175902 -0.0204073 0.0633409 0.0245474 -0.0216473 -0.0252691 -0.078258 -0.138708 0.0289366 0.00619467 -0.0348727 -0.0466573 0.090445 0.0440223 0.133443 0.0134637 -0.0169236 0.0454595 0.108532 0.00273397 0.0563384 0.190268 0.103507 -0.0552843 0.0481337 -0.0168882 0.05639 -0.0394923 0.164833 -0.0247647 0.00338345 -0.0573938 0.0699656 -0.00801846 0.0435722 -0.0274974 0.00606684 0.172202 -0.0694604 0.00939829 -0.0301962 -0.00428336 0.0505058 0.153869 -0.0101937 0.055996 0.0426465 0.119732 0.0410089 -0.037703 -0.0352494 -0.0275129 0.10579 -0.0180858 0.216116 -0.074904 -0.0404542 0.346043 0.0234847 0.0196468 -0.00166125 0.125683 -0.0127097 0.0157951 -0.0594636 -0.0925258 -0.0994231 0.0589374 0.0400453 0.101887 0.0453758 -0.0240355 0.0934165 0.111972 -0.0264034 -0.0504971 -0.0534033 0.014434 0.0301101 0.0218377 0.0386641 0.0109778 0.0157802 -0.0430321 -0.0523556 0.0174692 -0.0227668 0.0970362 -0.0634857 0.015418 -0.0167978 0.0456958 -0.0687531 0.207093 -0.0478122 0.191774 -0.0337892 -0.182081 0.0490814 0.147124 0.0042368 -0.0196336 0.0160992 -0.0152192 -0.0298217 -0.0568587 0.32833 -0.0158047 -0.0172447
internal_weight=0 196246 18923 78237 118009 67814 5430 50195 21149 13493 57088 41139 10246 34125 31307 1891 14106 3539 33689 30965 9056 13923 30473 31787 17781 3368 15565 15742 14813 25301 6119 3247 4127 8635 24095 9832 1215 14408 7841 3036 503 12886 4202 16974 492 6378 183 12813 20019 2180 2621 11282 1334 6567 916 1787 10999 11489 4198 9760 6601 2115 10407 5830 5288 110 5178 12415 11157 11676 3498 1415 1249 7681 7841 722 1633 7220 8928 423 8776 603 1258 6782 4171 2331 439 1175 4098 9595 1004 2012 9606 5207 4768 2724 4002 11363 1353 11057 6961 2144 1498 4648 9300 2418 2010 5852 2054 3040 4598 1066 8288 53 4594 853 3545 1853 5704 5012 824 7507 2085 3318 516 7604 7283
internal_count=215169 196246 18923 78237 118009 67814 5430 50195 21149 13493 57088 41139 10246 34125 31307 1891 14106 3539 33689 30965 9056 13923 30473 31787 17781 3368 15565 15742 14813 25301 6119 3247 4127 8635 24095 9832 1215 14408 7841 3036 503 12886 4202 16974 492 6378 183 12813 20019 2180 2621 11282 1334 6567 916 1787 10999 11489 4198 9760 6601 2115 10407 5830 5288 110 5178 12415 11157 11676 3498 1415 1249 7681 7841 722 1633 7220 8928 423 8776 603 1258 6782 4171 2331 439 1175 4098 9595 1004 2012 9606 5207 4768 2724 4002 11363 1353 11057 6961 2144 1498 4648 9300 2418 2010 5852 2054 3040 4598 1066 8288 53 4594 853 3545 1853 5704 5012 824 7507 2085 3318 516 7604 7283
shrinkage=0.1


Tree=5
num_leaves=128
num_cat=0
split_feature=0 54 54 54 0 58 54 54 54 58 0 0 14 8 1 58 0 2 58 0 54 58 15 54 58 15 54 58 58 59 16 8 0 58 54 0 1 58 0 0 8 4 4 54 59 0 58 15 54 15 58 58 59 8 7 1 59 7 58 8 25 59 32 54 0 52 4 31 2 54 11 11 7 40 1 58 0 0 7 14 52 7 59 54 8 58 59 0 58 13 32 52 54 7 51 15 59 58 0 54 7 58 8 58 32 51 59 58 54 35 7 52 54 54 20 58 0 15 58 1 14 0 60 58 18 53 8
split_gain=27826.1 15064.4 3999.83 3898.66 2780.56 1368.44 946.92 836.992 742.525 650.794 585.137 566.18 492.806 492.115 444.239 426.994 419.634 306.86 305.788 226.811 220.75 219.819 204.028 183.073 180.89 178.314 170.268 168.11 168.08 155.751 157.378 137.476 133.571 132.743 121.309 120.471 116.408 107.791 107.481 105.66 105.658 102.159 101.819 101.043 100.42 94.7386 94.5863 92.7472 92.1591 89.0733 82.7214 80.7618 74.3809 71.8346 69.901 69.174 68.391 66.6494 65.6114 64.1998 63.9985 83.8984 63.8651 60.1405 59.9414 59.1803 58.9544 57.2621 59.8572 56.9649 55.2138 54.5451 54.4856 54.2483 54.2147 53.6208 53.1822 52.4419 50.0414 51.4521 49.0491 48.9575 48.4057 46.9216 46.7984 46.6406 46.1514 46.0078 45.7304 45.4478 45.3351 45.0252 44.804 44.4346 43.2948 42.3417 42.2691 42.0627 41.4169 40.1272 39.9829 38.9418 38.1644 37.7855 37.7749 37.5599 37.5227 37.256 36.9802 36.7196 35.7351 35.4693 35.3039 35.2549 35.1572 34.6563 60.7928 42.4431 45.3257 34.2765 36.4807 34.081 33.5245 36.9236 33.291 33.1313 32.7556
threshold=10747.500000000002 251885.83333333352 114428.25000000001 3139432.7500000005 3687.5000000000005 0.0096815203439495328 54913.000000000007 594059.01785714307 20550259.000000004 0.011055629756860202 2175.5000000000005 2251.5000000000005 8.5000000000000018 21.500000000000004 28.500000000000004 0.014522090645932602 2243.5000000000005 1.0000000180025095e-35 0.019754905905205702 32000.500000000004 26994.750000000004 0.016456345822975553 11671.363356693519 84127.500000000015 0.025185790367025254 11671.363356693519 601358.30000000016 0.0054612143502523009 0.018736867722466802 2.2217563469597056e-05 7.3801358121107059 24.500000000000004 2518.5000000000005 0.0054612143502523009 4837416.7500000009 4706.5000000000009 70.500000000000014 0.0092403358399683871 1539.5000000000002 1466.5000000000002 13.500000000000002 6077.9145274451712 15308.771303642401 6415587.9000000013 1.8267819817032104e-05 20262.000000000004 0.0050818556283535954 4267.2113579966308 10186887.250000002 19188.775914085902 0.017180969954514604 0.035846715045733356 2.4522576979160704e-05 9.5000000000000018 1952.5000000000002 186.50000000000003 1.9321188913167001e-05 1971.5000000000002 0.014113309749948602 7.5000000000000009 4199.4636017756811 2.1107612864257651e-05 775454.00000000012 267792.05714285705 1494.5000000000002 32652.125000000004 6757.4375120068762 9886.5000000000018 1.0000000180025095e-35 166812.41851851853 -121.8476774222725 -121.96775790277249 1983.5000000000002 0.021212132318123505 2.5000000000000004 0.024243922379446902 1564.5000000000002 4269.5000000000009 1986.5000000000002 1.5000000000000002 45039.000000000007 1957.5000000000002 4.7152114273626261e-06 427935.11904761905 8.5000000000000018 0.045918210551173351 1.5181351101276051e-05 37163.500000000007 0.013320665874524651 1.0000000180025095e-35 832705.50000000012 1346.2500000000002 459991.31250000006 1924.5000000000002 1952.8918128655002 2647.0055273605954 0.00018013258351590902 0.011954712135561702 5760.5000000000009 817698.80769230763 1985.5000000000002 0.028670843059344652 11.500000000000002 0.045918210551173351 1400650.0000000002 1933.5192307692303 1.8380355328659251e-05 0.013783779623465851 512344.36363636359 203.71666666666653 1954.5000000000002 5917.7500000000009 37247.000000000007 2682468.2666666652 0.0013099408655219602 0.043763568603079256 1902.5000000000002 5165.9704750088613 0.039247951158950155 2.5000000000000004 2.5000000000000004 5428.5000000000009 1.1251220185043702 0.037879982512132711 986.63858418177961 12.292857142857152 4.5000000000000009
decision_type=10 2 2 2 10 10 2 2 2 10 8 10 10 10 8 10 10 10 10 10 2 10 8 2 10 10 2 10 10 8 8 10 10 10 2 10 10 10 8 10 8 10 10 2 10 10 10 8 2 10 10 10 8 10 10 8 10 10 10 10 8 10 2 2 10 10 10 2 10 2 2 2 10 10 8 10 10 10 10 10 10 10 8 2 8 10 10 10 10 10 2 10 2 10 10 8 10 8 10 2 10 10 8 10 2 8 10 10 2 10 8 8 2 2 8 10 8 8 8 8 10 10 8 10 8 8 10
left_child=1 2 6 7 5 13 20 24 19 26 29 15 28 16 40 22 27 18 25 88 96 77 44 81 45 32 -6 34 53 30 50 49 60 -18 47 51 52 -24 72 66 107 104 84 65 69 102 113 86 -15 57 -7 100 -16 83 94 87 -42 62 -34 78 61 -12 110 -26 -39 -21 124 -32 106 91 -19 -59 75 126 -46 114 -31 -13 79 85 -38 115 -57 -11 -27 -30 111 -10 -5 122 -62 -4 -35 103 -25 -75 -1 -71 -48 -51 -23 -37 -2 -53 -14 -77 -69 -9 -49 -110 -20 -3 -22 -28 -17 117 -117 118 -8 -85 121 -121 -64 -124 -29 -54 -40
right_child=3 4 11 8 9 10 23 14 55 12 17 21 41 48 36 38 33 70 31 43 112 35 37 54 63 42 46 39 59 76 67 -33 58 92 -36 101 80 64 73 -41 56 -43 -44 -45 74 -47 98 108 -50 99 -52 93 125 -55 -56 82 -58 71 -60 -61 90 -63 89 -65 -66 -67 -68 68 -70 97 -72 -73 -74 95 -76 105 -78 -79 -80 -81 -82 -83 -84 119 -86 -87 -88 -89 -90 -91 -92 -93 -94 -95 -96 -97 -98 -99 -100 -101 -102 -103 -104 -105 -106 -107 -108 -109 109 -111 -112 -113 -114 -115 -116 116 -118 -119 -120 120 -122 -123 123 -125 -126 -127 -128
leaf_value=-0.15792814094292509 0.04397433261489532 -0.013967775849096881 -0.037142667912184672 0.15988241731714489 0.048398153163333645 -0.029958883669967646 -0.10436516627598724 0.096660046206677674 0.12577941261586689 0.021644865064426255 -0.020094400777570617 -0.003922664845185421 0.028263833697164505 0.1394581454308905 0.1488428289522129 -0.066444299372641749 0.062729900216624931 0.028695995428781665 -0.078335145455595043 0.24568928343168697 -0.12560012649187283 -0.026549775303030945 -0.0070488712362575673 -0.062027596488976801 0.00052449767496880867 0.018753572541365018 0.10806952039169711 0.017721195830456875 0.0050899680818789015 -0.050293922044577478 -0.021864425286973525 0.18574355804558956 0.015946876346570219 0.025839929195294431 0.17674154684228718 0.0091446360895791161 0.19604379091160903 -0.036759350204442327 -0.039173457973314695 0.011526515388650255 0.1178982104263471 0.078352026322573667 0.2469036489725113 0.23018214410104224 -0.097288802493006366 0.111980647207911 0.062397778485658487 0.026289876794885689 0.29648931646347049 0.030153075947344083 -0.082330061675086774 -0.049038847957920961 0.19031568406259314 0.054628327640901364 -0.050051256373480679 0.37361237709982353 0.087300369944622203 0.039610619727038568 0.0017502235955701049 0.030440359373331366 -0.02084936175708765 -0.10763218849187979 -0.031581564281806779 0.046925646804535294 -0.021119174815430766 0.18057433565469502 0.066717354981593938 -0.0036122559238910452 0.023071697394251328 -0.03801855597230458 -0.0010903932064565756 -0.01797672638824481 -0.0073774942250635763 -0.079386792423830815 -0.050313792835321218 -0.059776801508793144 -0.028216909060276154 0.026220271572472156 0.047708864914584301 0.028080519833552576 0.13922691201809254 -0.06586151215556646 0.30694706539312999 0.054504970632907761 0.079353231263957616 -0.044221811421009616 -0.10342617359284947 0.27979174882877528 0.099955753919680437 -0.0021208783828965106 -0.00015701760804449398 -0.065306789426741382 0.040160155633614275 -0.033360005805113932 -0.082412085506506028 -0.048131758615958739 -0.23699695556550415 -0.015781340356284118 0.084353197532346158 0.15559684809516461 -0.0040451230646199746 -0.018654929547350717 0.075806970318772607 -0.10131092244103963 0.055900109557338831 -0.099470714755825917 -0.020846172329535277 0.05935176520625756 0.052054526521578243 -0.055152102672692507 -0.031714052552277418 0.020664897210172145 -0.10193591868520101 0.18605542311917489 -0.044178743570512824 -0.1595206379427673 -0.086258214433050928 -0.073421392096579094 -0.075597612005691955 0.020750724929607084 0.047909011868135939 0.037949827994182395 -0.011854703201673795 -0.043221574039921405 -0.013122852724707638 0.10708263669258333 -0.0040978792092905645
leaf_weight=783 518 555 1564 367 3907 1833 1253 425 21 4917 757 7400 721 148 1731 1578 1611 4431 294 161 842 7909 4475 5781 409 239 430 386 5306 1542 2639 33 6817 5445 53 1328 579 3268 9403 7192 2321 1949 28 1201 421 626 1973 2594 50 102 361 305 51 1213 4794 171 1066 325 6231 1752 1313 128 2736 881 9795 1049 102 5501 700 1779 724 333 182 490 590 400 3732 626 318 989 206 2031 300 761 273 199 41 254 195 1195 5469 891 3649 589 1271 3755 74 1630 1522 34 877 812 1380 253 1575 590 1640 723 1003 33 373 633 2509 67 1288 161 382 2892 973 2714 1151 2002 2621 438 3745 768 274
leaf_count=783 518 555 1564 367 3907 1833 1253 425 21 4917 757 7400 721 148 1731 1578 1611 4431 294 161 842 7909 4475 5781 409 239 430 386 5306 1542 2639 33 6817 5445 53 1328 579 3268 9403 7192 2321 1949 28 1201 421 626 1973 2594 50 102 361 305 51 1213 4794 171 1066 325 6231 1752 1313 128 2736 881 9795 1049 102 5501 700 1779 724 333 182 490 590 400 3732 626 318 989 206 2031 300 761 273 199 41 254 195 1195 5469 891 3649 589 1271 3755 74 1630 1522 34 877 812 1380 253 1575 590 1640 723 1003 33 373 633 2509 67 1288 161 382 2892 973 2714 1151 2002 2621 438 3745 768 274
internal_value=0 -0.0099857 -0.0414999 0.129507 0.0139433 0.00382728 -0.0764356 0.101123 0.218681 0.0381504 -0.00555826 -0.0282206 0.0303992 0.022034 0.119756 -0.0347772 0.0208839 0.00198869 -0.00191563 0.196298 -0.119465 -0.014398 -0.0261671 -0.0671682 0.0626765 0.0044908 0.0632388 0.0108001 0.0242045 -0.0202308 -0.0142216 -0.0179657 0.00301198 0.0362728 0.0262708 -0.0229248 0.147461 -0.0204434 -0.0464809 0.00414872 0.0993817 0.0615145 0.0612201 0.209634 -0.0407683 0.0782457 0.0777635 0.0246295 0.179112 -0.0187612 -0.038576 -0.0275614 0.137095 0.0314788 -0.059368 0.307882 0.108268 -0.0200741 0.00916734 0.0133678 -0.00746346 -0.0327552 -0.0226987 0.032214 -0.0250319 0.189238 -0.00838638 -0.00912297 -0.00483466 -0.03575 0.0245126 0.0104669 -0.0608451 -0.0423147 -0.0698751 -0.0633687 -0.0346717 -0.00157162 0.00897685 0.00708021 0.181134 -0.0791808 0.33115 0.0290465 0.0510655 0.0033074 0.00088551 0.268031 0.139089 -0.0198775 -0.00416307 -0.0473644 0.031586 -0.0525175 -0.0657015 -0.0517395 -0.164756 -0.0273859 0.0719589 0.061514 -0.0243034 -0.00140361 0.0671192 -0.0727393 0.0472216 -0.0834328 -0.00757019 0.0731636 0.0326685 0.0486396 -0.0522637 0.00448549 -0.107882 0.118583 -0.056438 -0.0839594 -0.107981 -0.0814108 -0.0917907 0.0345375 0.0319476 0.028052 -0.0235392 -0.0163459 -0.0102408 0.112266 -0.0381803
internal_weight=0 199766 86218 15403 113548 80082 23746 11684 3719 33466 52842 62472 25567 27240 7870 42373 27042 34894 29739 2973 4208 20099 24413 19538 3814 21255 7899 16337 21322 17948 12674 8484 20715 10705 4912 12073 3335 17538 17960 11425 4535 4245 540 2411 6875 2524 3992 4859 198 8451 2194 9933 2550 12758 11846 746 3387 8315 13048 8564 7667 885 7657 1290 13063 1210 4233 10480 7841 5864 5155 658 4038 13922 1011 3856 5274 8026 6812 6494 785 7692 471 11545 512 5505 1229 275 562 6990 6782 2455 9094 1147 7052 4245 857 3409 3495 136 8786 2140 1898 558 2296 990 7141 1148 3630 1036 667 1188 3351 497 2866 5661 543 5118 2226 6628 5867 4716 5795 3059 4131 819 9677
internal_count=215169 199766 86218 15403 113548 80082 23746 11684 3719 33466 52842 62472 25567 27240 7870 42373 27042 34894 29739 2973 4208 20099 24413 19538 3814 21255 7899 16337 21322 17948 12674 8484 20715 10705 4912 12073 3335 17538 17960 11425 4535 4245 540 2411 6875 2524 3992 4859 198 8451 2194 9933 2550 12758 11846 746 3387 8315 13048 8564 7667 885 7657 1290 13063 1210 4233 10480 7841 5864 5155 658 4038 13922 1011 3856 5274 8026 6812 6494 785 7692 471 11545 512 5505 1229 275 562 6990 6782 2455 9094 1147 7052 4245 857 3409 3495 136 8786 2140 1898 558 2296 990 7141 1148 3630 1036 667 1188 3351 497 2866 5661 543 5118 2226 6628 5867 4716 5795 3059 4131 819 9677
shrinkage=0.1


Tree=6
num_leaves=128
num_cat=0
split_feature=1 54 1 0 54 58 54 58 54 54 54 14 54 8 54 29 0 59 59 26 8 8 58 59 59 11 59 7 7 13 54 54 15 58 1 0 58 14 2 58 25 54 0 7 58 0 0 0 58 59 59 59 52 54 54 0 9 54 54 59 52 8 0 52 8 14 54 52 58 7 11 0 54 20 59 11 54 0 52 0 58 8 54 49 9 32 59 59 58 59 14 59 54 10 15 0 58 7 1 0 58 54 11 29 59 58 59 31 7 59 7 36 59 1 2 31 58 0 53 0 7 6 7 51 59 45 46
split_gain=22556.7 11470.1 4283.81 2730.08 1804.27 1167.75 1039.54 1033.59 750.72 459.391 444.048 433.985 374.538 350.415 324.559 287.576 282.017 266.741 266.646 238.871 236.552 214.836 181.765 164.12 160.563 152.56 148.245 134.289 133.061 126.513 123.916 116.965 116.318 112.583 109.732 107.23 106.137 99.259 96.6811 96.3262 94.8957 93.602 91.3511 90.2413 88.9633 84.099 80.083 77.0165 79.4151 74.6709 73.3246 69.722 69.5036 68.1195 67.3598 66.8436 66.2423 66.1373 65.2905 64.8168 64.3643 63.5759 62.1723 61.3094 58.0388 57.9197 53.8118 53.3236 52.7064 50.7754 53.3262 50.345 50.1901 49.7711 48.0824 47.1272 46.9711 46.6504 49.8413 45.7975 45.2573 44.7346 44.4639 51.3664 73.893 49.818 44.3324 43.6606 43.3311 43.2546 42.4322 42.0216 41.68 40.0228 42.8144 39.1618 38.9188 37.9692 37.8938 37.8705 37.609 37.2429 37.1293 40.1975 60.6515 36.4987 36.3697 36.3089 35.4958 35.4231 34.9558 34.9405 34.6615 34.6123 34.4373 34.3722 34.1453 39.3066 34.0151 33.2248 32.615 32.4768 32.4474 32.655 31.7342 31.5394 30.8422
threshold=8.5000000000000018 178777.63888888902 40.500000000000007 2580.5000000000005 86577.750000000015 0.013908877559945401 10186887.250000002 0.010295355785945502 468681.18181818206 492371.31481481506 37247.000000000007 1.0000000180025095e-35 310167.31944444455 19.500000000000004 123678.06250000001 12.674585764563052 3879.5000000000005 2.7692803745368253e-05 2.2082883708503052e-05 1.7173634696453151 15.500000000000002 18.500000000000004 0.0085156269174541058 3.6321464483477857e-05 7.4072786087248761e-06 -121.86391048333748 1.36945340915893e-05 1957.5000000000002 1985.5000000000002 1.0000000180025095e-35 1577089.3571428552 20550259.000000004 11671.363356693519 0.024243922379446902 84.500000000000014 4221.5000000000009 0.028287548996955205 11.500000000000002 1.0000000180025095e-35 0.017078123203702455 2892.6917755461404 59280.750000000007 5148.5000000000009 1988.5000000000002 0.023079081880335604 1702.5000000000002 1576.5000000000002 4424.5000000000009 0.0088406649377929768 9.0602432526403983e-06 0.000117939632237151 1.2815054001449652e-05 1576.1000000000001 2372512.1250000005 3767833.1250000005 1552.5000000000002 3.5000000000000004 1062001.6071428552 153328.65384615402 1.1987278724076501e-05 1594.7083333333351 32.500000000000007 2208.5000000000005 2259.4166666666656 5.5000000000000009 14.500000000000002 414573.45238095254 1375.3333333333351 0.028287548996955205 1983.5000000000002 -121.90415828852899 2500.5000000000005 26994.750000000004 0.0010685497864465104 2.1841575518425755e-06 -121.64859921212748 356795.60000000003 1261.5000000000002 1264.3000000000002 1850.5000000000002 0.02906073988845775 94.500000000000014 296994.89285714307 2.1417820042671907 1.5000000000000002 1074250.0000000002 2.2521380441633153e-05 1.4416797659006452e-05 0.0046463777772545707 5.16566415519373e-06 11.500000000000002 0.00018013258351590902 340011.25357142853 34.95613295526551 2647.0055273605954 2760.5000000000005 0.019968534364931356 1985.5000000000002 170.50000000000003 17112.500000000004 0.0048502024991205006 312205.50000000006 -120.43118210801198 1.0000000180025095e-35 6.1677411340791262e-05 0.039247951158950155 2.6388621316279003e-05 14804.000000000002 1946.5000000000002 1.848013533738285e-05 1986.5000000000002 332878.24593133799 1.5863455930216307e-05 160.50000000000003 1.0000000180025095e-35 9886.5000000000018 0.0068956198295542113 1600.5000000000002 29.380952380952355 3000.5000000000005 1962.5000000000002 2.0393679271199954 1925.5000000000002 1932.5825892857154 2.0950087031094504e-05 1013.4386344244751 25.188351287468453
decision_type=10 2 10 10 2 10 2 10 2 2 2 10 2 10 2 10 10 10 10 8 10 10 10 10 10 2 10 10 10 10 2 2 8 10 10 10 10 10 10 10 8 2 10 10 10 10 10 10 10 10 10 10 10 2 2 10 8 2 2 10 10 10 8 10 10 10 2 10 10 10 2 10 2 8 10 2 2 10 10 10 10 10 2 8 10 2 10 10 10 10 10 10 2 2 8 10 10 10 10 10 10 2 2 10 10 10 10 2 10 10 10 8 10 10 10 2 10 8 10 10 10 10 10 8 10 10 10
left_child=1 4 8 7 10 9 17 12 23 47 72 16 32 26 46 18 33 34 19 39 24 22 42 65 54 64 89 44 36 38 50 -8 67 82 59 -24 76 106 51 -9 87 -12 88 45 55 56 52 48 -5 -15 -19 73 -6 -22 66 60 102 75 91 -4 -16 -17 -46 -56 -13 124 -14 -3 119 70 92 110 -1 -21 -33 -30 -18 78 -43 -42 111 -23 -7 84 -84 -85 -51 -26 -11 -10 -91 -25 -53 -72 -95 -70 -79 -87 -76 -44 -68 -75 103 104 121 -35 -28 -39 -107 -27 -29 -47 -69 -36 122 -40 -34 -118 -32 -48 -86 -20 123 -82 -2 -106 -78
right_child=2 3 6 5 14 11 31 15 13 21 41 25 20 49 27 61 28 30 43 29 53 81 35 58 40 109 37 71 57 -31 118 74 116 105 113 -37 -38 107 115 -41 79 77 99 -45 62 80 68 -49 -50 86 -52 69 -54 -55 63 -57 -58 -59 -60 -61 -62 -63 -64 -65 -66 -67 100 112 95 -71 93 -73 -74 101 98 -77 126 96 -80 -81 114 -83 83 85 120 97 -88 -89 -90 90 -92 -93 -94 94 -96 -97 -98 -99 -100 -101 -102 -103 -104 -105 125 108 -108 -109 -110 -111 -112 -113 -114 -115 -116 -117 117 -119 -120 -121 -122 -123 -124 -125 -126 -127 -128
leaf_value=-0.14743115568658008 0.052013570652667901 -0.0079397851623155338 0.18118021302658247 0.033575822089275585 -0.050098138706888409 -0.010664474804843619 0.22087147182877651 -0.031431905178836719 0.15636291254598361 0.079078131110695074 -0.089208052781749383 0.028463379634776749 0.014944067576215015 0.15414836749858662 -0.032025170437846188 0.059634976207496249 0.0041472569234804182 0.091097121480945037 -0.056426121067325918 -0.015366470593925303 0.082790736808388873 0.1422234332575025 0.027813507864279677 -0.024842313667714739 -0.025594178750179709 0.020896454118600041 0.056649005668455425 -0.031423386292646287 0.061457539605979522 0.012997861352320698 0.23416986813597185 0.35187303617776161 0.0096567952413461975 -0.017062994359837942 0.18232682387732313 0.051042518367456186 -0.011579653570184178 0.063415767884973745 -0.010468679977935512 -0.075640869763569651 -0.000688273861431514 -0.065934349478213181 0.087227967691407615 0.020154360610695768 -0.071228466034904639 -0.034937149840948582 -0.041113790039713542 0.038113915482056789 0.015471548669633253 0.11625575841977641 -0.0017107703490182758 -0.021879682542033561 -0.068906337895127692 0.2116062932619964 0.21011752131822947 -0.025634868944846869 -0.013358462706063015 0.12859476819117038 0.017404532535798517 0.14134929390033346 -0.051640157526720701 0.18182945363223554 -0.041874417029738438 0.030421968922019007 0.048752378162805192 0.068021805372625754 0.0412954575021931 -0.027232407986034088 -0.072463447801431921 0.0095002071948263947 0.014858923060674899 -0.013999344900872946 -0.1129736118357593 -0.010222741918312432 0.23223149369764068 0.018273736771915541 0.018519981352008514 -0.039637134564524307 -0.08871789321071806 0.01606438109931253 -0.042082529263577945 0.28293625031198777 0.01719842107023296 -0.017311601528144701 -0.023708248514203903 0.0084772280912993377 0.089877098237225062 -0.1128392379387067 0.050810236697802519 0.079000806334746598 0.10495886646546662 -0.14626892615448348 -0.0091226151498278226 -0.064853169806356067 -0.027987458020641849 -0.041297531310352166 -0.066049953230576622 0.049411522428296856 0.28627736007542592 0.2144860844438275 0.023026231835612806 0.0062867955562457825 -0.0835674476322531 -0.022333969896834407 0.0032452190518379217 -0.055090860940105291 0.02759682506119663 0.091916275000449521 -0.003790159112411655 -0.0083875695542044403 -0.013982039885252311 -0.015146124900527453 -0.066570644256898959 0.22678749814157573 0.013229357968601916 0.020062544237462815 -0.014637409435535121 0.0010651779951913825 0.13522973745267639 -0.013673335541047403 0.024109112747959915 -0.036087201674473379 -0.019011742848361688 -0.084271682198531053 0.028064372365611857 -0.11662111328604322 0.12979656565189363
leaf_weight=853 1085 1637 559 3197 4708 4148 613 2659 104 654 3364 3487 4056 400 3434 235 3145 402 1512 4945 106 117 4591 209 488 674 1990 7657 489 2026 38 83 2457 2919 843 3504 1894 737 543 605 3426 1987 912 332 1301 1191 4995 2800 10007 2072 108 5428 3372 67 37 4328 667 90 859 1518 3262 52 1620 39 2367 1083 1948 1791 940 614 200 3082 838 2595 181 523 6766 680 1858 3116 1323 28 742 745 1789 5163 920 65 3174 1413 1136 33 4849 342 3994 706 3106 237 458 24 2673 2886 264 662 25 538 550 1136 180 1067 1352 3554 256 221 126 1149 2346 4974 406 484 155 1633 519 213 1129 180 25
leaf_count=853 1085 1637 559 3197 4708 4148 613 2659 104 654 3364 3487 4056 400 3434 235 3145 402 1512 4945 106 117 4591 209 488 674 1990 7657 489 2026 38 83 2457 2919 843 3504 1894 737 543 605 3426 1987 912 332 1301 1191 4995 2800 10007 2072 108 5428 3372 67 37 4328 667 90 859 1518 3262 52 1620 39 2367 1083 1948 1791 940 614 200 3082 838 2595 181 523 6766 680 1858 3116 1323 28 742 745 1789 5163 920 65 3174 1413 1136 33 4849 342 3994 706 3106 237 458 24 2673 2886 264 662 25 538 550 1136 180 1067 1352 3554 256 221 126 1149 2346 4974 406 484 155 1633 519 213 1129 180 25
internal_value=0 -0.0104462 0.100354 0.00455953 -0.0496687 0.0193589 0.176364 -0.00852774 0.0725723 0.0343933 -0.0826486 0.00761733 0.00604664 0.0871501 -0.0395238 -0.0180082 0.0021371 0.151382 -0.0186441 -0.0139536 0.0163781 0.048354 0.0469891 0.0379078 0.0151086 0.0289379 0.0744675 -0.0327445 0.0132111 -0.0111199 0.105071 0.252995 -0.0062497 -0.00648163 0.165447 0.0378684 0.0101152 0.0632368 -0.0128938 -0.0396263 0.00392869 -0.0753115 0.0624871 -0.0312669 -0.0394318 -0.0327053 -0.0511323 0.0230495 0.019855 0.11357 0.0714437 -0.0144094 -0.0579473 0.132679 0.0241708 -0.0353204 -0.0426693 0.0464459 0.00447918 0.152069 -0.0415807 0.0817747 -0.0549486 0.117905 0.036667 0.049071 0.0233498 -0.0213933 -0.0434039 -0.0186786 -0.0198466 -0.0250317 -0.130355 -0.00809242 0.280269 0.0391402 0.0142506 -0.0691854 -0.0769439 0.00729113 -0.0255941 0.169396 -0.00212427 0.00188715 -0.00964852 0.00692942 0.108145 -0.035849 0.0556397 0.0931486 0.0905694 -0.0414005 -0.0158605 -0.0288778 -0.0308952 -0.0590958 -0.061306 0.0102738 0.270969 0.090491 0.0307277 -0.00152971 -0.0472414 -0.0448511 -0.0493007 -0.0220313 0.0503582 0.0807017 -0.04223 0.00294927 -0.0288059 -0.0201137 -0.0321521 0.191562 -0.0375173 0.0102644 -0.000543564 -0.00396737 0.143698 -0.0386898 -0.0198957 -0.0458654 -0.0406288 -0.047933 0.039801 -0.102003 0.0189296
internal_weight=0 194883 20286 140956 53927 66151 5430 74805 14856 29008 12686 37143 29482 10458 41241 45323 29548 4095 45036 32835 16021 13004 12859 4398 15848 7595 7066 26036 12932 29571 954 1335 13461 16616 3141 8095 11830 4413 27545 3264 7095 10995 4764 12201 13945 11869 15205 16004 13204 3392 510 25853 8080 173 8753 11024 4943 1102 1101 2077 6696 287 2921 76 5854 3297 8677 3684 7125 15427 14813 12091 1691 10426 722 1012 9936 7631 3845 6542 6926 145 12979 8831 2686 6145 2992 553 3828 2653 2549 242 10277 4536 4336 1646 3786 5400 639 936 4621 5481 4276 4012 3350 3637 2540 1873 718 1741 9009 4745 2047 1064 2181 1692 9777 7320 444 5479 1944 3145 2055 1536 2214 205 6791
internal_count=215169 194883 20286 140956 53927 66151 5430 74805 14856 29008 12686 37143 29482 10458 41241 45323 29548 4095 45036 32835 16021 13004 12859 4398 15848 7595 7066 26036 12932 29571 954 1335 13461 16616 3141 8095 11830 4413 27545 3264 7095 10995 4764 12201 13945 11869 15205 16004 13204 3392 510 25853 8080 173 8753 11024 4943 1102 1101 2077 6696 287 2921 76 5854 3297 8677 3684 7125 15427 14813 12091 1691 10426 722 1012 9936 7631 3845 6542 6926 145 12979 8831 2686 6145 2992 553 3828 2653 2549 242 10277 4536 4336 1646 3786 5400 639 936 4621 5481 4276 4012 3350 3637 2540 1873 718 1741 9009 4745 2047 1064 2181 1692 9777 7320 444 5479 1944 3145 2055 1536 2214 205 6791
shrinkage=0.1


Tree=7
num_leaves=128
num_cat=0
split_feature=0 54 0 0 54 58 54 58 54 54 54 8 14 54 0 58 8 8 54 2 58 58 0 54 11 54 58 0 58 0 54 18 15 0 7 0 14 54 54 52 4 59 27 14 58 32 18 58 15 58 8 7 58 8 54 58 54 54 0 4 58 52 52 13 52 58 58 9 31 54 58 54 58 58 54 59 58 59 14 35 8 19 52 45 6 58 11 54 9 47 46 3 52 45 0 46 32 58 45 4 7 58 14 58 39 0 0 7 54 0 0 51 58 10 7 7 54 47 52 14 32 54 51 58 7 51 1
split_gain=18418.6 9548.72 3123.12 2178.06 1620.43 1016.32 826.376 707.838 524.473 430.501 362.578 337.819 336.726 334.372 303.921 237.942 236.268 203.08 194.76 184.721 176.409 164.094 159.165 144.436 136.123 132.586 123.31 117.508 117.673 115.315 100.602 96.6628 94.9847 94.7683 94.2571 85.631 79.6484 78.7363 78.1802 77.9405 77.7307 75.453 74.263 73.809 73.6819 73.3935 73.0111 71.4134 84.6749 70.8492 67.0904 66.6322 66.3856 65.4957 63.2368 62.4185 61.1914 58.67 57.467 55.8138 55.1231 54.4221 53.8907 53.1917 50.6547 48.8066 46.4039 46.2721 46.1543 46.1132 45.1873 43.8117 43.2231 42.0906 44.3842 41.7543 41.3909 40.6394 39.1997 38.9859 38.5398 38.4275 38.1142 38.0581 37.5656 37.5575 37.1746 37.1353 36.3083 36.249 36.1561 35.6554 35.2275 34.2217 39.5215 34.1629 33.7835 33.7609 33.7024 33.5675 33.3217 32.5203 32.474 31.446 36.9084 31.3308 30.9397 30.3763 30.3313 30.2972 30.2849 30.2034 30.1285 29.8324 29.6218 28.9936 28.8892 28.6451 28.5097 28.1126 28.0662 28.0454 27.9955 27.7169 27.1903 30.6219 25.8369
threshold=9104.5000000000018 187584.41666666654 37163.500000000007 3066.5000000000005 86577.750000000015 0.011127003606101802 10186887.250000002 0.013253794846930601 642347.16666666709 323020.12500000006 37247.000000000007 26.500000000000004 1.0000000180025095e-35 131385.59090909103 1702.5000000000002 0.0077795308890728455 9.5000000000000018 19.500000000000004 1694331.0891608403 1.0000000180025095e-35 0.018038649944702403 0.0071272324360825414 4832.5000000000009 359225.66153846151 -121.86391048333748 286056.31176470604 0.026297322509801303 2486.5000000000005 0.021969655168872355 1590.5000000000002 20550259.000000004 986.63858418177961 4267.2113579966308 1800.5000000000002 1985.5000000000002 2079.5000000000005 14.500000000000002 63295.000000000007 895540.62500000012 23291.523809523802 10676.468458561501 2.7692803745368253e-05 10355.948289800153 9.5000000000000018 0.0070110752252711709 775454.00000000012 1008.0044852454001 0.021117183222317353 5165.9704750088613 0.015818892801184602 8.5000000000000018 1971.5000000000002 0.027540434897893155 28.500000000000004 340011.25357142853 0.017371582941234653 4837416.7500000009 3767833.1250000005 1300.5000000000002 19375.575351361451 0.023262308947817101 1320.8333333333351 2272.9166666666656 1.0000000180025095e-35 6716.4814814814808 0.013051289588619652 0.037879982512132711 3.5000000000000004 9886.5000000000018 472953.38492063509 0.025454652520722005 290259.44318181806 0.052150724230014954 0.0040293871623878113 1235324.1944444452 2.0950087031094504e-05 0.12716888875405705 3.4874808022173653e-06 8.5000000000000018 203.71666666666653 13.500000000000002 1.1093588835259853 1103.7500000000002 2599.8652323531401 2.0393679271199954 0.019629899252590455 -122.22646029178948 441030.75000000006 2.5000000000000004 1753.0440048497951 2.2215074663541956 4.5000000000000009 2051.0333333333351 2449.1567056560652 3879.5000000000005 77.291156869444578 7517050.5000000009 0.0029220805131424756 4915.9128058053166 11136.950838217152 1998.5000000000002 0.021687730886515755 10.500000000000002 0.045918210551173351 0.001030563882715335 4221.5000000000009 1768.5000000000002 1972.5000000000002 301329.37500000006 1656.5000000000002 1749.5000000000002 1971.3484848484852 0.013592780539212602 37.925697270570907 1954.5000000000002 1988.5000000000002 389803.14583333355 1741.1283580544102 2456.4142857142856 7.5000000000000009 676751.00000000012 255920.66666666654 1974.0312500000002 0.0064711882479522214 1995.5000000000002 1928.0238095238103 109.50000000000001
decision_type=10 2 10 10 2 10 2 10 2 2 2 10 10 2 8 8 10 8 2 10 10 10 10 2 2 2 10 10 10 10 2 10 8 10 10 10 10 2 2 10 10 8 10 10 10 2 10 10 8 10 10 10 10 10 2 8 2 2 10 10 10 10 10 10 10 10 10 8 2 2 10 2 10 10 2 10 10 10 10 10 8 10 10 10 8 10 2 2 8 10 10 8 10 8 10 8 2 10 10 10 10 10 10 10 10 10 8 8 2 8 10 10 10 2 8 10 2 10 10 10 2 2 10 10 10 10 8
left_child=1 4 8 5 10 9 18 15 25 29 76 21 23 35 41 38 19 49 26 20 31 32 87 52 43 72 -4 28 58 62 -8 54 82 67 50 47 80 -12 -5 95 69 46 45 116 -19 114 89 48 55 100 60 63 105 -18 -16 -6 126 -13 61 75 93 -15 121 66 -38 -60 96 -23 -21 -34 -48 -28 -2 74 79 -46 -1 -32 -24 -71 -27 124 -11 -84 -33 -29 -70 -17 118 -7 92 -35 -39 -25 -95 -20 108 -40 -26 -51 102 -37 -10 -43 -105 -9 -75 122 -47 -49 -68 -53 -50 -45 -22 -86 -14 -106 -63 -87 -36 -3 -30 -31 125 -56 -41
right_child=2 3 6 7 13 14 30 12 17 11 37 57 24 27 16 22 53 44 39 68 42 33 78 34 98 36 71 85 107 123 77 84 40 91 120 101 64 90 97 56 -42 103 -44 113 59 51 70 109 112 99 -52 111 -54 -55 81 -57 -58 -59 65 -61 -62 88 -64 -65 -66 -67 110 -69 86 73 -72 -73 -74 106 -76 -77 -78 -79 -80 -81 -82 -83 83 -85 115 119 -88 -89 -90 -91 -92 -93 -94 94 -96 -97 -98 -99 -100 -101 -102 -103 -104 104 117 -107 -108 -109 -110 -111 -112 -113 -114 -115 -116 -117 -118 -119 -120 -121 -122 -123 -124 -125 -126 -127 -128
leaf_value=-0.11276347569118338 0.022894487165089367 -0.013352392630127528 0.12765412428030223 0.050227293563799819 -0.070728400994012994 -0.026926142129023296 0.19903836135708727 -0.0037663139023749259 0.067503775309924227 0.028263752280876572 -0.078474529239807564 0.08814673536784344 0.018778455816636432 -0.023391845018835178 -0.0090616969065952357 0.019002630491806918 0.047008948294525621 0.15294279134341263 0.18239133193499735 -0.0081185662194179151 -0.054792696928478782 -0.0090735150364314766 0.041265466875382267 0.031155370273537077 -0.0066252569042000433 0.032752624489620873 -0.022474835444098482 -0.0053484845934837879 -0.054624826340752587 0.023054296284130745 0.29046747950620427 -0.051981689387239266 0.022384717283508358 0.034635281676018724 0.012980891235107607 -0.02152510430567699 0.087242820266710208 -0.061651583256181836 0.13425031380219896 0.12748157747131408 0.13826504973976902 -0.042421481958212888 0.14142793455560293 0.059392285844709694 0.10009578446356902 -0.025423812957393873 -0.041620070973950783 -0.071170218848700686 -0.026830134796847843 0.042179551979375431 0.032462951219887376 0.030055806945443533 -0.021049507407282803 0.15006613092202892 0.011417745573181514 -0.044204810689543739 0.16716201971228489 0.20510969582725977 -0.014980235563903779 0.11704912458391173 -0.0040739431478374558 -0.042875597829810409 -0.029530290278982574 -0.00030569004727367733 0.051193739371841941 -0.028171062247817028 -0.0060013874700695427 0.022864491255486927 0.029505268071028136 0.051301307046704381 -0.12530894530937076 0.075393807529226739 -0.032572317883785305 0.0086552581458932531 0.11488572338002162 0.072271637507680023 -0.17009197738918946 0.23856996175328737 0.061964449592074249 -0.061016564443707469 0.056043341837296957 0.045611147640251315 -0.022905409925678511 0.02995865397449031 -0.016605154793543648 -0.025131046982863028 0.0049132480745624095 0.030770659697184136 -0.026003266279637002 -0.011021622688420737 -0.046478190423806909 0.012601189677908653 -0.08573754642492605 0.0015061452602676026 0.015666437554110433 0.26064009849841779 -0.027787291284964488 0.075814625727766538 0.020013500339232645 0.073304306725902421 0.13760933290118155 -0.038990294951614497 0.094420678553582604 -0.050555096899711952 -0.21354974724818021 0.0093720117317221702 0.035949865366299828 -0.031239975624757079 -0.0098698736751476855 -0.052793244515046592 -0.048884635686792716 -0.016110337140329386 -0.041522283003400343 0.021241611077123856 -0.030120670180606431 0.0086847629214621656 0.036826153259997302 -0.081729243241031382 -0.066920456220070423 0.0050752118680139086 0.056674035228117148 -0.00029325629288798479 -0.16327328471816147 0.0027389279956649536 0.051630414189172115 -0.0024313521967596731 0.16239277921391257
leaf_weight=1560 858 4159 989 2863 1628 3252 617 4983 1036 331 4220 74 1356 2441 7316 5540 327 275 196 854 739 3184 3362 877 888 1511 52 2633 2004 728 215 284 4441 829 193 1727 901 4761 110 1076 66 2035 28 1652 1547 1926 1260 1460 1967 967 1326 395 1650 76 2344 1950 988 102 4378 1174 2616 2323 1429 1195 687 7807 199 529 1413 902 68 380 168 509 109 828 137 506 1257 32 1341 215 654 172 6742 2688 1088 5197 1009 2562 1356 6436 696 3138 5300 78 3566 977 1021 540 103 2786 790 107 32 2855 2256 662 3592 2327 955 221 4806 234 1425 486 2564 34 626 348 617 2720 24 8665 112 5007 264
leaf_count=1560 858 4159 989 2863 1628 3252 617 4983 1036 331 4220 74 1356 2441 7316 5540 327 275 196 854 739 3184 3362 877 888 1511 52 2633 2004 728 215 284 4441 829 193 1727 901 4761 110 1076 66 2035 28 1652 1547 1926 1260 1460 1967 967 1326 395 1650 76 2344 1950 988 102 4378 1174 2616 2323 1429 1195 687 7807 199 529 1413 902 68 380 168 509 109 828 137 506 1257 32 1341 215 654 172 6742 2688 1088 5197 1009 2562 1356 6436 696 3138 5300 78 3566 977 1021 540 103 2786 790 107 32 2855 2256 662 3592 2327 955 221 4806 234 1425 486 2564 34 626 348 617 2720 24 8665 112 5007 264
internal_value=0 -0.00886335 0.0965781 0.00540729 -0.0428145 -0.00408101 0.160601 0.0219507 0.0696076 0.00816309 -0.0743596 0.0179812 0.0126551 -0.034007 -0.0134939 0.0370068 -0.00974264 0.0872226 0.137959 -0.0105083 -0.012559 0.0167939 0.0313762 0.00671625 0.0307872 0.0462112 0.108185 -0.0268819 -0.030291 -0.00327737 0.22868 -0.00704749 0.0264375 0.00847323 0.0131473 -0.0442998 0.053698 -0.0677407 0.058896 0.154219 0.030173 -0.0297447 -0.0212692 0.0384038 0.103076 -0.0215897 -0.0247499 -0.0481281 -0.0438292 0.0695786 0.0111239 -0.0185444 -0.00281852 0.066444 -0.00240876 -0.0562731 0.148281 0.155932 -0.0274615 0.0992124 0.00875234 -0.035135 -0.0118595 -0.0202705 0.0716473 -0.0234317 -0.0226008 -0.00452323 0.0119533 0.0293081 -0.0459053 0.0636133 0.0138122 0.0373824 0.0545003 0.0903954 -0.117392 0.254046 0.0468984 0.0474532 0.0437038 0.00393051 -0.000407906 -0.0118974 -0.0163064 -0.0140887 0.0188071 0.0246987 -0.0423773 -0.0199176 -0.0610922 0.0151155 -0.0647236 0.0123544 0.0104004 0.204667 -0.0202013 0.0817281 0.00762208 0.0533324 0.0822706 -0.0323069 0.0791491 -0.045901 -0.0868311 0.00101934 0.0309253 -0.0498392 -0.0152988 -0.0598781 -0.0414897 0.013493 -0.0372554 0.0546589 -0.0385461 -0.0149047 0.0305831 -0.145642 -0.0479797 -0.0216687 0.0462632 -0.00818873 -0.0559106 0.00431346 0.00272974 0.00198468 0.13436
internal_weight=0 197082 18087 138758 58324 88182 5361 50576 12726 38327 12730 20626 31270 45594 49855 19306 40505 7260 4023 40102 36747 20450 15356 23555 7715 5466 1421 26943 21274 17701 1338 22506 9472 10978 14067 18651 4440 11033 3950 2602 8315 9350 14241 5806 3824 14213 7142 14138 10351 3436 13257 12049 9488 403 14994 3578 2328 176 18584 3549 11931 6399 8308 11433 1588 12185 10238 3713 3355 8249 1328 432 1026 3808 1043 2375 1697 721 4619 934 2852 7678 1157 826 7512 5669 2501 10737 3958 5814 6813 7265 5457 9315 8438 274 9084 1087 1909 1507 1929 4513 1826 2208 173 7838 2765 2690 5518 3787 1154 616 6773 1886 2164 7228 3920 66 2949 3036 810 6879 2028 9393 7463 7351 1340
internal_count=215169 197082 18087 138758 58324 88182 5361 50576 12726 38327 12730 20626 31270 45594 49855 19306 40505 7260 4023 40102 36747 20450 15356 23555 7715 5466 1421 26943 21274 17701 1338 22506 9472 10978 14067 18651 4440 11033 3950 2602 8315 9350 14241 5806 3824 14213 7142 14138 10351 3436 13257 12049 9488 403 14994 3578 2328 176 18584 3549 11931 6399 8308 11433 1588 12185 10238 3713 3355 8249 1328 432 1026 3808 1043 2375 1697 721 4619 934 2852 7678 1157 826 7512 5669 2501 10737 3958 5814 6813 7265 5457 9315 8438 274 9084 1087 1909 1507 1929 4513 1826 2208 173 7838 2765 2690 5518 3787 1154 616 6773 1886 2164 7228 3920 66 2949 3036 810 6879 2028 9393 7463 7351 1340
shrinkage=0.1


Tree=8
num_leaves=128
num_cat=0
split_feature=0 54 54 54 0 59 54 54 58 54 54 14 8 2 27 0 58 0 26 0 0 8 58 58 52 0 58 8 54 0 58 7 54 58 54 59 47 54 1 14 58 54 52 52 25 8 54 45 0 58 15 47 0 25 15 3 58 46 7 1 58 58 58 9 7 0 58 19 52 58 45 58 1 58 54 58 8 58 14 54 0 58 8 0 31 31 46 7 0 0 54 8 58 15 58 53 7 11 59 58 59 7 11 58 0 59 14 11 58 0 58 14 52 2 45 52 19 0 58 0 8 58 32 40 49 39 52
split_gain=14962.3 8245.23 2117.9 2000.85 1561.99 753.03 448.413 418.918 395.413 387.498 384.761 328.998 283.117 240.472 214.425 209.069 203.712 164.346 162.69 162.452 150.117 144.418 129.821 127.052 126.002 121.87 109.708 107.65 100.64 98.2243 97.0266 95.8502 95.376 92.3021 86.4241 84.8159 76.3239 69.6868 66.8136 63.9023 63.454 63.0412 63.0126 59.1812 57.8927 56.9659 56.783 56.2813 55.6822 54.3556 53.3182 52.6564 52.5667 52.4159 52.2932 51.4546 50.0559 48.8844 48.2277 47.0404 46.3123 45.2777 44.9376 44.7044 44.58 44.5142 64.1502 51.6064 43.9304 43.1348 42.5985 41.3632 41.2819 39.4939 38.8407 38.3296 37.8403 36.8207 36.5235 36.4933 35.371 35.0706 34.9135 42.8126 36.5828 34.409 33.7694 33.3701 33.2476 33.0885 33.0285 32.8211 37.2055 35.2522 52.7631 32.6462 32.5713 32.322 31.9364 31.6531 31.2402 31.1705 35.5678 31.1546 32.0999 30.8648 30.5922 33.0402 30.5459 32.0149 30.5413 28.8385 28.7656 28.5075 28.4819 34.0251 28.4659 28.3833 28.2412 28.1698 28.0663 27.4394 27.934 27.2382 27.1394 27.0556 26.748
