tree
version=v3
num_class=1
num_tree_per_iteration=1
label_index=0
max_feature_idx=65
objective=regression
feature_names=area units floors buildings value_imprv lidar_area lidar_buildings lidar_units elctm gasm s_lat s_lon pool common beds code_area code_units code_value_imprv code_area_unit code_area_lidar_area code_unit_lidar_area code_area_imprv code_unit_imprv code_unit_elct code_area_elct code_area_unitxunit areax_code_area_unit code_area_imprvximprv code_unit_imprvximprv code_area_lidar_areaxlidar_area code_unit_lidar_areaxlidar_area code_area_elctxelct code_unit_elctxelct county_n tract tract_yr_built tract_area tract_units tract_value_imprv tract_area_unit tract_area_lidar_area tract_unit_lidar_area tract_area_imprv tract_unit_imprv tract_unit_elct tract_area_elct tract_n tract_area_unitxunit areax_tract_area_unit tract_area_imprvximprv tract_unit_imprvximprv tract_area_lidar_areaxlidar_area tract_unit_lidar_areaxlidar_area tract_area_elctxelct tract_unit_elctxelct block_yr_built block_area block_units block_value_imprv block_area_unit block_area_lidar_area block_unit_lidar_area block_area_imprv block_unit_imprv block_unit_elct block_area_elct
feature_infos=[512:3876054] [1:5642] [1:42] [1:278] [1:630645683] [1286.5803607031901:4146884.4900357099] [1:145] [1.74803665874701:1903.0866467184699] [1:1101] [0:902] [34.408792074772897:41.998293063894401] [-124.269199674163:-117.637289763791] [0:6] [0:349] [1:8874] [2348.3040698141999:49536.583520599299] [2.5237795857988199:121.57142857142901] [111543:16426852.8181818] [853.26734503549017:1338.8362086710999] [0.77558989720393912:4.3955870005762199] [0.00077136925448674401:0.0049602721325808898] [0.015684781835194499:1.0331885600291701] [1.6228074673282902e-05:0.0011369657856485501] [0.89818029893410201:28.155336340936998] [0.89818029893410201:28.155336340936998] [944.92465893357701:715999.99618185498] [0.55977388296552388:916.48788272428408] [0.0179857752269834:5970987.7183435196] [1.73490952578635e-05:7283.6481214712903] [1098.1282509733198:859316.33506108995] [1.0027129490581701:888.41247840881397] [0.89818029893410201:881.40143039704014] [0.89818029893410201:881.40143039704014] [2:32123] [5101:97154304] [1896.0339805825199:2019] [1296.2857142857099:565042.59999999998] [1:669.66666666666697] [51435.125:167917298.69230801] [285.71428571428601:9724.5208333333303] [0.34649020416975396:8.3418761468910301] [0.000108855126215858:0.0505277163115289] [0.0027583855310834601:75.678827314804494] [2.0348289540375898e-06:0.073140842117062496] [0.15151515151515196:133] [0.15151515151515196:133] [10:591] [571.42857142857201:5215872.6885975301] [0.15548323931984698:4192.7205615672701] [0.025627405424024901:2012482328.59565] [2.3317597134245398e-05:1944991.18818135] [513.30314618428304:3961326.9729608502] [0.249805300547397:11494.489947853401] [0.15151515151515196:19536.447666791501] [0.15151515151515196:19536.447666791501] [1851:2020] [604:1296570] [1:2156] [104:630645683] [1:131876] [0.028530586729854601:226.83945712951501] [9.0349085096757103e-06:1.2874911044558501] [6.3820663778930999e-05:756.63972845633896] [1.94812770997958e-08:0.69469053339548903] [0.0029940119760479:2156] [0.0029940119760479:2156]
tree_sizes=5665 5777 5799 5805 5798 5790 5805 5789 5787 5812 5795 5842 5810 5837 5823 5826 5835 5809 5815 5811 5811 5849 5820 5771 5800 5809 5833 5833 5834 5880 5812 5835 5836 5825 5790 5676 5814 5781 5798 5786 5793 5755 5792 5818 5725 5803 5814 5778 5789 5772 5740 5766 5745 5739 5700 5734 5690 5740 5808 5756 5665 5822 5737 5811 5679 5794 5707 5666 5676 5717 5555 5622 5696 5649 5749 5645 5599 5612 5674 5720 5723 5565 5576 5584 5686 5572 5581 5622 5633 5742 5624 5613 5594 5627 5573 5656 5583 5634 5612 5708 5581 5568 5600 5664 5675 5590 5581 5629 5575 5554 5702 5530 5670 5598 5546 5536 5585 5591 5604 5541 5488 5508 5592 5692 5659 5590 5500 5588 5493 5613 5569 5609 5589 5522 5540 5626 5555 5607 5514 5467 5601 5554 5591 5550 5608 5648 5495 5572 5666 5527 5604 5492 5633 5501 5591 5569 5531 5535 5592 5592 5597 5558 5578 5536 5538 5591 5559 5531 5647 5528 5562 5570 5492 5555 5514 5559 5637 5499 5696 5486 5572 5529 5584 5579 5613 5503 5574 5507 5578 5537 5591 5519 5514 5592 5571 5575 5582 5564 5537 5620 5568 5497 5510 5482 5592 5480 5623 5546 5614 5578 5560 5588 5566 5556 5544 5558 5566 5562 5557 5561 5496 5603 5595 5501 5506 5496 5548 5515 5519 5510 5543 5537 5541 5554 5571 5605 5540 5479 5559 5587 5537 5698 5474 5538 5580 5500 5527 5540 5520 5475 5653 5475 5488 5532 5485 5530 5531 5552 5573 5536 5570 5581 5529 5601 5577 5510 5523 5604 5493 5490 5566 5542 5502 5578 5551 5536 5626 5447 5480 5535 5578 5552 5531 5531 5552 5541 5520 5536 5560 5541 5570 5481 5545 5482 5558 5547 5527 5534 5536 5516 5635 5555 5617 5526 5551 5570 5581 5551 5559 5545 5501 5512 5656 5526 5488 5559 5573 5553 5573 5595 5545 5607 5555 5610 5566 5555 5526 5510 5508 5569 5491 5550 5520 5568 5530 5536 5583 5542 5505 5550 5499 5496 5537 5536 5522 5517 5553 5574 5519 5473 5580 5574 5633 5612 5550 5638 5551 5549 5506 5567 5536 5535 5507 5558 5545 5478 5523 5581 5505 5485 5543 5490 5597 5582 5576 5622 5512 5580 5538 5504 5514 5465 5584 5589 5508 5508 5580 5543 5559 5552 5489 5622 5519 5499 5573 5484 5503 5576 5555 5589 5534 5494 5507 5529 5524 5539 5573 5486 5595 5587 5538 5480 5568 5579 5566 5580 5503 5616 5556 5519 5534 5548 5565 5523 5573 5561 5559 5509 5533 5466 5531 5549 5578 5586 5605 5515 5529 5527 5516 5580 5519 5516 5557 5581 5550 5474 5506 5497 5544 5506 5551 5500 5573 5522 5508 5552 5583 5568 5519 5585 5515 5583 5488 5501 5539 5548 5538 5551 5531 5521 5508 5485 5579 5588 5518 5594 5529 5543 5567 5519 5566 5531 5547 5574 5601 5610 5535 5508 5607 5521 5574 5562 5535 5520 5517 5534 5584 5578 5540 5500

Tree=0
num_leaves=64
num_cat=0
split_feature=55 55 55 55 55 55 55 48 0 0 55 55 0 0 55 55 56 55 56 33 55 8 13 55 55 0 56 49 56 9 0 49 58 8 55 1 8 55 50 56 56 48 56 56 55 0 10 14 38 13 55 13 55 56 55 50 56 8 33 50 0 0 50
split_gain=6.57326e+07 1.33656e+07 1.02966e+07 2.83204e+06 2.23383e+06 1.59476e+06 1.1625e+06 588536 538805 518429 410672 377034 341762 325917 290696 261961 232797 191568 176592 151014 138592 118970 111756 108257 107304 93721.1 91495.6 89627.3 83926.6 83744 82547.8 75723.8 79106.6 69235.8 66025.9 60726.4 59744.9 59179.1 57507.1 56101.4 54264.1 54151.6 55231.8 49213.4 48741.1 46057.9 43748.2 43651.2 42351.1 41777.2 41254.4 41009.2 40743.6 37114.3 36933.1 36291.3 35615.9 34193.6 37125.2 34099.2 32951.3 32448.2 32162.8
threshold=1949.6306818181804 1972.7638888888903 1929.2991071428553 1990.0714285714303 1960.7888888888904 1916.1715686274549 1939.4913793103451 2.5519163024704752 3780.5000000000005 3068.5000000000005 1981.0416666666654 1902.0500000000002 1550.5000000000002 3780.5000000000005 2000.0333333333353 1966.2613636363653 3296.2307692307704 1955.6026315789452 3234.7350000000001 31682.000000000004 1922.5227272727254 4.5000000000000009 1.0000000180025095e-35 1911.0263157894751 1944.4142857142854 1616.5000000000002 2825.9444444444453 2888.5970440950405 1646.9444444444453 2.5000000000000004 1380.5000000000002 74660.779356280967 589976.81000000017 3.5000000000000004 1933.4722222222201 7.5000000000000009 6.5000000000000009 2009.7678571428553 1.9559361232581653 1689.3000000000002 3037.9000000000005 9.1917560537684171 7229.4000000000005 1720.1666666666654 1977.3484848484852 1431.5000000000002 36.756537433778206 8.5000000000000018 495670.63415993348 1.0000000180025095e-35 1967.8535714285701 1.0000000180025095e-35 1943.8452380952351 3274.1111111111104 1985.0277777777803 4.5930232819141308 1514.9166666666654 6.5000000000000009 31682.000000000004 3.3463667893033455 1494.5000000000002 2720.5000000000005 2.8063501524233705
decision_type=2 2 2 2 2 2 2 10 10 10 2 2 10 10 2 2 10 2 10 2 2 8 8 2 2 10 10 8 10 10 10 10 8 10 2 10 8 2 8 10 10 10 10 10 2 10 2 10 10 10 2 8 2 10 2 8 10 8 2 8 10 10 8
left_child=2 4 5 10 7 11 8 17 18 16 25 -1 28 20 -5 59 24 26 34 21 -7 -15 41 -13 -8 43 45 -9 -6 36 39 32 38 -20 -4 -25 -21 -16 -10 -19 -22 42 62 -3 -27 56 -29 -23 -31 -40 -30 -42 -18 -32 -12 -17 -2 -34 -59 -14 -26 -36 -11
right_child=1 3 6 14 12 13 9 27 31 22 54 23 15 19 37 55 52 30 33 29 40 47 -24 35 60 44 -28 46 50 48 53 -33 57 -35 61 -37 -38 -39 49 -41 51 -43 -44 -45 -46 -47 -48 -49 -50 -51 -52 -53 -54 -55 -56 -57 -58 58 -60 -61 -62 -63 -64
leaf_value=1946.5030601684639 1952.1487702329193 1954.6066265423865 1950.0815003954112 1956.4629131603078 1953.4115530916463 1948.7896615307811 1951.1061754564569 1952.5015464691814 1950.0423439190761 1951.0884984942659 1955.3158767719897 1947.8511485955823 1953.2375623903515 1949.4377840828708 1957.4659401371418 1953.8748528160488 1950.1647515974626 1952.6110195341357 1949.5189777006615 1949.857511856942 1949.5947876564408 1950.6465753690813 1952.6233427947022 1948.3292538345838 1951.4257964867199 1954.6050210302117 1951.5275880075415 1953.6744972886738 1952.3163523593198 1950.0559298893822 1952.8528930028374 1953.5954438169017 1950.129145542016 1950.5065282099697 1950.53176675894 1949.2340504666015 1951.8165976602586 1958.4100851306307 1951.3527419782386 1951.68313807665 1948.9461832067082 1952.8396226207358 1950.482888951507 1953.6089286814467 1954.9478016200685 1952.2975320178773 1953.0675440488835 1951.6958681281003 1949.1225020488982 1952.1551715519472 1953.0551941590418 1949.8093153605307 1950.8112855378624 1952.3208354437888 1955.7396103120748 1954.1872735412103 1951.5374133508662 1951.6044503370313 1950.419092101841 1953.5537686084235 1951.8136524957208 1951.1840184749483 1951.9753927342165
leaf_weight=1518 1924 865 3496 4044 1794 7231 6750 2734 201 484 4127 5701 4758 708 3270 7035 1598 1107 3981 443 5047 1346 3484 5922 4044 9327 3726 1345 2242 614 5157 156 522 864 5559 848 240 833 1171 1584 3173 481 333 1154 7471 5544 10144 562 2333 1455 1140 666 2499 1758 4101 7886 1888 638 451 12041 4779 884 2635
leaf_count=1518 1924 865 3496 4044 1794 7231 6750 2734 201 484 4127 5701 4758 708 3270 7035 1598 1107 3981 443 5047 1346 3484 5922 4044 9327 3726 1345 2242 614 5157 156 522 864 5559 848 240 833 1171 1584 3173 481 333 1154 7471 5544 10144 562 2333 1455 1140 666 2499 1758 4101 7886 1888 638 451 12041 4779 884 2635
internal_value=1952.21 1953.83 1950.09 1955.43 1953.06 1948.83 1951.08 1952.51 1950.48 1951.5 1954.94 1947.99 1953.61 1949.35 1957.06 1953.74 1951.23 1952.2 1950.19 1949.97 1949.11 1950.54 1952.21 1948.17 1951.41 1954.68 1951.95 1953.02 1952.86 1949.55 1952.53 1951.43 1951.35 1949.7 1950.43 1948.44 1950.55 1957.66 1951.67 1952.06 1949.38 1951.85 1951.71 1954.04 1954.76 1952.11 1953.14 1950.96 1949.32 1951.8 1952.57 1949.1 1950.56 1952.72 1955.53 1954.04 1951.85 1950.79 1951.11 1953.46 1951.64 1950.62 1951.84
internal_weight=0 108999 82817 35192 73807 36352 46465 36911 19378 27087 27045 13989 36896 22363 8147 31720 19670 22688 14784 6246 16117 2616 7417 12471 15573 18817 13082 14223 5176 3630 9606 4594 4438 4845 9939 6770 683 4103 2827 2691 8886 3933 3452 2019 16798 9356 11489 1908 2947 2626 3382 3839 4097 6915 8228 14921 3812 1611 1089 16799 8823 6443 3119
internal_count=191816 108999 82817 35192 73807 36352 46465 36911 19378 27087 27045 13989 36896 22363 8147 31720 19670 22688 14784 6246 16117 2616 7417 12471 15573 18817 13082 14223 5176 3630 9606 4594 4438 4845 9939 6770 683 4103 2827 2691 8886 3933 3452 2019 16798 9356 11489 1908 2947 2626 3382 3839 4097 6915 8228 14921 3812 1611 1089 16799 8823 6443 3119
shrinkage=1


Tree=1
num_leaves=64
num_cat=0
split_feature=55 55 55 55 55 55 55 0 48 0 55 0 55 55 1 55 56 56 55 55 55 55 0 56 50 56 50 56 50 0 55 8 53 8 36 55 13 13 55 55 47 0 48 8 57 48 49 56 56 48 33 9 48 56 55 56 4 55 8 35 1 48 49
split_gain=5.32943e+07 1.14255e+07 7.68486e+06 2.53306e+06 1.78459e+06 1.11904e+06 1.00258e+06 482307 478721 457415 362280 316808 281462 236084 219507 218268 175473 143636 136632 135408 113875 94979.9 91884.6 78525.6 76083.1 68661.8 65490.1 64344.7 86489.8 63510.2 61360.5 60315.3 56899.4 54908.5 54081.2 52898.7 52108.8 48872.2 48235.6 47577.1 45569.6 43890.1 43179.9 41208.4 40923 40712.7 40622 40241.1 39943.4 39529.4 38975.6 37380.6 36266 34340.6 34080 33889 32026.8 31745 31313.1 31144.7 30814.8 39786.2 29750.9
threshold=1948.6547619047653 1971.3484848484852 1927.0217391304352 1989.0454545454552 1959.3416666666651 1937.9857142857152 1913.5857843137253 3658.5000000000005 2.7266209636449408 3717.5000000000005 1979.4785714285701 1431.5000000000002 2000.0333333333353 1902.0500000000002 3.5000000000000004 1965.3245614035052 3787.2500000000005 3253.8333333333353 1954.8090909090902 1919.7182539682551 1942.7321428571452 1922.0250000000003 1604.5000000000002 2478.8090909090902 1.9559361232581653 1631.6250000000002 3.8053556104488453 5279.6875000000009 45.644736960474454 1332.5000000000002 1932.5634920634955 3.5000000000000004 8.9605809441342217 3.5000000000000004 6436.8959706959713 1983.8035714285702 1.0000000180025095e-35 1.0000000180025095e-35 2007.3730769230754 1974.0312500000002 4053.3222071228606 54396.500000000007 2.1102021675404505 4.5000000000000009 3.0741758241758252 1.7896992644153602 74660.779356280967 1734.1428571428553 1454.3333333333351 1.7792568624849052 31682.000000000004 2.5000000000000004 3.9588077759071205 2750.7916666666656 1994.5227272727254 2279.8285714285707 38488.500000000007 1896.5833333333351 3.5000000000000004 1947.6548292584353 2.5000000000000004 10.564749021903802 3460.7473218742302
decision_type=2 2 2 2 2 2 2 10 10 10 2 10 2 2 10 2 10 10 2 2 2 2 10 10 8 10 10 10 8 10 2 10 8 10 8 2 8 10 2 2 10 10 8 8 10 10 10 10 10 10 2 10 10 10 2 10 8 2 10 8 8 10 8
left_child=2 4 6 10 8 7 13 17 18 16 22 25 54 57 19 42 20 30 23 -8 -7 32 47 -2 -9 -6 -10 37 -29 48 58 59 -16 -19 -34 -12 46 -26 -14 -24 -15 43 -13 -23 -21 55 -11 -3 -20 -25 52 -52 -45 -31 -5 -22 -27 -1 -4 -18 -28 -62 -17
right_child=1 3 5 12 11 9 14 24 26 36 35 15 38 40 21 62 31 33 29 44 45 41 39 49 27 56 60 28 -30 53 -32 -33 34 -35 -36 -37 -38 -39 -40 -41 -42 -43 -44 50 -46 -47 -48 -49 -50 -51 51 -53 -54 -55 -56 -57 -58 -59 -60 -61 61 -63 -64
leaf_value=-5.6077383738272903 -0.12137329942245011 2.0130220851622336 -2.1468353895889241 3.5328961199873157 0.89934855479993492 -1.1258027470940248 -3.3836487227791987 -2.3105072693362749 0.21232500571883473 -0.33501841528140064 2.6143260680955169 0.78615790425079657 4.6716103653085064 -3.9343173395688029 -2.9562017229431277 1.3613910543061025 -1.9574933612526921 -2.6022519076171338 0.37197007070733251 -2.5869501472777738 -0.66380185376714274 -2.6285951412748547 1.930027293023002 -0.91108465381313641 -0.9531649069647341 -0.87576589011676187 1.3897849385116494 -1.5014761364881113 0.22392386083153715 0.52724077908205669 -1.5603656968247173 -0.76552270876049844 -1.7603417630467832 -1.7258343632553073 -2.7869866815221758 3.0634874329092816 0.3594172007866423 -0.12190159329869708 5.4144138269734023 2.2920579759682371 -3.4309083214531264 1.9859483655156762 1.1205303763973447 -2.1366723483473793 -3.0257946674428058 -0.40707165833312731 2.0282337021827699 1.1218311377832759 -0.52535123989078569 -0.3483302309959958 -0.40825474507976001 -2.3195848202614395 -0.86182266342264191 0.05808911024520183 4.0778362660738434 -1.2446096920354197 0.19234603322710508 -4.6928509270317447 -1.2546955789769851 -1.2538578429937364 0.63403562079499587 1.1679790667838608 1.6446017358468237
leaf_weight=740 9172 847 4208 2682 1557 7344 5872 368 2426 2408 5359 5486 2840 6157 2410 6204 2238 4260 717 5267 4331 640 5259 2362 1319 314 796 1840 345 4299 5076 759 1097 859 964 5134 2922 1525 1263 11719 2540 29 13047 328 3562 5024 75 1261 1610 2647 114 999 698 2449 2006 1308 2649 778 434 875 7033 1741 9224
leaf_count=740 9172 847 4208 2682 1557 7344 5872 368 2426 2408 5359 5486 2840 6157 2410 6204 2238 4260 717 5267 4331 640 5259 2362 1319 314 796 1840 345 4299 5076 759 1097 859 964 5134 2922 1525 1263 11719 2540 29 13047 328 3562 5024 75 1261 1610 2647 114 999 698 2449 2006 1308 2649 778 434 875 7033 1741 9224
internal_value=0 1.40558 -1.97671 2.80504 0.677304 -1.16851 -3.16956 -1.73202 0.163296 -0.750598 2.3621 1.14818 4.29543 -3.98814 -2.78914 1.25286 -0.954108 -2.02648 -0.101371 -3.0115 -0.822786 -2.34003 2.1026 -0.295272 -0.922522 0.361686 0.676392 -0.820956 -1.22904 0.201626 -1.80066 -1.56483 -2.6263 -2.45518 -2.24054 2.83409 0.0731934 -0.507428 4.90026 2.17992 -3.78729 -1.88422 1.02155 -1.92461 -2.764 -0.614086 -0.263635 1.47991 -0.248867 -0.613698 -1.71397 -2.12382 -1.26938 0.356975 3.76608 -0.798524 0.0791543 -5.13884 -2.06343 -1.75972 0.794033 0.739985 1.53072
internal_weight=0 112103 79713 38370 73733 47518 32195 20234 35252 27284 29579 38481 8791 10215 21980 33961 21879 14837 23256 14701 18007 7279 19086 14181 5397 4520 11996 5029 2185 9075 9718 3872 4471 5119 2061 10493 5405 2844 4103 16978 8697 2808 18533 2779 8829 10663 2483 2108 2327 5009 2139 1113 1026 6748 4688 5639 2963 1518 4642 3113 9570 8774 15428
internal_count=191816 112103 79713 38370 73733 47518 32195 20234 35252 27284 29579 38481 8791 10215 21980 33961 21879 14837 23256 14701 18007 7279 19086 14181 5397 4520 11996 5029 2185 9075 9718 3872 4471 5119 2061 10493 5405 2844 4103 16978 8697 2808 18533 2779 8829 10663 2483 2108 2327 5009 2139 1113 1026 6748 4688 5639 2963 1518 4642 3113 9570 8774 15428
shrinkage=0.1


Tree=2
num_leaves=64
num_cat=0
split_feature=55 55 55 55 55 55 55 0 48 0 55 55 0 0 55 56 56 55 55 55 55 49 8 50 1 8 55 50 55 56 56 11 0 49 13 56 58 0 50 58 55 56 56 35 41 13 55 35 13 27 13 4 8 56 55 9 49 10 0 51 56 35 9
split_gain=4.32354e+07 8.15785e+06 7.51178e+06 1.77732e+06 1.33085e+06 1.17626e+06 809444 395086 391403 334639 286291 275392 238013 200092 165288 155175 154711 119578 117325 98969.7 86464.1 74823.1 73164.8 71420.3 69967.1 67995 66058.6 62349.8 58627.8 56310.9 56197.6 52187.8 51261.3 50515.5 48765.4 45818.3 44755 44193 43559.5 49380.6 41205.4 40806.3 38475.5 38240.7 37235.6 36563.6 35647.8 35412.3 34899.2 34716.1 33450.2 33231.9 32480.2 32092.7 31611.1 30640.9 30463.8 29619.6 29346.1 29301.4 28979.3 28782.3 27206.1
threshold=1950.8090909090902 1973.458041958045 1930.0238095238103 1991.0833333333351 1962.2678571428553 1917.2792207792204 1941.5227272727254 3780.5000000000005 2.2155596962249953 3068.5000000000005 1906.5192307692303 1981.6602564102602 3630.5000000000005 1766.5000000000002 2002.1666666666654 2668.9500000000003 2925.8571428571454 1956.8875000000003 1968.0263157894751 1924.0333333333353 1924.0333333333353 1130.4481216503602 4.5000000000000009 5.0799783131980059 3.5000000000000004 3.5000000000000004 1896.5833333333351 4.1289969578578605 1935.5357142857154 2464.2539682539655 2306.7820512820549 -122.40217792492648 1380.5000000000002 94496.456589284615 1.0000000180025095e-35 3056.9166666666656 563958.12500000012 1431.5000000000002 94.333247525834167 888312.72727272764 1956.0312500000002 1658.9500000000003 4071.7916666666711 1934.4809795119702 0.00094046532964086368 1.0000000180025095e-35 1977.0200000000002 1946.4140441176453 1.0000000180025095e-35 1690.6828023331402 1.0000000180025095e-35 8003791.5000000009 8.5000000000000018 1435.8472222222201 2009.7678571428553 1.5000000000000002 2141.9939882109152 36.775622085648457 1416.5000000000002 1560.0368587924602 3133.0833333333353 1950.8413978494602 1.5000000000000002
decision_type=2 2 2 2 2 2 2 10 10 10 2 2 10 10 2 10 10 2 2 2 2 8 8 10 10 10 2 10 2 10 10 2 10 10 10 10 8 10 10 8 2 10 10 8 10 10 2 8 8 8 8 10 8 10 2 10 8 2 10 8 10 8 8
left_child=2 4 5 11 8 10 7 16 17 15 26 21 20 29 -5 37 28 30 57 31 59 -3 42 40 -12 43 -1 -11 -4 49 -2 55 41 36 -33 -22 50 53 39 -24 -10 -19 -9 -18 -25 -30 -23 -17 -29 -6 -21 -46 -26 -8 -16 -14 -13 -15 -32 -7 -34 -60 -41
right_child=1 3 6 14 13 12 9 22 23 27 24 56 19 18 54 47 25 32 -20 33 35 46 38 44 52 -27 -28 48 45 -31 58 34 60 -35 -36 -37 -38 -39 -40 62 -42 -43 -44 -45 51 -47 -48 -49 -50 -51 -52 -53 -54 -55 -56 -57 -58 -59 61 -61 -62 -63 -64
leaf_value=-5.0469645432926518 0.01263955867276834 0.97408317384077248 -1.5576753813454136 3.5629811939705123 0.11202163995688837 -1.8956105388117561 -0.45269291739558115 -0.56085343247766861 0.16991372956268755 -0.42262260547375263 -3.3229469074129989 2.265706751732635 -1.0660740268381337 1.5830052911687493 4.3299584728715113 -1.3352151056212356 -2.3141036895178688 0.4105304173458077 1.6100187784067304 -1.4946528876651097 -2.0302817187388853 1.9233143681667593 -0.13120713615999186 1.0719977013039244 -3.0320861789284113 -1.1819133779479916 -3.9668382126913677 0.0480087986405811 -1.129648612875213 0.36743931472346736 -0.81420041514528918 -2.0940535152469857 0.60785463042771948 1.223662257830302 -0.82205870666548742 -2.5097251146573356 -1.8166412877211091 -0.30737813656512725 1.4355621804656655 0.076029221032288208 0.65323433759940519 -0.3841156800702874 -1.6449205336536186 -1.7799228059012255 0.67508901049746528 -0.021706157035003296 2.2107653845355815 -0.84665166763821709 0.54950074486285716 1.0544207497968789 -0.61540191388966747 2.4506693755354836 -2.453977705664554 -0.9253065824560841 5.0360376726679448 -2.5119167911797602 2.8137777297944231 1.1286402143594192 -0.64325253663124826 -2.736762075128528 0.10616436306299876 -0.0016234260041492255 -1.3099765608067155
leaf_weight=740 6571 640 4084 4117 433 439 3010 623 3168 1538 8176 1185 158 1605 2655 2936 2436 1128 10657 876 4926 8168 2805 4355 2652 1178 2411 2796 6573 2470 1470 778 4598 75 492 3348 1428 7264 145 181 3980 1513 690 2979 7086 312 9144 2999 2755 4020 855 107 1534 2749 833 2027 7035 13524 1187 7311 1536 1701 651
leaf_count=740 6571 640 4084 4117 433 439 3010 623 3168 1538 8176 1185 158 1605 2655 2936 2436 1128 10657 876 4926 8168 2805 4355 2652 1178 2411 2796 6573 2470 1470 778 4598 75 492 3348 1428 7264 145 181 3980 1513 690 2979 7086 312 9144 2999 2755 4020 855 107 1534 2749 833 2027 7035 13524 1187 7311 1536 1701 651
internal_value=0 1.36679 -1.64912 2.64641 0.758971 -2.69839 -0.825577 -1.26269 0.359698 -0.445359 -3.36961 2.25539 -2.23995 1.22771 3.99209 -0.664541 -1.48761 0.0487096 1.35587 -1.73891 -2.4491 2.03589 -0.487403 0.687452 -3.15272 -1.87044 -4.2205 0.140798 -1.2575 0.750376 -0.172031 -2.11106 0.323635 -1.34133 -1.60128 -2.22428 -1.40223 -0.471402 -0.264123 -0.331886 0.439026 -0.0447136 -1.13055 -2.02023 0.841224 -1.07944 2.07514 -1.08834 0.296903 0.962784 -1.06036 0.701502 -2.82023 -0.67829 4.49858 -2.40737 2.73477 1.17684 -0.450477 -2.68911 0.482228 -0.26534 -1.00845
internal_weight=0 104886 86930 33777 71109 38226 48704 22657 38400 26047 15513 26172 22713 32709 7605 18958 17562 19704 25786 6689 16024 17952 5095 18696 12362 6593 3151 7089 10969 6923 10929 3455 8775 3234 1270 8274 3159 13023 3782 3637 7148 2641 1313 5415 11548 6885 17312 5935 5551 4453 1731 7193 4186 5759 3488 2185 8220 15129 4358 7750 6134 2888 832
internal_count=191816 104886 86930 33777 71109 38226 48704 22657 38400 26047 15513 26172 22713 32709 7605 18958 17562 19704 25786 6689 16024 17952 5095 18696 12362 6593 3151 7089 10969 6923 10929 3455 8775 3234 1270 8274 3159 13023 3782 3637 7148 2641 1313 5415 11548 6885 17312 5935 5551 4453 1731 7193 4186 5759 3488 2185 8220 15129 4358 7750 6134 2888 832
shrinkage=0.1


Tree=3
num_leaves=64
num_cat=0
split_feature=55 55 55 55 55 55 55 48 48 0 55 0 55 1 55 55 56 55 13 56 56 4 56 0 34 50 8 50 58 50 4 9 55 35 55 55 56 55 55 49 14 13 4 34 36 55 10 0 41 55 4 55 1 49 56 10 57 36 49 1 42 2 57
split_gain=3.50807e+07 7.94376e+06 4.59144e+06 1.80473e+06 1.18773e+06 711471 611640 342162 315730 295389 259845 232959 215075 141275 133782 127418 123212 110823 99523.1 97661.3 86137.6 84938.5 62166.9 60242.1 58475.1 57426 54245.4 54126.1 56281.5 66908.5 49696.3 47375.4 46908.4 44738.7 44273.8 38871.8 38658.1 38490 38098.1 36764.9 36041.4 34882.7 34669.9 33782.9 31874.6 31583.9 31554.2 31341.6 29893.4 29266.4 29074.5 29012.3 28235 28216.7 28092.3 27851.7 27482.1 26397.8 25966.4 31625.5 25834.3 24505.6 24376.8
threshold=1947.5773809523803 1970.3693181818201 1926.0227272727254 1987.3095238095204 1958.3166666666652 1936.5166666666653 1912.4188311688301 2.7266209636449408 2.7266209636449408 3658.5000000000005 1998.5833333333351 1597.5000000000002 1978.3416666666651 7.5000000000000009 1902.0500000000002 1964.2970588235303 2773.4642857142853 1919.7182539682551 1.0000000180025095e-35 2978.2500000000005 2825.9444444444453 79246.500000000015 1720.1666666666654 1431.5000000000002 1433950.0000000002 2.6062099004903554 3.5000000000000004 2.1004270000057104 563958.12500000012 30.313413438266856 2413505.0000000005 2.5000000000000004 1943.5166666666653 1950.1959483368701 1952.3639705882354 1974.7698412698453 1496.0666666666652 2006.2254901960753 1940.5166666666653 1468.1086400353151 7.5000000000000009 1.0000000180025095e-35 288247.00000000006 7512750.0000000009 6150.6440325385011 1943.5166666666653 36.736592119664756 1494.5000000000002 0.0011003059705414701 1932.5634920634955 40517.500000000007 1983.0500000000002 3.5000000000000004 94496.456589284615 6824.538461538461 36.756537433778206 3.8366666666666656 4672.3700483091807 6728.0983100858157 2.5000000000000004 0.015646451758367604 2.5000000000000004 3.3257575757575757
decision_type=2 2 2 2 2 2 2 10 10 10 2 10 2 10 2 2 10 2 10 10 10 10 10 10 2 10 10 8 8 10 8 10 2 8 2 2 10 2 2 8 10 10 8 2 10 2 2 10 8 2 8 2 8 10 10 2 8 10 10 10 10 10 10
left_child=2 4 6 12 7 9 14 20 16 19 -5 22 21 17 -1 46 32 52 30 49 23 -3 -6 36 -15 -9 60 -11 41 -30 38 48 -7 42 -25 -23 -2 -12 -10 -14 62 -29 -22 -33 -20 -18 -13 -35 -26 -4 -24 -41 -8 -31 -40 -27 -54 -28 -57 -60 -21 -43 -19
right_child=1 3 5 10 11 8 13 25 18 27 37 15 39 24 -16 -17 45 40 44 26 33 35 50 34 31 55 57 28 29 53 -32 43 -34 47 -36 -37 -38 -39 54 51 -42 61 -44 -45 -46 -47 -48 -49 -50 -51 -52 -53 56 -55 -56 58 -58 -59 59 -61 -62 -63 -64
leaf_value=-4.1756211029760761 -0.03131601850850655 0.87276980273176152 -1.6666592492123475 2.9128780141679633 0.69674380932432856 -0.92234263901738578 -2.7990040306562411 -0.13215760499357232 -0.93612029568789767 -1.982452908972135 3.7038076653525831 1.2339131596244783 1.5014990438229194 -0.87338393927106228 -3.1423088958158822 1.182122490163878 -1.5048967474562065 -2.0870761328437695 0.39557078289939185 -1.7436497240047819 -0.99805869706482619 1.5452294067432495 -0.72102103457964084 -0.10137334904323154 0.044204870435628998 1.0124954858131499 -0.92799053722300884 -0.84326819027605304 -1.5088068548287674 -0.56976844461355969 1.3163711538150809 -2.6505168439744278 -0.5282131924139275 -0.63230471167576696 0.32159274105569868 1.8408395407711922 -0.52244393130972122 4.30206269769206 -0.23240859232928923 2.0982175740353957 -1.0130671945014018 0.087497864864994349 -0.30225229198692616 -1.7256492850445864 -0.27292358949855877 -1.0263170746338015 0.74428111051725954 -0.035323055956967941 -1.9417596688127201 -1.2844849238372382 0.17345941058529579 2.4375282801506177 -2.0338046977554991 1.2396589703155014 -1.1402396315675067 0.33410490181876074 -2.6481289336360572 -1.9972719620137167 1.368643752971086 0.58229887100787026 -2.2966447998869235 -0.88265288349694249 -2.4100093130153879
leaf_weight=1518 3266 1374 4813 5620 2801 7074 6088 1260 1606 390 2895 1437 756 719 7176 15388 3464 5585 2565 1083 1923 9160 403 4709 178 1317 579 1297 1482 461 149 734 5269 1308 5216 8648 3147 1711 2859 6866 253 1145 1141 855 988 2291 15655 2684 132 3433 3697 3981 1124 106 387 4092 2068 384 580 4328 3841 337 4020
leaf_count=1518 3266 1374 4813 5620 2801 7074 6088 1260 1606 390 2895 1437 756 719 7176 15388 3464 5585 2565 1083 1923 9160 403 4709 178 1317 579 1297 1482 461 149 734 5269 1308 5216 8648 3147 1711 2859 6866 253 1145 1141 855 988 2291 15655 2684 132 3433 3697 3981 1124 106 387 4092 2068 384 580 4328 3841 337 4020
internal_value=0 1.10092 -1.66122 2.21824 0.484632 -1.03073 -2.61375 0.0605002 -0.695635 -1.49226 3.36923 0.861269 1.83591 -2.33043 -3.32273 0.973379 -0.932261 -2.42468 -0.194997 -1.72966 -0.159543 1.63033 0.333616 -0.0334404 -1.64145 0.505148 -2.04078 -0.849263 -0.757726 -1.15535 -0.482503 -1.93226 -0.754096 -0.45153 0.120913 1.68878 -0.272323 3.92604 -0.537745 2.17576 -2.1912 -0.464551 -0.738948 -2.15287 0.209679 -1.31438 0.785447 -0.230927 -0.801432 -1.50755 0.0855385 2.22275 -2.6727 -0.231498 -0.340644 0.582981 -2.43181 -1.35437 0.520129 0.675225 -2.17502 -0.13311 -2.22223
internal_weight=0 115363 76453 41011 74352 46003 30450 34971 26652 19351 10226 39381 30785 21756 8694 32480 18098 19138 8554 14133 23394 19182 6901 16338 2618 11577 5887 5218 4828 2049 5001 1899 12343 7056 9925 17808 6413 4606 4852 11603 9858 2779 3064 1589 3553 5755 17092 3992 310 8246 4100 10847 9280 567 3246 10317 3192 963 9000 4908 4924 1482 9605
internal_count=191816 115363 76453 41011 74352 46003 30450 34971 26652 19351 10226 39381 30785 21756 8694 32480 18098 19138 8554 14133 23394 19182 6901 16338 2618 11577 5887 5218 4828 2049 5001 1899 12343 7056 9925 17808 6413 4606 4852 11603 9858 2779 3064 1589 3553 5755 17092 3992 310 8246 4100 10847 9280 567 3246 10317 3192 963 9000 4908 4924 1482 9605
shrinkage=0.1


Tree=4
num_leaves=64
num_cat=0
split_feature=55 55 55 55 55 55 55 0 48 0 13 55 55 0 56 56 55 55 33 57 9 55 49 55 48 55 10 49 50 13 27 1 48 56 38 55 56 0 48 8 56 55 35 37 49 33 0 13 0 56 47 40 49 13 4 53 10 48 47 0 53 51 48
split_gain=2.84669e+07 5.27317e+06 5.08234e+06 1.10263e+06 868085 835776 529487 293851 271519 217660 212404 196868 172243 128465 114730 104669 88221.7 77828.1 77668.8 76191.9 75575 71940.8 61535.7 57725.6 55476.2 54909.6 49391.6 48155.5 47887.6 46575.1 45314.3 45246.1 41809.6 46765.1 41735.1 38761.5 37459.2 36674.3 36357.2 33774.8 33718.3 33503.4 32063.1 29288.7 29091 35939.3 28091.1 27308.5 26815.6 28938.3 25830.5 25304.8 24658.7 24395.3 30152.8 24243.8 23788.1 23780.9 29862 23185.2 22766.4 22597 23721.4
threshold=1951.5166666666653 1930.86405529954 1974.436507936505 1992.0714285714303 1963.3273809523803 1917.2792207792204 1942.3508771929803 3810.5000000000005 1.9883892855118801 3046.5000000000005 1.0000000180025095e-35 1907.6306818181804 1982.2052631578952 1766.5000000000002 3765.3809523809505 3402.7857142857156 2003.5608974358954 1969.4142857142854 31682.000000000004 2.4463601532567059 1.5000000000000002 1923.5278637770903 2095.3937722815003 1937.0555555555554 4.3791712527722311 1896.5833333333351 36.736592119664756 1415.9957666426556 1.9559361232581653 1.0000000180025095e-35 1489.3169201093804 3.5000000000000004 5.3236032807950657 3274.1111111111104 623378.73420329706 1956.5409356725152 2464.2539682539655 1431.5000000000002 5.4314833282249095 3.5000000000000004 1435.8472222222201 1955.0357142857154 1953.2327224131354 4.4198717948717956 124530.19264277202 31682.000000000004 1431.5000000000002 1.0000000180025095e-35 8801.0000000000018 7990.3272058823559 4413.9958231955216 1.0244567577014003 1540.0173169379552 1.0000000180025095e-35 1939301.5000000002 3.1497589852947705 36.775622085648457 2.4945567661557653 2337.7693382807706 3528.5000000000005 25.272920557993707 1560.0368587924602 3.1806928232613556
decision_type=2 2 2 2 2 2 2 10 10 10 8 2 2 10 10 10 2 2 2 10 10 2 8 2 10 2 2 8 8 10 8 10 10 10 8 2 10 10 10 10 10 2 8 10 8 2 10 10 10 10 10 8 8 10 10 10 2 10 10 10 8 8 8
left_child=1 5 4 12 8 11 7 14 19 15 21 25 27 30 23 37 -5 56 24 35 -20 61 -10 39 -12 -1 -24 -4 -9 48 -6 -13 33 -23 53 -2 -32 40 -36 -3 -8 59 -21 57 45 -40 -44 -25 49 -11 -31 -26 -14 54 -30 -16 -15 -22 -59 -28 -34 -7 -63
right_child=2 6 3 16 13 10 9 28 22 29 18 31 52 17 55 -17 -18 -19 20 42 43 32 26 47 51 -27 41 -29 34 50 36 -33 60 -35 38 -37 -38 -39 44 -41 -42 -43 46 -45 -46 -47 -48 -49 -50 -51 -52 -53 -54 -55 -56 -57 -58 58 -60 -61 -62 62 -64
leaf_value=-4.1247061210065432 0.0061693451681351453 -1.3154112668064584 1.0536387913225465 2.9878824083922328 -0.16903619540491541 -1.4419458495506778 -0.32437155204255724 -1.5377885166363618 0.19560365948624994 -0.098373175594709039 -1.3211526351735576 -2.6697269507182746 1.571219882791862 1.3872564896800776 -1.8122988621555933 -0.97377431186877694 3.7018367134991346 1.3926855599663648 0.086526163634079611 -0.49809570923259933 -1.955091845831979 -1.6732324664303473 1.1400522364800676 -0.88555726026507608 0.12558891059999325 -3.1674219171568949 0.15842649911244189 1.7369226871587191 -0.39689365791635528 0.91427537473266884 0.93741284424708926 -2.2536930572904028 -1.4595665499164343 -2.1212155790641369 -1.2316143460086799 0.40112214637091159 0.40174384293874488 -0.25381907739362169 -0.035515410940465279 -0.59602902584275963 -0.78831224146148815 0.68045225432554834 -0.34059193647339603 -1.8862644950599448 1.6288077301184338 -1.2840521117626895 0.19385597354942619 -0.13570039511069248 0.6372110295643949 -1.2670180489707099 0.27036534650306993 -0.86948819591718562 2.2958797567347147 0.26590045141888119 2.2085500302522081 -1.285313260953318 0.98402613305552955 1.4754393262333341 -1.1598596328231887 0.60900134587939092 -0.25022310271703951 -2.3444175190356602 -1.9448595992253925
leaf_weight=740 4559 5953 1106 4010 594 381 3026 291 3520 3183 953 7654 500 1640 2574 3597 3045 9477 268 2511 398 6128 1860 7162 641 3149 2477 15300 1292 829 3704 3970 443 3760 603 5462 2016 9626 776 733 3248 12946 1760 2158 75 328 2229 521 460 227 2507 425 7716 1668 46 1321 13558 45 967 2119 240 5272 2069
leaf_count=740 4559 5953 1106 4010 594 381 3026 291 3520 3183 953 7654 500 1640 2574 3597 3045 9477 268 2511 398 6128 1860 7162 641 3149 2477 15300 1292 829 3704 3970 443 3760 603 5462 2016 9626 776 733 3248 12946 1760 2158 75 328 2229 521 460 227 2507 425 7716 1668 46 1321 13558 45 967 2119 240 5272 2069
internal_value=0 -1.29971 1.14185 2.19384 0.668712 -2.16095 -0.617183 -0.965075 0.35753 -0.313066 -1.79302 -2.73369 1.87803 1.06479 -1.15218 -0.486635 3.29603 1.16778 -1.26879 0.0484838 -1.53303 -1.96081 0.580275 -1.02169 -0.76676 -3.34957 0.650063 1.69086 -0.292262 0.156553 0.662288 -2.52764 -1.79131 -1.84358 -0.216563 0.22144 0.748618 -0.376431 -0.600018 -1.23654 -0.56455 0.598109 -0.218162 -1.65467 -0.276988 -0.406457 -0.0419496 -0.834708 -0.0794878 -0.176169 0.430378 -0.271135 2.25178 0.0107547 -0.307319 -1.63357 1.02754 -1.30022 -1.04268 0.366165 -1.03461 -2.19283 -2.23181
internal_weight=0 89707 102109 31677 70432 39661 50046 23343 39443 26703 24148 15513 24622 30989 18264 19497 7055 24675 5855 16521 3836 18293 22922 14369 2019 3889 19402 16406 5079 7206 6314 11624 10571 9888 4788 10021 5720 15900 1782 6686 6274 17542 6500 3568 1179 1104 3989 7683 3870 3410 3336 1066 8216 3006 1338 3895 15198 1410 1012 4596 683 7722 7341
internal_count=191816 89707 102109 31677 70432 39661 50046 23343 39443 26703 24148 15513 24622 30989 18264 19497 7055 24675 5855 16521 3836 18293 22922 14369 2019 3889 19402 16406 5079 7206 6314 11624 10571 9888 4788 10021 5720 15900 1782 6686 6274 17542 6500 3568 1179 1104 3989 7683 3870 3410 3336 1066 8216 3006 1338 3895 15198 1410 1012 4596 683 7722 7341
shrinkage=0.1


Tree=5
num_leaves=64
num_cat=0
split_feature=55 55 55 55 55 55 55 0 48 55 0 13 55 55 13 56 55 56 4 48 56 11 55 8 56 50 48 2 55 49 9 50 9 35 49 55 49 56 48 0 56 51 8 0 56 56 48 55 0 55 50 50 14 38 47 0 8 41 14 33 4 56 55
split_gain=2.31006e+07 5.28356e+06 2.95749e+06 1.27295e+06 723867 453622 383909 224159 218525 189782 182933 162236 146039 114237 109095 102357 86117.8 73310.9 64530.7 61474 62377 56563.5 54181 52715.9 52242.5 50782.3 49912.1 49424.7 47828.5 45439.1 44248.3 42179.2 36283.5 36174.3 35826.6 33881.5 32218.3 31564.8 37344.6 30427.4 29608.7 29302.9 29200.9 28502.4 30732.7 26515.9 26395.2 26029.4 25975.7 25842.9 25787.3 25492 25481.2 30106.4 25270.6 24011.3 23811.8 23564 22975.7 22947.2 22729.1 21791 21269.4
threshold=1947.3541666666654 1969.4142857142854 1927.0217391304352 1988.0600000000002 1957.4142857142854 1914.1590909090951 1936.0238095238103 3810.5000000000005 2.5238032351639452 1978.0208333333351 1494.5000000000002 1.0000000180025095e-35 1997.0714285714303 1905.0500000000002 1.0000000180025095e-35 3978.2159090909104 1963.5277777777803 2400.4722222222204 90117.500000000015 6.5762895067015661 3765.3809523809505 -122.40217792492648 1920.5119047619053 3.5000000000000004 2012.5857142857151 3.8053556104488453 3.3379089000810453 2.5000000000000004 1943.5166666666653 124530.19264277202 1.5000000000000002 1.863812151960315 1.5000000000000002 1950.1959483368701 124530.19264277202 2009.7678571428553 2379.7593781040655 5991.5000000000009 9.1917560537684171 1184.5000000000002 3382.2361111111104 2996.9385088468202 3.5000000000000004 3253.5000000000005 2291.8181818181806 3765.3809523809505 2.1960450674537806 1896.5833333333351 1714.5000000000002 1975.0500000000002 0.65090580201712711 4.4737450333237705 66.500000000000014 632751.91307404672 4510.6687760977311 1416.5000000000002 3.5000000000000004 0.0010371483750844053 12.500000000000002 24857.500000000004 583688.50000000012 1385.5000000000002 1952.3639705882354
decision_type=2 2 2 2 2 2 2 10 10 2 10 10 2 2 8 10 2 10 8 10 10 2 2 10 10 8 10 8 2 10 10 8 8 8 10 2 8 10 10 10 8 10 8 10 10 10 8 2 10 2 8 8 10 10 10 10 10 10 10 2 8 10 2
left_child=2 4 5 9 8 13 11 15 17 18 24 19 -5 47 22 23 46 39 -3 20 43 30 -7 28 -6 -10 -23 -13 41 31 42 -9 -29 50 -24 -14 -11 -33 -39 61 -34 -8 -16 44 -4 -28 59 -1 -25 -20 -19 -18 53 -27 -15 -35 -17 -32 -47 -12 -26 -2 -41
right_child=1 3 6 12 10 14 7 29 25 36 16 27 35 54 21 56 51 33 49 -21 -22 26 34 48 60 52 45 32 -30 -31 57 37 40 55 -36 -37 -38 38 -40 62 -42 -43 -44 -45 -46 58 -48 -49 -50 -51 -52 -53 -54 -55 -56 -57 -58 -59 -60 -61 -62 -63 -64
leaf_value=-3.7122355116702419 -0.035899343870564503 0.7519093446751155 -1.1619405731779529 2.3616661991036643 0.411171442059512 -2.1477994894440502 -0.76284652628236005 -1.2980334454863396 -0.026686517569511511 1.4923884322664245 0.47422209828794321 0.0085203019240536349 3.0346699287232259 -2.5387251980941352 -2.2246625552885235 -1.3723266911836587 0.76707782702300897 -2.1622949339981594 1.2535911350149718 -0.32065185689317433 -1.7833455860318317 -1.739303859110817 -1.7877461114820059 -0.78268713007022728 -0.22926884990881802 0.56358567176370045 0.12076019961903017 0.14132898797591528 -0.48350042589750536 2.1405921326470128 -1.5732158085580923 0.20221130037314086 -0.35514498811649986 -0.57426102863512518 2.2528462374752221 3.7320436940187451 1.861933341966008 -0.79999342637368032 0.14297516132186272 -0.076157124858934416 -1.1620694667562013 -1.2555390928382142 0.23706915592535949 -0.75996524660683162 -1.5512027652567864 -1.2492891932026513 0.67158014536190025 -2.9983733953455136 0.080197350263653877 1.4950715743169465 -0.61895141200321757 1.0185349960913725 1.7011391817069637 0.16974772336481828 -2.1461211122366683 -0.077138235510823217 -0.70162935013515937 -2.1656236887637497 0.13874525555000183 -0.22072333943020431 1.5962425132308689 -0.51825493137867218 0.23091129440892835
leaf_weight=740 1899 2035 4540 4390 3246 7280 8426 255 2702 3099 5193 946 4257 6359 64 2674 7303 112 11757 541 3286 498 8615 464 2659 6368 397 339 6479 97 2610 3262 604 1428 22 833 9883 845 835 4911 1840 1409 195 960 3666 496 12045 1649 1406 7113 3245 9000 164 2792 2209 3040 660 904 157 523 70 1848 4172
leaf_count=740 1899 2035 4540 4390 3246 7280 8426 255 2702 3099 5193 946 4257 6359 64 2674 7303 112 11757 541 3286 498 8615 464 2659 6368 397 339 6479 97 2610 3262 604 1428 22 833 9883 845 835 4911 1840 1409 195 960 3666 496 12045 1649 1406 7113 3245 9000 164 2792 2209 3040 660 904 157 523 70 1848 4172
internal_value=0 0.886356 -1.35872 1.75997 0.365373 -2.08541 -0.821303 -0.586784 0.0161548 1.47341 0.650414 -1.19733 2.78429 -2.608 -1.8158 -0.730202 0.739936 -0.181156 1.28692 -1.3642 -1.40954 -1.4238 -1.94684 -0.636813 0.140046 0.355041 -0.914791 -0.615914 -0.694459 -0.00384549 -1.63264 -0.0438706 -0.828173 -0.422392 -1.77745 3.1488 1.77372 0.0208424 -0.331316 -0.034026 -0.96265 -0.833432 -0.371235 -1.27553 -1.33584 -0.523736 0.587601 -3.21949 -0.133909 1.34462 -0.670442 0.905894 0.465662 0.443542 -2.4375 -0.236022 -1.23956 -1.72562 -0.915566 0.410636 -0.182444 -0.273794 0.0648854
internal_weight=0 116087 75729 43367 72720 32195 43534 26812 32681 33887 40039 16722 9480 10957 21238 21518 34064 20655 20905 12993 12452 5321 15917 18184 5975 12026 1548 3729 16314 5294 3773 5197 2783 7825 8637 5090 12982 4942 1680 12830 2444 9835 259 9166 8206 1050 17761 2389 1870 18870 3357 16303 9324 9160 8568 4468 3334 3514 653 5716 2729 3747 9083
internal_count=191816 116087 75729 43367 72720 32195 43534 26812 32681 33887 40039 16722 9480 10957 21238 21518 34064 20655 20905 12993 12452 5321 15917 18184 5975 12026 1548 3729 16314 5294 3773 5197 2783 7825 8637 5090 12982 4942 1680 12830 2444 9835 259 9166 8206 1050 17761 2389 1870 18870 3357 16303 9324 9160 8568 4468 3334 3514 653 5716 2729 3747 9083
shrinkage=0.1


Tree=6
num_leaves=64
num_cat=0
split_feature=55 55 55 55 55 55 55 48 13 48 1 55 55 49 55 56 48 57 55 53 33 9 57 57 14 0 48 58 0 49 50 13 56 13 50 4 0 34 50 59 50 55 55 0 6 35 41 48 56 33 48 56 60 0 5 49 1 55 55 0 56 56 56
split_gain=1.87454e+07 3.60942e+06 3.13428e+06 832428 560402 444677 392176 184167 175481 171988 128525 110109 101819 99613 98995.8 76122.4 74129.2 72575.9 63246.8 58786.1 57735.1 72186.4 57730.9 54138.2 49698.5 44417.4 43962.7 48706.4 42257 41640.3 40238.8 38372.3 35432 33737.8 33420 30045.1 28606.6 28318.1 27477.5 28838.9 27207.1 26463.6 26271.4 25549.7 27955.5 24899.2 24359.1 24154.9 24971.9 23488.3 23418.6 35830.6 22766.1 22703.2 22611.4 22225.4 22088 21989.9 21083.9 20925.3 20689.4 20443.7 20406.6
threshold=1950.3541666666654 1972.3500000000001 1928.9534632034652 1989.0454545454552 1961.5669642857154 1914.6770833333351 1940.0227272727254 2.2680333705900404 1.0000000180025095e-35 2.8945403751442553 3.5000000000000004 1980.0250000000003 2002.1666666666654 1908.3258640037352 1905.0500000000002 2561.9500000000003 6.5762895067015661 2.7527777777777804 1966.2613636363653 4.5067510731306255 31682.000000000004 2.5000000000000004 2.3964285714285705 2.6282894736842102 8.5000000000000018 1380.5000000000002 2.5953853587463755 538507.67857142864 1528.5000000000002 2809.4993347896457 0.74128680138752157 1.0000000180025095e-35 1704.2500000000002 1.0000000180025095e-35 1.0473293145848903 66997.000000000015 1184.5000000000002 8911451.5000000019 225.01133271820802 810.17261904761961 41.424582363893805 1945.9838709677404 1919.7182539682551 4237.5000000000009 1.5000000000000002 1946.4140441176453 0.00096738584327659067 2.7794412850350061 4618.2500000000009 24857.500000000004 9.1917560537684171 9437.2666666666682 1.0182233224623654 2598.5000000000005 1680.0068954774551 865.31900890729912 6.5000000000000009 1934.5227272727254 1896.5833333333351 1364.5000000000002 1385.5000000000002 3382.2361111111104 1533.6500000000003
decision_type=2 2 2 2 2 2 2 10 10 10 10 2 2 8 2 10 10 10 2 8 2 10 10 10 10 10 10 8 10 8 8 10 10 10 8 8 10 2 8 10 8 2 2 10 8 8 10 8 10 2 10 10 10 8 8 8 10 2 2 10 10 8 10
left_child=2 4 5 11 7 14 8 22 16 15 23 28 -5 25 58 41 17 57 -15 -12 24 38 36 -7 43 62 -10 -28 32 -9 -17 50 -3 45 -19 -24 60 -31 39 -22 -29 -8 -25 61 52 -32 -23 -36 -49 59 51 -11 -45 54 -44 -13 -16 -4 -1 -37 -2 -21 -6
right_child=1 3 6 12 13 10 9 29 26 31 19 55 -14 18 56 30 -18 34 -20 20 21 46 35 42 -26 -27 27 40 -30 37 33 -33 -34 -35 47 49 -38 -39 -40 -41 -42 -43 53 44 -46 -47 -48 48 -50 -51 -52 -53 -54 -55 -56 -57 -58 -59 -60 -61 -62 -63 -64
leaf_value=-3.3410119959148363 0.13961867277596096 1.3498102696148886 -1.083068940278731 2.2721184966031638 0.52967508731627833 -1.5208959698332321 -0.50574619479656013 0.13922826624435108 -1.006682508079729 -0.14816768516978948 -1.920463226363063 0.39808756946111129 2.9677599914030197 0.69914819865836497 -2.2345545936693476 -1.8244793964231218 -0.061426560678845082 -1.9592135227455012 1.0038775541855471 -0.98248242430734811 -2.4598559946384073 -1.3363732456973121 -0.60275762015902523 -2.1329987769858518 -0.020180167896577565 0.56525270004707306 0.11118792165625078 -0.81783755634479238 1.3341124285972645 0.66998384388545162 -0.9866669310354178 0.31121697358120293 0.41965175565335971 -0.11062832435523356 -1.3926705572478708 -0.29288320351266467 0.23115775264955465 0.38045925057077484 2.9967548441003871 0.081866874079822238 0.2663827391301698 -0.21896566683334742 -1.0839445945313748 0.27179238328143307 -1.2450883842446279 -0.57359009864126964 -1.9045363777315618 -0.81985047927515409 -1.4461513647660853 -0.47212107269732279 0.52842102489642462 -1.5589426986562709 -0.86939709296187129 -1.5721724269070065 -2.0367408990794433 1.7303027660310026 -1.7710435805842282 -0.76124084011273596 -2.6985360290098366 0.1233686776587944 -0.39903774870585268 -1.7652158676572016 -0.25970525859071925
leaf_weight=740 1403 703 3591 5303 453 6878 6028 3581 832 3792 1088 127 3488 13828 8175 339 729 719 13422 797 53 1904 1548 3029 624 4633 2117 1291 16309 6643 3100 3369 981 829 4399 1832 8622 6874 27 283 282 6902 272 368 507 2757 1250 1977 939 1449 474 189 333 2937 2955 8973 1176 5194 1649 3544 1450 574 1182
leaf_count=740 1403 703 3591 5303 453 6878 6028 3581 832 3792 1088 127 3488 13828 8175 339 729 719 13422 797 53 1904 1548 3029 624 4633 2117 1291 16309 6643 3100 3369 981 829 4399 1832 8622 6874 27 283 282 6902 272 368 507 2757 1250 1977 939 1449 474 189 333 2937 2955 8973 1176 5194 1649 3544 1450 574 1182
internal_value=0 0.886221 -1.10273 1.70259 0.470482 -1.81912 -0.590832 0.201872 -0.905513 -0.340823 -1.57138 1.42824 2.54813 0.766563 -2.32304 -0.496628 -1.04865 -1.09144 0.849243 -1.23854 -1.12813 -1.40785 -0.00535033 -1.73309 -0.820985 0.407113 -0.350041 -0.201985 1.28487 0.442423 -0.761604 0.0565529 0.807954 -0.707713 -1.30866 -0.205006 0.140333 0.522748 -0.0724288 -0.31906 -0.623464 -0.352664 -1.89184 -1.01474 -0.679428 -0.792224 -1.56155 -1.24472 -1.02153 -0.114791 -0.136032 -0.215145 -0.270313 -1.77334 -1.95643 1.71171 -2.17626 -0.892793 -2.89754 -0.0184791 -0.134146 -1.31019 -0.0409962
internal_weight=0 106348 85468 35884 70464 35619 49849 36946 22070 27779 23879 27093 8791 33518 11740 19955 17548 16819 27250 7808 6720 3517 19848 16071 3203 6268 4522 3690 17993 17098 7025 7824 1684 6686 8034 8373 11475 13517 363 336 1573 12930 9193 2579 1208 5857 3154 7315 2916 6825 4455 3981 701 6164 3227 9100 9351 8785 2389 5376 2853 1371 1635
internal_count=191816 106348 85468 35884 70464 35619 49849 36946 22070 27779 23879 27093 8791 33518 11740 19955 17548 16819 27250 7808 6720 3517 19848 16071 3203 6268 4522 3690 17993 17098 7025 7824 1684 6686 8034 8373 11475 13517 363 336 1573 12930 9193 2579 1208 5857 3154 7315 2916 6825 4455 3981 701 6164 3227 9100 9351 8785 2389 5376 2853 1371 1635
shrinkage=0.1


Tree=7
num_leaves=64
num_cat=0
split_feature=55 55 55 55 55 55 13 55 48 13 55 55 4 50 56 56 2 55 10 49 55 55 0 48 56 48 56 11 9 8 35 55 1 0 4 50 14 55 4 11 49 9 40 4 57 10 33 56 0 36 8 6 55 36 55 35 0 56 38 49 4 27 50
split_gain=1.52206e+07 2.94902e+06 2.61039e+06 552600 508879 470885 262838 242119 158629 137471 123003 91993.8 84976.6 51258.2 54497 50492 49538.3 48440.7 44893.5 43877.4 43309.5 42410.4 41939.9 40411.8 59011.4 39780 59242 35203.9 34222.9 36180.4 32590.1 31233.7 30483.5 30473.3 30347.1 28923.5 27908.8 27154.7 27117.3 30169.4 26409.7 25825.8 26661.2 25195.7 24879.8 24875.4 23641.9 22773.5 22598 22502.8 22209.5 23291.6 21863 21509.9 21503 21332.3 21322.4 21112.2 20964.9 20079.3 19956.7 19185 18945.7
threshold=1952.0312500000002 1932.0192307692303 1975.5100000000002 1993.5166666666653 1918.2792207792204 1964.0227272727254 1.0000000180025095e-35 1943.5166666666653 1.8430923153661503 1.0000000180025095e-35 1908.6794871794903 1984.3245614035052 90117.500000000015 28.388603592961854 3197.1250000000005 2127.2500000000005 2.5000000000000004 1969.4142857142854 36.736592119664756 4233.2940991306104 1946.0454545454552 2005.5657894736853 2976.5000000000005 3.3937472578717855 2522.2222222222204 5.6709420898091958 2857.8750000000005 -122.23799211745148 1.5000000000000002 3.5000000000000004 1957.3670064874902 1896.5833333333351 7.5000000000000009 2910.5000000000005 24114.500000000004 5.414933292437861 7.5000000000000009 1957.0238095238103 4698895.5000000009 -122.35022020647348 3310.8748471723802 1.5000000000000002 1.0244567577014003 33943.500000000007 5.7303030303030313 37.799189679735314 31682.000000000004 4401.1757142857159 1380.5000000000002 4261.5484341748152 6.5000000000000009 1.5000000000000002 1937.5166666666653 6579.1835260115613 1925.5811403508753 1934.4809795119702 1348.5000000000002 1410.2500000000002 499801.48321247107 3430.9665706146257 8003791.5000000009 2907.3948010182407 9.4660871184523057
decision_type=2 2 2 2 2 2 10 2 10 8 2 2 8 10 10 10 8 2 2 8 2 2 8 10 10 10 10 2 8 8 8 2 10 8 10 8 8 2 8 2 8 8 8 8 10 2 2 10 10 10 8 8 2 10 2 10 10 10 10 10 10 8 8
left_child=1 4 5 11 10 8 7 13 15 25 31 40 48 14 43 61 36 62 -10 37 27 -5 55 24 56 26 54 41 29 -18 -17 -1 -12 -28 -26 -24 -11 -20 39 -27 -4 45 -43 -3 -34 -8 -30 -35 57 -48 -41 -52 -45 -38 -6 -16 -9 -7 -21 -19 -60 -2 -14
right_child=2 6 3 21 9 12 20 23 18 16 32 -13 17 -15 22 30 28 59 19 58 -22 -23 35 -25 34 38 33 -29 46 -31 -32 -33 44 47 -36 -37 53 -39 -40 50 -42 42 -44 52 -46 -47 49 -49 -50 -51 51 -53 -54 -55 -56 -57 -58 -59 60 -61 -62 -63 -64
leaf_value=-3.0069106932185949 -0.15423052165769455 -1.215605930237722 1.1509447790922054 2.2731608559191225 -1.4085756329441019 0.75229267183437576 1.1359975416573787 -0.38011325853464922 0.84030402784807401 -1.0303060099309267 -1.8635102075104513 1.7193909419086937 0.6897390149688466 0.33810612111453819 -1.6322189846880466 -0.39763343846703381 -1.5780410406451959 0.87751715461472812 0.04423562940313492 0.66779299276488469 0.39132121940959902 2.8139565243011391 -1.1509673728128356 0.055677189977357391 -1.9023080486146844 -1.7413027808743138 -1.7953148078572743 0.29684541155635097 -0.68830863486415839 0.3932956835039233 0.05421487004350875 -2.2980869003324544 -0.82189427303628448 -1.2279121814756246 -0.54885484110259386 -0.50482686260285747 0.31389487982709047 0.37484127153480379 1.3024909855990574 -1.3074959067225458 1.4070835752680599 -0.04877261515547715 -0.61248304597457026 -0.81466624163060397 -1.6905777395237758 -0.36293963266909124 -0.83909306527852123 -1.7008409530023678 0.5370673134796542 -1.399448083141245 0.53782613022873804 -0.91940914483943803 -0.53555740590028078 -0.87596348769435994 -1.0995197430830284 -1.0986361430816709 -0.11119530485944298 -0.2443990002818327 0.39163763520814043 1.1346306233712409 1.5200090914336035 0.27296658664822138 0.95464580249382802
leaf_weight=740 1262 826 7956 4425 4399 279 248 4794 2571 344 10940 6791 10796 404 1174 3317 130 5279 4048 5604 3082 2157 1166 2928 170 310 4543 1737 1165 328 3077 3887 522 2483 6497 1707 653 6432 58 250 8148 1616 1745 4598 895 200 1072 1726 2195 2162 240 202 7203 198 4611 2071 7659 892 7696 7153 160 6295 3600
leaf_count=740 1262 826 7956 4425 4399 279 248 4794 2571 344 10940 6791 10796 404 1174 3317 130 5279 4048 5604 3082 2157 1166 2928 170 310 4543 1737 1165 328 3077 3887 522 2483 6497 1707 653 6432 58 250 8148 1616 1745 4598 895 200 1072 1726 2195 2162 240 202 7203 198 4611 2071 7659 892 7696 7153 160 6295 3600
internal_value=0 -0.930931 0.852372 1.64286 -1.5497 0.522587 -0.411103 -0.516212 0.299579 -1.26159 -1.97166 1.41071 0.821432 -0.776344 -0.800364 0.0266328 -0.846998 0.880855 0.443213 0.400568 0.0907757 2.45039 -1.04532 -0.290284 -0.343264 -1.39489 -1.43041 -0.0762422 -0.988911 -0.166254 -0.180189 -2.41145 -1.80698 -1.61571 -0.583366 -0.767061 -0.270203 0.247142 -0.799788 -0.921477 1.28054 -0.24638 -0.341446 -0.681678 -1.37057 0.466829 -1.07456 -1.42185 0.347816 -1.2137 -0.554214 -0.12815 -0.644306 0.0370536 -1.25041 -1.29168 -0.21472 -0.00692934 0.520026 1.02545 0.414619 0.201626 0.755984
internal_weight=0 91683 100133 29477 41858 70656 49825 41197 40462 24874 16984 22895 30194 19149 18745 13951 6052 26828 26511 23940 8628 6582 6118 22048 19120 18822 17762 5546 4857 458 6394 4627 12357 8752 6667 2873 1195 10480 1060 1002 16104 3809 3361 12627 1417 448 4399 4209 3366 3234 692 442 11801 851 9010 3245 12453 1171 13460 12432 7856 7557 14396
internal_count=191816 91683 100133 29477 41858 70656 49825 41197 40462 24874 16984 22895 30194 19149 18745 13951 6052 26828 26511 23940 8628 6582 6118 22048 19120 18822 17762 5546 4857 458 6394 4627 12357 8752 6667 2873 1195 10480 1060 1002 16104 3809 3361 12627 1417 448 4399 4209 3366 3234 692 442 11801 851 9010 3245 12453 1171 13460 12432 7856 7557 14396
shrinkage=0.1


Tree=8
num_leaves=64
num_cat=0
split_feature=55 55 55 55 55 55 55 0 0 55 0 0 56 55 4 56 56 40 49 56 9 10 50 1 55 8 49 56 50 55 55 57 6 55 33 0 49 35 53 42 13 51 4 47 4 0 4 6 4 50 58 55 4 58 4 60 49 56 0 58 4 20 49
split_gain=1.23375e+07 2.45926e+06 2.06007e+06 437579 415115 372060 228031 153413 137882 128632 108734 99633.5 77012.1 71569.9 61204.8 51269.3 49096.3 48769.1 44105.1 40236.1 38445.6 37852.8 36068.5 35667.4 35251.9 34451.2 33137.5 36879.3 32433.2 31862.7 31834.5 28641.7 28392.4 28281.6 27405.7 26601.5 25172.4 24637.8 22906.6 22857.4 22852.6 22330.1 22256.1 21628.7 21522.3 21494.6 21330.8 20999 20870.7 20543.1 20519.5 19422.7 19281.5 19279 18361.2 18128.4 18034.6 19743 17931.2 17855 17727.6 23282.4 17265.5
threshold=1952.6076923076901 1932.0192307692303 1975.8599439775901 1993.5166666666653 1920.5119047619053 1964.9838709677404 1945.0357142857154 3810.5000000000005 1714.5000000000002 1909.3875000000003 3658.5000000000005 2808.5000000000005 3765.3809523809505 1984.883116883115 102080.00000000001 2492.1666666666656 2046.1250000000002 0.97305267153883002 2002.0362340996305 2684.7500000000005 3.5000000000000004 36.736592119664756 1.5349318150712152 3.5000000000000004 2004.4500000000003 3.5000000000000004 124530.19264277202 6506.4000000000005 225.01133271820802 1970.3693181818201 1937.9857142857152 3.8908730158730154 1.5000000000000002 1896.5833333333351 8148.0000000000009 17482.500000000004 895.54841058029126 1922.2119897620003 8.8018065454527186 0.019529530094176604 1.0000000180025095e-35 1652.3772241517154 33943.500000000007 4413.9958231955216 53974.500000000007 3780.5000000000005 12145249.000000002 1.5000000000000002 24114.500000000004 1.4411356318811051 1090290.5000000002 1959.3416666666651 667984.00000000012 68041.857142857159 33943.500000000007 0.97487794873372557 25320.419049091153 2908.3500000000004 8801.0000000000018 139482.00000000003 421452.00000000006 0.0012048893955877301 799.98428019173105
decision_type=2 2 2 2 2 2 2 10 10 2 10 10 10 2 8 10 10 8 8 10 10 2 8 8 2 10 10 10 10 2 2 8 8 2 2 10 8 10 8 10 10 8 10 10 10 10 10 8 8 8 10 2 8 10 8 10 10 10 10 8 8 8 8
left_child=1 4 5 13 9 8 7 12 16 33 19 15 20 36 44 -8 54 47 42 -6 30 -20 -13 41 -5 39 27 32 37 59 -3 38 49 -1 -23 -29 -4 -19 -25 -21 56 -11 -10 -42 53 -40 51 -12 -17 -9 -14 -36 -18 -7 -2 -51 57 -24 -34 -16 -61 -62 -32
right_child=2 6 3 24 10 14 11 26 18 23 17 22 50 -15 29 48 52 28 21 25 -22 34 40 31 -26 -27 -28 35 -30 -31 62 -33 58 -35 46 -37 -38 -39 45 -41 43 -43 -44 -45 -46 -47 -48 -49 -50 55 -52 -53 -54 -55 -56 -57 -58 -59 -60 60 61 -63 -64
leaf_value=-2.7062196136084764 -0.43054918756773858 -0.82438185868536018 0.21886781225709814 2.0177495428831351 -1.0551358406780531 0.81643185798198958 -0.14846950814483736 -1.5309526858821749 -1.1622221893822873 -1.0438082991231616 -0.0075702246164762125 -0.83608430961862068 -0.97762729409684701 1.5644634577179339 1.1523439142628114 -1.7010745987802947 -0.2430880595522627 -1.3208176747654568 0.85844645211539961 -1.2661055111698547 -0.12398407706274023 0.60379421224684915 0.39020418422233655 -1.2680006672092174 2.4908412899276762 -0.91044114454713698 1.7575474169066077 -0.76663266268747243 2.6890535411834717 0.95591712138440688 -0.93117478001122245 -1.5195225012263087 -0.44861787192169206 -2.0404956236775766 0.23385270001254016 0.17316633524252706 1.1821969648342174 -0.77645553617111163 -1.4237116194157691 -1.6442946115734594 0.85872025748356351 -1.7336686069316263 0.16107759557922063 0.26416919477340578 0.53242079296199174 -0.022053411673721292 1.9020735089614822 -0.73195881993288092 -0.49263590020736481 0.69706022614044716 -1.651850695720716 0.45298229799486756 1.3615583249612859 -0.25562756342412618 0.22492970461628278 0.10597942858126008 0.98218177627808978 -0.13202444417221962 0.45700562993354898 0.60419101245076445 1.4490875660216789 0.76605244227208635 -0.48665505309814183
leaf_weight=740 456 5607 276 3972 7265 217 11187 63 131 497 1097 336 3759 6252 911 147 5094 1139 2229 2872 1639 6294 998 1376 2610 1289 95 1201 25 10514 964 4719 1296 4636 7651 402 15774 3079 162 3603 847 8392 4265 2204 3007 337 89 630 5147 770 513 8582 76 739 6802 1591 202 2636 263 8084 567 4164 9335
leaf_count=740 456 5607 276 3972 7265 217 11187 63 131 497 1097 336 3759 6252 911 147 5094 1139 2229 2872 1639 6294 998 1376 2610 1289 95 1201 25 10514 964 4719 1296 4636 7651 402 15774 3079 162 3603 847 8392 4265 2204 3007 337 89 630 5147 770 513 8582 76 739 6802 1591 202 2636 263 8084 567 4164 9335
internal_value=0 -0.826173 0.778521 1.48889 -1.39473 0.484867 -0.361372 -0.557308 0.295023 -1.7107 -1.08087 -0.134076 -0.677838 1.27744 0.765355 -0.269801 0.0159985 -0.719821 0.413614 -1.22428 -0.585129 0.465274 0.175612 -1.56437 2.20535 -1.38256 -0.094431 -0.125927 -0.902166 0.82492 -0.632647 -1.38815 0.0370784 -2.13213 0.426524 -0.53095 1.16563 -0.923451 -1.05752 -1.47655 0.224971 -1.6951 0.121644 0.429225 0.401021 -0.477101 0.358166 -0.271823 -0.526191 0.251196 -1.05859 0.349701 -0.219499 -0.0122835 0.183748 0.29875 0.0625151 0.0113944 -0.295841 0.724577 0.694167 0.847913 -0.528263
internal_weight=0 93060 98756 28884 41858 69872 51202 27498 41669 20859 20999 23704 21817 22302 28203 16481 12428 5970 29241 15029 17545 24845 7223 15483 6582 7764 5681 5586 4243 24240 15906 6594 3983 5376 22616 1603 16050 4218 1875 6475 6887 8889 4396 3051 3963 499 16322 1727 5294 2424 4272 16233 5170 956 7258 2361 3836 3634 1559 13726 12815 4731 10299
internal_count=191816 93060 98756 28884 41858 69872 51202 27498 41669 20859 20999 23704 21817 22302 28203 16481 12428 5970 29241 15029 17545 24845 7223 15483 6582 7764 5681 5586 4243 24240 15906 6594 3983 5376 22616 1603 16050 4218 1875 6475 6887 8889 4396 3051 3963 499 16322 1727 5294 2424 4272 16233 5170 956 7258 2361 3836 3634 1559 13726 12815 4731 10299
shrinkage=0.1


Tree=9
num_leaves=64
num_cat=0
split_feature=55 55 55 55 55 55 55 48 8 48 55 0 1 57 55 50 57 56 0 56 13 5 55 49 55 0 50 57 14 50 56 28 56 48 9 33 52 34 50 10 6 56 48 50 6 55 55 48 56 35 5 2 51 0 49 49 47 0 4 48 9 49 57
split_gain=1.00097e+07 2.10736e+06 1.4866e+06 495798 337160 238736 186958 124744 111986 108167 86195.6 77599.7 55518.1 52367.2 51298.8 46004.1 40804.1 40180.5 38547 48110.1 48049.9 36715.1 36343.5 32563.2 32394.9 31680.8 30332.3 30320.7 29197.5 28246.1 27012.2 26319.5 25435.2 25409.5 25211.1 44111.2 29623.3 28282.4 24328.4 24239.5 24178.4 26772.9 24064.6 23972.6 34744.7 20856.3 20629 20616.2 23202.3 20068.4 20039 21163.3 19985.9 26455 19824.6 19520.7 20168.3 18914.7 18818.3 18399.6 18327.5 18171.9 18169.4
threshold=1948.9377289377303 1971.0384615384603 1926.0227272727254 1986.8166666666652 1959.6055555555552 1938.5634920634955 1911.7071428571451 2.8348827011110802 3.5000000000000004 2.7266209636449408 1997.0714285714303 1431.5000000000002 7.5000000000000009 2.6715686274509802 1978.9666666666651 1.4082735696524951 2.6510869565217403 3861.9473684210557 54396.500000000007 8162.3166666666666 1.0000000180025095e-35 22799.396115401054 1902.0500000000002 1236.7742365915201 1921.51086956522 1332.5000000000002 0.74128680138752157 7.8062500000000012 42.500000000000007 1.4411356318811051 1584.4375000000002 25.488816218529255 1385.5000000000002 13.331789133397452 2.5000000000000004 31682.000000000004 4.2860304781561203 7512750.0000000009 0.65090580201712711 35.773951382915762 1.5000000000000002 7788.1274038461552 2.6751115247252755 12.668641841453152 1.5000000000000002 1954.3484848484852 2014.1250000000002 14.3215180310271 3884.1454545454553 1939.8897798742103 1718.441700728765 2.5000000000000004 1809.2936942703452 2976.5000000000005 2756.6294223769551 4310.9227311263357 2033.5887730960303 1536.5000000000002 592564.00000000012 1.6924989183136903 6.5000000000000009 1130.4481216503602 6.0200000000000005
decision_type=2 2 2 2 2 2 2 10 10 10 2 10 10 10 2 8 10 10 10 10 10 8 2 8 2 10 8 10 10 10 10 10 10 10 8 2 8 2 8 2 10 8 10 10 10 2 2 10 10 8 8 8 10 10 8 10 10 10 8 10 10 8 10
left_child=2 4 6 14 9 7 22 13 16 17 61 30 24 -4 23 -9 59 25 19 20 47 -13 -1 -3 50 32 -18 33 29 -10 -6 39 -2 -14 37 -36 -37 -22 -15 -23 41 -31 49 44 -11 -27 -12 48 -17 -28 -8 60 -40 -54 -41 -25 -57 -16 -32 -7 -52 -5 -26
right_child=1 3 5 10 11 8 12 15 28 43 46 21 27 38 57 18 26 -19 -20 -21 34 31 -24 55 62 45 42 -29 -30 40 58 -33 -34 -35 35 36 -38 -39 52 54 -42 -43 -44 -45 -46 -47 -48 -49 -50 -51 51 -53 53 -55 -56 56 -58 -59 -60 -61 -62 -63 -64
leaf_value=-2.2579752997643707 0.072225971103565198 0.32843274373531073 -0.73656387675344981 0.30829020247596212 0.46993285012945168 -0.41599355691438578 -0.76717246668018657 -1.5279915602014376 -0.85890411322711158 0.33091497008875126 2.0245367751842056 0.46373340996376688 -0.70755649389666475 -1.9709281442639459 0.77081857353556005 -0.36927494838432229 -1.4689285172285096 -0.34046098844841799 1.9489024374421153 -0.97694908729784147 -0.36461305879884298 1.0482182305560575 -1.7140052539088879 0.83485350414973203 -1.0818528296678493 -0.023010749671772562 -0.98239280330811762 -1.2003003713819718 1.4787038988840413 0.29676381571194949 -0.10337330428249321 2.1773118288352573 -0.36099205325743089 0.41737204720285653 0.2333934233801645 0.016626485645077949 -1.0617459982717037 1.1970538664632049 -0.82557754059304822 0.43780013076848906 -0.32393303313636768 -0.3344006465752507 -0.29005030316319125 0.53882183978512221 -0.15850830104038305 0.22693510258754751 2.7787450921444492 1.0571251934464974 -0.8847165182373482 -0.55244462065686994 -1.1571332066153965 -1.4745951178820138 -1.3117892674695968 -0.74729437245773511 0.70531604146213811 1.3515751437305796 0.95009147134302574 1.2139718703998139 1.4907723593672639 -0.16122063994869174 0.20173898880634833 1.5421239911876916 -1.5924056898142882
leaf_weight=1518 2230 991 7680 122 1405 6118 472 370 339 6811 4697 18332 1256 314 1078 2180 371 4031 70 1252 180 1479 6434 10685 6221 7354 1430 1215 142 3767 2886 116 3455 239 1405 430 625 326 2253 4053 1177 818 2577 3438 1843 6114 393 79 1457 4508 1110 11091 3741 1067 8752 1692 4803 9040 76 5282 109 5532 785
leaf_count=1518 2230 991 7680 122 1405 6118 472 370 339 6811 4697 18332 1256 314 1078 2180 371 4031 70 1252 180 1479 6434 10685 6221 7354 1430 1215 142 3767 2886 116 3455 239 1405 430 625 326 2253 4053 1177 818 2577 3438 1843 6114 393 79 1457 4508 1110 11091 3741 1067 8752 1692 4803 9040 76 5282 109 5532 785
internal_value=0 0.613706 -0.85031 1.20593 0.294307 -0.51462 -1.40106 -0.747236 -0.309186 0.0729646 1.78425 0.504774 -1.25375 -0.919327 0.986295 -0.437847 -0.423163 -0.0534982 -0.387453 -0.408066 -0.301475 0.5576 -1.81785 0.885809 -1.31188 0.00689691 -0.583803 -0.829263 0.0611738 0.0281809 0.10882 0.677098 -0.191058 -0.527718 -0.00131992 -0.133546 -0.62222 0.64152 -1.10965 0.664915 0.0803715 0.184159 -0.545238 0.315432 0.226685 0.0904559 2.08277 -0.541049 -0.575763 -0.655986 -1.40661 -1.43113 -1.07135 -1.18652 0.620643 0.917961 1.05468 1.16676 -0.0624702 -0.297949 -1.03563 1.5155 -1.13906
internal_weight=0 111408 80408 39033 72375 49958 30450 23429 26529 35276 10744 37099 22498 15055 28289 8374 20286 23184 8004 7934 6682 32732 7952 18171 19788 19153 8886 2710 6243 6101 4367 14400 5685 1495 2966 2460 1055 506 7375 14284 5762 4585 8515 12092 8654 13468 5090 3716 3637 5938 12782 12310 7061 4808 12805 17180 6495 10118 2962 11400 1219 5654 7006
internal_count=191816 111408 80408 39033 72375 49958 30450 23429 26529 35276 10744 37099 22498 15055 28289 8374 20286 23184 8004 7934 6682 32732 7952 18171 19788 19153 8886 2710 6243 6101 4367 14400 5685 1495 2966 2460 1055 506 7375 14284 5762 4585 8515 12092 8654 13468 5090 3716 3637 5938 12782 12310 7061 4808 12805 17180 6495 10118 2962 11400 1219 5654 7006
shrinkage=0.1


Tree=10
num_leaves=64
num_cat=0
split_feature=55 55 55 55 55 8 55 55 0 0 55 55 9 33 52 56 1 14 46 57 27 50 50 48 4 57 57 2 38 0 0 44 0 58 56 51 14 14 38 57 10 50 56 55 35 49 28 34 38 23 50 49 53 49 6 1 47 49 7 13 11 8 7
split_gain=8.13418e+06 1.98285e+06 955338 502927 255409 164788 136484 126313 97979.3 78464.3 76396.1 70061.1 58779.1 59379.9 56159 48255.5 44840.1 38359.8 34048.8 33815.2 33792.6 33690.1 33370.3 32894.4 32603 32542.8 32237.6 31731.2 30652.5 30093 28646.8 27947 27867.9 27865.9 27498.4 26410 26351.5 26314.2 26007.8 25536.8 23663.6 22972.3 22799.5 22597.1 22056.2 21771.5 20913.8 20719.2 20316.3 20116 20021.7 19380.6 18228.5 18159.1 18120.2 18002.5 17887.7 20055.7 17504.3 17301 20007.2 25273.3 17232.8
threshold=1946.0454545454552 1967.8535714285701 1924.5300000000002 1986.0357142857154 1956.3038461538451 3.5000000000000004 1934.5227272727254 1910.0238095238103 3046.5000000000005 1380.5000000000002 1998.5833333333351 1976.4083333333353 2.5000000000000004 31682.000000000004 4.3241279538533357 2857.8750000000005 3.5000000000000004 9.5000000000000018 336.50000000000006 2.3779761904761902 15082.022508260654 1.4411356318811051 5.7349721394524256 6.2338349082722404 85594.000000000015 5.4580419580419557 2.6715686274509802 2.5000000000000004 645862.05180180212 2320.5000000000005 3555.5000000000005 0.94874867748334446 1756.5000000000002 277175.36538461555 1435.8472222222201 2827.7788684783554 63.500000000000007 7.5000000000000009 632751.91307404672 3.1455026455026451 36.230787608245258 57.973166182141561 2012.5857142857151 1902.0500000000002 1945.6192428590955 3310.8748471723802 8.6548221650754371 7516650.0000000009 369368.38609601458 1.4153492624748953 0.54659610667155656 1236.7742365915201 6.4741417287327963 3192.8932861584358 1.5000000000000002 6.5000000000000009 4173.227147938981 6398.9247487183065 2.7594644820492258 1.5000000000000002 -122.32614156601049 7.5000000000000009 4.5201181701607611
decision_type=2 2 2 2 2 10 2 2 10 10 2 2 8 2 10 10 8 10 10 10 8 8 8 10 10 8 10 8 8 10 10 10 10 10 10 10 10 8 10 10 2 10 10 2 8 10 10 2 10 10 8 8 8 8 8 8 8 8 10 10 2 10 10
left_child=2 4 7 11 8 6 23 43 15 34 51 20 18 17 24 32 39 25 41 -8 -3 -10 33 26 -15 29 -4 37 46 -14 35 -32 42 -11 -6 50 38 -18 56 -9 -34 -7 -2 -1 -17 -22 -24 -26 -47 -25 -21 -5 -39 -13 58 -27 57 -23 -31 60 -29 -62 -63
right_child=1 3 5 10 9 12 19 16 21 22 -12 53 13 14 -16 44 27 -19 -20 30 45 36 28 49 47 55 -28 59 -30 54 31 -33 40 -35 -36 -37 -38 52 -40 -41 -42 -43 -44 -45 -46 48 -48 -49 -50 -51 -52 -53 -54 -55 -56 -57 -58 -59 -60 -61 61 62 -64
leaf_value=-2.0321778233863697 -0.065537683364933028 0.10211116250301894 -0.76581896152682649 0.31768394977730868 0.34840054936360337 -0.069912433560998383 -0.36542635120719846 -1.1851705674691311 -0.86128677810346221 0.43714318224022003 1.901367813578184 0.86464758092230365 -0.66437953872454558 -1.9985025716762916 -1.0911499387072692 -0.648962386715075 -1.1773547547146621 0.4104973340861599 1.221112593283052 -1.5963778495481336 0.61241424619574458 0.33715663597152568 0.62053734421276152 -0.81635303991080743 -0.80980618230777601 -0.90179272390674292 -1.0818418423280098 -1.2904790829894268 0.36723562921775676 -0.3051577798740861 0.29538842563686035 -0.57696639153309259 0.78435383105424772 0.19665915987429983 -0.18334275370245207 -0.99812933441127893 1.5029287518965715 -0.96097620745974588 0.0060745281416795674 -1.4783059290793952 0.064010367468870663 1.1852704498029891 -0.41026367826348187 -1.5892050552447183 -0.24867992126265756 1.0287961834428916 1.3908598261772382 0.042628130310686768 0.73229655517233205 0.64170230286759011 -0.56498544827714414 1.3992990973627861 -0.021936052120648898 1.0775440364680604 -0.22180454919530465 -0.28770785623530365 0.24369134333446285 0.9503788138459579 0.46499220798398355 -0.42072845564297073 -1.0498428535831119 -1.25164958439251 0.29789657679296311
leaf_weight=1518 8510 899 5888 170 1362 1104 9671 6897 266 9587 4606 7386 688 102 1590 1919 518 1051 341 194 8807 1226 7046 169 371 916 7145 3843 6992 384 613 916 495 9687 3401 2177 173 293 2813 5222 5794 168 2477 4771 4870 3350 371 1232 7451 215 6311 6491 702 8756 1213 997 3779 944 1275 356 2988 101 248
leaf_count=1518 8510 899 5888 170 1362 1104 9671 6897 266 9587 4606 7386 688 102 1590 1919 518 1051 341 194 8807 1226 7046 169 371 916 7145 3843 6992 384 613 916 495 9687 3401 2177 173 293 2813 5222 5794 168 2477 4771 4870 3350 371 1232 7451 215 6311 6491 702 8756 1213 997 3779 944 1275 356 2988 101 248
internal_value=0 0.50586 -0.838298 1.00392 0.173069 -0.553283 -0.665744 -1.30262 -0.0298153 0.348617 1.58823 0.82429 -0.225706 -0.317609 -0.663641 -0.135934 -1.18572 -0.142844 0.333752 -0.499432 0.701621 0.247735 0.402338 -0.912193 -0.264966 -0.249104 -0.93907 -1.01728 0.517456 -0.0703532 -0.626352 -0.227226 -0.0471647 0.316277 -0.0312885 -0.696642 0.280752 -0.599362 0.256621 -1.31148 0.120708 0.0958664 -0.143256 -1.69613 -0.361825 0.729108 0.659069 -0.15466 0.824258 6.07128e-06 -0.595745 1.37169 -0.298457 0.98013 0.0719483 -0.58175 0.375092 0.603922 0.28673 -1.10119 -1.13493 -0.955789 -0.150539
internal_weight=0 119628 72188 47916 71712 44731 33299 27457 33266 38446 11267 36649 11432 9819 3295 24065 21168 6524 1613 19882 20507 9201 33683 13417 1705 5473 13033 9049 14409 3560 10211 1529 17276 19274 4763 8682 8935 1513 8762 12119 6289 1272 10987 6289 6789 19608 7417 1603 10801 384 6505 6661 995 16142 2872 1913 5949 2170 1659 7536 7180 3337 349
internal_count=191816 119628 72188 47916 71712 44731 33299 27457 33266 38446 11267 36649 11432 9819 3295 24065 21168 6524 1613 19882 20507 9201 33683 13417 1705 5473 13033 9049 14409 3560 10211 1529 17276 19274 4763 8682 8935 1513 8762 12119 6289 1272 10987 6289 6789 19608 7417 1603 10801 384 6505 6661 995 16142 2872 1913 5949 2170 1659 7536 7180 3337 349
shrinkage=0.1


Tree=11
num_leaves=64
num_cat=0
split_feature=55 55 55 55 55 55 55 0 48 13 13 56 55 55 4 13 40 48 56 49 50 10 50 4 36 51 0 9 50 58 56 48 6 7 35 58 38 49 55 0 61 4 47 58 13 8 57 56 48 49 6 2 56 56 0 4 47 49 49 55 40 6 2
split_gain=6.61615e+06 1.40082e+06 1.03624e+06 230431 206914 191380 155747 99241.7 84789.5 76996.2 67117.1 55136 43065.2 41124.2 38959.5 33961.8 32173.3 32605.6 31308.7 30015.5 29915.2 29325.8 28124.4 27831.8 26400.3 25542.6 25038.2 23149.1 22822.6 26654.6 22766.5 29466 22580.7 22506 22206.6 21971.8 21388.8 20662 20514.5 20415.6 19588.3 19147.1 29879.7 25025.3 18873.3 18513.3 18389.7 18278.7 18316.1 17629.8 19363 19462.8 17574 17360.4 17203.9 17161.4 16888.7 16504 16269.2 16197.5 15857.8 15780.8 15731
threshold=1953.3484848484852 1930.86405529954 1976.0277777777803 1994.5227272727254 1916.1715686274549 1965.7638888888903 1944.6770833333351 3810.5000000000005 1.8430923153661503 1.0000000180025095e-35 1.0000000180025095e-35 3425.6423076923106 1905.0500000000002 1983.0500000000002 53974.500000000007 1.0000000180025095e-35 0.95914009922308419 2.4536202581021551 2127.2500000000005 986.30725442543212 1.8333221020799002 36.736592119664756 2.0410378665493054 26745.000000000004 6202.0166666666655 1560.0368587924602 33280.000000000007 1.5000000000000002 6.4130001711645006 290858.53571428551 5279.6875000000009 3.7383863493056402 1.5000000000000002 5.7596698128629908 1957.6072796934855 340825.01086956507 503526.70884255954 568.77048420832159 2009.7678571428553 54396.500000000007 0.00087320228001720702 696548.50000000012 3049.1379944930204 639227.62500000012 1.0000000180025095e-35 3.5000000000000004 2.5092592592592604 3714.9464285714307 1.6389597443317303 74660.779356280967 1.5000000000000002 2.5000000000000004 33459.083333333358 1747.8750000000002 1736.5000000000002 910428.50000000012 2142.9414422796704 799.98428019173105 1610.3845470769352 1937.5166666666653 0.9111719431583335 1.5000000000000002 2.5000000000000004
decision_type=2 2 2 2 2 2 2 10 10 8 10 10 2 2 8 10 8 10 10 8 8 2 8 8 8 8 10 8 8 10 10 10 10 10 8 10 8 8 2 10 10 8 10 10 10 8 10 10 10 10 8 10 10 10 10 8 8 8 8 2 10 10 8
left_child=1 4 5 13 12 8 7 11 18 23 20 15 -1 58 -7 37 17 -11 -2 -10 35 -21 -9 -6 49 -25 30 45 29 -16 31 46 33 47 -20 -8 -29 53 -5 -26 -13 43 -43 61 -14 -18 -27 48 -22 50 51 -24 -28 -3 -31 60 -48 -15 -4 -39 -34 -23 -30
right_child=2 6 3 38 9 14 10 22 19 16 -12 40 44 57 28 -17 27 -19 34 21 32 41 24 25 39 26 52 36 62 54 -32 -33 55 -35 -36 -37 -38 59 -40 -41 -42 42 -44 -45 -46 -47 56 -49 -50 -51 -52 -53 -54 -55 -56 -57 -58 -59 -60 -61 -62 -63 -64
leaf_value=-1.7383225022380426 0.18338366543596274 -0.54692278148853068 0.50396026715052578 1.5694108732889172 -1.5267143817092466 -0.074792606002329107 -0.28848450224277 -0.91182718995440615 -0.23068345926786127 -1.1854166073794186 0.26160084068225381 -0.51477547001900992 -1.3516667402017108 -0.21733243182137774 0.65301940119625224 0.11311280065734891 -1.1545842101379316 0.099696738627353759 -0.31835713878208793 0.68429292929693619 -0.17212930991849582 0.36852354850061064 0.41135888535948334 -0.45345682027903067 -0.39629963260396878 -0.85264678071949052 1.5244177848552214 -0.43986659533722516 0.57586736762357382 0.0060172772392326473 -1.2682196510755099 -0.54027597657097381 -0.20497943897311688 0.81593345087339453 0.052518361018931863 -0.85840726274169032 -0.90335426803671526 -0.5745138353033622 2.1034104499496333 1.4798116938024759 -0.91528377358731339 1.3058722757706136 0.42987654137714948 0.0091307009186072166 -1.0676608220499062 0.4259547889110093 -1.3517066763236207 -0.29354678650290839 0.086036302341263901 1.8588871067454076 -0.19005736559577302 -0.30222590874393279 -1.7391539140181109 -1.4871394439757373 0.45735623402784048 0.63022735855645606 -1.0040942849882109 1.1367618543164999 0.87577232909828329 -0.36171666939389091 -0.66814512269140314 0.089880078592481358 0.84678028060913246
leaf_weight=2389 7104 438 1302 5276 864 856 4321 374 885 241 4400 1758 8349 91 9193 1061 98 1092 3026 2545 4463 14922 1974 996 1742 5827 66 1482 3551 980 2405 1666 1761 293 3461 802 3034 5879 833 60 3999 429 4216 2817 3251 304 1849 2907 7152 58 1429 474 22 356 6110 171 5726 8274 12243 9135 1274 2353 5407
leaf_count=2389 7104 438 1302 5276 864 856 4321 374 885 241 4400 1758 8349 91 9193 1061 98 1092 3026 2545 4463 14922 1974 996 1742 5827 66 1482 3551 980 2405 1666 1761 293 3461 802 3034 5879 833 60 3999 429 4216 2817 3251 304 1849 2907 7152 58 1429 474 22 356 6110 171 5726 8274 12243 9135 1274 2353 5407
internal_value=0 -0.587092 0.587509 1.09912 -1.04228 0.37625 -0.266326 -0.429189 0.243485 -0.873668 -0.0964098 -0.525767 -1.3517 0.947696 0.588687 -0.434573 -0.568411 -0.132646 0.0383471 0.342467 -0.164473 0.361059 -0.0716082 -0.97192 -0.0168336 -0.94609 -0.97403 -0.686523 0.611188 0.540659 -0.982504 -0.936901 -0.103855 -0.0517822 -0.120484 -0.377705 -0.751253 -0.471332 1.64223 -0.333832 -0.792982 0.327804 0.510781 0.285503 -1.27207 0.0406493 -0.986205 -0.0692895 -0.0131624 0.128333 0.102444 0.273189 0.708525 -0.968481 0.394971 -0.344484 -1.08894 1.12203 0.840032 -0.445041 -0.399402 0.33057 0.739389
internal_weight=0 95942 95874 28019 39661 67855 56281 28737 41758 25672 27544 22626 13989 21910 26097 16869 6251 1333 13591 28167 23144 27282 6111 19421 5737 18557 17561 4918 25241 16283 17473 15068 18021 14815 6487 5123 4516 15808 6109 1802 5757 24737 4645 20092 11600 402 13402 14522 11615 3935 3877 2448 88 794 7090 3206 7575 8365 13545 15014 3035 17275 8958
internal_count=191816 95942 95874 28019 39661 67855 56281 28737 41758 25672 27544 22626 13989 21910 26097 16869 6251 1333 13591 28167 23144 27282 6111 19421 5737 18557 17561 4918 25241 16283 17473 15068 18021 14815 6487 5123 4516 15808 6109 1802 5757 24737 4645 20092 11600 402 13402 14522 11615 3935 3877 2448 88 794 7090 3206 7575 8365 13545 15014 3035 17275 8958
shrinkage=0.1


Tree=12
num_leaves=64
num_cat=0
split_feature=55 55 55 55 55 55 55 13 48 4 13 4 56 13 55 48 50 58 55 4 57 2 4 56 33 9 10 48 55 15 51 50 6 5 58 33 38 58 0 4 4 58 14 55 57 48 28 36 43 8 23 9 35 40 48 56 58 3 47 34 4 11 31
split_gain=5.36017e+06 1.01469e+06 941429 230766 152918 152000 125786 74100.3 68564.7 66608 50043.6 42677.2 41173 47556.1 38622.1 35539.3 32753.2 26303.1 25472 25344.1 25022.1 24819.3 24356.9 24465.8 24215 34298 23765.9 23459.4 22835.3 22835.3 22346.9 24763.2 22116.4 28846.9 23731.9 21975.1 20604.9 19369.6 19121.4 18996 18527.5 21278.3 18438.1 18289.4 17820.3 25167.6 17776.5 17675.1 17652 17648.6 17644.8 17287.6 17239.4 16997.5 16559.9 16413.7 15973.8 15827.1 15737.6 15354.8 15289 21469.3 15021.1
threshold=1951.8516483516453 1928.0238095238103 1973.0263157894751 1991.0833333333351 1940.5166666666653 1962.0131578947351 1913.0384615384603 1.0000000180025095e-35 6.0770322933508609 66997.000000000015 1.0000000180025095e-35 110933.00000000001 4900.2000000000007 1.0000000180025095e-35 1980.5192307692303 1.9962453836702854 1.8946662653335753 171723.96825396855 2004.4500000000003 413079.00000000006 3.6339712918660303 2.5000000000000004 24114.500000000004 2892.1600000000003 31682.000000000004 2.5000000000000004 36.756537433778206 2.5953853587463755 1902.0500000000002 4267.2113579966308 1809.2936942703452 0.86519498335649414 1.5000000000000002 3326.694421555691 340825.01086956507 24857.500000000004 657009.2665946281 152423.83333333352 2952.5000000000005 300001.50000000006 12145249.000000002 1344388.6666666653 7.5000000000000009 1923.5278637770903 3.4580419580419557 10.564749021903802 9.7254192840012426 6579.1835260115613 1.7470638886080105e-05 4.5000000000000009 1.4153492624748953 2.5000000000000004 1947.6548292584353 0.92575412515802469 4.6380575882725763 2464.2539682539655 309054.13333333354 3.5000000000000004 1983.1981709618201 292301.50000000006 324731.50000000006 -122.48593220433349 2.6161070292191053
decision_type=2 2 2 2 2 2 2 10 10 8 10 8 10 10 2 10 8 8 2 8 10 8 8 10 2 10 2 10 2 8 10 8 10 10 8 2 8 10 10 10 10 8 8 2 8 10 10 10 10 8 10 8 8 10 8 10 10 8 10 2 10 2 10
left_child=1 6 5 14 8 9 28 16 12 52 22 37 13 30 29 35 20 -13 -5 56 -6 42 -8 -24 49 -26 62 -15 -1 -4 -3 -32 33 34 -18 -11 58 -7 55 -36 41 59 -12 -23 -28 -46 -16 -44 -14 -10 -25 60 -2 -34 -43 -33 -19 -51 -21 -9 -29 -62 -17
right_child=2 4 3 18 7 11 10 40 24 15 21 17 48 27 46 26 32 19 -20 36 -22 43 23 50 25 -27 44 51 -30 -31 31 38 53 -35 39 -37 -38 -39 -40 -41 -42 54 47 -45 45 -47 -48 -49 -50 57 -52 -53 -54 -55 -56 -57 -58 -59 -60 -61 61 -63 -64
leaf_value=-1.655127737812488 -0.78427984838250708 -0.43235598653110313 -0.023205210552659145 1.27835385486409 -0.316282309162352 0.37113625932541283 -1.5382247850014199 0.82970142741710995 -0.70322596865951725 0.094452556342127778 -0.78334088543671676 0.73635925442052452 -0.55339172412321058 -0.53157037770505333 0.91048478151350332 0.45926663078566154 -0.078287567475474162 0.47771374222342866 1.6638261664964231 1.1344690997961904 -0.799234980544267 -0.83413328085905847 -0.80518853278669844 -1.0655635140557207 0.66119200686613722 -0.89048360799020831 0.39644333370593654 -0.29342977287843058 -1.2318876412258986 0.7148507818300891 -1.347270105980618 -0.53069319672291526 -0.20629479963479375 0.34771399432586303 -0.66409926828247157 -0.34817057797649587 0.44237315172919411 -0.0017148611283457713 -0.38037698339620118 -0.19980252133904564 2.902540349006653 -1.7166155325418171 0.39532803592405152 -0.419510028706301 0.099884082105244631 0.49239511351126808 1.4583072019212113 -0.78392025553537703 -1.0413560158013253 0.47572007693422891 -0.29244297635359845 -0.02699042364449435 -0.17558729633308406 -0.6401119695019184 -0.18505723477036012 -0.88681327327609949 0.26218032494135124 -0.20739927310814973 0.64335327340805382 0.18131557574565149 -1.7213303944338922 1.4869265904517048 1.1492539409977887
leaf_weight=1518 544 8085 430 4995 4759 2755 687 398 201 10701 341 3643 1134 761 9013 1652 11535 6337 2610 803 1385 3720 8232 9192 192 552 4600 97 7956 16700 503 2340 2243 1260 1369 1253 5455 2819 2274 2473 25 88 532 1490 9910 1956 634 167 2141 1232 305 1297 3216 1512 357 2896 7518 468 3481 4437 23 224 390
leaf_count=1518 544 8085 430 4995 4759 2755 687 398 201 10701 341 3643 1134 761 9013 1652 11535 6337 2610 803 1385 3720 8232 9192 192 552 4600 97 7956 16700 503 2340 2243 1260 1369 1253 5455 2819 2274 2473 25 88 532 1490 9910 1956 634 167 2141 1232 305 1297 3216 1512 357 2896 7518 468 3481 4437 23 224 390
internal_value=0 -0.559901 0.499094 0.924517 -0.29892 0.280889 -0.989985 -0.154541 -0.487175 0.133443 -0.871025 0.434677 -0.545575 -0.487719 0.786451 0.182457 -0.22275 0.48627 1.41065 0.447655 -0.425151 -0.626522 -0.954003 -0.931365 -0.00639782 -0.490051 0.269264 -0.0726534 -1.2997 0.696324 -0.549651 -0.668 -0.161767 -0.112291 -0.149984 0.0480575 0.571274 0.18257 -0.622505 -0.365243 0.186645 0.173786 -0.180499 -0.715556 0.229358 0.164586 0.946488 0.113591 -0.872394 0.182891 -1.04073 0.140166 -0.263653 -0.380977 -0.487927 -0.727661 0.360761 0.287661 0.735409 0.234688 0.770402 1.18818 0.591047
internal_weight=0 90401 101415 34382 56261 67033 34140 31841 24420 34222 24666 32811 21775 18500 26777 30462 26536 27237 7605 23594 6144 6250 18416 17729 2645 744 18508 2402 9474 17130 16098 8013 20392 16637 15377 11954 9739 5574 7510 3842 5305 5280 1040 5210 16466 11866 9647 699 3275 1901 9497 1641 3760 3755 445 5236 13855 1700 4284 4835 344 247 2042
internal_count=191816 90401 101415 34382 56261 67033 34140 31841 24420 34222 24666 32811 21775 18500 26777 30462 26536 27237 7605 23594 6144 6250 18416 17729 2645 744 18508 2402 9474 17130 16098 8013 20392 16637 15377 11954 9739 5574 7510 3842 5305 5280 1040 5210 16466 11866 9647 699 3275 1901 9497 1641 3760 3755 445 5236 13855 1700 4284 4835 344 247 2042
shrinkage=0.1


Tree=13
num_leaves=64
num_cat=0
split_feature=55 55 55 55 55 8 55 55 0 0 9 33 15 52 56 55 55 34 14 57 4 2 50 35 0 0 9 4 56 48 50 56 10 50 5 49 47 48 0 8 57 56 6 48 23 48 57 6 4 1 58 9 57 0 6 4 58 49 56 56 49 11 40
split_gain=4.35482e+06 1.04354e+06 546117 263005 136721 106413 82871.8 65788.4 63421.9 49767.8 44638.6 45870.9 42210.7 42198 40843.9 38557.3 34223.5 30329.1 27052.7 28132.8 26959.8 26165.4 26143.3 25595.1 23878.5 23678.3 23092.4 22795.8 22564.9 23013.4 22244.3 21735.6 21374.4 20489.2 20361.3 19897.6 21617.7 22593.7 19622.3 19353.5 19611.2 19154.2 19103.6 22685.7 18911.7 28424.6 23525 18759.3 18133.5 25399.8 22445.5 18094.4 17654 17610.5 17310.2 17143.4 17129.5 16429.8 20245.9 15998.9 15033 20850.3 15025.2
threshold=1946.7071428571451 1968.0263157894751 1924.0333333333353 1986.8166666666652 1957.0238095238103 3.5000000000000004 1934.0294117647052 1910.0238095238103 3450.5000000000005 1380.5000000000002 2.5000000000000004 31682.000000000004 4267.2113579966308 4.3241279538533357 3840.3750000000005 1995.6306818181804 1977.892720306515 7512951.0000000009 10.500000000000002 4.7171428571428562 85594.000000000015 2.5000000000000004 0.69654854122777665 1944.7189822755852 20801.000000000004 2320.5000000000005 6.5000000000000009 33943.500000000007 4329.5476190476211 1.5954695472066851 28.388603592961854 1356.2500000000002 36.736592119664756 0.65090580201712711 1718.441700728765 183052.84099687054 4461.2067832000312 5.7960391391139554 2777.5000000000005 8.5000000000000018 8.2613636363636367 1356.2500000000002 1.5000000000000002 1.5096308405301102 1.4153492624748953 4.4388159231463513 2.4751157407407405 1.5000000000000002 783399.00000000012 3.5000000000000004 538507.67857142864 6.5000000000000009 4.0889328063241104 3173.5000000000005 1.5000000000000002 29183.500000000004 212415.75000000003 3430.9665706146257 2012.5857142857151 11311.052631578952 6398.9247487183065 -122.45662683317148 1.0791153530409152
decision_type=2 2 2 2 2 10 2 2 10 10 8 2 8 10 10 2 2 2 10 8 10 8 8 8 10 10 10 8 10 10 10 10 2 8 8 10 8 8 10 10 10 10 10 10 10 10 10 10 8 10 10 10 10 8 10 10 10 10 8 10 8 2 10
left_child=2 4 7 12 8 6 44 -1 14 31 17 18 41 20 27 -5 57 24 19 25 -13 26 56 62 -7 -12 -9 -2 29 -24 -30 -6 -11 -23 -35 36 60 59 -19 52 51 -3 43 -29 46 -46 -4 -22 50 -50 -34 -41 53 -36 -31 -48 -8 -14 -59 -38 -10 -62 -16
right_child=1 3 5 15 9 10 22 21 35 32 11 13 16 -15 23 -17 -18 38 -20 -21 47 33 28 -25 -26 -27 -28 42 30 54 -32 -33 48 34 39 -37 37 -39 -40 40 -42 -43 -44 -45 45 -47 55 -49 49 -51 -52 -53 -54 -55 -56 -57 -58 58 -60 -61 61 -63 -64
leaf_value=-1.247590422159065 -0.48816781185755248 0.76739484994660978 -0.54003716142974967 0.97735893237537685 0.34345812901991091 -0.37090574080293831 -0.53906474297186113 -0.70520436855214363 0.24583464952596171 0.56241586393334764 -0.48946683078794601 -1.7271175439908821 0.47273496668397108 -0.88605777993843826 -0.61070854420251008 1.3567031918462922 0.7657093783824378 -0.23911040277208812 0.42346269715839269 -0.39419743141059355 -0.024117612350480037 -1.4268128133921887 -0.44315049223334224 -0.21741068623188109 0.93419444601187562 0.17878775833879448 0.1361238296853729 -0.12282060859412654 -0.66047252750798457 -0.15098939501828049 0.48867173457944868 -0.16977961226141924 0.30173605114717839 -0.35678762366725986 -0.96691117481409883 2.028530695169203 -0.059903684817187136 0.29464166096854982 0.98284933732544211 0.64418006506434256 -0.97955536613493788 -0.23430230017657086 -0.23999920974125391 0.11455348330435311 -0.70788593570019109 0.56598225387459256 -1.4850346284661049 -2.0302685039738817 1.2513498146987132 0.40004348769789505 0.072291937161794245 -0.50306507811111512 -1.1186240404216272 -0.68469363521617777 -0.4914723516768027 -0.78649164831383889 -1.3956278602039751 1.1267628009403265 0.60653822521655376 -1.3358952747241966 1.6489190314204323 0.54253154335273324 -1.6142148557705778
leaf_weight=6289 1022 248 4920 5106 1090 660 608 1695 1079 3045 664 106 11190 1635 980 5638 12382 162 953 2634 1611 753 6698 3333 178 2632 404 6085 2858 9030 179 3396 20359 678 7374 62 2137 3233 696 163 810 829 2958 11899 427 297 369 48 389 3539 5393 878 4516 3158 1789 7335 379 804 10758 103 218 779 176
leaf_count=6289 1022 248 4920 5106 1090 660 608 1695 1079 3045 664 106 11190 1635 980 5638 12382 162 953 2634 1611 753 6698 3333 178 2632 404 6085 2858 9030 179 3396 20359 678 7374 62 2137 3233 696 163 810 829 2958 11899 427 297 369 48 389 3539 5393 878 4516 3158 1789 7335 379 804 10758 103 218 779 176
internal_value=0 0.375904 -0.603961 0.741935 0.134767 -0.398273 -0.486566 -0.964773 -0.00998875 0.267281 -0.141119 -0.219516 0.61302 -0.520025 -0.0831793 1.17642 0.631923 0.334208 -0.0710726 -0.150549 -0.180952 -0.877709 -0.365245 -0.358037 -0.0936888 0.0441637 -0.543272 -0.027004 -0.341104 -0.297477 -0.592742 -0.0450741 0.310099 -0.916006 -0.894123 0.244394 0.229741 0.125519 0.75213 -0.915681 -0.610551 -0.00364223 -0.00449858 0.0342365 -0.682353 -0.185318 -0.710858 -0.0821618 0.284213 0.484351 0.253686 -0.323429 -0.953214 -0.882289 -0.207291 -0.81995 -0.867978 0.559114 0.642714 -0.118577 0.504505 0.78445 -0.763492
internal_weight=0 118230 73586 46955 71275 46868 34889 26718 34064 37211 11979 10283 36211 3400 26453 10744 35134 1696 6883 5930 1765 20429 21541 4489 838 3296 2099 21964 20554 17517 3037 4486 32725 18330 17577 7611 7549 5473 858 16899 1851 1077 20942 17984 13348 724 12624 1659 29680 3928 25752 1041 15048 10532 10819 7704 987 22752 11562 2240 2076 997 1156
internal_count=191816 118230 73586 46955 71275 46868 34889 26718 34064 37211 11979 10283 36211 3400 26453 10744 35134 1696 6883 5930 1765 20429 21541 4489 838 3296 2099 21964 20554 17517 3037 4486 32725 18330 17577 7611 7549 5473 858 16899 1851 1077 20942 17984 13348 724 12624 1659 29680 3928 25752 1041 15048 10532 10819 7704 987 22752 11562 2240 2076 997 1156
shrinkage=0.1


Tree=14
num_leaves=64
num_cat=0
split_feature=55 55 55 55 55 4 13 55 55 13 55 49 50 36 49 40 58 48 1 48 56 58 4 49 58 4 33 55 50 58 53 10 26 55 13 34 0 56 10 0 50 6 2 48 56 48 35 4 58 0 4 49 57 4 0 42 27 48 2 48 9 7 61
split_gain=3.53985e+06 758310 555297 147094 142025 89566.3 88291.5 70205.7 57139.3 50446.2 33862 30534.6 24579.9 25440.2 24426.1 22809.1 22799.9 22510.2 21425.8 21190.5 25609.4 20943.5 21372.3 20934.4 20585.4 20554.1 20364.8 20264.6 20239.9 28307.6 20146.6 18267.3 18198.8 17992.9 17758.6 20649.5 18035.5 18156.5 17192.9 17177.5 16812.1 16619.3 17521.7 21477 16562.4 16475 16419.6 15886.5 21918.7 18695.4 15358.5 15251.8 14829.3 14746 14550.8 13991.9 13888 13446.3 13308.3 13221.3 13087.8 17241.2 17253.7
threshold=1953.3484848484852 1933.4722222222201 1974.0312500000002 1919.1937500000001 1992.0714285714303 65460.500000000007 1.0000000180025095e-35 1963.3273809523803 1944.6770833333351 1.0000000180025095e-35 1907.6306818181804 2117.0534453950304 1.6250332464760404 6436.8959706959713 124530.19264277202 1.0158792929855303 367922.91666666657 2.2155596962249953 2.5000000000000004 9.1917560537684171 4329.5476190476211 65331.233333333359 36299.000000000007 6110.8271524120164 256797.12500000003 321615.00000000006 24857.500000000004 1981.0416666666654 4.4737450333237705 277175.36538461555 15.5666393757768 37.776214823690907 1.8090066716381401 2007.3730769230754 1.0000000180025095e-35 1433950.0000000002 3845.5000000000005 3765.3809523809505 36.431697380923005 3717.5000000000005 2.6062099004903554 1.5000000000000002 2.5000000000000004 2.5804055986710153 1937.6750000000002 10.564749021903802 1931.7701834326404 711219.00000000012 270420.13541666657 2142.5000000000005 80856.000000000015 986.30725442543212 5.7303030303030313 1618327.5000000002 2661.5000000000005 0.01412733457912165 833.55075289454601 2.0833227407232506 1.5000000000000002 1.9618819411463402 1.5000000000000002 3.8140563845739006 0.0011443310388558352
decision_type=2 2 2 2 2 8 10 2 2 10 2 8 8 8 10 10 8 10 10 10 10 10 10 8 10 10 2 2 8 10 8 2 10 2 10 2 8 8 2 10 8 10 10 10 10 10 8 8 10 10 10 8 8 10 8 10 8 10 8 10 10 10 10
left_child=1 3 5 10 11 21 8 17 19 14 -1 24 -11 30 16 57 25 26 23 20 40 -2 -23 38 56 46 -7 -13 29 -10 41 -28 47 -6 -12 36 -36 -38 -19 -27 -3 42 43 -14 -34 58 -5 48 -9 -50 -26 -18 -45 -30 -53 -31 -4 -8 -20 -42 61 -37 -63
right_child=2 6 4 9 33 7 15 32 28 12 34 27 13 -15 -16 -17 51 18 45 -21 -22 22 -24 -25 50 39 31 -29 53 55 -32 -33 44 -35 35 60 37 -39 -40 -41 59 -43 -44 52 -46 -47 -48 -49 49 -51 -52 54 -54 -55 -56 -57 -58 -59 -60 -61 -62 62 -64
leaf_value=-1.2107469307898151 0.26297819490037061 -0.45550495227629706 -0.63396459381604942 -0.86600749239142771 1.089463035367334 0.12914961315146287 -0.20900295776791641 0.4581723643550194 -0.1129139836167864 -1.1234595341404361 -0.94684713777847718 0.6305947065189339 -0.49871421961765333 -0.58558656792840447 1.7811098342136731 -0.068985867975414492 -1.3232238640416902 0.90125787687901604 -0.1951487871336075 0.30834559087830959 -0.63974854027583961 -0.64299601537694873 -0.11481766090537854 0.83416775090262929 -0.70570849393095292 -0.44149401470740068 -0.12239915600727885 0.83549846794574434 -0.023301779493790677 -0.21685058853013015 0.35357394794015579 -1.1423125702976051 1.3391690387850457 1.50602810150064 -0.74325274425343835 -1.0149428532581137 1.0874980624951422 -0.3565881219755917 0.24339238440586974 0.24922916278450025 -0.35881518983747734 -0.85650829861303424 -0.64947416151537463 0.30364667826823977 0.54584412218209699 0.42516295539020804 -0.56396389077964149 0.55125564912350999 0.043206627671183516 0.32503016597715928 0.23831082612826537 -0.92966748685875267 -0.52451988176204434 0.88849682962336685 -0.64009842124087546 -0.61007399831197973 0.57787026395749874 0.31330201526134471 0.17662940297001678 -0.13321542260688957 -0.85194930941064717 1.5669924186042898 -1.1123224533656064
leaf_weight=3889 978 5894 97 2395 5792 12179 553 8566 10456 366 10564 12228 689 1838 41 3731 513 457 1086 472 2973 1040 2909 1074 210 1801 1047 7974 8840 1625 695 211 283 1263 312 99 160 191 3039 450 5108 385 576 1335 3754 2448 7242 4130 3234 8649 961 2941 258 181 4233 2042 3775 4535 8490 5286 3157 82 34
leaf_count=3889 978 5894 97 2395 5792 12179 553 8566 10456 366 10564 12228 689 1838 41 3731 513 457 1086 472 2973 1040 2909 1074 210 1801 1047 7974 8840 1625 695 211 283 1263 312 99 160 191 3039 450 5108 385 576 1335 3754 2448 7242 4130 3234 8649 961 2941 258 181 4233 2042 3775 4535 8490 5286 3157 82 34
internal_value=0 -0.429434 0.429738 -0.733319 0.767376 0.258195 -0.169341 0.292598 -0.228611 -0.578848 -0.948534 0.656524 -0.32875 -0.278393 -0.657156 0.118818 -0.662263 0.185796 0.263703 -0.35363 -0.369852 -0.151315 -0.253918 0.448018 0.436404 -0.575479 0.0895835 0.711473 -0.122017 -0.196756 -0.135015 -0.293466 0.404682 1.16404 -0.878684 -0.700226 -0.190051 0.301685 0.329389 -0.303411 -0.320589 -0.239724 -0.156637 -0.0322401 0.601457 0.19365 -0.639028 0.372363 0.336233 0.248331 0.0690162 -0.796475 0.169518 -0.00500718 -0.758808 -0.43582 0.547512 0.256534 0.134467 -0.244084 -0.800536 -0.0456043 0.781676
internal_weight=0 95942 95874 44246 32300 63574 51696 58647 42877 25758 18488 25245 6142 5776 19616 8819 19575 30031 16594 19733 19261 4927 3949 4570 5043 11888 13437 20202 23144 14123 3938 1258 28616 7055 14599 4035 663 351 3496 2251 16288 3243 2858 2282 4037 12024 9637 24579 20449 11883 1171 7687 1593 9021 7174 3667 3872 5088 9576 10394 3372 215 116
internal_count=191816 95942 95874 44246 32300 63574 51696 58647 42877 25758 18488 25245 6142 5776 19616 8819 19575 30031 16594 19733 19261 4927 3949 4570 5043 11888 13437 20202 23144 14123 3938 1258 28616 7055 14599 4035 663 351 3496 2251 16288 3243 2858 2282 4037 12024 9637 24579 20449 11883 1171 7687 1593 9021 7174 3667 3872 5088 9576 10394 3372 215 116
shrinkage=0.1


Tree=15
num_leaves=64
num_cat=0
split_feature=55 55 55 55 49 8 55 55 55 4 0 56 55 0 56 50 0 6 35 58 4 56 48 0 57 28 64 9 34 34 7 33 38 1 5 61 50 48 58 14 60 28 58 7 13 56 0 1 57 53 51 0 58 6 55 9 0 36 35 19 26 56 50
split_gain=2.8701e+06 708894 348425 180497 96251.7 72454.3 59393.1 51472.6 41807.9 40019.8 35330.6 41297 33189.8 32790.6 32974.3 31647.7 29601.3 29154.2 28587.7 27449.2 28242.9 24473.4 22367.1 21915 21639.6 19408.7 19391.9 19030.6 23408.4 22765.1 18735.8 18315.3 18102.2 18021.5 18857.2 18374.5 17900.1 17865.1 17667.3 17510.9 17482.4 16833.5 16799.9 15617.2 15426.2 14987.6 15880.9 14924.4 23653.4 16902.3 16449.2 14758.8 17489.3 13855.1 13812.8 13700.7 34227.2 17228.6 13515 13466.5 13453.9 13058 13041.6
threshold=1946.0454545454552 1967.5242424242404 1923.5278637770903 1985.0277777777803 2095.3937722815003 3.5000000000000004 1955.0357142857154 1934.5227272727254 1909.3875000000003 33943.500000000007 54396.500000000007 8596.9166666666661 1998.5833333333351 1736.5000000000002 1759.9166666666654 1.1840160629580501 2850.5000000000005 1.5000000000000002 1951.0808631211853 167877.98333333354 249958.50000000003 2071.3142857142852 7.356135642830651 1184.5000000000002 2.5092592592592604 6.6835319347638205 1.6195238095238103 2.5000000000000004 7515650.0000000009 5313650.0000000009 2.8469589757405402 9886.5000000000018 114986.72279549752 8.5000000000000018 1857.4597628372651 0.00090016005854491609 0.93602354218631667 1.9541431855261553 403484.21935483854 7.5000000000000009 0.8886314246379281 1.7323377199269052 39251.750000000007 2.0730514170481302 1.0000000180025095e-35 25755.166666666653 10296.500000000002 3.5000000000000004 3.8908730158730154 6.3894187350925007 1664.5041413994252 38604.000000000007 659285.91666666663 1.5000000000000002 1974.0312500000002 3.5000000000000004 3555.5000000000005 4672.3700483091807 1947.3642050656101 0.92553605192233857 1.7356538014292953 38857.500000000007 225.01133271820802
decision_type=2 2 2 2 8 10 2 2 2 10 10 8 2 10 10 8 10 10 10 8 8 10 10 10 10 10 8 8 2 2 10 2 8 10 10 10 8 8 10 8 8 8 10 10 10 10 8 8 8 8 8 10 8 10 2 10 10 8 10 10 10 10 10
left_child=2 4 8 13 9 7 16 33 -1 42 11 15 -5 14 -3 -7 21 27 38 60 -21 -6 -19 -20 -9 32 -26 28 -17 30 -29 -22 59 34 43 -36 -10 -30 -11 -32 -31 -16 -2 -4 -28 46 -13 50 49 -49 -38 52 -18 -23 -34 56 -33 -58 -44 -15 -8 -12 -59
right_child=1 3 5 12 6 10 19 24 36 18 61 45 -14 25 41 17 51 22 23 20 31 53 -24 -25 26 -27 44 29 37 40 39 55 54 -35 35 -37 47 -39 -40 -41 -42 -43 58 -45 -46 -47 -48 48 -50 -51 -52 -53 -54 -55 -56 -57 57 62 -60 -61 -62 -63 -64
leaf_value=-1.0404492862602985 0.1644412704981888 0.57018760044450889 -0.46010591807979034 0.79907929300778691 0.10005450351507134 -1.0255461153260039 0.41608716828632003 -0.20475897440145752 -1.0588877096104314 -0.17533371368065129 2.2672036902535533 -0.82456407213037142 1.1389150989586847 2.1645132509725435 -0.42177282524517684 -0.067538368342627067 0.23952222453411687 -0.55064859322745641 -0.18873057068524834 0.042327247721573404 0.41782625286412822 -0.11913518617168564 0.28900243025736433 0.10277080552730861 -0.51163772306096278 0.82657930705963034 -0.27079413686425652 -0.068720619511138309 -0.88161034035795149 0.4144189017077724 -0.48134852390471705 0.17002916091795009 0.41717015048738953 0.25340746385555202 -0.50447895860393555 -0.79137391974861204 -0.30315759828721989 1.0417149410856996 -0.71213964321531487 0.55831205881551627 -0.24771526820232467 0.17245961524018749 -1.334591672152281 0.26131213742562315 0.55204519202491376 -1.5895962855931538 -0.21396829361372341 -0.59635072674112333 -0.70832813345614987 -0.069605455850270573 -0.81313461218978123 1.0708107067778221 -0.13178385249888866 -0.48669483022725829 0.55796992293032333 0.11267254943057065 1.1148003417586063 0.42066688207736935 -0.53253368712801741 0.69337018843208043 0.89713903511126003 -0.37767514772713184 2.0788985944524105
leaf_weight=5376 293 2206 5058 7642 5265 326 3431 10572 1506 3507 84 781 4606 112 565 479 6306 1505 3467 6677 6501 5550 402 10070 6380 1988 2681 1335 53 455 183 5062 12462 274 4276 4671 676 544 743 1412 3226 3051 250 319 249 134 937 1247 6009 1191 9823 184 1588 1258 15803 6779 578 1479 1316 140 700 24 49
leaf_count=5376 293 2206 5058 7642 5265 326 3431 10572 1506 3507 84 781 4606 112 565 479 6306 1505 3467 6677 6501 5550 402 10070 6380 1988 2681 1335 53 455 183 5062 12462 274 4276 4671 676 544 743 1412 3226 3051 250 319 249 134 937 1247 6009 1191 9823 184 1588 1258 15803 6779 578 1479 1316 140 700 24 49
internal_value=0 0.300485 -0.497955 0.594899 0.09921 -0.333973 0.171161 -0.407355 -0.792295 -0.0890626 -0.120995 -0.137513 0.926878 0.482969 0.265494 -0.0565846 0.0372938 -0.0236597 -0.0429213 0.257467 0.220895 -0.0618467 -0.373648 0.0281135 -0.302661 0.524475 -0.413833 0.0631658 0.453175 -0.000311758 0.207682 0.279204 0.503414 -0.549944 -0.565311 -0.654259 -0.727065 0.870967 -0.26918 0.439028 -0.16587 0.0796108 -0.530544 -0.417307 -0.200867 -0.570993 -0.491544 -0.700689 -0.601739 -0.339028 -0.780299 0.185465 0.164828 -0.187054 0.495891 0.21459 0.310976 0.649756 -0.660576 1.34721 0.497602 1.67945 0.473843
internal_weight=0 119628 72188 48575 71053 46360 51407 34480 25828 19646 11880 11772 12248 36327 5822 9920 20151 9594 17787 31256 27125 12073 1907 13537 19882 30505 9310 7687 1076 6611 2930 20448 28517 14598 14324 8947 20452 597 4250 1595 3681 3616 1859 5377 2930 1852 1718 18946 8447 2438 10499 8078 7894 6808 28265 13947 7168 2106 1566 252 4131 108 1528
internal_count=191816 119628 72188 48575 71053 46360 51407 34480 25828 19646 11880 11772 12248 36327 5822 9920 20151 9594 17787 31256 27125 12073 1907 13537 19882 30505 9310 7687 1076 6611 2930 20448 28517 14598 14324 8947 20452 597 4250 1595 3681 3616 1859 5377 2930 1852 1718 18946 8447 2438 10499 8078 7894 6808 28265 13947 7168 2106 1566 252 4131 108 1528
shrinkage=0.1


Tree=16
num_leaves=64
num_cat=0
split_feature=55 55 55 55 55 0 13 55 55 14 56 50 55 4 34 33 4 13 28 57 58 0 1 52 6 7 56 49 35 56 6 58 48 50 4 58 4 58 58 56 4 53 4 48 60 56 0 34 50 48 49 4 50 47 63 47 48 44 13 33 0 6 9
split_gain=2.33222e+06 515557 357010 98771.4 76806.6 74944.8 65400.6 48214.3 40789.8 37412.5 34780.9 28966.8 22636.8 21130.4 20982.3 20835.5 20526.3 20229.6 19283.3 19108.7 18289.4 22534.2 28443.3 18236.1 18203.5 17219.9 17102.6 16925 16603.4 16958.4 16296.5 16169.2 19516.6 16152.1 16093.8 17388.6 15898.5 16826.8 15682.3 15423 15317.7 15024.8 14293.2 14241.1 14043.1 13974.3 19428.1 13922.8 13843.4 13666 13512.9 13354.8 12982.8 12888.3 15215.6 12629.6 17280.2 19071.5 12441.5 12676 13775.4 15505.4 12545.8
